{"weights": [0.0, 0.0, 0.0, 0.0, 0.0, 0.0, 0.0, 0.0, 0.0, 0.0, 0.0, 0.0, 0.0, 0.0, 0.0, 0.0, 0.0, 0.0, 0.0, 0.0, 0.0, 0.0, 0.0, 0.0, 0.0, 0.0, 0.0, 0.0, 0.0, 0.0, 0.0, 0.0, 0.0, 0.0, 0.0, 0.0, 0.0, 0.0, 0.0, 0.0, 0.0, -3.9801152649301352, -3.9801152649301352, -5.980115264930135, -2.0, 0.0, 0.0, 0.0, 0.0, 0.0, 0.0, 0.0, 0.0, 0.0, 0.0, 0.0, 0.0, 0.0, 0.0, 0.0, 0.0, 0.0, 0.0, 0.0, 0.0, 0.0, 0.0, 0.0, -1.998001998001998, -7.978117262932133, -9.950503850703337, -11.950503850703337, -9.962638540241684, -9.962638540241684, -7.9626385402416835, -9.962638540241684, -15.95625422909305, -15.95625422909305, -9.964234284929537, 0.0, 0.0, 0.0, 0.0, 0.0, 0.0, 0.0, 0.0, 0.0, 0.0, 0.0, 0.0, -3.9920199441635136, 0.0, -12.915036293033872, -10.928938974265252, -18.9110581780208, -28.814420953258452, -26.80673185959242, 4.993658422048506, -4.966774350951798, -33.729469889021296, -7.976437328022723, -3.9822940907394835, -51.780212767491314, -41.82379029873139, -31.90681596880434, -17.92477009444737, -4.0, -2.0, 0.0, 0.0, 0.0, 0.0, 0.0, 0.0, 0.0, -5.998001998001998, -5.998001998001998, -5.992019944163514, -7.95075718743656, -4.978539223471066, -26.79498731796382, -24.81873629329388, -2.964871051955019, -40.74518063259982, -12.865605439949181, -28.780728475820048, 30.810035220634273, -13.052593560363931, -2.063462790953895, 18.818195225322874, -26.74684243281069, 1.0508154413613386, 4.983719559541873, -3.9585045003849766, 1.9074362771403035, -4.03120653253507, -17.851617879176242, 0.0, 0.0, 0.0, 0.0, 0.0, 0.0, -5.998001998001998, -5.998001998001998, -12.003924623396891, -13.946765171468495, -8.065230321896703, -37.767106556353454, 1.9561686077346363, -21.83671798650794, -17.87370774558646, 43.734293716324046, 18.01712027803513, 9.970464627117234, -1.0093687467325223, 18.88907032012216, -1.9542808107862153, -5.909152575290763, 13.871460085118347, 2.0826586698403653, -8.946323264273849, -9.009316922242697, -27.882792838835346, -19.851617879176246, 0.0, 0.0, 0.0, 0.0, 0.0, 0.0, 1.9840558047014138, -2.0159441952985864, -13.999932607428827, -17.972380581699287, -26.842184809592027, -4.937095076597812, 12.912924237470065, -9.011672731867304, -27.936084772297367, -7.939028095274068, -41.73281482429585, 8.950475116695577, 11.076425885527597, 12.901263168251656, -44.805813216845074, 3.980789103527147, -33.77617542179831, 7.0236633058702775, 36.74328333829557, -32.88451029630887, -43.81185148157097, -43.72112463476232, 0.0, 0.0, 0.0, 0.0, 0.0, 0.0, -13.936995120764374, -12.003924623396891, -16.00392462339689, -24.980117027147198, 10.898869490407215, 8.923411487727346, 20.79295492813045, -18.097691970178698, 3.8520768780716277, 29.733506233315484, 31.839837668687334, 9.948053376982188, 7.088360020876086, 13.056864495894164, 12.959600004376437, 23.90251590874055, -25.02214361538575, -5.036896316364876, 6.925056376648898, -19.804623433981092, -43.733165239104885, -29.808056283620925, 0.0, 0.0, 0.0, 0.0, 0.0, 0.0, -19.873951009541848, -19.940880512174367, -19.9741608093193, -37.79673061951335, -18.989844222572493, -54.78580185731311, 11.798904883024248, 13.762975455519108, 11.839934265719767, -3.9053760442122827, 17.90846567742418, 9.940496241208578, 19.940257096783085, 29.849178033098276, 9.06532265598557, 12.982023128615676, 12.774615163131973, -7.975929209208054, 6.017803426041228, -33.88115900280618, -4.025291978804075, -29.796469499778798, -5.974247350995339, -5.974247350995339, 0.0, 0.0, 0.0, 0.0, -17.934957886779475, -21.92139007028707, -23.89766956983733, -7.935217012192162, 8.755937270792941, -5.129566644436592, -5.8402529563667525, -27.819707658446465, 0.07053155460348126, -25.88558226905692, -22.999276711683518, 0.004226085986180461, 10.956943897360345, -22.808434471263773, 21.055133852658823, 3.1165194148881743, -6.982403494318461, -53.53771129344693, -3.8895352655372024, -7.909357730846867, -0.0492186663215346, -29.739459526148526, -5.974247350995339, -5.974247350995339, 0.0, 0.0, 0.0, -4.0, -19.89959442901916, -0.0010013830901320908, -33.729755094402876, 17.753094711162497, 3.818682994071862, -16.05135312589375, -13.997355134425003, -1.9530607551896702, -2.0959332488306086, 5.934699669780846, 19.00087754887295, -42.78834536970536, 3.9823369416741934, 21.85354777189115, 19.896944762903498, -3.032730832951844, 3.122396268380547, 41.790438065599496, 12.056506322113652, -1.9842518686782769, 7.905143385990318, -13.873737169383682, 0.0, 0.0, 0.0, 0.0, 0.0, -4.0, -25.875693998934416, 5.952247476574177, -7.9010864647425105, 23.826069244790567, 7.733713342368533, 13.94061883333216, 15.861542353358221, 29.760772479390567, -21.859472330016047, 13.963326194570058, 4.914750295257447, -20.94193739878206, -2.998115823291912, 39.66851671599827, 9.989483640126405, -3.0532322508592817, 40.85763271630173, 28.804157873244485, 23.99708369596071, 43.76012984529975, 3.999658634220968, 5.974022351103494, 2.0, 0.0, 0.0, 0.0, 0.0, -5.990049751243781, -29.851915532271597, 17.985406163603198, -0.041085685895158264, 15.871474799404302, -5.952862278259358, -23.839789214363883, -43.64078309305798, 9.930943422714648, -16.913768412357005, -29.79304170822956, -27.90134693058509, -13.126451050288477, -34.950118703915294, -18.952304246947204, -5.985158355375631, 18.90511155598184, 32.871767178894494, -40.79951190828524, 27.90707249099179, -3.916949850433842, 0.013775533330603995, 5.9427129427241185, 2.0, 0.0, 0.0, 0.0, 3.9683164574901975, -19.897174245288106, -5.986002739264768, 15.907320283013478, 37.7416029182776, -17.844212555708854, 15.949930364464608, 21.996611215451573, 2.038809143387692, -19.753440668177358, -12.77597898220364, -44.68440691480798, -39.924688546615094, -63.91390276418449, -12.247999729481448, -8.985972675565517, -18.946458572208368, -31.875522919352687, -7.029123326031996, 4.872050307397679, 6.073550260579967, 21.911463663843236, -17.792214617953803, 5.9427129427241185, 2.0, 0.0, 0.0, 0.0, 0.0, -23.88723179484688, -5.978024347524618, 45.73727932583031, 35.71980571547403, 14.056737752705166, 21.956181181199106, -15.97583380158054, 13.897235384450083, 9.965919547895243, 11.828200236330902, 18.714809286674775, -80.59894847783335, -40.03752538334912, -31.98606774397236, -4.079113052752392, -17.912561517279105, -35.83935880817287, -3.9797266859385183, -13.01322362275184, 13.94103018396022, 0.048110807022164526, -15.793966564983647, 5.936730888885634, 0.0, 0.0, 0.0, 0.0, 0.0, -5.976431643890173, 5.9367139500226145, 19.985938840154375, 17.905535360017332, 69.64241830106803, -20.836988842795847, 56.57148402995279, 18.837687884289107, -9.08089276460012, 18.879109428712862, 2.9004424394528567, -119.41258960311937, -50.86361390785471, -38.85217558244945, -15.944763043806313, -17.89591798539696, 0.9605995297656178, 9.901753104551677, 1.9188827517922817, 27.834485350633173, -9.884912086339416, 27.893852482931834, -0.035467665817890515, 0.0, 0.0, 0.0, 0.0, 0.0, -5.995773390859194, -23.839904070553498, 8.012121751410216, 21.917085952511712, 25.870821825130285, 27.905556063792275, 23.944887577289748, -7.9898036116616264, 7.877841927585633, 32.73282806687839, -100.6157868736388, -98.55145734445121, -42.905357191027385, -4.024436042650952, 3.0292558698421623, -13.867760158654661, -26.83983704045806, 1.9489484348437478, -23.767003610698794, 6.021294394984151, -1.8972306010695759, 17.83636067464049, -0.035467665817890515, 0.0, 0.0, 0.0, 0.0, 0.0, -19.90669193958171, -7.921045502680892, -7.957595728699085, 25.942566933659958, 8.09919300366106, -11.9081955212857, 47.81991788041804, 28.895422324307788, 43.77665337091513, 2.964295748855035, -70.75620353954396, -25.16716933350622, -17.161254679449133, -22.87569049975766, -25.869782835635302, 14.947688155878142, -4.99668206796116, 10.97055936725474, -34.746996677210994, 5.999874005631259, -17.902865158368844, 17.798781368191207, -27.843644798585128, 0.0, 0.0, 0.0, 0.0, -2.0, -17.954291647400726, -45.748660619075956, -2.1076393351136127, 21.861989839707253, 23.958349279724025, 2.1202614817780163, 16.943221150802366, 17.071050796707244, -7.9422158916075, -15.919357169534772, -40.06045953599364, -66.79561798592034, 3.9398840771205292, -8.041164531217701, 8.029108705671876, 28.805913390737373, -30.78656065994723, 13.903058096633773, 6.948565787315902, 2.0571203684521797, -33.82785159707097, -10.06648327948277, -4.029345631473533, 0.0, 0.0, 0.0, 0.0, -2.0, -35.81366969030072, -27.906446013333657, -4.0663571572795085, 46.7624059557614, 27.91270966563404, -21.839643604194446, 1.974760044921072, 76.56892138868106, 10.919585691306938, 0.9959333591002411, -5.116060117759181, -40.778961465827514, -6.911224962368465, -59.539481239420915, -32.833812691858036, 4.8836522248536145, 6.959851886881681, -26.857563677818835, -12.95417292090735, 3.826552170370471, -23.916554581511406, -19.918490782945824, -4.029345631473533, 0.0, 0.0, 0.0, 0.0, -2.0, -17.93450533619165, -15.940734593967354, 7.807353530989332, 11.867337738844602, -1.8191747018267197, 8.01268231628135, 15.895416993280552, 50.811861247651656, 13.043788758454102, 24.983763794702195, -9.936549754629256, -3.09846168868252, -5.0200233219468, -16.866671381162142, -24.888123460531734, -24.877738974759126, -22.88910924533851, -44.78204853775571, 19.79835805715007, -11.994091658322386, -23.9127649968585, -23.904650778414677, -1.972292569012173, 2.0, 0.0, 0.0, 0.0, 0.0, -7.968249839067356, -8.017781418876211, -13.965763285287178, -21.854943177278837, 2.0198243980522013, -3.0709332770807767, -24.879007241250573, -4.915137394153643, 22.865451236989447, 9.009520313280301, -32.85523184631224, -24.826252776914085, -12.949192740929695, -10.937126237532572, -63.521946666311784, -5.049296249674596, -5.007836640357143, -21.938378034773233, -14.007763963570147, -2.053403740022215, -23.906943759061654, -11.960159654698979, 2.0, 2.0, 0.0, 0.0, 0.0, 0.0, 1.9663109375399435, 19.862804008990807, 33.786158102545166, -9.875675612661285, -14.776804331722426, 20.87531830990683, 41.67201203876617, -10.989131204160037, 28.67283843157357, -22.703444421952135, 34.79442090051921, 11.018686415303952, -3.9215367814477218, 12.007327903734469, -16.968097779014585, 10.770798601780433, -23.914763241252217, 13.918635014725478, 3.9566336421520054, -5.994102965547485, -21.863723113713103, -19.889086146507506, 2.0, 2.0, 0.0, 0.0, 0.0, 0.0, 0.0, -12.921103144108088, 20.78795446987297, 4.9188250745319735, -20.85417521350194, 22.89436992986121, 12.993204029519466, 36.839451041783974, 19.97001883969977, 31.90696401520648, 38.873381467901034, 6.991948274708079, 9.017460037231121, -13.021098283668112, -6.1122763109958935, -17.9714657897441, 4.017648205625422, -0.01965080445793399, 3.9427981409082395, -2.004037381000884, -19.865721115711107, -19.889086146507506, 0.0, 0.0, 0.0, 0.0, 0.0, 0.0, 0.0, 0.9979625326110719, -5.000039465390925, -1.043666613927276, -14.972233025254978, -22.879707887063013, -28.847947605915564, 8.9206506708456, -13.84442936427481, -11.913267091967066, -33.80463735595206, -13.94515091779405, -0.06285338723712863, -23.813936544880203, -51.71862604124105, 0.003908913184833107, -13.906997707191238, -17.88134676151939, -7.936812687583594, -0.009934415453397127, -3.9627085377821394, 0.0, 0.0, 0.0, 0.0, 0.0, 0.0, 0.0, 0.0, 0.0, -5.998001998001998, -5.998001998001998, -7.988051749245779, -23.85947268688926, -23.833763257899435, -11.893262231581065, -13.93267901625899, -4.037428827956337, -47.74888193684131, -21.8933829926155, -11.948884012858345, -37.762908167241214, -23.914663447215744, -15.914875720356674, -15.871498657459597, -17.871412346065995, -7.926878272130197, -3.9742473509953387, -3.9742473509953387, 0.0, 0.0, 0.0, 0.0, 0.0, 0.0, 0.0, 0.0, 0.0, -5.998001998001998, -5.998001998001998, -7.988051749245779, -7.940691120799456, -9.936699104831392, -17.830232833879876, -25.84586305270472, -29.83790681791856, -21.8772887334763, -21.8772887334763, -11.972123387250015, -11.974121389248015, -13.970129373279951, -7.970341646420879, -5.926964583523802, -7.926878272130197, -3.9742473509953387, -3.9742473509953387, -3.9742473509953387, 0.0, 0.0, 0.0, 0.0, 0.0, 0.0, 0.0, 0.0, 0.0, 0.0, 0.0, 0.0, 0.0, 0.0, 0.0, -2.0, -5.998001998001998, -5.998001998001998, -3.998001998001998, -2.0, -4.0, -5.996007984031936, -3.996007984031936, 0.0, 0.0, -3.9742473509953387, -3.9742473509953387, 0.0, 0.0, 0.0, 0.0, 0.0], "label": "0"}
{"weights": [0.0, 0.0, 0.0, 0.0, 0.0, 0.0, 0.0, 0.0, 0.0, 0.0, 0.0, 0.0, 0.0, 0.0, 0.0, 0.0, 0.0, 0.0, 0.0, 0.0, 0.0, 0.0, 0.0, 0.0, 0.0, 0.0, 0.0, 0.0, 0.0, 0.0, 0.0, 0.0, 0.0, 0.0, 0.0, 0.0, -2.0, -2.0, -15.922796281878107, -13.922796281878108, -3.9860973187686195, -3.9860973187686195, -15.906814208480373, -29.821727647506723, -29.821727647506723, -15.869709313543174, -15.869709313543174, -3.9527582890259207, -1.9704433497536946, -1.9704433497536946, -1.9704433497536946, 0.0, 0.0, 0.0, 0.0, 0.0, 0.0, 0.0, 0.0, 0.0, 0.0, 0.0, 0.0, -2.0, -3.9940179461615157, -3.9940179461615157, -37.77036732341766, -35.77036732341766, -21.857606613197156, -45.654288185014565, -39.67801212211836, -15.983772742634327, -19.95388876348132, -21.957872815321803, -47.66784793395227, -19.903293153519666, -15.926819449473983, -5.9347995053104725, -3.9467279347339317, 0.0, 0.0, 0.0, 0.0, 0.0, 0.0, 0.0, 0.0, 0.0, 0.0, 0.0, 0.0, -7.950449673212139, -3.9940179461615157, -37.73315770909548, -51.65595399097359, -59.66150657611931, -43.83738501763301, -47.78207551275165, -63.69907631745368, -49.87439354486061, -43.88660005796383, -51.76412819490547, -27.909059857510425, -27.82996988865689, 0.051012114889891436, -5.850028384878452, 8.035310228698432, -3.9428529232299914, 0.0, 0.0, 0.0, 0.0, 0.0, 0.0, 0.0, 0.0, 15.899102812152485, 9.948602261208752, -9.90095022415587, -3.966041777024353, -17.84603206296954, 8.001527383047863, -17.804917886362276, -27.800915697964907, -25.90923894506049, -30.024571607457407, -16.009860025492877, 31.742371014692264, -23.79135251101828, -19.88155663982152, -18.820918728550332, -18.781188113107202, 54.52789630182677, 12.921319288075123, 27.755239284604734, -11.91103964063469, -5.986057735275717, -3.990049751243781, 0.0, 0.0, 0.0, 0.0, 0.0, 0.0, 15.899102812152485, 11.948602261208752, 9.99987622836618, -7.910888405222324, 41.656140658887836, 25.756484425255454, -1.9868276583477518, -17.937180770633915, -7.975885756951003, 27.778482516696183, -5.979172358911214, 21.860052889543482, 34.81796940064668, -30.770587191674156, 37.555792797379794, -4.05304941710782, 0.041585874655012844, -23.754880508346744, 37.90842864720022, -7.8719434218097994, -22.873452137296415, -17.91487503224789, -1.9900497512437811, 0.0, 0.0, 0.0, -1.998001998001998, 1.9900497512437811, 25.81836738769428, 35.800472515362486, -17.753280392504593, -7.832549712733037, 3.0291058872568866, -12.92320878460046, -24.795097694284276, -20.853996721174227, 0.06275361444163297, -19.975361067417886, -76.66895874031111, -1.1379035207283885, -24.826948100764785, -39.77063069485781, 36.900305976048294, -25.69419672848858, 29.837579666499416, 19.945655163381797, 27.991644677407233, 21.985538638140756, 24.885062644003206, 11.909045078777567, -37.61491865860899, -1.9900497512437811, 0.0, 0.0, 0.0, 5.942816643381194, 9.888010342620305, 13.881914984459748, 6.944644209707521, -35.739273333858115, 20.9384131452531, 12.815272418976988, -1.0907986970055275, -43.74295672397962, -27.93684746436018, -17.99774695068484, -61.7710948088113, 5.926593627447966, -53.68890465853783, -20.934862205241778, -4.946525486620965, -29.707394600884854, 19.90135047319059, 31.832002233921568, 37.75530550218897, -14.863877981838206, 6.988118079325346, 7.9266423414628875, 11.972104015940754, -1.9900497512437811, 0.0, 0.0, -1.9940179461615155, -13.889349149380857, 7.858544411373426, 1.9074957390407872, 11.901321629977529, -5.99192641029552, -32.87496675339559, -3.084354438850433, 9.843092223206487, 16.78979562399025, -53.58304038211661, 4.778717201259122, -67.88622516394469, 1.8418171917874124, -60.79554285536281, -21.084671416153732, -4.041390171678925, -16.030863387609195, -10.873728321110212, 16.783282634623706, -22.75213790533539, -10.934498914100066, -13.954623699624431, 9.747551587200007, 15.861719468172362, -21.806655050519698, 0.0, 0.0, -15.928546938714572, -45.6934746901141, -7.964223197883399, 5.903277225486983, 11.851567684961259, 3.8428061939157017, -20.964052826767794, -17.981909706312777, 17.728946436319376, -36.76441638731369, 50.555844113435974, -48.780428847123076, -21.983732689289845, 25.808089774475892, -2.1045602133364256, -9.821326498941263, -47.607906775153054, 51.50604991197838, 10.981927901512718, 12.935613668913208, -38.69982957366011, 11.873462551617086, 5.877662461860227, -4.053059993457474, 3.9506681654700384, -2.0, 0.0, 0.0, -21.804704010099776, -41.709204014627055, -27.83593277157091, -69.41929789530988, -8.010094922047106, 5.7891312252181635, -9.005987234205401, -54.651979186124926, -12.057183495433536, -28.845927622328034, 48.579476180339135, 7.806167223678155, -77.53938519450269, 12.856646045435996, -10.936897798951895, -4.869945665478626, -4.108209153271773, -32.81240974396304, 7.862115523616291, 0.9492102627093275, 17.80996819274329, 3.8679836823685414, -13.995101160351286, 27.696277059099835, -9.928598404613897, 0.0, 0.0, 0.0, -21.804704010099776, -13.879425988120719, -7.962723327024632, -19.84196825671385, -23.845364611722328, 42.59706699371091, -10.826300210389464, 83.42281745900213, -17.8655003041567, -36.778031315393626, 8.021797465393494, -36.83322268429999, -64.75636206270707, 18.698230372120705, 18.875604427218533, 9.04142841108692, -7.944674283858806, 13.822472782373463, -21.868927429038557, -4.948934933478721, 9.891477281428726, -33.866907232046565, 23.62554836320288, -23.794637596341346, 0.0, 0.0, 0.0, 0.0, -9.836743355796477, 1.9981660268325285, 1.9974843482021232, 23.849605194000215, -73.42285232221597, -12.815039720109453, 4.946811270863201, 2.1521012223522935, 27.82639656083558, 10.00097741214301, 49.7949570848332, 11.8482390473399, 5.773443712575629, -38.78364272360334, 62.67180381213225, -15.87873447241284, 4.862140975722664, -11.98916953463293, 7.882298385858078, -21.863991568373073, 5.9586790535538, -31.941513282928437, -21.930495060709312, -33.75733187811445, -23.80250341541791, 0.0, 0.0, 0.0, -1.966568338249754, -17.74729253396734, 11.979050015576993, 25.8398213579903, 69.58503040574587, 20.740486989946774, 20.742216147103704, 18.095856597599198, 97.46934038706918, 8.117172638914811, 37.90275009400093, -2.0620330590554787, -5.8723805493411, -22.841889454783065, 42.7390243497532, -1.7755669050984375, 49.815828720668925, 21.674878276855882, 20.845553946455713, 14.006627885354138, -11.986113804813458, -19.739779584022372, -37.7958013692291, -11.962694281773098, -23.80250341541791, 0.0, 0.0, 0.0, -1.966568338249754, -5.883531218534174, 21.864704179547203, 11.931556495116723, 57.644978729948875, 24.846394726110397, -24.90016243725406, 5.968295511219315, 37.85797305552954, 15.038948654316789, 5.064490279238656, -0.8199857198912985, -56.683904457845784, 13.762122582205329, 18.942693615383387, 28.778895117089036, -0.8779908431898038, 44.75895483233701, 9.035286337767328, -1.990245479615509, 23.768549154238702, -31.649214108326422, -21.878894686179184, -21.879332104723705, -13.920743822310436, 0.0, 0.0, 0.0, 0.0, 4.005732122523335, -23.765629648725756, -21.723817979441872, 17.959479790675633, 58.363298085188504, -6.724313249447398, -5.903849222876396, -31.711191472228347, 32.98368270207129, 22.100007258723732, -43.76265088784949, -6.95958006060067, 39.722920689872645, -24.71721071374661, 24.995758703208345, -0.9530372710508361, 4.053091351758342, -5.9308897250332375, -61.48638873643991, 41.75410407801469, -27.635053402047554, -73.34812080338722, -23.835955528117864, -3.9764445812952323, 0.0, 0.0, 0.0, 0.0, -6.011849278988228, -39.735131794563905, 13.949956177023038, -43.639710021255915, -4.749566279083428, 41.94954208097984, 33.78249826952616, -4.070669856641292, -10.877602372666471, -0.9453588473985861, 48.66087182856813, 4.132430301816644, -2.913580911634311, 56.66046861571026, 10.162666581327196, 8.039656049290924, -5.997693056473484, 38.76999537068016, 29.66664797154737, -2.001903512425333, 39.732851204348705, 59.566902435662975, -41.69165578275695, -3.9764445812952323, 0.0, 0.0, 0.0, 0.0, -9.956289860857215, -63.58289763444544, 21.859133083549146, 17.739533881504187, 19.944738155508055, 31.881275251749802, -29.700248125541613, 0.875448414355346, -46.70667141812415, 24.763089146951213, 35.70350375335386, -12.953812531412257, 7.964968450794993, 40.763453947480336, 30.833836878749057, 25.727515872510224, 13.737574442055632, -39.725276624510464, -21.90313639885877, -39.778630553994994, 61.35022846747066, 9.877359303573648, -21.87138519186611, -0.039472242451207507, 0.0, 0.0, 0.0, -13.934528992553057, -23.89081885341027, -55.54355731277427, 15.927013632039467, -37.84750369355792, 13.79608730338919, 6.011222393985033, -20.65353709987014, 13.814116188690342, -17.74374518609483, 18.816733995144382, 20.781654637933986, 4.041388894988012, 52.707963704469606, -34.75474820467744, -10.12082092585379, -45.95737385116849, -16.05659727110151, -3.0383318754439963, 43.60627235119556, -39.782586852681426, -43.84909296216951, -79.48378870784646, -19.84987725090454, -0.039472242451207507, 0.0, 0.0, 0.0, -15.934528992553057, -19.930536976584992, -63.48444785654656, 4.08086346185784, 1.9269402164024338, -101.40656091532806, -35.88272954262406, -15.033162340996201, -64.58105996442397, -41.666403981854785, 30.682329243130095, 53.716081292569505, 38.621283560487676, 4.950964523799657, -31.67626440115831, 15.86771833327183, 15.721917351710209, 25.71813180524157, 2.8596760069410476, -43.7100027853548, -25.87751978939657, -47.731259155510564, -29.796287690932054, -15.849877250904543, -2.0, 0.0, 0.0, 0.0, -2.0, -4.0, 5.887435923709153, -1.9449196308802281, 23.703390700546702, -59.72885793504889, -13.074927300687555, -12.947616270794136, -14.094686349388253, -3.1831640144102207, -53.68415513844504, 1.0491312830176214, -24.71625468823258, 24.975460701770547, 9.054613443010442, -25.728274408782596, -59.52242855533558, -32.85258522093493, 15.869280912758976, -15.913764568335809, 3.9285880112726077, -19.94262011540225, -13.916853789781198, 0.0, 0.0, 0.0, 0.0, 0.0, -2.0, -4.0, -11.982089516738055, -25.855768368181067, -35.893286148070196, 3.792742138893296, -10.04917716713216, -23.86058076576265, -33.052069032242414, -27.979737305183082, -36.81916223402783, -54.71561177231528, -6.913476225579863, -49.86930054489928, 18.742968007609747, -8.887622071692354, -42.648564025721576, 14.913618902764595, 33.746856867212756, -25.78537730018588, 33.70713313801267, 5.9504262618954105, -9.958338869450964, 0.0, 0.0, 0.0, 0.0, 0.0, 0.0, -3.974286582982235, -9.956376099720291, -17.904987988510875, -81.43707028331863, -8.12012182674443, -47.67618684217221, -8.910007137812759, -5.055363105851576, 3.865638214776754, -17.989669628635003, 16.96129365321479, 1.9803462098531108, -47.86883420558104, 5.068486608713686, 22.8772926825437, -10.879169087867155, 13.925646342004312, -12.001041247148368, -25.76332101947605, 21.887093077232105, 11.910919362892887, -1.9742791361732497, 0.0, 0.0, 0.0, 0.0, 0.0, 0.0, -3.974286582982235, -10.956376099720291, -16.904987988510875, -11.019344609388204, -16.983466227640246, 31.827491883120306, 44.645888343981724, -39.827810252844955, 0.8393952912169369, -81.48746691804874, 2.999860493653481, -10.991655191633374, -2.018271969905687, -6.942537327083018, 64.54112753110603, -6.007442691293374, 0.17211161924678908, 15.916978816097556, 25.88886943592666, 4.01739560756331, -3.9647682422535064, 5.97617053703889, 0.0, 0.0, 0.0, 0.0, 0.0, 0.0, -3.974286582982235, -4.974286582982235, -14.877375206499888, 36.59753130365012, -32.742798542628606, 28.836114576993264, -20.81054452024531, -22.951778754585632, 28.76057136037167, -7.012033224578342, -0.8898734163482063, 15.910476216233702, -27.969435835187742, -5.043266326617626, 10.771501306582506, -31.921759878021813, -17.831310811062245, -13.938228762370452, -15.96021426728712, -27.765200175537498, -3.972649661085212, 1.9821605550049555, 0.0, 0.0, 0.0, 0.0, 0.0, 0.0, 0.0, 0.0, -7.915017052941116, -31.705691013918454, -49.53573875419718, -69.39178434663563, -32.8988749411436, -36.904752277142684, -60.76405603577352, -45.662475904577974, -60.5531039754537, -23.944237097390154, -14.08670840790762, -54.72869821494285, -26.015167923371422, -24.005284447412834, 7.828320461977987, -35.814098417036696, -31.792637922097775, -41.69183565891524, 19.871100279482356, 17.881194155197726, 0.0, 0.0, 0.0, 0.0, 0.0, 0.0, 0.0, 0.0, 0.0, -7.944592417768094, -23.81806118104403, 3.8681759734755983, -9.058899099769373, -26.871667491013064, -28.86740409321612, -19.910809824772915, -43.69920570207905, -57.71672606413072, -49.74648825492536, -69.55871284035737, -47.69328514988214, -23.91267425240202, -7.9564002722766265, -15.889107361139954, -25.833909679520712, -25.833909679520712, 0.0, 0.0, 0.0, 0.0, 0.0, 0.0, 0.0, 0.0, 0.0, 0.0, -7.944592417768094, -21.851492842794276, -13.906900425026182, -13.906900425026182, 0.0, 0.0, -3.9584451399851925, -7.946516710561734, -7.946516710561734, -11.970129373279953, -3.937042200171083, -7.935044198173081, -5.990033870511958, -1.9920318725099602, -3.9741688893451608, -3.9741688893451608, -9.936699104831392, -9.936699104831392, 0.0, 0.0, 0.0, 0.0, 0.0], "label": "4"}
{"weights": [0.0, 0.0, 0.0, 0.0, 0.0, 0.0, 0.0, 0.0, 0.0, 0.0, 0.0, 0.0, 0.0, 0.0, 0.0, 0.0, 0.0, 0.0, 0.0, 0.0, 0.0, 0.0, 0.0, 0.0, 0.0, 0.0, 0.0, 0.0, 0.0, 0.0, 0.0, 0.0, 0.0, 0.0, 0.0, 0.0, 0.0, 0.0, 0.0, 0.0, 0.0, 0.0, 0.0, 0.0, 0.0, 0.0, 0.0, 0.0, 0.0, 0.0, 0.0, 0.0, 0.0, 0.0, 0.0, 0.0, 0.0, 0.0, 0.0, 0.0, 0.0, 0.0, 0.0, 0.0, 0.0, -1.9743336623889438, -1.9743336623889438, 0.0, 0.0, 0.0, 0.0, 0.0, -2.0, -2.0, -2.0, 0.0, 0.0, 0.0, 0.0, 0.0, 0.0, 0.0, 0.0, 0.0, 0.0, 0.0, 0.0, 0.0, 0.0, 0.0, 0.0, 0.0, -1.9743336623889438, -1.9743336623889438, -1.9743336623889438, -5.913319258956783, -9.90932724298872, -11.901359115498678, -7.952676398781581, -5.956668414749646, -3.9646365422396856, -2.0, -2.0, 0.0, -2.0, -2.0, -2.0, 0.0, 0.0, 0.0, 0.0, 0.0, 0.0, 0.0, 0.0, 0.0, 0.0, 0.0, 0.0, -11.901074601859875, -1.9743336623889438, -17.77921802587898, -25.763052670076977, 5.926822656688447, -2.0452228784265443, -8.011656947557862, -6.068735218824569, -23.81630854240358, -49.549765223665396, -17.8736822689669, -7.990033870511958, -11.924939565149591, -17.910989383821068, -11.936717473691848, -9.94070551356027, -1.966568338249754, 0.0, 0.0, 0.0, 0.0, 0.0, 0.0, 0.0, 0.0, 0.0, -13.912984771924895, -29.810067357816703, -35.80215095670525, -5.919199945131563, 21.89293760733363, 43.63234101682955, -40.71562716015763, -12.903615060788207, -50.617500110733616, 16.686545512761995, -5.079133384383589, 23.67001773252188, -45.7745528035263, -91.52915397216324, -66.68156973709306, -30.82192421568197, -28.83964459456981, -24.82202879197657, -12.893474332521373, -1.9841269841269842, 0.0, 0.0, 0.0, 0.0, 0.0, 0.0, -5.9564942173938995, -3.9704328192552785, -1.930556516894998, 5.976293755404081, 43.71139926818102, 23.910335080827757, 13.9342537353477, 21.804690567754953, -17.964305020168833, 25.781504339972784, 13.99700312438496, -25.666176576615637, -6.037752835866186, -0.19081258876402218, 19.72592969109493, 13.762777633501713, -39.696286808542894, 22.855540524049637, -14.889294701771925, 24.775186220235025, -18.97596562516297, -21.86957599499317, 0.0, 0.0, 0.0, 0.0, 0.0, -5.9564942173938995, 19.85387817659456, 1.0748207424657297, -24.853274829534453, 52.644275397645565, -8.822892678201624, -4.897656005043411, 0.19337836021901644, -12.95273031194473, 64.58184042280796, -25.741249162301752, 46.55480599723276, -34.79983355376729, -24.845322692953616, 6.876064933101556, 16.84244438501002, 27.780958935922175, 2.0687271876571445, -37.71124549382728, 1.8602078973653642, -14.027486030394343, -20.051080323779274, -35.814169681721445, -47.62090652055417, -19.849786858133356, 0.0, 0.0, 0.0, -5.9564942173938995, 21.85188017459656, -26.668190505411026, 16.66897360092634, 53.5651482791495, 3.9509100808884043, 24.0215709495538, 38.872377449732426, -16.896187444381756, -14.98939908146407, -28.739432670717637, -7.887877630410159, 11.89502660298116, 33.64491657946494, 6.02370659233422, -4.960986143423396, 30.721742797349602, 5.031545285585299, 1.1141806221323014, 40.859183875351356, -22.607773130485253, -18.97958456333839, -11.901284312297735, -49.59914588751757, -19.849786858133356, 0.0, 0.0, 15.867618785452219, 3.996007984031936, 0.07684789786841062, 7.901364203697975, 13.850185199187287, 1.0001641729734216, 1.0769715830405535, -5.856331676821126, 23.795013474617747, 20.697244303272367, 36.85314384116574, 28.80701575272105, 5.92207260526377, -8.815704691375801, 38.96226764170254, -1.7795387506895524, 18.95395025477514, -0.9543874927577098, -19.72818137321984, 36.826337216341216, 24.912262696496008, 36.8468001976122, 20.90692107708004, 0.005927787252564931, -35.72940753855766, -19.849786858133356, 0.0, 0.0, 0.0, 3.996007984031936, 53.677688285914385, 75.46979433194674, 33.718937405754716, 9.983600158865016, 42.766000301020114, -28.62508702650082, 6.880256413757085, 12.91566703806804, -21.86708974940566, 13.799783979895938, 22.753583383816228, 24.03649535478535, 18.001792984841142, -25.802039426381366, 38.94943491943017, 19.063058528723232, -23.922496957723776, -2.7398470504936676, -30.666380774589282, -26.749638058471966, 47.70898386235966, 27.816270485466468, -1.9782393669634026, 0.0, 0.0, 0.0, 0.0, 7.988027928195449, 45.744785700340266, 37.86630591270568, -23.895436059229347, -10.993628717665505, 34.693907167767605, 8.819286509040026, -21.005959837573975, 22.705982629142138, -3.1669080416216677, 14.928729625585115, 34.925423241713304, 0.026478462164081673, 68.46151372043965, 44.80251466769347, 20.91560574674481, 60.827307085875006, -4.962375834126872, -10.93269398333861, -11.042711751525232, -12.90532638906247, 11.932592165632663, -0.0022167493749933875, 0.0, 0.0, 0.0, 0.0, 0.0, 5.980091514740055, 43.72309506484412, 13.967883083503445, -57.63592521417253, -12.978601317604138, -7.01996986365485, 16.855204539833792, -30.874591764634975, 7.968103458358446, 3.8817049099039562, -42.57800882731189, -1.0966808511285806, -27.971765748984, -12.983334897098104, 20.798984793080066, 11.11993783488888, 30.090092248075354, 10.857092510519543, 4.91553383011143, 28.684635318732703, 11.979575217336558, -7.970220339091705, -21.899021835881378, 0.0, 0.0, 0.0, 0.0, 0.0, 1.9880715705765408, 41.71509189070564, 13.964296043742142, -3.9329990486059327, -46.70369329626166, -30.930358733818313, -26.631484336014235, -9.100227098308837, -28.9858984175995, -60.64172977416902, -35.95406711634032, -73.74852310000767, -33.96353769354724, -57.5793557834827, 53.73046697894352, -26.830012582453943, -9.825551008174644, 1.0364715841521521, 12.899817562765417, 23.87531098372514, 21.839751314752295, -37.834962585228155, -25.92265726262269, 17.88700915649383, 0.0, 0.0, 0.0, 0.0, 1.9880715705765408, 23.853543181698484, 15.930808624497542, 13.954280499967302, 28.766616857105873, -16.976448181700196, -0.9703403216931408, -22.85578030506311, -11.943140702457251, -41.74310170172083, -4.115066071265261, -19.083096284572818, -5.2009808660695676, -27.94808025107935, 39.656117886685124, -71.54459819544678, -11.084634289282898, -6.029921194838472, -20.70224292914927, 19.914974536984456, -23.871012353346593, -13.959320066138677, -25.886838977483947, 21.892911471237927, 0.0, 0.0, 0.0, 0.0, 0.0, 15.889203410446854, 19.854113221797387, -1.993819848745313, -10.944193708964976, 26.845382110136924, -4.876250867614665, -1.0413724000606939, 9.92862847616484, -24.026968851683005, -39.83217036712907, -71.63521099767203, -21.80141506545866, -17.042730093668467, -15.83998456137939, 44.827779619043305, 8.952262206027642, 15.946384565566445, 2.253980421927841, 29.892516853942553, 5.927547654476619, 21.88361438799798, -3.8875905846541556, 15.932644988009779, -1.9801980198019802, 0.0, 0.0, 0.0, -3.958460646515928, 29.778789801336266, 9.966588126809974, 17.79907973106061, 29.71175532077985, -12.914479288844674, 18.901081091490077, -30.783323381784882, -40.865830002222395, 2.7125603693787856, -20.94665693875644, -6.900792317619322, -22.775080949388258, -86.4204700643559, -14.836130299300576, 11.194555184804548, 38.83328511928249, 67.78986452672902, -17.82808913836114, 21.967906396436728, -1.8444673172045372, 15.981561507953883, -25.664516349434066, -13.812536721301637, -11.850061499037983, 0.0, 0.0, 0.0, -3.958460646515928, 4.019738808881218, 17.922696744089397, -21.88511247515576, 13.976909458978135, 29.847269713109974, 29.848944681088525, -37.71979833363521, -53.70754032938264, 25.848586961111174, 13.938817760490931, 20.71291482500493, 16.89172901301893, 31.640284356679327, 8.089435455601546, 10.934603367936937, -7.934417922932676, -36.64427411856107, -10.868282150912572, -8.054908550837132, -33.72150224744766, 9.846276029056174, 2.0453520572971855, -17.782994558485466, -9.869863479236002, 0.0, 0.0, 0.0, 0.03754733751600803, 0.07691782315855322, 11.99971469086936, -21.822555769605923, -27.81307151345121, -39.700160664609434, -31.87334574959039, -41.841818669019, -43.669865090894476, -53.512632322563604, 11.977658855553281, -13.110251115674345, -2.0729631047361523, -29.831982014732866, -24.846114787509684, -40.83948561053872, 21.62764039833804, 30.68930226031424, 3.7513467492811423, -4.102413059716957, -15.96819908154711, 7.942689871268657, 13.881609930195536, -13.824503388062297, 0.0, 0.0, 0.0, 0.0, 0.03754733751600803, -5.901281632238593, -15.87931265077209, -35.737366824119974, -57.650703917522804, -73.61599375600046, -20.077977223301037, 13.678645818001367, -21.837748091731942, 7.9720050864617065, 37.756572128595806, -13.893795085438992, -39.73911882731597, 16.902202149119063, 12.776708588853833, -14.985841389495194, -10.067111389784985, -24.90317189138198, -49.70544585541239, -5.962757866656917, -23.83043438786963, -17.869503936097217, 17.781180295578714, 0.0, 0.0, 0.0, 0.0, 0.0, 0.0, -9.89728961627053, -21.8105251255621, -31.790585536463883, -33.87116516615579, -29.93398189571444, -4.101924020982068, 11.80907294328379, -22.87760847650389, 6.061452527367665, 8.057341773552519, -5.931031906826595, -30.906837819546762, 7.1134197344602885, -16.803522556966104, -54.54989956044192, -11.017738469921122, -31.75322371189424, -9.956409720263418, 17.869388063853076, -39.723543649531905, -55.54165987455816, -15.900941772370263, 0.0, 0.0, 0.0, 0.0, 0.0, 0.0, -5.938828969754601, -13.895547489570676, -21.86172601457725, -6.070594110251074, 17.590437512828785, 6.830604717160199, 24.692178879740712, -62.48340152041154, 27.86322467214045, -7.954669036238487, 10.014750240355495, -2.969883259334765, -34.7250920652092, -56.55579897232946, 4.866604863593576, -12.013350850979863, -47.79211513387191, -25.83607967210402, -17.907261634589172, -31.831969719473108, -19.918682651503794, -11.93463083483032, 0.0, 0.0, 0.0, 0.0, 0.0, 0.0, -7.901537507536741, -15.885597240814457, -15.866043885292449, -51.596905849306275, -10.950260107526388, 14.81057331476791, -5.0729055390787465, 26.688317437634357, 7.942728280278033, 11.89084937151688, -6.960739777343706, -18.881398511694147, 17.898879669380502, 23.643536081797187, -3.9229773053979167, -54.73665362058077, -64.50255166904768, 34.65825197829819, 11.855772407363244, -33.814075093133916, -17.93044651600973, -1.9801980198019802, 0.0, 0.0, 0.0, 0.0, 0.0, 0.0, -1.9627085377821394, -10.93289325718484, -16.858019214809723, 6.920897501194737, -18.841992712785437, -20.753809204324252, -28.664902224552385, -70.46416308331227, -31.7700020221861, 19.879814106706526, -22.98169450297326, 4.9450332346900545, -11.808036320977552, 39.62750607829078, -27.776924475642378, -26.936490250632634, -70.56897681669822, -13.911054684837538, -31.847682519183063, -33.806076247519314, -17.93044651600973, -1.9801980198019802, 0.0, 0.0, 0.0, 0.0, 0.0, 0.0, -3.984126984126984, -2.9724668128717413, 20.906665951516477, 40.81160600155573, 16.881420718109833, 52.74640578642457, 0.9216901953894681, -48.64033952859927, 14.824370317365473, -26.860246678586652, -65.66102909319879, 37.47385554694322, -4.721862997236526, -2.0034751464635674, 43.64230011915196, -17.97557673161552, -81.47022554169848, -29.829751274864723, -8.066857623960491, -29.81009600142238, -13.901080992819725, -1.9801980198019802, 0.0, 0.0, 0.0, 0.0, 0.0, 0.0, 0.0, -1.9900497512437811, 33.81603812009224, 27.989185987722983, 37.73342232300155, 21.883247045347243, -11.7804571500738, 45.67227699777597, 37.78226157754273, 6.993878881300629, 20.926496606049817, 26.877774278381718, 8.106032130122815, -4.763510713777265, 16.968544476526315, 22.780178144205156, -37.70204895679407, 11.936112671820942, 5.899182360114528, -15.865778000067781, -9.911091706584315, -1.9801980198019802, 0.0, 0.0, 0.0, 0.0, 0.0, 0.0, 0.0, -5.9309402760228584, 23.77493703938394, 21.937639237341084, -13.800910618931312, -11.91096895322264, 19.777110570545698, 12.003116403740602, 19.87110318046355, -14.836333287756387, -4.993620294485124, 23.5996938930348, -33.704039444278884, -16.838047532324676, 30.904817282302766, 58.60474057648746, 47.718825117658675, 41.65992683029246, 13.853868653597992, 11.897344049584767, -7.930893686782335, 0.0, 0.0, 0.0, 0.0, 0.0, 0.0, 0.0, 0.0, 0.0, 1.998001998001998, 13.901199173080075, 11.903197175078077, 11.903197175078077, 0.0, 5.98807157057654, 11.881867984383996, 7.893796413807456, 19.856001077373666, 21.856001077373666, -7.92498435771723, -7.92498435771723, 2.0, 0.0, 0.0, 0.0, 21.81630930694364, 21.81630930694364, 0.0, 0.0, 0.0, 0.0, 0.0], "label": "7"}
{"weights": [0.0, 0.0, 0.0, 0.0, 0.0, 0.0, 0.0, 0.0, 0.0, 0.0, 0.0, 0.0, 0.0, 0.0, 0.0, 0.0, 0.0, 0.0, 0.0, 0.0, 0.0, 0.0, 0.0, 0.0, 0.0, 0.0, 0.0, 0.0, 0.0, 0.0, 0.0, 0.0, 0.0, 0.0, 0.0, 0.0, 0.0, 0.0, -1.966568338249754, -1.966568338249754, 0.0, 0.0, 0.0, 0.0, 0.0, 0.0, 0.0, -1.9860973187686197, -1.9860973187686197, -1.9860973187686197, 0.0, 0.0, 0.0, 0.0, 0.0, 0.0, 0.0, 0.0, 0.0, 0.0, 0.0, 0.0, 0.0, 0.0, 0.0, -3.95078010835868, -5.917348446608434, -1.966568338249754, -25.729642872990585, -37.634766665774734, -37.634766665774734, -49.620345411462, -37.72522163010729, -25.79838729576408, -31.792232575897504, -13.915014464431485, -19.8931514305924, -13.946315908683278, -9.970168838670878, 0.0, 0.0, 0.0, 0.0, 0.0, 0.0, 0.0, 0.0, 0.0, 0.0, 0.0, 0.0, 0.0, -5.95078010835868, -17.867808055190817, -21.834376393440564, 2.01139411249659, 27.751205840761255, 31.762629402593713, 11.84184910405783, 1.9054587240687955, -27.882964767033606, -49.70087469611898, -19.954525515326946, -10.045234728496963, -31.766855810612558, -31.699660607225464, -17.794668827665127, -3.877951914985899, 15.9051207790375, 0.0, 0.0, 0.0, 0.0, 0.0, 0.0, 0.0, 0.0, -4.0, -4.0, -15.964253648820252, -15.895442660711563, 3.9584023733321563, -33.80241422893963, 5.803507877714869, -9.975579536058197, -16.00230011620923, -40.698673904199296, -36.66740073819978, -10.897294559149392, 28.67538034828945, -32.925816996944654, -8.909777006305095, 45.874568865398906, -29.619656960435602, 18.0402783103757, -11.788926048148276, 57.498193911091924, 39.624868907365205, 0.0, 0.0, 0.0, 0.0, 0.0, -19.84986441369124, -21.849864413691243, -23.84986441369124, -57.702886378441455, -31.753273149077526, -1.926960229698449, -3.893907329452054, -9.83243680017494, -1.1291013712455014, 21.674749762426796, -43.66444478882601, 43.78544203603709, -17.92587632320897, 0.9981567095119108, 16.935745366088515, 20.765079346449486, 32.7909109983794, 7.008153183937861, 39.828021324246606, 59.69720846862051, 50.8051224601869, -35.7326973192757, 17.789098087080063, -17.849649822188095, 0.0, 0.0, 0.0, 0.0, -19.84986441369124, -23.843882359852756, -11.96263940517455, -35.84376767062067, -14.145289534748331, 14.983593319243392, -0.8231666820167929, -2.977711335857365, 41.644438249856414, -16.87580775964098, -11.873425399791598, 11.587847475349065, -24.94007802005283, -18.853522302159167, -54.504386731701324, -8.910743164729617, 20.810913114353284, 16.876511703423542, 19.812276229114822, -49.79752964213482, 49.92507022847668, 30.00592563115354, 2.1123072246229806, -23.81581977701902, -2.0, 0.0, 0.0, 0.0, -19.84986441369124, -71.55280348627747, -41.755084838686216, -69.58288740732633, -4.983258178343787, 8.813556780000564, -10.8358931793821, -9.055487672037373, 10.981375785006078, -19.86728538515807, 25.631706305596047, -42.62834886914535, -5.85463476417546, 47.72802616899251, -53.66667600264068, -29.83596499818622, -23.902725864880235, 19.777579710938266, 42.61935475932836, -18.807919136605747, 20.056691599951357, 50.83184524423366, 92.45462677960141, -46.537664824002185, -2.0, 0.0, 0.0, 0.0, -49.6440650012109, -53.70293907258622, 27.642706579928884, -55.72591259292865, 3.7015989457387164, -4.886745893418722, 32.892868601197435, -2.9407009433028937, 18.941146320417726, 29.65095395224256, 28.93214567496002, -41.688325710783005, -4.142850451182742, 23.896772686391653, 3.662879047857827, 72.46953265349538, 5.823497230812835, 21.9920083418276, 0.9752312115819834, 22.964424961131957, 52.768433260897915, 21.332894197818828, 128.30022748922823, -0.9172841367799727, -9.931033112044823, 0.0, 0.0, 0.0, -31.78845218560201, -57.70470215053846, 37.55763395654511, -23.733324678785845, -15.709602965577643, 16.98818670750695, 7.980378230977642, 8.076288344149832, -50.64075820711474, 7.058300505128278, 9.92831988988268, -11.973717795769327, -35.91098426581393, -88.49763160965091, -64.6854312706482, -13.927381671480013, 39.62474078238543, 4.9347215415492744, 33.694665430679365, -38.74348837913997, 58.6636735721138, 82.63420075922853, 172.01718277791184, 37.70758411960508, 0.0, 0.0, 0.0, 0.0, -4.0, -19.900678335363768, -5.982368647863575, 2.182534988444206, 33.84580279153587, 62.63383331733498, -2.9286134934099555, 53.763153292077305, 57.58933959780483, 23.999799872832714, 14.83545823308348, 30.683916312803515, 42.59040342687594, -50.85217182762094, -34.708929204911755, -49.67839283539722, -104.4508785168828, -56.65130813458062, -29.07848498838441, -49.70246379769776, 6.832128159629283, 69.533145184942, 121.23481697266959, 47.60296640813521, 0.0, 0.0, 0.0, 0.0, -2.0, -4.005640823939995, -12.023194377608569, 79.57667327561869, -56.500544192737195, 16.924770218536835, 0.19217590593027412, 38.82732669225124, 14.825654326136329, 25.804320994623033, -0.01978171130459616, 18.856577988841185, -14.793747140714265, 23.881921361161275, -30.789142283872497, -0.0800647910271417, -62.74435167965023, -87.66380325285972, -97.4371650138044, -171.86204995328885, -57.91413677187589, -37.89858007125374, 13.938570740104838, 39.624868907365205, 0.0, 0.0, 0.0, 0.0, 0.0, -4.005640823939995, -97.26043780789685, 36.80667310612924, -10.819495773915248, 22.964626888054415, -1.0761253663781671, 17.9334196150007, 11.070664354001426, 48.87168989914751, 10.876933724474547, 9.889660792097505, -24.84927754289401, 7.640775098951442, 0.8123732336852898, -34.91433104384761, 14.798112979149172, -11.078912719803535, 38.45922173228896, -100.49598378189889, -48.938006725824536, -95.47742590443403, 4.009827733889722, 0.0, 0.0, 0.0, 0.0, -1.998001998001998, 0.0, 4.9939082884551524, -0.9431107627036175, 14.950250075275195, 52.51288343180081, -43.69277267570278, 1.020005894938953, 7.934527049887649, 25.03277003723025, 3.0714045563842056, -32.62018039635107, 45.71986335289287, -24.963604297285038, -35.06340670716096, -36.88012469196965, -40.84439672875092, -35.790599263953105, 21.969765818883282, 30.64654379591781, -60.75319996655347, -108.5106947149267, -69.66142089793478, 0.0, 0.0, 0.0, 0.0, 0.0, 0.0, 0.0, 9.944488730331146, -8.941042425925367, -9.056432240454866, 32.85885248771868, 23.02163262101666, 28.983667138590686, 24.96596572567652, -26.746940254618, -0.9346212758016827, 7.86250232542754, -7.998156746545229, -15.973364267511405, 45.476646330660515, 7.700371081434115, 53.6229424411146, -30.751307557035386, 37.77634021971847, -40.77817454638686, -9.085365848807529, -36.90485369970692, -14.084480654935138, 0.0, 0.0, 0.0, 0.0, 0.0, 0.0, 5.98013496815892, -26.70981108371622, -18.89175533050939, -28.87506872937103, -38.96797051088121, -24.843778936756983, 36.87062693634147, 42.00538630853631, 8.880756922787231, 47.73352382554309, -61.79525577385819, 31.891316980950943, -26.912407139671064, -42.707409841580166, -8.216986327965973, -58.831522434643084, 24.82206764595645, -23.782428137103278, -8.978270918917815, -20.928572981375453, -46.71171033702059, 1.905403772262539, 15.90312624756139, 0.0, 0.0, 0.0, 0.0, 0.0, 5.98013496815892, 28.810367608938243, -58.63478886772675, -48.90478602828454, -37.873628586850025, -73.59866185724151, -12.954655509006653, 18.735762118600853, 24.855117960285646, -1.0848730811324279, -14.958371148376633, 16.752882566697178, -21.1050982638323, -27.027178615246644, -9.052681734975545, -9.072753084725594, -30.840771604406758, -41.86998703914487, 42.61052020341809, -18.919103747052034, 2.954847262344012, 29.74694073196523, 13.90512424955939, 0.0, 0.0, 0.0, 0.0, 0.0, -7.869808759250765, -34.65040831297121, -30.917984671011798, 70.46212541575068, 24.81402290377096, -40.88960641973673, -94.64552782614867, -25.96584752822706, -68.58620798204271, -19.91537534854497, -41.73905506847973, -72.49484447776372, -7.993431604446606, -4.930053774649334, -7.023668980032367, -26.88126587942511, -31.7280570497088, 23.791465426628697, 50.825100107420226, 20.806449654601796, 68.48025389028521, 15.97153555250562, 2.0372207505297983, 0.0, 0.0, 0.0, 0.0, -11.869745707607706, -15.849943727409684, -16.873589555284873, 50.50261369278291, 30.855203013917244, 6.911287691856641, -61.77840499669477, -23.79375833230411, -33.806991896301085, -13.19833686137229, -84.4161641918968, -3.9949120379563543, -17.95544981046619, -20.75401990640038, 27.720495530759717, 33.86281780626402, 16.092621590424894, -6.194454702855005, 32.644481179979635, -6.902968789468302, -8.808416618521736, -5.8381288334787005, 8.028615188752251, 5.993764924868831, 0.0, 0.0, 0.0, 0.0, 23.78860194258197, 47.56352712253751, -32.64734511331913, -42.694933106779345, 25.01509202976208, 20.047667390130005, 21.889047243339853, 39.751295879980034, -0.11464979853426494, 32.62730890772326, 35.872690211671774, 15.800188140752402, 24.83186495912742, 6.95311822046828, -69.51804645223913, 42.70359692545776, 46.74781488515542, -0.09793009583744183, -30.745335392512327, 15.080000346879475, 22.798786887156936, 19.95640935563561, 17.96172927925975, 5.997849501701174, -1.9920318725099602, 0.0, 0.0, 0.0, 23.78860194258197, 21.818298801980806, -34.61181560577713, -16.941922137157402, 0.20718904850141628, 79.62425556092685, -1.8678471976425604, 16.718591197790815, 29.903799217157072, -27.60113478250405, 2.1151074625774062, 6.83973638007274, -60.589352252924286, -22.690467633661797, -24.080312343747313, -76.46531457227529, -9.925130459632562, -0.8872720289847664, -12.969913995066001, -44.85426816416018, 1.8877893173019253, 0.17342245336073026, 49.71668628833245, -17.8202740710341, -1.9920318725099602, 0.0, 0.0, 0.0, -15.836266964783235, -17.826372085582417, 54.513361127269725, 12.822517085753416, -71.53103824045283, 63.544857141415775, -33.59717196865126, -17.847409326785645, -23.72209295055014, 27.717626146644196, 20.992077587585335, -12.854736649294143, -10.848907760113656, 3.9485586823695233, -15.89016491911957, -35.63165702786006, 14.876734314480304, -8.946505492819613, 64.55071853813857, -2.0506082469311324, 57.52016400305754, 23.92102577140226, 45.75014942978384, -19.775074893780303, -1.9920318725099602, 0.0, 0.0, 0.0, 0.0, -9.95238485790056, 17.755229088850694, -34.83357509820088, 17.798167854743845, -4.011322404533519, 2.0538880359820624, 27.81849446392631, 67.52967959953176, 10.990389088213993, -8.251441208152865, -27.705199905054865, 39.74130216474692, 38.60841483331504, 15.963747214258143, -5.97229638118527, -0.9503454451678293, 55.53639063993357, -21.75969044135611, -21.81800785261095, 41.67835693297985, 35.76693948331844, -3.90342162918333, -11.875576541505765, 0.0, 0.0, 0.0, 0.0, 0.0, -7.952384857900559, -10.924641818892018, -38.624355856713855, 58.60983513403902, 3.936442387791257, 1.7841914587184573, -8.060712334325322, -20.76319597996912, 18.97161911668065, 32.757065970534136, 6.866249038446419, 7.13802045507296, -5.714660997378795, 6.010174051048246, 23.779404511387167, 8.918472763223155, -13.645945739794886, 11.979904484764168, 25.77530119624324, 29.861400457397785, 3.9860813437438947, 7.972154912322434, 0.0, 0.0, 0.0, 0.0, 0.0, 0.0, 0.0, -3.01946984578075, -16.879207532318325, -33.670380292960104, -37.80600094624505, 26.680096651565542, -5.828149942429347, 59.504626423367355, -2.777275001288999, 48.7919722069323, -28.77482269439014, 10.982373716170972, -19.871029689562715, -13.087631169984196, -1.025162201741323, 27.873300666356418, 29.762129697124585, 9.964126006753133, -21.728991315617073, 15.952448447047301, 3.9860813437438947, 0.0, 0.0, 0.0, 0.0, 0.0, 0.0, 0.0, 0.0, 0.0, 8.879800754832209, 0.864108487027702, -5.074374426617984, 9.812909243642302, 3.9882673068642878, 0.03815933728343035, 5.952775369560243, -7.818435517304783, 19.814142090229243, 47.68896698156972, 31.71568750256812, 19.784888694046934, 5.964048571708608, -4.025750949440377, -13.950492028859701, -33.78622409575639, -33.78622409575639, -5.986073568578538, -7.914985808507507, -7.914985808507507, 0.0, 0.0, 0.0, 0.0, 0.0, 0.0, 0.0, -1.0, -1.0, -1.0, 0.0, -33.689742701810154, -33.689742701810154, -1.968503937007874, -15.838335594097437, -13.838335594097437, -27.70609429501643, -27.70410824517395, -9.907595683877826, -15.92286501907711, -4.015879257182135, 7.885393370202433, -5.986073568578538, -33.78622409575639, -33.78622409575639, -27.800150527177845, 0.0, 0.0, 0.0, 0.0, 0.0, 0.0, 0.0, 0.0, 0.0, 0.0, 0.0, 0.0, 0.0, 0.0, 0.0, 0.0, 0.0, 0.0, 0.0, 0.0, 0.0, 0.0, 0.0, 0.0, 0.0, 0.0, -27.800150527177845, -27.800150527177845, 0.0, 0.0, 0.0, 0.0, 0.0], "label": "5"}
{"weights": [0.0, 0.0, 0.0, 0.0, 0.0, 0.0, 0.0, 0.0, 0.0, 0.0, 0.0, 0.0, 0.0, 0.0, 0.0, 0.0, 0.0, 0.0, 0.0, 0.0, 0.0, 0.0, 0.0, 0.0, 0.0, 0.0, 0.0, 0.0, 0.0, 0.0, 0.0, 0.0, 0.0, 0.0, 0.0, 0.0, -3.986073568578539, -3.986073568578539, -5.986073568578538, -3.9940179461615157, -1.9940179461615155, -1.9940179461615155, -7.909148261800591, 1.9643247952248952, 9.873473057025485, -0.03759858955901785, -5.964418460281164, 0.0, 0.0, 0.0, 0.0, 0.0, 0.0, 0.0, 0.0, 0.0, 0.0, 0.0, 0.0, 0.0, 0.0, 0.0, -2.0, -5.986073568578538, -3.986073568578539, 9.920919343515436, 1.9918291220962931, -23.869188451584566, 5.899746042252801, -5.942852320923638, -14.964180812712977, -42.723724391794875, -48.754843857693935, -9.100581832016168, -14.037304386088213, -11.980225186162688, -7.925129643237161, -5.925129643237161, 0.0, 0.0, 0.0, 0.0, 0.0, 0.0, 0.0, 0.0, 0.0, 0.0, 0.0, -11.905271928351803, -11.905271928351803, -1.9526761991792174, 33.784616747947574, 35.84366794470877, 37.80642163906683, -7.837612360159143, -1.8498604228119815, 14.027621349863495, -16.954189329630143, 4.66704722912014, -50.74484485816433, -22.032928837044178, -20.103985680508888, -6.210582233457913, -5.989912569811231, -13.792518013576808, -19.751720223729865, -11.909025923435843, -3.9900259301934513, 0.0, 0.0, 0.0, 0.0, 0.0, 0.0, 0.0, -13.883488244803477, 21.835563452988882, 51.65766574333908, 7.940678044089212, 15.88337577851279, 41.63521452009625, -33.77077600498958, -49.81457674288565, 45.80991799827216, -18.861241667720655, 44.58577303094982, -36.69976574595523, 29.78196102920642, -18.91887441039428, -30.867013674999352, -50.67664218796411, -30.997684402020827, -20.912626414221968, -16.908616572129073, -31.694321881091742, -9.901413664443453, -5.9113877342500025, 0.0, 0.0, 0.0, 0.0, 0.0, 0.0, 5.921153485956463, 45.63415113073208, -9.897133118949512, 4.032033666677824, 23.812535570318357, -17.914987441237972, 11.947724887064888, -22.72773797091424, -10.071816173762386, 77.5218702876524, 65.69511398993814, 26.050881132592792, -32.744169837525874, 13.998448509604547, 31.727779866959207, 10.05774824262878, -51.663965103119764, 23.75645288336285, -25.839295828293107, -36.77228182569694, -17.816461717319093, -5.9113877342500025, 0.0, 0.0, 0.0, 0.0, 0.0, 11.89522491442558, -3.962386836178112, -11.871607323272398, -33.726010828485904, 5.878251046796109, -24.953899766489307, -30.712386373105762, 0.8283727682651891, 19.78320466625924, -9.023377562575092, -25.67480476408332, -17.810683231020736, 10.830847305475997, 18.977862736957334, 48.54520229622742, -47.551517768072856, 4.057627667042643, 5.918703169657411, -6.152912499388513, -9.875974029159602, -8.042651911515497, -10.029053931260206, -5.968257873773575, 0.0, 0.0, 0.0, 0.0, 17.887244858589092, 9.895224914425581, 25.86128908888788, 6.01156412327545, 21.740132430087986, 20.79112594067438, 6.954755714310991, 22.801854444593992, 0.8235884891712755, 54.67655855039172, 53.58557175515221, -12.001001318342142, -37.88475665447063, 18.933517453430042, -50.783866993834195, 52.48459683210565, -46.68011418568438, -24.775396665917054, -23.764442859310755, -35.66807595025007, -5.952783566892698, -34.82977671155262, -47.67383828828761, -23.820104975511907, 0.0, 0.0, 0.0, 0.0, 17.887244858589092, -4.049108779073172, 5.934815598044029, -29.786339227988694, -115.2425946022611, 21.936691035011815, 34.61759564463743, -1.0135589775521696, 12.957168914062684, -59.45991465585086, -28.74133426951041, 40.657807844832966, -4.878672378575599, -9.078532347818637, -40.02213529169576, -7.826537311829412, -24.85497205879588, 27.901099305986403, -12.964539605395215, 6.99555581439545, 2.9270262605894755, -12.96046109665421, -79.31476740095219, -51.57509925440641, 0.0, 0.0, 0.0, -7.950694277515403, -17.87952158510223, -15.912873816764876, -15.794758723571078, 79.39707744394399, -23.849786475033618, 37.669882589807, -28.953525492562214, -1.0292581048141694, 32.79191524701559, -30.78638196790472, -20.836125007008828, 1.1851642089026333, 8.94991520718165, -5.125935635050883, -10.178835510790387, 69.58488115499779, 2.8324252153911247, 33.82890130270188, -2.945328332777422, 6.894797931074523, -14.799262369382463, -30.78301166870423, -2.0160909258901456, -47.64229070044477, 0.0, 0.0, 0.0, -5.950694277515403, -17.87952158510223, -27.80809873119046, -45.56773573352401, 25.72531023845264, -2.2484229269315787, -35.91302374084329, 21.764561781283685, -39.69443662017957, 11.822611895218758, 47.68324541891686, 45.703278459585505, -43.573450350979485, -18.10237501497026, -30.6642637806932, -7.005610734314274, -46.63504330516966, -7.071990529039626, -22.95772185331499, 42.6791233283138, 4.783181001757459, -20.91068901574248, -25.6591879119298, -7.952902479348046, 7.96606783294439, -1.998001998001998, 0.0, 0.0, 0.0, -9.89342339127083, -35.67220780281242, 59.517712844511465, 15.782174440932527, -111.1946625133582, -18.10855149100411, -67.75845938266431, -69.75520502572134, -30.04446510671789, -41.81865647974333, -28.051802933855495, -60.83735580921331, -39.80576467827891, 4.913095329600136, -17.015532560573003, 44.720692357660184, -33.837938337763674, -18.871431373480153, -0.8940545691698074, -22.94021365779982, -16.900901598900354, -13.874133253032396, 39.68937309284902, 65.48997320531547, -1.998001998001998, 0.0, 0.0, -9.89342339127083, -9.89342339127083, 7.923002750973664, -9.991909998398876, -57.7313009895065, -67.75315492481208, -71.750607423822, -51.82652749789065, -19.99210235860531, -17.96500480393324, -60.78041691620818, -43.78685953924253, -18.060300184197715, 0.7984312415362713, -21.0654666834421, -30.806297663722187, 9.790591031652607, 0.010085085600659571, -10.92074052705904, -22.91821149151328, 48.44345329918683, -35.7151738945351, -25.82654635060215, 7.9244669647945685, 43.6444406590155, 25.761186885676647, 0.0, 0.0, -9.89342339127083, -11.89342339127083, -29.751209462464026, -37.79240163487006, -4.217005352112052, -73.84854651525592, -31.869862966005993, -2.16814504168975, -46.85920342135953, -21.96111324910125, -11.960589118981042, 36.613025845935965, -77.5827444590754, -23.13562595920245, 26.71742473455114, -106.43202573285232, 4.1941552213749915, -19.820376613276558, 4.958234724381283, 16.723454666840585, -9.877892686353338, 13.818499417566269, -21.999077340350052, -13.905568776783724, -3.942680318094729, 25.761186885676647, 0.0, 0.0, -9.89342339127083, -9.89342339127083, -5.952680752740935, 37.60473054480108, -45.78880687280659, 1.668615877454644, -35.629452224953255, -25.078082221488646, 4.872397883628771, -69.74528599658119, 11.927873526752979, 27.906973782523647, -39.655992803049685, -20.80824787363087, -13.966122228765183, -21.79604567367862, 6.07255130569675, 24.821849027333204, 20.89097732942885, -65.63787678586078, -95.40513256163521, -53.77790504334408, -25.869387782693412, 11.725974896735215, 2.0119076010990664, 33.694006395550396, 0.0, 0.0, 0.0, -9.89342339127083, 7.923002750973664, 29.70735640898463, 75.45187842382435, -6.986766471523893, 28.772524918904402, 34.92650816941863, 7.052333345753043, 67.53047838286251, 43.77190011230453, -31.886548381343356, 37.735578961883746, 29.873205181982243, -33.98497577628142, -9.925327584455427, 2.1347630821714234, -16.82818106262533, -47.57572744681935, 31.96599052942715, 15.632526567603195, 15.76883740860056, -21.977560917357614, -13.90111526388922, 41.80172010892147, 35.76474146950625, 0.0, 0.0, 0.0, -15.87564500790685, 21.780416618621818, 7.971802131994616, 6.054715184874187, -6.869708853538448, 58.575132156870616, 21.044668226064523, -32.739683963547044, -7.934727795180184, -4.094639945368261, 12.905467560262515, -8.859605216376588, 5.001344359091815, 20.610487823583433, 9.987525958141472, -30.658532640662568, -30.68270080582951, -3.9728277080168177, -14.913700639969699, -53.417452040535814, -17.940605364013436, -45.612634072998084, -11.856090883934211, 33.89002987215892, 35.76474146950625, 0.0, 0.0, 0.0, -15.87564500790685, -9.881961588810702, 39.60538548276178, 9.058751766923699, -3.04677516395158, -6.7928493782929245, -20.741576056995143, -3.0828143398674386, 13.076618596276628, 10.860509611347316, 56.66739246131766, 20.90580564315733, -24.739445339343554, 24.834193270951044, 29.886943252129342, -22.745063859303702, -4.879637827185883, 28.79648256458708, 11.694909391556942, 56.638204721616276, 75.41912015505193, 21.71658055540364, 25.857571462305454, -3.8130504451209197, 13.895398442687496, 0.0, 0.0, 0.0, -3.946797097244641, -39.67236880892089, 1.066743088566965, 22.885809142879364, -12.825995727960922, -10.824418544766134, 44.778212236444105, -11.867939180635455, 54.824816509695054, 2.187397544092342, 7.021613992103742, 1.0323620358804968, -35.80408349743068, 44.56831640158003, -5.769302605088949, 35.84130717119491, -1.931857701391702, -11.96432723975065, -4.990173810961879, -54.49739243744699, 55.81391023447301, 21.92693255088134, -3.905010005999199, 33.754881976152596, 13.895398442687496, -7.915106490742573, 0.0, 0.0, 0.03339152689425329, -45.65843662301567, 20.95178495259313, 14.973070518146502, 92.39681624486819, 36.866808061827356, 59.53440663398883, -33.770229469873975, 21.817030292235113, 26.798553079822963, 17.963757555334496, 17.828132902777373, 65.67132404730866, 18.93518066069196, 25.682363671013537, 17.77182400750517, -9.997568614870215, -46.739378655878625, 21.82951763537755, 37.85319775432427, -17.68466167181993, -29.824829774047572, 5.884147802198996, 25.782656127744364, 1.9900497512437811, -7.915106490742573, 0.0, 0.0, -1.964610471107745, -49.60475510428948, -2.9859208612831405, 7.082505499154278, 24.940661931377324, -66.4235667458883, 42.974781146020405, -3.0252532084890196, -13.788454318549846, 43.733618946097124, 13.907252511271114, -15.681407064513232, -34.705351983136, -20.892596823372536, -3.9108732169171563, -8.030137167348405, -50.671514810586444, 51.770638823167396, 9.946505842709707, 41.672134070984455, -3.871736096469171, 85.52138495327183, 35.781038569854715, -5.930771739490282, 1.9900497512437811, 0.0, 0.0, 0.0, 5.944491544963858, -17.820558518228026, 22.769586576610696, -0.8207895122952551, -3.080027011940651, -3.100377807151633, -6.0646943429265665, 47.60109846136486, 29.817414670701538, 8.1417105842406, -34.83796322830629, 8.756607940777915, -7.242206159101798, -81.66552720047625, -15.86492116805759, 43.50045395984851, -7.779065047105892, -13.792804601867893, 1.9005228693376672, 45.83263537216803, 61.57712460259217, 10.153827770655335, -7.879697962710138, 23.83006898937472, 1.9900497512437811, 0.0, 0.0, 0.0, 0.0, -27.83784642070465, -21.04248362403021, -16.875360527822195, 0.9880395615760671, 32.02317989393922, -15.883244195035767, 3.952509141811181, 27.857138790378194, -1.9441513551840908, 25.77872210720082, 43.71317991464569, -39.811192435832076, 2.117535110499784, -13.71275586012476, -39.50176657941393, 77.74177015107114, 13.956817417179408, 25.803613185020435, 9.992486717067441, 16.054618069334346, 6.084840213493109, 0.07896377532075816, 19.84001923813094, 3.996007984031936, 0.0, 0.0, 0.0, 0.0, -19.84780473796875, 17.839845606364268, -17.79536352417459, 25.81377097822554, -5.855876290284705, -51.76539237342381, -24.83066965946145, -48.644118438509686, -2.0400990441888602, -29.831088094677924, -68.48124713632512, -41.844228429552565, 23.65125785791069, -67.54398232678565, -14.084085359993333, 19.775757969998804, -29.730749350112198, -15.8594321354699, -1.8858633931585698, 10.11225944292217, 10.035454576267174, -23.79046723172383, 3.996007984031936, 3.996007984031936, 0.0, 0.0, 0.0, 0.0, -13.818634566461403, -2.9096829260551798, -6.829216513689973, -6.939082867796024, 30.77046809387036, -24.83448607117465, -20.83080599041448, -26.940982110004757, -52.764094952176485, -16.934111464666575, 8.893398142704173, 7.972219935296341, 11.797219220869753, 31.699753656482418, -45.57739910243959, 21.954155519571646, 59.54726218583309, 35.72733470593766, 37.75650189405898, 21.914484650708953, -1.9015349295034785, -3.9900259301934513, 0.0, 0.0, 0.0, 0.0, 0.0, 0.0, 0.0, 0.0, -35.69778046492155, -47.6109031648477, -49.649900075250216, -53.64379270825068, -47.78019455187744, -53.77048132092442, -43.794334392633914, -21.909013550589886, -27.76311003759422, -39.62685846161179, -55.5830415821395, -51.59920369137425, -9.974334784009045, 9.903123108643298, -13.952309875437212, -13.952309875437212, -15.918929436296885, -5.990025930193451, -3.9900259301934513, -3.9900259301934513, 0.0, 0.0, 0.0, 0.0, 0.0, 0.0, 0.0, 0.0, 0.0, -5.929055002520849, -9.889454924489208, -9.889454924489208, -3.9603999219683583, 0.0, 0.0, -2.0, -2.0, -2.0, -13.962173138493796, -13.962173138493796, -1.9627085377821394, -1.9627085377821394, 0.0, -1.9704433497536946, -1.9704433497536946, 0.0, 0.0, 0.0, 0.0, 0.0, 0.0, 0.0, 0.0, 0.0, 0.0, 0.0, 0.0, 0.0, 0.0, 0.0, 0.0, 0.0, 0.0, 0.0, 0.0, 0.0, 0.0, 0.0, 0.0, 0.0, 0.0, 0.0, 0.0, 0.0, 0.0, 0.0, 0.0, 0.0, 0.0], "label": "2"}
{"weights": [0.0, 0.0, 0.0, 0.0, 0.0, 0.0, 0.0, 0.0, 0.0, 0.0, 0.0, 0.0, 0.0, 0.0, 0.0, 0.0, 0.0, 0.0, 0.0, 0.0, 0.0, 0.0, 0.0, 0.0, 0.0, 0.0, 0.0, 0.0, 0.0, 0.0, 0.0, 0.0, 0.0, 0.0, 0.0, 0.0, 0.0, 0.0, 0.0, 0.0, 0.0, 0.0, 0.0, -1.9900497512437811, -1.9900497512437811, -1.9900497512437811, 0.0, 0.0, 0.0, 0.0, 0.0, 0.0, 0.0, 0.0, 0.0, 0.0, 0.0, 0.0, 0.0, 0.0, 0.0, 0.0, 0.0, 0.0, 0.0, 0.0, 0.0, -7.936652583960823, -7.936652583960823, -9.910986246349767, -13.910986246349765, -15.901035997593546, -9.970212304250735, -16.89326241359964, -10.923050109348903, -1.0, 0.0, 0.0, 0.0, 0.0, 0.0, 0.0, 0.0, 0.0, 0.0, 0.0, 0.0, 0.0, 0.0, 0.0, 0.0, -3.976206003833916, -3.976206003833916, -7.926831958568522, -17.834089886465158, -17.849853191987144, -15.877466604215943, 2.0706331752150096, 0.03900497743378928, 17.97930686280147, -18.816326190588764, -18.871351017244056, -30.79227325267539, -1.0135957777169837, -2.0253199487238387, 21.845826244432796, 0.0, 0.0, 0.0, 0.0, 0.0, 0.0, 0.0, 0.0, 0.0, 0.0, 3.976206003833916, -1.9627085377821394, -9.911250202006999, 3.9898432132509147, -1.966611071925584, -7.958576084876196, 9.968036375660544, 27.869182628310735, -5.9860745944582625, -27.869250766411945, -17.912808839517666, -5.005350743789238, 12.956086198793397, -24.87806945087689, -16.933090104186114, -1.9212954937798408, -3.9309316483942665, -1.9744262471084282, 0.039521705289027986, 1.9841269841269842, 1.9841269841269842, 0.0, 0.0, 0.0, 0.0, 0.0, 0.0, 0.0, -1.9627085377821394, -7.905487547926777, 17.892969004037056, 11.908901306631758, -35.6488577400537, -5.984590521952496, -45.76042192982579, -25.745596103487202, -27.806737285098382, -7.771684209275394, -2.958643668965062, 0.9489992601450767, 19.887171661712905, -16.85409201469459, -10.849885850031427, 59.732374971079146, -17.631246724450964, 9.987707517206067, -27.85332030529303, 2.925105363323819, -2.0213951397340053, -2.0, 0.0, 0.0, 0.0, 0.0, 0.0, 0.0, -1.9627085377821394, -13.883616739205355, -11.909370194084842, -17.893437891490134, -22.81086546290256, -12.949110335152428, 16.819639593199838, -12.87814929935669, -14.940607106619636, -6.154937796524962, -11.852621150189059, -15.817182877405672, -32.90315316726851, -11.035326594064498, -12.89553695912667, 27.845515763701332, -21.802524583667836, 19.92227282765744, -18.960437632370482, -24.95367783017699, -11.995496707651258, -21.861515914576227, 0.0, 0.0, 0.0, 0.0, 0.0, 0.0, 0.0, -39.752683917929396, -29.86530344544532, -15.01352668727894, -34.74516238657997, -34.82040088283217, 0.9578140000544151, -28.983844540940787, -43.8156192045864, -22.032235137783147, -9.956586829930112, -8.921372564233987, -42.76032076235868, 0.9075631801094373, 8.995779992724783, -21.84268049193737, -5.984506851376052, 4.046441223021686, -14.921829540544827, 7.922719051119792, -35.74115595780052, -7.905538475307038, -3.933151887535834, 0.0, 0.0, 0.0, 0.0, 0.0, 0.0, -35.78027023353406, -6.054917293537841, -11.946509472643621, 16.788740393295328, -5.004108835846587, -15.021715946210955, 26.877299017351287, 8.00752640725058, -14.003249976333965, 21.861365635113202, 18.743134851754526, -1.0863464214417915, -44.64302332709901, 20.96341355956909, -10.903644311258153, -22.81874176308819, -10.915615201291603, 9.889075334016997, -9.905538475307038, -5.905538475307037, -5.905538475307037, -3.933151887535834, 0.0, 0.0, -2.0, 0.0, 0.0, -1.9900497512437811, -29.835544459389453, -8.027065873346114, -33.80181908533086, 16.80856195815544, -7.002413596768978, -24.820313867750745, 7.120183223514767, -47.64610047347199, 7.844091617491216, 4.1232388535092745, -9.859440720665788, -3.011745332710149, 7.973569807202219, 2.9622643544622123, -52.714779882151625, -12.983984436246663, -7.972629018838543, -25.820520560671252, -5.9723865877712035, -4.0, -4.0, 0.0, 0.0, 0.0, 0.0, 0.0, 0.0, -1.9900497512437811, -17.853471547606812, -5.989611577565832, -5.936471621034613, -1.8996925949590207, 17.902544610718643, -27.873707380480727, 8.068226043900406, 15.700436182336231, 0.033345710118859895, 27.884924542968538, 17.964644542384274, 22.785299200533956, 12.87156006997284, 2.8558480012719665, -16.99701300716473, -22.936408504856814, -2.037568207406667, -9.944777012142637, -9.944777012142637, -4.0, 25.807881218205075, -2.0, 0.0, 0.0, 0.0, 0.0, -15.893223407690693, -17.883273158934472, -29.770536098660557, 3.958483791674947, 9.983997415898095, -11.812900386841926, -27.77922755810881, -2.0989020499487947, 3.913031720598163, -31.81000735457636, 0.1138093378441356, 15.960479054511913, 16.96476734461347, 30.72816896719116, -12.942332875163796, 4.830293701280757, -7.1037588685438795, -39.737288455502245, -9.901637398152122, -7.944777012142638, -7.944777012142638, -5.9626385402416835, 23.80987922020308, 0.0, 0.0, 0.0, 0.0, 0.0, 0.0, -15.893223407690693, -27.798149510889353, 43.732650147445256, 13.926631703571793, -13.852132011903796, -3.9966080672806847, -48.810088263726136, -17.084598380862356, -3.935587433229117, 28.83963073599466, 38.774659916674, 34.89258989349083, -16.900380245431112, 0.9197553473137892, 42.64207066976666, 19.745071205241516, -37.77892320329922, -23.84396531651974, -3.9626385402416835, -3.9626385402416835, -3.9626385402416835, -3.9626385402416835, 0.0, 0.0, 0.0, 0.0, 0.0, 0.0, 0.0, 13.944345340637613, 43.69918849560236, 21.808038166599314, 8.001218751330335, 13.908067864193399, -36.848109686217924, -34.84165515527156, -17.816180121710783, 45.77275806409348, 12.043839488061185, 25.90281743056917, 49.70161630187434, 0.9688425555780809, 2.0071104860788376, -47.71365562607315, -21.89519628840904, -29.818175780739203, -5.9626385402416835, -3.9626385402416835, -3.9626385402416835, -3.9626385402416835, 0.0, 0.0, 0.0, 0.0, 0.0, 0.0, 0.0, 15.940353324669548, 5.99371242150076, -35.76064367574435, -31.78511772623236, -27.81076482242486, -11.149728786929046, -9.073032674791165, 18.94807306500307, 1.0420559174595603, -0.8697609622521734, 7.041340617383307, -6.993107161170618, -3.875990223509501, -2.063484441560377, -28.796369081989948, 3.9524950195792767, 5.918747642226828, -3.9646365422396856, -1.9646365422396856, -1.9646365422396856, 25.79837565683261, 25.79837565683261, 0.0, 0.0, 0.0, 0.0, 0.0, 0.0, -7.918868367922945, -13.897005334083863, -25.776675339228614, 1.9661080778226672, -25.836179211919905, -50.85481014651112, 24.645090844996417, -5.789863895238067, 11.90357301745466, 16.989926393374493, 9.033941256468712, 25.78518977479075, -17.897818022373947, 1.9501050923552739, -39.71933050979392, -20.859355068470208, 5.907256876616254, -5.986057735275717, -1.9900497512437811, 0.0, 0.0, 0.0, 0.0, 0.0, 0.0, 0.0, 0.0, 0.0, 0.0, -15.827908381593566, -15.881445526071817, -2.0336197234101787, 13.808138224536284, -13.056718569027897, -0.06133576201138613, 5.958432229943995, 15.954904384637834, 12.061486010575914, 12.982532771978175, -11.990767061137483, 25.736737885756458, -27.912564998429243, -2.0200697668040704, -42.73069559367829, -29.800036899383088, -5.986057735275717, -1.996007984031936, -1.996007984031936, 0.0, 0.0, 0.0, 0.0, 0.0, 0.0, 0.0, 0.0, -5.911038015668624, -13.881426601441822, -27.786344788036253, 31.78048850632089, -26.930040178561324, -9.909481776588116, -47.699442812070835, -39.84191843033052, 7.988748725031007, 25.822423519431183, -31.791981423956894, -27.86963710425226, -36.72384354032664, -17.96780163298906, 17.86149363767599, -21.86957640055361, -27.847325069449038, -15.950335379705772, -13.950335379705772, -7.992015968063871, -2.0, -1.9940179461615155, 0.0, 0.0, 0.0, 0.0, -5.9369291112518585, -5.9369291112518585, -27.86122327276932, 7.934422744253289, -25.82248456590146, -8.088490305538791, -33.82017694391373, -7.999779131363455, -21.9025441698176, 0.019811128250184495, 26.905106303180887, 36.782659164708484, -4.968490751894969, -24.99926286310503, 6.889364863420292, -31.796495643188784, 13.916691465452569, 20.90624081265018, -23.814159963690617, -27.86535261753136, -23.892966029760156, -3.996327368368262, -5.954686293483467, -1.9940179461615155, 25.80418567700283, 0.0, 0.0, -1.9880715705765408, -7.9250006818284, -9.915050433072182, -35.79020013726296, -57.654125936872994, -69.66323951582177, -44.76619686679596, 5.991373223081018, 13.84155580698113, -21.790674049441723, 21.93408234735052, 19.86768836745133, -13.969471423679558, 11.873336100173892, -15.918470244720206, -35.79801723619026, 37.738733108010464, 29.83948691578575, 24.751178118506594, 7.907251369877825, -9.972337864914955, -8.005836053467988, 9.916885914008986, 17.900621895369262, 0.0, 25.80418567700283, 0.0, 0.0, -1.9880715705765408, 17.887120901175, 15.897071149931215, -5.966150124836096, -4.04553028230924, 26.749470822267124, -18.883485100005014, -11.951172075519231, 26.760320009472277, 0.9684163363225542, -1.9721847028059711, -13.94070815156471, 10.01739684934554, 8.00383603130111, 49.63266590613652, -33.86099776592704, 13.85411467209614, -10.889308224477201, -15.916970215228574, 11.96612868417657, -9.925157392711796, -11.907348242688968, 3.9721759731671984, 55.57662601236218, 0.0, 0.0, 0.0, 0.0, 0.0, 19.875192471751543, 15.897071149931215, -9.940436707818332, 60.59658020981089, 12.887286030850081, -5.873826787526804, 21.876732333402227, -16.974142618420842, -14.978062717187694, -16.98994237050838, -11.879898856387308, -27.822280892178178, -13.988213303898338, 17.86509612552292, 10.877607325890901, -33.719693553028996, -17.90324514774996, 11.890952581678512, 19.886612578604815, 1.980014008793856, -15.889328564064904, 33.782091594271776, 29.752813886501592, 0.0, 0.0, 0.0, 0.0, 0.0, 19.875192471751543, 19.875192471751543, -2.9566185416645876, 26.80704996744113, 33.73385139142426, -33.68364983272755, -14.85598118311362, -30.836426243678332, -6.876617668204737, 14.955463384122679, -18.806637660817575, 28.76585785333794, -21.975785756247824, -19.903084647563226, -3.9839227498533583, 7.966474300428212, -21.914583760579784, 3.9779249708143376, 27.7741658267806, 9.920546615179465, 15.87523290866293, 29.752813886501592, 33.72901989033551, 0.0, 0.0, 0.0, 0.0, 0.0, 0.0, -28.786532772570954, -7.946411997728729, -5.98948387974038, -8.033154944776475, -15.853797918124194, -4.98471892662935, 0.9519813257226728, -9.04485909599686, -9.105973984637465, -14.033034373839172, 23.744789990184312, 5.913498696043256, 7.88779381494305, 25.985123217622654, 31.870815795006376, 9.921019817621838, 4.033173677291613, -17.822469240976353, -13.877580977838658, -13.877580977838658, 0.0, 0.0, 0.0, 0.0, 0.0, 0.0, 0.0, 0.0, -22.84960366131909, -5.991611868605853, 5.974460685683132, -15.890671713281037, -11.971735930947858, -32.79960929988291, -2.9763800882875118, -10.01002064770815, -43.75627981601856, 11.861566873776509, -17.848564749006787, -5.869948469843239, -11.816984031421525, -11.795426861252738, 11.968236878411174, -1.964231317262978, -5.934767850430466, -27.772782547875586, -1.9704433497536946, -1.9704433497536946, -1.9704433497536946, 0.0, 0.0, 0.0, 0.0, 0.0, 0.0, 0.0, -1.998001998001998, -3.9920199441635136, -5.984051816673474, -5.986049818671476, -11.97799594192682, -27.80019039053597, -47.74071150706095, -29.900831444264938, -39.87098821361707, -45.68974194738361, -59.58110914979673, -45.707441491942475, -33.78837095226689, -11.962299100241117, -5.952416102334167, -3.974176735370765, -1.9841269841269842, 0.0, 0.0, 0.0, 0.0, 0.0, 0.0, 0.0, 0.0, 0.0, 0.0, -1.998001998001998, -1.998001998001998, -3.990033870511958, -3.99203187250996, -7.964324441522133, -15.87939533150599, -13.879395331505991, -13.90708685804773, -13.954479261981078, -21.92868726381699, -11.95049258681615, -17.88919381034342, -11.905035559751287, -7.93870122352727, -3.990049751243781, -3.990049751243781, -3.974176735370765, -1.9841269841269842, 0.0, 0.0, 0.0, 0.0, 0.0, 0.0, 0.0, 0.0, 0.0, 0.0, 0.0, 0.0, 0.0, 0.0, 0.0, 0.0, 0.0, 0.0, 0.0, -1.998001998001998, -1.998001998001998, -1.998001998001998, 0.0, 0.0, 0.0, -1.9900497512437811, -1.9900497512437811, 0.0, 0.0, 0.0, 0.0, 0.0, 0.0, 0.0, 0.0], "label": "1"}
{"weights": [0.0, 0.0, 0.0, 0.0, 0.0, 0.0, 0.0, 0.0, 0.0, 0.0, 0.0, 0.0, 0.0, 0.0, 0.0, 0.0, 0.0, 0.0, 0.0, 0.0, 0.0, 0.0, 0.0, 0.0, 0.0, 0.0, 0.0, 0.0, 0.0, 0.0, 0.0, 0.0, 0.0, 0.0, 0.0, 0.0, 0.0, 0.0, 0.0, 0.0, 0.0, 0.0, 0.0, 0.0, 0.0, 0.0, 0.0, 0.0, 0.0, 0.0, 0.0, 0.0, 0.0, 0.0, 0.0, 0.0, 0.0, 0.0, 0.0, 0.0, 0.0, 0.0, 0.0, 0.0, 0.0, 0.0, 0.0, 0.0, -1.9900497512437811, -3.988051749245779, -7.972178733372763, -7.976146928290498, -13.88137488185499, -15.88137488185499, -13.932684110060745, -9.952486090258764, -3.990049751243781, 0.0, 0.0, 0.0, 0.0, 0.0, 0.0, 0.0, 0.0, 0.0, 0.0, 0.0, 0.0, 0.0, 0.0, 0.0, 0.0, 0.0, 0.0, -5.960297522289542, -35.64830497755217, -41.630433959681156, -17.95820865957021, -25.84195236845561, -21.840021406128606, -27.827870954147688, -17.883302357429926, -17.877273226973106, -3.9741688893451608, -3.9741688893451608, 0.0, 0.0, 0.0, 0.0, 0.0, 0.0, 0.0, 0.0, 0.0, 0.0, 0.0, 0.0, 0.0, -9.960313284732116, -9.960313284732116, -31.69424538411905, 9.989258065567503, 21.863308472769177, -3.8957792982005626, -50.5307349581966, -38.800946328845846, -35.00265485631613, -38.018706641136816, -73.6041137077144, -69.63400991201082, -77.4624191126325, -51.581334480870254, -31.695797927439934, -27.72162903809477, -25.72959716558481, 0.0, 0.0, 0.0, 0.0, 0.0, 0.0, 0.0, 0.0, -2.0, 0.0, -15.914789621265006, -33.73917928733949, -51.68515291541266, -47.728989739137106, -59.60302788019953, 33.682288867348454, 25.749590641902188, -64.57439395757477, -27.134949421390704, -36.81998511946266, -77.56553007888517, -9.132683079022675, -54.8219474713501, -50.71963389953451, 2.924659204622612, -94.34602804826906, -54.57140136001821, -16.918863831078482, -7.978239366963402, -3.9782393669634026, 0.0, 0.0, 0.0, 0.0, 0.0, -2.0, -4.0, -57.563700112871416, -45.79628561841803, -61.73503215039614, -5.076994989769473, -1.1964283988502116, 38.56813202356751, 22.91656325261973, -3.919679897072449, 83.48238695803241, -9.87181658594681, 10.161135965081586, 29.0120678578902, 46.95580742516538, 0.022156368541685456, 11.936060596358557, 1.0618831961078667, -58.778096413109026, -128.30182201711852, -48.75309609467796, -45.74113285727109, -43.69580892760092, -4.0, -2.0, 0.0, -3.9643366857320226, 0.0, -7.978200017803978, -33.814033156435265, -29.946232404629427, -67.71314449746883, 34.50437628304405, -21.009902994803685, -8.195812279247551, 5.139863930791636, -50.75837878185681, 2.085860992912439, 18.785940893464783, 94.67708311267705, 100.62205770791952, 54.84899415482689, -12.605348268287656, -13.994052042557016, -22.846112131564166, 36.64766150540959, 2.9987671268716594, -42.845686608563085, 3.825778652154455, -55.756576590801636, -61.62430045211393, -27.873272293281303, -2.0, 0.0, 0.0, 0.0, -7.978200017803978, -23.938281789826128, -41.861386118343624, -15.934979138195866, -16.082837250846385, -49.72332485223051, 13.824237259555137, -33.84764702227179, 0.17160673204074017, 31.76965617566282, 42.83613652526912, 40.86752538678985, -16.85126591945908, -2.918821108671175, 50.80569944731339, -22.857336022680897, -34.7472668089833, 10.789059122778223, -5.027288646224184, -18.938697107905305, -38.02167660692392, -83.51631975330342, -51.67384013728886, -25.873272293281303, 0.0, 0.0, 0.0, -11.895264372941375, -11.94261847808514, -19.98435173111676, -23.786776297814704, -9.920844019465509, -16.982344768127067, -3.0306685435668634, -7.196451262399604, 8.09660509496123, 7.97475692232808, -11.732323975077032, -38.008705009456946, 24.782795242985927, -41.76432982586192, -11.957374496311848, -31.944455142782626, -16.039829798135855, -15.99428703639788, -58.748354592740476, -26.959390600906215, -19.03928913371816, -10.168535187052495, -85.39637773622078, -45.69567159825198, -7.94470994084179, 0.0, 0.0, 0.0, -7.936613305944665, -37.72136334404132, -63.632303757076095, 41.808906392258805, -26.86547237083436, -17.844826446142903, -5.033107908405473, 77.50551294875633, -31.833300404552144, -0.046993373405829875, -20.755074060037373, 12.809724194398658, 14.866998841659923, -23.079409227500367, 19.71762243864437, -44.65639329983051, 6.0175291105573585, 35.93273001145169, -11.053101808557573, -18.880873962916212, 38.80007830101769, -2.0971549012496102, -63.439538482792, -9.926870495846746, 0.0, 0.0, 0.0, 0.0, -17.8772102673923, -53.592939839007414, -12.034789249672155, 69.61590128536616, 59.57412764288804, -20.87325033458575, 0.10477354795334737, -1.9276855778569306, -3.034622891694902, 38.607976025690064, 2.8747922011234217, -43.82135813505477, 1.985246260029938, -2.085065233345173, -8.064588465710193, 50.76774180677196, -7.016350609550349, 28.808715903877847, 14.8716972107165, 29.086000413913368, 0.14756085242100525, -20.0211069626107, -37.766382333862225, 5.913203278860813, -1.9940179461615155, -1.9940179461615155, 0.0, 0.0, -15.885178394882338, -39.66779201615503, -2.050775962781428, 14.00758182414965, 16.899704347480494, 80.43351125004229, -9.706770257461507, 24.94000240999266, 63.44971495706752, 1.9683195746756459, 38.78823599536704, -41.70162927176946, 8.852314739080164, 12.046695619817362, -23.884532508758166, 8.941151063070564, -20.937590964811882, 11.909753558293483, 28.826640645196584, 43.649186887320276, 3.8760499848849492, -39.754672954316035, -11.995294457141265, -19.86911372408894, -1.9940179461615155, -1.9940179461615155, 0.0, 0.0, 0.0, -17.80669080410286, -17.957712520054926, 26.88160732106527, 36.9912979983243, 48.71256616499579, 29.762881656062056, 4.012547485931506, -34.609567020944574, -2.049485340696267, 12.175021695760261, 25.0348326704717, 38.760912006996044, -7.932821466053046, -8.001683695914844, -18.938192640359137, -18.94761909898065, 16.88370272510825, 12.902288895310521, -50.684473913607064, 57.47795933744079, -25.90660457334316, -31.803975197765578, -29.77450264619406, 5.935072275257628, 0.0, 0.0, 0.0, 0.0, -13.8248179084503, -41.774765352660175, -22.754527235183584, -28.64110487431849, 18.84206785049915, -43.64659120496975, 36.80826113273348, 4.856190309499322, 17.841718263158576, 21.906144138885832, -1.9275676083026374, 47.74049334579613, -16.894973210871047, -32.92231858792162, 57.59285897369868, -7.860104658549153, -15.87180723177397, 16.720128589631322, 20.774826821495314, 25.726927930601875, -23.942099609521076, -73.42906144595906, -21.824061520905538, 5.935072275257628, 0.0, 0.0, 0.0, 0.0, -7.942941146237551, 25.6821546153156, 29.514958866216425, 24.892092569368174, -56.501820349569726, 20.78294738034913, 29.904554647633837, -20.65245287596424, 10.015551105299185, -10.992390598248019, 9.000645327103708, -34.74564266395249, -21.842179419480445, 15.859014992863736, 9.115942248134417, -2.8504207956218264, -37.82335405654466, -2.100794699523386, -33.79820159373805, 11.729476944610385, -43.76251829489874, -85.35974383690399, 5.935072275257628, 7.921204433088349, 0.0, 0.0, 0.0, 0.0, -7.931127443194102, 13.90104748184951, -39.74693328632069, -4.887945613414695, 16.76502780807103, -38.838065801072204, 38.66821444673361, 2.033687562548125, 2.101042524790366, 2.9426822339325978, -47.88225518337444, -32.945038859179434, -6.864831382002135, 9.006011732831812, -33.82448258049063, 20.73209072637202, 18.861289173925368, -64.63224261000168, 49.47253833616835, -67.67158962417098, -75.4623364526992, -25.89290274665529, 1.9390642912256921, 3.9646289255039333, 0.0, 0.0, 0.0, 0.0, -5.883816626171209, -43.583652296653604, 51.46092911611063, -15.00939681399848, 3.0459306544116793, 14.90303127638641, -5.969181013647509, 34.901866680703925, 68.58262980172816, -56.627521026748425, 30.801015633939254, -14.061103517523007, 26.855378544610257, -57.74223974672825, 32.89146587111522, -48.57554788167503, -4.981651273082779, 1.8224221443180548, -9.99985870224056, -69.62064390087727, -79.51818149084365, -41.79630914667184, -9.946363220569172, -5.964461295915211, 0.0, 0.0, 0.0, -3.986049818671476, -7.942723382292197, -59.476416079801986, -11.92065596288756, 11.824587623894937, -22.677277247746023, 32.99051964916114, -11.961758147463174, 17.5922274729578, -11.861354019742807, -3.0102495542159815, -29.815751941986484, 42.75817265379287, -25.85534566681053, 40.88401002961296, -47.527405975000605, 26.763360414061445, 13.016828167019412, -26.832358889773058, -41.87119580997339, -13.9805556014646, -27.926867243673353, -23.83800245966351, -9.946363220569172, -5.964461295915211, 0.0, 0.0, 0.0, -3.986049818671476, -11.907060068024217, -35.741136054076094, 15.72627572625588, -6.028958910840176, 0.10992256696933378, 23.949278749383954, -90.36248677634721, 25.866796571981734, 50.44750623098741, -38.743242486783, -27.631642035600233, -54.812927769494756, -20.88791952709967, -3.0566962573732774, 8.827504928488636, -32.93017859814357, 2.0016665399200555, 2.8934840565881554, -31.946181893965548, -25.85942888051985, -4.094666475385411, 27.731543675027815, -1.9821605550049555, 0.0, 0.0, 0.0, 0.0, 0.0, 3.9682685708085605, -39.69780446882574, -83.37152947775371, 55.38797324597357, -9.858093207476752, -41.564591354014524, -4.189747876082425, -49.702569942271694, -58.816064727366346, -18.036947663798706, 17.861334975710697, 3.865952705858398, -66.71857974149681, -23.792603228274377, 18.824024985895047, -56.666205148466496, -38.6283719826681, 61.53556108479546, -6.1317864003569955, 0.07835660794832844, 3.9998073933410105, 45.675908893598994, 0.0, 0.0, 0.0, 0.0, 0.0, 0.0, -13.91704478753156, -15.913072931326816, -35.782443730191225, 9.839852345639205, 31.66195970399613, -30.794907314124455, -27.948324054387772, 26.63829054090532, -14.949630621688767, -16.01325394547799, -29.7167300166777, 11.875415307119345, 7.0227880728655645, -44.73952081782388, -87.5966713988877, -25.902478456781193, -5.833752266352002, -17.922816773434693, -47.62667093062642, 4.0114215119980035, -5.960505891391106, 37.75682594396983, -11.893275377144077, 0.0, 0.0, 0.0, 0.0, 0.0, -5.956668414749646, -19.873713202281206, -55.59900497872244, 39.677686496115456, -11.005919454884847, -23.751707602806942, -43.524123293647456, -8.89196375377547, 24.70106673986251, 30.63115631726053, -29.784402746876644, 14.786464575073856, -25.620407652437102, -54.567685658286166, -18.072216812543047, 50.538273572601206, -3.958043704253527, -41.72496752597786, -27.739684691381687, -53.47903849977391, -33.70947953977403, 0.06935456737181589, -11.893275377144077, 0.0, 0.0, 0.0, 0.0, 0.0, -3.956668414749646, 14.794784706678906, -12.948827408747546, -84.24629407956654, 43.58073212133536, 45.5272043093528, -12.994092724394314, -20.809600358302426, -59.88184099866222, 11.916353452393375, -16.04384618270516, -45.76855657782912, 41.500454818484066, -14.044606506055926, 24.51047370252823, 44.65189690072321, -43.817330916656324, -12.06054879299777, 17.981376320245058, 17.9067410689358, 37.63109923585103, 17.85015813533259, 0.0, 0.0, 0.0, 0.0, 0.0, 0.0, -5.9820578027034115, 16.816385187739858, 2.9683182600520124, -7.917281507737563, -19.90487841657933, -13.987309006566587, 22.69874045582752, -12.941880660863514, -50.803100025820186, -31.627820234184814, -42.77674387310076, -38.86704624246002, -1.0465835543353004, -34.8816443710057, -72.48444145722203, -33.86351453875975, 47.44582656524873, -31.74508069587402, -3.852224715212882, 101.21730393375715, 61.4254216773605, 2.0178039782000177, 0.0, 0.0, 0.0, 0.0, 0.0, 0.0, -5.9820578027034115, 1.9703738522892265, -11.857996283027509, 42.60114105335379, -70.48563118486844, 16.946591017038692, -41.724920878747696, 36.79210297016024, 5.126378881922262, 35.75345562317945, 5.991923184797271, -23.018382316746138, -8.003649071563869, -32.636929928899264, 36.800734194298556, 31.8795721933861, 29.69817581482026, -15.860121164809952, 41.681599061923414, 115.05356292344203, 35.703878962459065, 23.810480125119646, 0.0, 0.0, 0.0, 0.0, 0.0, 0.0, 7.952431654992638, 13.885241355836717, 15.841909770586362, 6.811010509291403, -16.940226648517523, 22.79868024950767, 7.855786570153468, 17.70761060455748, 5.842094311759686, 19.85141790153091, 43.772262167972855, 37.769431416383455, -3.9287519111411098, 27.78472734798868, 23.761249232158907, -11.871395808040422, -53.52013385109352, -15.828401010609872, -11.840462785160145, 6.013465152961771, 27.755251009722453, 0.0, 0.0, 0.0, 0.0, 0.0, 0.0, 0.0, 0.0, 0.0, -27.733380301151325, -29.733380301151325, -4.0, -4.0, -11.873593656339699, -19.814218434937825, -23.8002682536093, -23.729439999667907, -13.826289693081906, -9.906868132747514, 1.950677049694367, -5.997888039243305, -29.76899243569451, 5.991763929639307, 9.93859945154843, -1.9723865877712032, -33.69594165107169, -33.69594165107169, 0.0, 0.0, 0.0, 0.0, 0.0], "label": "9"}
{"weights": [0.0, 0.0, 0.0, 0.0, 0.0, 0.0, 0.0, 0.0, 0.0, 0.0, 0.0, 0.0, 0.0, 0.0, 0.0, 0.0, 0.0, 0.0, 0.0, 0.0, 0.0, 0.0, 0.0, 0.0, 0.0, 0.0, 0.0, 0.0, 0.0, 0.0, 0.0, 0.0, 0.0, 0.0, 0.0, 0.0, 0.0, 0.0, 0.0, 0.0, 0.0, 0.0, 0.0, 0.0, 0.0, 0.0, 0.0, 0.0, 0.0, 0.0, 0.0, 0.0, 0.0, 0.0, 0.0, 0.0, 0.0, 0.0, 0.0, 0.0, 0.0, 0.0, 0.0, -1.9900497512437811, -1.9900497512437811, -1.9900497512437811, -1.9900497512437811, -1.9900497512437811, -1.9900497512437811, 0.0, 0.0, -3.937042200171083, -5.937042200171083, -9.897500358518828, -5.960458158347744, 0.0, 0.0, 0.0, 0.0, 0.0, 0.0, 0.0, 0.0, 0.0, 0.0, 0.0, 0.0, 0.0, 0.0, -3.9782393669634026, -3.9782393669634026, -13.865743229375635, -33.691671495799675, -11.871332643266186, -11.873610199890765, -9.986478441010345, 9.80012151048697, 5.843591874433979, -21.91734140894978, -29.708886204118272, -3.95472884561927, 31.778832423810154, 13.92500820290033, 19.95595144094785, 15.981555125667745, 19.857486308973428, -1.998001998001998, 0.0, 0.0, 0.0, 0.0, 0.0, 0.0, 0.0, 0.0, 0.0, -17.85990364512745, 15.828351372307896, 5.950925346444068, 31.796970385252013, 15.96256327739606, -31.870214201489755, 5.8527585023446616, -27.918105444440872, -3.914992944645333, -4.017236011680527, -31.78197593171087, 0.038801916033928574, 18.80274380307785, -13.91243204469118, -15.927360257333214, 11.772324557270034, -67.62832006671147, -39.808394713925104, -3.994422738000682, -35.81595863864391, -3.998001998001998, 0.0, 0.0, 0.0, 0.0, 0.0, 0.0, 29.792008202332056, 19.85745163522843, 2.019646187782732, 7.996502031480727, 1.0361876854092675, -8.938391819706093, 36.68921715556793, 11.06022283724703, -29.854891573737362, 34.85094237271645, -66.43543035609332, -12.960600709633564, 35.64839471479868, -62.61795020556222, -2.053444245747947, -4.909328827983854, -56.74106767538392, -44.76290348734772, -60.91923197159859, -25.003648496651397, -32.930275234908756, -11.930788507741559, -2.0, 0.0, 0.0, 0.0, 0.0, 0.0, 45.671302631581476, 21.871492098463225, 17.987910303875797, 52.73310084344879, -10.9241562947874, 61.29215537285609, -37.7873524886154, 46.74444219755149, 29.78146312953678, 43.67449137388421, 34.68074891647529, 22.795483677518284, 11.838555205081073, 33.68888119903868, -4.924367914811821, -50.83126242560754, -13.028956481584268, 18.827803706345296, -19.06787779903816, 4.855823790000697, -70.72439458347272, -45.77644478456918, -25.81802827060052, 0.0, 0.0, 0.0, 0.0, -5.994017946161516, 39.724700915357026, 53.65775419588699, -33.777915207344705, 30.77540522844984, -15.843404380508916, 25.730864694848734, 6.912865342524103, -31.823549250591515, -52.40503862824502, 31.786052479812138, -38.69624872696215, -2.824499899520849, 2.0638745589367002, -45.79495628437458, 26.948272621264625, 36.99012542154388, -4.744106601149275, -38.67864080643026, -11.001515463968262, -3.0704980360028586, -2.1321387973379715, -61.69523981915075, -33.796157461879105, 0.0, 0.0, 0.0, -3.9389702046286295, -25.778839909256174, 29.8536330035458, 73.52307492214403, 15.900914307165634, 21.889032763904705, -63.59052650416819, -46.84160725826651, -13.932802986769499, 49.4566618152988, 8.859139941102566, -60.7287445032393, -43.59468088182062, -0.07074419309983115, -21.927894627275087, 25.873986906092824, 4.123455343532514, -43.6331542098974, 8.0089080636216, 28.755353419645566, -4.03120511766836, -4.098124035975463, -17.891969153032264, -99.40263572522638, -25.894927680308285, 0.0, 0.0, 0.0, -3.9389702046286295, -17.8162556228469, 13.881888694548202, 0.05523420841113813, -41.495015450398675, 95.38932555375975, 3.994923442964652, 22.761037416574815, 7.981145336382978, -36.78092120286633, 5.833330371240745, 0.8556673300156481, 21.88222806342617, -4.008693853390524, 10.952481691972222, -16.751502980511756, 13.929302648022649, 2.190486862369886, -31.741330585116533, 32.880351289728786, -15.979178555677931, -11.968222562479903, -47.739023089037886, -83.43257389659023, -21.887163311963015, 0.0, 0.0, 0.0, 0.0, -11.879283420216273, -5.956009993580647, -9.95857935460947, -3.966751122548031, 21.743934740139952, -13.905316736310649, -8.152678432724723, -52.98128640589249, -53.91800434354548, -46.826014636597385, -37.90937351830878, -38.51684892565702, 27.69199013963976, -15.952634830937773, 49.75832001577631, -23.582713170515213, 31.687642362467603, 11.94692842401552, 40.95161726951563, -3.814771277548369, 21.92861086919571, 19.615359682427755, -35.72527808178775, -33.72931963372598, 0.0, 0.0, 0.0, 0.0, -17.845851758466026, -21.859319061090417, -17.967901268094646, -37.8277171747192, -59.563114268204316, 3.8015335601222446, 13.775340409086585, -27.89113684478391, -27.091939166340868, -14.076233524840289, -2.101900381145228, 7.054905793227329, 33.673077243522634, -9.81149191424382, 42.80123195042206, -15.060124451454923, -21.809466431342475, 27.829281476347656, -5.038410764927249, -19.820397945943878, -12.113985663476395, -29.971418797266303, -19.84177357530026, -29.73331164969404, 0.0, 0.0, 0.0, -2.0, -19.831949077234647, -19.831949077234647, -31.686152015213374, -47.621257831741325, -27.921067602653096, 3.843145478537977, -10.024220222839318, -57.68166714519636, -73.55924555553302, 48.52497421619908, 12.970742766086396, -0.1767110537895289, 16.933743515727635, -30.69936501876079, 29.864991681268947, -8.049971863065396, 57.57710064552397, -42.84524880354102, -15.811334779642843, -51.96302215457136, -45.7645484399155, -25.938187838840907, -5.926902832349418, 0.0, 0.0, 0.0, 0.0, -2.0, -3.9860973187686195, 5.931231306509053, -27.75691009289707, -43.73148640426511, 19.672171329854574, -4.096976531357537, -18.03283210133403, 3.0740457480084604, 49.422045766710454, 5.184894209552489, 1.1082394609366721, 38.66635310130074, 48.65662437894731, 6.997410860148243, -50.56747692673662, 51.80808156731365, -22.00175489385814, -1.0816727051992858, 15.802615191216868, -47.83184978536452, -41.91984837957612, -17.90272222835517, -11.883279353317869, 0.0, 0.0, 0.0, 0.0, -2.0, -3.9860973187686195, -2.0, -9.90921011902473, 5.808756453006033, -16.025912872881406, -29.952486734535192, 5.90349530792356, 61.6422697199005, -36.86945090119969, -27.833528213451803, -5.88464517138082, -19.042258437343538, 38.54482898416518, -30.820424408195162, -24.932482826919802, 38.594146639453854, -22.698495642624177, -11.944785831225543, 2.8667436714574936, 5.977773164042336, -31.928343932125134, -17.820335947884555, 25.741589554047337, 0.0, 0.0, 0.0, 0.0, 0.0, -2.0, -29.733466908258258, -17.873799473819666, -27.93236685861994, -117.37627730334299, -42.040943705812985, 19.672047686858086, -7.926793762088531, -48.68511302518323, 54.5344246696279, 30.791066853943153, -5.0590938510949215, 31.746683515229034, -20.847558098474654, 0.991185081956707, -52.8075277063634, -23.940962105673805, -14.993174448683833, -66.62734286145921, 33.94308631062492, 21.79989406800268, 23.86938285025782, 23.74748163247829, 0.0, 25.792495607548776, 0.0, 0.0, 0.0, 7.968178871379095, -23.75524016434997, -5.917441236861081, 21.676282893095983, 13.83795622208909, -49.86852958800337, -13.984002776366967, -6.949481712678278, 8.686336297157249, -26.963734702082437, -0.0017614977020561362, -54.6571013190055, -14.97215341636805, -14.837274851440073, -14.882011179809032, -25.998661506516115, -10.771153564469854, 58.51319844983299, 52.4289348579178, 10.111940503783451, 57.62035980308206, -21.76752039912549, -15.961659804101904, -35.74058033707327, 0.0, 0.0, 0.0, 0.0, 7.968178871379095, 12.033246648594313, 79.43092830486731, -21.724244000309692, -33.79833416957668, -23.784918911823873, -23.909680914980793, 25.740952791482677, -78.62238642056563, 3.772462317613956, -39.76958697706106, -42.70470812503628, -76.70683162531901, 8.951356809077947, 27.807180911942194, -19.853870618855204, 72.75588209946052, 27.97796985709679, -7.002981702171693, -27.718562310371208, 45.81007650180031, -51.64988058327777, -41.801343983911785, -41.7266539056518, -2.0, 0.0, 0.0, 0.0, -2.0039603019334193, 47.70155937567695, 43.86509944068319, -5.970242132027783, 5.819440211025496, 29.823763859955392, 5.955932924247561, -27.10379521883844, -3.13628897419164, -23.95096083272746, -64.53669827141171, -9.164991664060562, -81.50958007222621, 23.65365670058421, 12.693004908897652, 12.98112026204257, 26.954044396581697, -25.839379985727554, 20.710359792147912, 18.952252182869753, 37.725294705748084, -35.86686263828608, -41.82127093544212, -27.839450771949057, -2.0, 0.0, 0.0, 0.0, -41.6308232232687, 7.931061109185716, 55.725619257030814, -5.8556482149475695, -0.1079667118779577, 52.57970645168426, 7.036513994902572, -32.9898643168039, -55.68578383201773, -31.88391853496716, -0.13151680185149894, -31.732277887451403, -51.79368967711935, 3.0248545243879748, -10.820749066650786, -54.62298773009871, -43.63458768135504, 19.82248411441639, -4.820137063049383, -23.79235893375397, -27.88249544105275, 25.67447359395077, -57.67322413970076, -23.869250219243533, 0.0, 0.0, 0.0, 0.0, -35.684102973108544, 25.85390047968176, 31.935067136938347, 131.03647311368331, 39.80072848841466, 14.852714587382232, -16.71608685332399, 11.959051479406805, -8.901322455463163, 18.875390632819137, -19.713950520922435, 29.822773265750307, 11.94982064070041, 4.005746688283391, -1.0508737110122714, 29.84589813060481, 51.6461008942731, 12.830587446249279, 30.863882935654114, 33.75169349843101, -10.123697128241739, -23.9778807008692, -41.74113213728211, -3.968503937007874, 0.0, 0.0, 0.0, 0.0, 9.930799804768624, 53.6308073904728, 4.047941821575499, -47.58859504025641, 67.53064685819412, -24.967174066290426, 23.993270370045735, -36.864451544132436, 21.73577912163711, -14.738361143754368, 11.822671222995945, -35.69222723156521, 22.998932324719537, 43.65228637350944, -33.74633600678577, 15.041109747836297, -4.936038918134587, -18.761291370662196, 24.965855146857628, 85.36945560385226, -31.758849244225676, 57.3501547904198, -61.54778154017164, -1.968503937007874, -7.938575841147641, 0.0, 0.0, 0.0, 5.946720250160147, 7.991993686730796, 25.988302580235846, -19.842008501749945, 19.96562676866986, -53.377264441437454, 59.60183544605989, 21.866969508511303, -43.668470144277855, -6.880403004075202, 7.14518484211999, -28.637751501009614, -35.74023362042811, -5.232661495779345, 8.826375144391868, 32.717393478304814, -32.913499644817506, 29.734303168968058, -65.44194859401135, 55.63651192776139, -9.995071752203854, -21.93047745317021, -25.794644902586256, -1.968503937007874, 0.0, 0.0, 0.0, 0.0, 0.0, 45.642361347254514, 94.41878566757434, 40.85705633424651, 5.072478451325177, 4.905558151043989, -27.812723378099637, 21.970543680424054, 14.820213595327717, 38.83549978909798, -10.793307376513992, 38.77651535928711, -6.930864194206945, -22.674231273248505, 7.076459557965078, 18.848127677790323, -57.574147887065934, 53.70454451570105, 57.61229393633507, -61.54262172801158, -59.63813547222503, -27.847367828734768, 0.0, -1.968503937007874, 0.0, 0.0, 0.0, 0.0, 0.0, 47.65224434516144, 48.75453496872631, 46.70583622947494, 48.662029761293574, 90.4502765455837, 38.84398136279125, -9.937822527482368, 10.798821224008373, -39.78204719903479, 17.971460570941463, 12.948374194246199, 2.9448138232044188, 28.747168606214558, -17.85836210482321, -69.53894642089504, 29.646010068447644, -27.901086739565777, -57.63041308305661, -47.703384668022295, 5.897298162530982, 5.930939795472531, -25.798476302481824, 0.0, 0.0, 0.0, 0.0, 0.0, 0.0, 0.0, 29.731604187157064, -11.877391704335116, 9.966647670703816, 35.77722463002107, 23.92672012680683, 28.855583400631247, -42.65694881255285, -20.905206240093037, 3.9978830469295192, 29.782612600467644, 6.015213395372442, -21.877665518493988, -49.72480708787173, -63.52332526924892, 25.662884145828667, -2.094559439185556, 17.781003436355803, -1.9625576604552561, 31.729416097954356, 0.0, 0.0, 0.0, 0.0, 0.0, 0.0, 0.0, 0.0, 0.0, -11.922741868023225, -11.922741868023225, -29.809901625971793, -23.8180455987053, -13.89319290512543, -9.897337174542361, 31.69570903579744, -17.903092983532844, -47.72300992025539, -41.770321571718895, -43.77423045610587, -31.85751249952411, -5.960746681917341, 2.0175579846984877, 0.01755798469848857, 21.81024787352375, 27.749218078152378, 29.72941609795436, 0.0, 0.0, 0.0, 0.0, 0.0, 0.0, 0.0, 0.0, 0.0, 0.0, 0.0, 0.0, 0.0, -5.930885840756731, -5.930885840756731, 0.0, 0.0, 0.0, 0.0, -9.91707544692928, -11.90910731943924, -15.879550669192934, -5.962475222263655, -3.9389702046286295, -5.93897020462863, -5.93897020462863, 0.0, 0.0, 0.0, 0.0, 0.0, 0.0, 0.0, 0.0], "label": "3"}
