{"weights": [0.0, 0.0, 0.0, 0.0, 0.0, 0.0, 0.0, 0.0, 0.0, 0.0, 0.0, 0.0, 0.0, 0.0, 0.0, 0.0, 0.0, 0.0, 0.0, 0.0, 0.0, 0.0, 0.0, 0.0, 0.0, 0.0, 0.0, 0.0, 0.0, 0.0, 0.0, 0.0, 0.0, 0.0, 0.0, 0.0, 0.0, 0.0, 0.0, 0.0, 0.0, -1.3280265182028257, -1.3280265182028257, -1.9946931848694924, -0.6666666666666666, -0.6666666666666666, 0.0, 0.0, 0.0, 0.0, 0.0, 0.0, 0.0, 0.0, 0.0, 0.0, 0.0, 0.0, 0.0, 0.0, 0.0, 0.0, 0.0, 0.0, 0.0, 0.0, 0.0, 0.0, -1.3175552190061246, -2.6455817372089503, -3.9671272512888454, -3.3050948116993055, -4.637750647143215, -4.637084646477214, -3.9815618670606288, -3.3168892183401235, -5.978178915257623, -5.311512248590956, -3.978844915923623, 0.0, 0.0, 0.0, 0.0, 0.0, 0.0, 0.0, 0.0, 0.0, 0.0, 0.0, 0.0, -1.9960093093984832, 0.0, -5.305020489968851, -3.990728520234488, -5.991921407321407, -11.263469808664492, -9.931563384843038, 2.63705904843234, -1.3431297566479015, -9.929541892348652, 1.9403340551788033, 0.6352332454482398, -13.96796517800241, -12.624892594619512, -9.952486229401334, -7.295041009271022, -1.3333333333333333, -0.6666666666666666, 0.0, 0.0, 0.0, 0.0, 0.0, 0.0, 0.0, 0.0, 0.0, -1.9960093093984832, -2.6600199335684698, -1.9894648572677132, -8.627085683578176, -7.968298694173002, 1.290632275662561, -9.285195435742352, -2.6343050283264944, -11.910359993785303, 5.949317504721237, -4.6797485345737995, 3.923946497960741, 6.624562427452512, -11.868302061115894, 2.6326022037684638, 1.333283223506751, -0.6364957547773729, 1.3186952203262146, -0.6732110267327799, -4.630365776143913, 0.0, 0.0, 0.0, 0.0, 0.0, 0.0, 0.0, 0.0, -3.328011970742462, -5.312155902235235, -3.3423848147578656, -12.290358247662503, 4.293693817981817, -3.6625737731837047, -5.630947627223836, 12.268649725165766, 3.0498847885926477, 5.669316801044601, 0.679953231297333, 7.940004845267562, -1.3424094666319537, 0.3498396571379877, 3.622565870632778, 1.6896501459510844, 1.6522766082361358, -4.3102355086944915, -7.953119144417993, -4.630365776143913, 0.0, 0.0, 0.0, 0.0, 0.0, -0.6666666666666666, 0.6580589117902551, -0.007277082887057085, -4.648145278065248, -3.9886416557694764, -6.634253671841301, -1.3195160682178244, 2.6429661839539946, -3.337185610117383, -8.642714865625361, -1.3432437580952485, -13.23631622528854, 1.3286643341882751, 3.3300241749144206, 1.3766415668065077, -15.913600131980338, -1.9625383736054998, -9.891330297414243, 2.668051916858105, 12.241862758972275, -11.586871514580327, -16.55855165457508, -15.225174135895994, 0.0, 0.0, 0.0, 0.0, -0.6666666666666666, -0.6666666666666666, -2.6633499170812605, -3.9960093093984836, -4.6613453040757955, -8.6285197567958, 3.951819105944553, -1.9510966192391277, 7.974054077253048, -4.6940416210369795, 1.9493273457831224, 9.954895877970554, 8.655081695086345, 5.297777039353427, 0.7078318019320412, 3.416689305587979, 0.6798474406030656, 7.299593072201999, -4.632175184629737, -3.312786833897772, 0.6621618639651369, -8.579802741375097, -15.242291893740852, -9.933383275644537, 0.0, 0.0, 0.0, 0.0, -0.6666666666666666, -1.3333333333333333, -4.644946637593221, -6.64427269657711, -7.952008051175166, -13.59038296805928, -7.2947134075088, -23.212734793888835, 3.2808573396963325, 4.556960868670532, 1.304243473711085, 1.9809109535320628, 5.971039062833702, 2.6368940149295135, 5.972339708995009, 12.594115043628449, 1.0144847225780813, 4.989358816491668, 3.597440356527086, 0.9519974361494176, 3.633230126410303, -12.601457765995931, -1.998635330668466, -9.939357199533056, -1.3326673326673326, -1.3326673326673326, 0.0, 0.0, 0.0, -1.3333333333333333, -4.648263387178627, -8.627749411704935, -6.975532820348642, 0.9879981420423797, 1.973447583070059, -2.6576492506721117, 1.041938324739398, -12.915089927421938, 0.9999216887144476, -9.604711692277707, -7.309488853914489, -0.6542177736125615, 4.353650708515417, -6.928625470647482, 7.3249633607438245, -0.6283210741733479, 3.9311447094016234, -15.865533405800903, -1.3161830477613377, -6.602884506041361, -0.009850712147885021, -9.268046486646188, -1.3326673326673326, -1.3326673326673326, 0.0, 0.0, 0.0, -1.3333333333333333, -6.635716245447605, 1.314801643780656, -11.613125672276198, 6.2497596238033735, 0.9466743424733347, -8.974771332230901, -7.315216278186277, -2.990170426747179, 1.6422717826168238, 4.931661201705178, 6.622435847085492, -14.615472397688073, 3.9690957634103006, 8.293146488792848, 5.312481354523624, -1.317392599782601, 0.6832938713957065, 14.582987885181542, 5.319461573958387, 0.019169474441869228, 4.618559520625082, -3.3043436143677383, 0.0, 0.0, 0.0, 0.0, 0.0, -2.0, -8.62974608436029, 3.9728824164986, -2.982811667581279, 3.6564940167672333, 0.28923946690280644, 4.658650448071277, 7.249803736048621, 13.553432515568375, -2.9920641160921084, 3.9795050613733505, 0.9829922875535207, -8.94390815040203, -0.33465505794058603, 8.284378608187533, 4.970443420599682, -1.017711436900096, 15.58848172771173, 6.989203885628244, 9.27130618946887, 13.971460200340132, -0.6606474897460451, 2.6462595481661637, 0.6666666666666666, 0.0, 0.0, 0.0, 0.0, -2.0, -9.294406686964688, 7.949211112966045, 1.6639523371456546, 4.965706922449636, 0.31126112313630416, -3.9584566807623736, -14.587972737983065, 2.956666479607831, -3.3541710591965277, -12.581091550805873, -11.252547808501308, -5.032360114339766, -13.64861370639844, -4.352897070817199, 0.359989708710199, 3.046446287497007, 8.991270490987887, -12.210227147287412, 8.98808831893031, -0.30823037856100144, -1.3213362645389188, 1.3241377031998622, 0.6666666666666666, 0.0, 0.0, 0.0, 0.6653359946773121, -7.3023257006469295, -0.6850382046681375, 7.950530722455235, 10.246006279578665, -3.663122718917707, 6.268871643908953, 9.301545135230675, 2.312316234060372, -0.9938940409185487, -1.3436139662268847, -14.61839315939314, -13.938697911442436, -21.92073092333823, -0.7554639740059976, -2.3263460498516246, -8.937744107952359, -10.938845077875435, -4.948835555273914, 1.6816639335298484, 1.739647258916757, 4.34258566968305, -4.289073171622471, 1.3241377031998622, 0.6666666666666666, 0.0, 0.0, 0.0, 0.0, -8.627715879659894, -1.995352024686225, 13.290842560961714, 13.54304121760471, 3.0492628179967367, 4.343075858326091, -4.989979798098417, 4.953247415242624, 4.94262681067731, 2.2852336698551428, 4.598574382881407, -26.21597520311523, -12.978876796448027, -17.574666924455514, -6.2901211615639205, -7.631326043160713, -13.911751444335675, -4.623892305431386, -7.635068804544637, 5.001857965776073, 2.336039982128157, -6.257558299863391, 1.979592881499497, 0.0, 0.0, 0.0, 0.0, 0.0, -3.30965284414067, -1.995332488381906, 3.373315405664596, 6.9830565432788765, 18.949571188821558, -6.263444785161648, 14.89121058061249, 4.2982897766459995, 0.313060551756551, 4.300887167956249, 2.5932666295325246, -39.49623438318832, -17.643452617151578, -14.28773329112137, -8.893169538668088, -4.966583176804026, -1.0028404322181097, 2.6286277943324414, 2.5990925050565727, 5.6397458020145494, -0.3240168066406477, 5.684881767425529, 0.32152873899452505, 0.0, 0.0, 0.0, 0.0, 0.0, -1.9848270588675563, -7.281418423359106, 2.0408462559170024, 3.6760065983058388, 5.04976896204972, 4.357637946099871, 6.343611729149365, -3.61543977749462, 2.3338334274645636, 7.255533928021675, -34.5520999201565, -30.539444390471544, -14.633683355766337, 0.9733682261759248, 1.0390581168712947, -4.287961568048671, -8.27419764729412, 0.6345352597085249, -6.636088406820451, 0.6744712282733244, 0.31709219256590526, 1.6692861202530078, 0.32152873899452505, 0.0, 0.0, 0.0, 0.0, 0.0, -8.621684907378047, -1.9802091696454918, -7.270547199742003, 6.347150313780882, 3.6852161556858993, -5.632363394872132, 11.619622776162121, 10.639420995941798, 18.583252732166898, 1.965719952992195, -21.26915312176593, -12.671115011832345, -8.644287884881887, -9.9278806708271, -6.963751780054988, 7.609322947160423, -1.6596150222300179, 3.6437748492797866, -9.939520263246084, 3.98478206242961, -6.294970893927979, 0.9953646935418619, -7.623746434970655, 0.0, 0.0, 0.0, 0.0, -0.6646726487205051, -8.63946950117403, -12.609744683940946, -0.6928935959949215, 7.2873197909320915, 9.284015570544838, 1.3504019019262739, 2.7040218763668413, 4.710443396834898, -5.2656349249864665, -4.692486586794734, -15.356551475957314, -20.27980540901714, 1.625149417834833, -2.9895762538120376, -0.3411555849967407, 8.290485291961772, -7.638241266786918, 6.0023424666767164, 1.9913730133187855, 3.6711591861808115, -12.268623258693797, -6.9702251239497235, -1.6580641425049718, 0.0, 0.0, 0.0, 0.0, -0.6646726487205051, -13.260005228761571, -10.626323514446236, -2.0257396421304383, 17.23773363097026, 6.641442949412178, -5.979966477757448, -1.94998747858397, 24.54261314860309, 1.3248691103585766, 2.9637675689012797, -2.3458506883745347, -9.62984247493075, -1.6279200726599161, -16.22656563667673, -11.588858142982737, -0.33274316321283215, 7.598252057823948, -9.289110903000296, -4.303769726060452, 0.9762644567412352, -11.599893867486976, -8.959008161972552, -1.6580641425049718, 0.0, 0.0, 0.0, 0.0, -0.6646726487205051, -7.965619610523378, -6.64410138105042, 0.6303872733240027, 7.241987599019298, -0.3221207802396937, 5.613611491331683, 5.643057518815702, 16.948413611694765, 1.7238384928786141, 8.299625234015487, -5.619211823016263, -1.0381620017655235, -1.0478175737144113, -10.285007060099428, -5.632924718293449, -4.353057796433821, -5.639737056118017, -15.589664566902382, 5.623606772767986, -5.635770738290323, -8.293647401980651, -8.298898110442193, 0.007253544345532492, 0.6666666666666666, 0.0, 0.0, 0.0, 0.0, -3.3234443917198635, -1.3582724584215873, -5.32601411443888, -9.285758246584745, 0.31425639422298723, 1.2559418323215872, -9.289592434690473, -0.6167040620396841, 5.317638924786493, 2.6779757086856466, -11.236051426861685, -4.306919119168802, -0.7287493351754167, -1.3508312528083257, -23.456705110767558, -1.6654846123900815, -2.9856841131530505, -6.981009216507771, -7.611495508644239, -2.324791266064081, -8.310749156636579, -5.3160848509387755, 0.6666666666666666, 0.6666666666666666, 0.0, 0.0, 0.0, 0.0, 0.6521711906327291, 7.250426822668836, 13.259460835374979, -3.284598473062049, -5.283833072016384, 13.877014274410126, 15.820432629123523, -6.649737016273192, 8.578394094316721, -5.306821978811027, 10.567411338295926, 9.232282788536136, 0.9968834767042386, 2.3135955010866383, -12.256864655303747, 0.2983107423957251, -11.592401348344925, 1.6749415553875906, -0.9751120598523987, -3.655493322215322, -5.980095475108763, -6.639508597429896, 0.6666666666666666, 0.6666666666666666, 0.0, 0.0, 0.0, 0.0, 0.0, -2.9978976268442454, 6.266191519101517, 1.6560196913990772, -5.619853581775332, 10.579083320639711, 5.30686337101888, 14.569241516728013, 4.64367616971529, 13.277979873993356, 14.271417810604742, 3.6738062879342737, 1.7020429007631979, -2.984149293439942, -4.350334122538123, -11.600306554257063, 1.687397773354002, -4.286707629972358, -2.6364305018178777, -1.9783062813436252, -5.31475948043145, -6.639508597429896, 0.0, 0.0, 0.0, 0.0, 0.0, 0.0, 0.0, -0.34190049622377294, -2.995356612587901, 0.29394230383190634, -7.651310902326334, -6.320681926409312, -8.624459671673627, 7.25493586980742, -3.6796755304318722, -2.350230676510691, -8.993065044294081, -4.990732918718046, 0.3010884830570687, -7.591688380888869, -15.574325681402186, -1.3190912114980642, -5.297890202803247, -6.619305638785017, -2.6456349725608104, 0.0032904391683349354, -0.6640106241699867, 0.0, 0.0, 0.0, 0.0, 0.0, 0.0, 0.0, 0.0, 0.0, -1.3326673326673326, -1.994042994042994, -3.3089878480568826, -7.95517716382971, -7.291150753534644, -2.6548519194674753, -4.657999066099075, -1.3477570292395527, -17.901770837566062, -8.62655300217289, -3.3281730086523162, -11.277880214124563, -7.308983470043337, -5.297883654626738, -5.296555637346577, -5.959905554427838, -2.648925411729145, -1.3175860963419734, -1.3175860963419734, 0.0, 0.0, 0.0, 0.0, 0.0, 0.0, 0.0, 0.0, 0.0, -1.3326673326673326, -1.3326673326673326, -2.6476121866812212, -1.97632051538955, -1.97632051538955, -4.614649309520961, -7.944635622296297, -9.273982241143594, -7.949355961079544, -8.616022627746212, -3.328015946857944, -1.9986693280106453, -3.332002661343979, -2.654236179260713, -1.9875695125940465, -2.6509194296753065, -1.3175860963419734, -1.3175860963419734, -1.3175860963419734, 0.0, 0.0, 0.0, 0.0, 0.0, 0.0, 0.0, 0.0, 0.0, 0.0, 0.0, 0.0, 0.0, 0.0, 0.0, 0.0, -1.3293466188472989, -1.3293466188472989, -1.9960132855139654, -0.6666666666666666, -0.6666666666666666, -1.3333333333333333, -0.6666666666666666, 0.0, 0.0, -1.3175860963419734, -1.3175860963419734, 0.0, 0.0, 0.0, 0.0, 0.0], "label": "0"}
{"weights": [0.0, 0.0, 0.0, 0.0, 0.0, 0.0, 0.0, 0.0, 0.0, 0.0, 0.0, 0.0, 0.0, 0.0, 0.0, 0.0, 0.0, 0.0, 0.0, 0.0, 0.0, 0.0, 0.0, 0.0, 0.0, 0.0, 0.0, 0.0, 0.0, 0.0, 0.0, 0.0, 0.0, 0.0, 0.0, 0.0, 0.0, 0.0, -5.302356792411898, -5.969023459078565, -1.3333333333333333, -1.3333333333333333, -3.976239985880948, -10.590164323972225, -10.590164323972225, -4.624489495043359, -3.962457055453819, -0.6594131223211341, -1.3220984461902, -1.3220984461902, -1.3220984461902, 0.0, 0.0, 0.0, 0.0, 0.0, 0.0, 0.0, 0.0, 0.0, 0.0, 0.0, 0.0, 0.0, -0.6666666666666666, -0.6666666666666666, -12.586244698159245, -12.586244698159245, -8.618557963612618, -15.237076060941304, -11.91699527306437, -5.993295700224081, -9.949204520780656, -9.949204520780656, -15.866972163353903, -5.969016208191937, -5.298365598914782, -2.644194292567513, -1.9834741075658613, 0.0, 0.0, 0.0, 0.0, 0.0, 0.0, 0.0, 0.0, 0.0, 0.0, 0.0, 0.0, -0.6646726487205051, -0.6666666666666666, -10.586902118595969, -15.889258911007868, -22.54065965094107, -15.958224959153753, -16.62155920709086, -19.233212255449633, -15.265496952517424, -11.94204550891498, -15.926138476070907, -9.96385585974836, -9.946689601342932, -0.6575234563196445, -1.309612718313487, 3.3234346998487516, -0.6561679790026247, 0.0, 0.0, 0.0, 0.0, 0.0, 0.0, 0.0, 0.0, 5.9598410693078145, 2.654834459097369, -3.96967925893095, -3.3266156062134487, -5.952444966155644, 4.6554102475327195, -5.24852791241595, -7.273514775758509, -10.613320008329428, -10.316875472394983, -4.345378995927368, 9.590735027364442, -9.586042661755787, -5.6291925950383455, -6.297928271565924, -4.296594088572183, 18.830776532860618, 4.933676759620468, 11.55423961395418, -2.661975065823867, -2.005807086821242, -1.3306772908366533, 0.0, 0.0, 0.0, 0.0, 0.0, 0.0, 5.9598410693078145, 3.318184376178629, 5.972322100606626, -0.6776490629233572, 13.87649102940869, 8.555013716707776, 1.941116782509619, -3.3395889421134335, -2.96700907548615, 8.29426538905523, -6.26016114929842, 6.29563077609023, 7.311339263981457, -9.269868497623094, 9.918148771905681, -0.0024764488711339627, 1.3352830692878457, -6.623084650478881, 12.599479756631247, -2.966520350402484, -8.612657049207966, -5.32861135589481, -0.666000666000666, 0.0, 0.0, 0.0, 0.0, 0.0052804809990142365, 7.952626246540351, 8.619862493288174, -5.925538432309062, -1.9833065453069132, 2.3314631067038487, -1.6901872519404346, -5.669070808047473, -6.957477912179785, -3.307093802472667, -7.272347361255058, -27.202847059519957, 1.275329174403928, -5.310239108620035, -10.616961175571351, 11.990484657288182, -5.965449271452189, 11.935662266409462, 7.911581128835977, 11.966649057299701, 10.956606756607766, 6.655180470396426, 2.637659569972562, -11.874956302455068, -0.666000666000666, 0.0, 0.0, 0.0, 2.646940885000229, 2.6311933738795155, 4.642818154244337, 3.972971042726156, -8.280543969430767, 4.987408590904074, 2.3353626080918337, 0.2918636663913692, -16.879100196477715, -8.64355274522628, -5.9890096501637, -18.620488326184393, 3.2557306358878906, -11.987950677098969, -9.27738743171875, -3.943737271859953, -9.260167926443948, 3.3469644012857422, 11.900133690830092, 11.957935834943484, -5.935489061106965, 0.021597638952046805, 0.0005036651371679302, 3.9737111687749236, -0.666000666000666, 0.0, 0.0, 0.0, -3.3135166515238175, 3.2899195409350055, 0.6553723871893656, 3.9572291756107836, -1.9966118707294287, -12.27191523462897, -1.0098165362968992, 7.538572176729764, 2.3231614261575935, -18.225216932214238, 1.6020471635776543, -22.945752462639838, -1.6643280810877594, -22.2187365303165, -12.33037615171477, -0.6875242321137719, -2.9941789928901983, -0.9636989737227827, 7.586918590741363, -4.281216577209856, -0.024263592249622823, -6.644899396929925, 0.5989903006277454, 5.926970367325861, -7.280015846168409, 0.0, 0.0, -4.644179698426957, -11.932018606316674, -1.332011516650833, 2.6376416305325705, 3.943497539883653, -1.3416393921367096, -7.646695905302761, -7.629133213506901, 4.243234180310034, -15.522490997823908, 17.543314644637633, -14.97330999414799, -9.299611542994946, 7.941219069459515, 0.953946465337223, 0.3829580917062668, -16.896021782809783, 16.85162551527977, 2.9996946379018388, 3.0057444684686363, -11.90369915989531, 1.3272820954158182, -1.3373486667541887, -0.6883832661869601, 2.6278153104219557, -0.6666666666666666, 0.0, 0.0, -5.302290919223272, -11.257503424254043, -7.289813293884122, -21.84847967893691, -0.07928547876165293, -0.021863054990874153, -2.0091040740736537, -16.54294777187732, -4.678938738698955, -6.342410583426093, 12.273732768486084, 2.9643123959081397, -24.565806150351758, 0.053595430194017135, -3.2891503459758438, -2.666557672274112, -4.337953714057391, -12.917663429314487, -0.375383823366774, -1.6357511712777342, 4.609337125192705, 3.3002476396113956, -4.647539666036522, 12.543651919616401, -1.9756805917350566, 0.0, 0.0, 0.0, -5.302290919223272, -4.628455938322858, -3.307063920263232, -5.303760255130091, -9.930114431549057, 13.220574801772468, -3.955672666552082, 29.11394701630145, -6.617848060887854, -13.573026979254724, 2.3653267409390706, -16.925941646430616, -19.897180679799312, 4.59057718288397, 2.0482685318094873, 1.024241403529591, -6.198187765712679, 4.955762859259923, -6.968764826912546, -0.3113137299984261, 3.986160582672011, -13.250913975834692, 3.889101355339602, -7.94788062703476, 0.0, 0.0, 0.0, 0.0, -1.3194868821719759, -0.6679526330329028, 1.3397028228268133, 6.62909377303036, -22.48375464717038, -1.9433803280835154, 0.0038121588907602533, 0.04205404503592969, 5.32067431920716, 2.709437024880529, 12.34951812379781, 5.615303450524048, 4.237346987106123, -14.541705908470849, 21.23539931092741, 1.00016326672251, 2.960749589104318, -4.985985221776091, 1.6292732427412968, -3.324728230608498, 0.6770474996148529, -12.583721779241241, -7.3396400726882405, -9.300279559075072, -7.276680184977182, 0.0, 0.0, 0.0, -0.6613756613756614, -6.597498410662316, 4.663097691309944, 6.644914952681459, 23.84455609943353, 9.234137718245593, 4.642136279066126, 6.672059085845015, 31.167025448078675, -0.5738443974581714, 9.66158790597802, -6.931011605030532, -0.33429503681758044, -8.25645246624288, 8.6420402441268, -0.9470138395295383, 18.904999873252233, 4.279947836539476, 0.35163050670152163, 5.951209850662584, -3.3443586112763892, -5.965622153039817, -13.945067253070107, -2.6791197830426317, -7.276680184977182, 0.0, 0.0, 0.0, -0.6613756613756614, -3.2891847563297754, 7.304776157867455, 0.02185166121257076, 12.61244281275306, 2.6837286824814903, -6.316671776617558, 3.6265851277540575, 14.262182909272095, 5.650890829619158, 3.0429421865996567, 0.3752599075502311, -16.903186523292735, 3.955407919051691, 7.297797268591534, 13.20929135100668, 0.008632691771531809, 16.29745039454666, 5.328512548899243, -0.005869134039330648, 8.56415492129544, -5.950573460099048, -7.953767351823349, -5.967040465942762, -5.300373799276095, 0.0, 0.0, 0.0, 0.0, 0.01189398347220405, -6.595523151109059, -10.529153510934222, 6.041185941701525, 14.219634145693245, -2.294217314295727, 0.9686662219928333, -8.260603970683125, 10.318520240900924, 6.34506303783597, -10.30931745951144, -2.6577806896693392, 12.553125258560993, -4.637225844570991, 5.34649019713141, -1.960655983928472, 3.3215478039979365, -3.9753535019912754, -19.820285378589816, 13.270567279479561, -7.88945021260621, -23.133718663181426, -5.9624062388656345, -0.6751738423686313, 0.0, 0.0, 0.0, 0.0, -0.6758030801921944, -13.890720663781764, 0.6842807927600053, -13.545386070455631, 1.7231313282287974, 14.923905967192812, 13.582268774744751, -2.324754268371347, -3.0174163977709307, 1.635679171226546, 14.245263529643797, 2.334963211455788, 2.3105241926195026, 17.896896200332066, 7.30944437484526, -3.2461136131496913, -2.34307451398307, 16.547754790674926, 12.547618873305858, 0.6562815582698159, 14.585515449342886, 19.84381035131674, -11.246400648413076, -0.6751738423686313, 0.0, 0.0, 0.0, 0.0, -3.3167915253523503, -22.49414480449808, 7.27989707106941, 2.286439198789788, 1.734154303257439, 10.3191764687894, -8.932192836994922, 2.2483885915798396, -14.87739488819259, 4.32929733744344, 9.600526553519568, -1.663405142732091, 2.996378596874122, 8.327417471255977, 9.932225541219172, 6.956218963257163, 6.209602648253539, -10.266756273357476, -6.651952846677887, -14.58830558722443, 20.47555101543512, 3.947212939796752, -5.9624062388656345, -0.6680202501923199, 0.0, 0.0, 0.0, -4.644179698426957, -8.626971889779973, -19.175921442402405, 4.990058824373591, -13.598058673827293, 3.5995407684996215, 1.6880331454017359, -3.2669057298532334, 6.5983945595465086, -6.915738027417044, 6.940323189680196, 7.573374329080363, -1.9533958662544695, 13.908781744622782, -7.975314709718188, -7.322917431650273, -17.87951336660266, -5.671930959141071, -2.6923385313955093, 15.194224561438414, -17.908298723631837, -16.601237980538695, -25.830584574734136, -4.626493618227553, -0.6680202501923199, 0.0, 0.0, 0.0, -4.644179698426957, -5.974853013148129, -18.50992239291258, 1.6686461400443546, 0.974569542371947, -30.803494450721264, -10.652835439685838, -4.686549985017456, -18.90634787533789, -10.311188469216724, 9.904709748014557, 15.93048498310754, 13.200560994415245, 2.6339042736264098, -7.284968097535058, 4.6120534173290695, 3.9282665888775776, 7.9109030740088615, -7.952185351883365, -13.930135365303318, -9.949950814143207, -14.573183827590523, -9.937407397712754, -4.626493618227553, 0.0, 0.0, 0.0, 0.0, 0.0, -0.666000666000666, 2.6272348714983, 0.34178431966325085, 7.577795872089291, -22.86360253302766, -5.668834097746977, -4.330877921185153, -2.0772571535726767, -0.062225201490575754, -17.903558271665887, -4.584002579324371, -6.6011528347741955, 10.651109677242143, 7.9305397806521425, -4.633695434414587, -16.55934402390013, -13.214977177881476, 7.265972051017593, -6.641017820533745, -0.0027209513240729066, -5.955315072145311, -5.966436558901787, 0.0, 0.0, 0.0, 0.0, 0.0, 0.0, -0.666000666000666, -3.982826336832383, -7.611422804521965, -12.953310430349575, 0.933347970644223, -4.0043832443498815, -7.959325028403232, -10.648129964532078, -4.7006999652430945, -11.964017311424989, -17.29333493119241, -3.618321467822385, -15.623800818666723, 1.9671308920001902, 1.6772909860736616, -13.882136875741587, 1.3588037992346758, 11.924606513351105, -7.278108408078754, 10.602564273475402, 1.99400537893156, -2.657385018014779, 0.0, 0.0, 0.0, 0.0, 0.0, 0.0, -0.6574621959237343, -3.9742878667554518, -5.630419390689832, -27.478286106745042, -2.037475797453986, -18.543513472269865, -2.6515850458993873, -3.343078172088357, 1.2980763218535296, -4.408459583228641, 7.621125695885056, -0.9850256826234028, -14.624058788311665, -0.63190167070378, 8.578102190469242, -3.962214335912047, 2.015771957139413, -3.9833636929192986, -6.604159688528092, 7.984124732948064, 4.646211408762738, -1.3260457026276071, 0.0, 0.0, 0.0, 0.0, 0.0, 0.0, -0.6574621959237343, -3.6409545334221183, -5.297086057356498, -2.666557390899487, -7.964995522795522, 10.614595458847521, 13.872878406668022, -12.614979128222785, 2.2704945931652087, -30.13619724754268, 2.691490583371257, -4.6578996875232965, 1.9377593099364163, -1.9655631294979754, 19.85778119501546, -0.6782760070072119, 0.04488608570119634, 0.6771147059275547, 5.9840797756212085, 0.7047335871528969, -0.6463141323945579, 0.6646726487205051, 0.0, 0.0, 0.0, 0.0, 0.0, 0.0, -0.6574621959237343, -0.9907955292570676, -3.635663528131113, 12.218819179326793, -14.21533316373474, 10.930254819738078, -6.3088283911671175, -9.612004023253892, 10.597665039416238, -3.334854768352006, 0.034024654350092165, 6.6304038632143945, -12.594924054601773, -5.966757245508654, 3.289994015006335, -7.330466967912249, -8.58772247559154, -5.297019504647456, -7.279365249961771, -10.57593817574331, -1.3117203417260739, 0.6633499170812603, 0.0, 0.0, 0.0, 0.0, 0.0, 0.0, 0.0, 0.0, -1.320137189702407, -11.893335718996582, -17.84715540815923, -25.13245459193982, -11.289660664484924, -15.258760766091441, -21.899165850991388, -17.232682902418144, -22.509215737397913, -9.279979401571435, -2.687471623324793, -20.51434220264504, -13.268920475439877, -10.636430852878888, 2.643954732607039, -11.92369495001401, -12.583132059322004, -14.550833134583712, 7.942671302720182, 5.297085648329495, 0.0, 0.0, 0.0, 0.0, 0.0, 0.0, 0.0, 0.0, 0.0, -5.300396015314984, -9.256978056421755, 1.2990522545729273, -1.3530714833586392, -10.606089931841261, -9.945348792239969, -7.968383273848657, -18.540843625901775, -19.89120512333443, -15.250906373814313, -22.504624845069173, -17.84794735274628, -9.278035170998315, -1.993367814362167, -3.3233870212628465, -8.611309487256328, -8.611309487256328, 0.0, 0.0, 0.0, 0.0, 0.0, 0.0, 0.0, 0.0, 0.0, 0.0, -3.973009163646665, -5.957184154815811, -1.9841749911691453, -1.9841749911691453, 0.0, -0.6542361792607131, -1.3209028459273797, -2.662016606223825, -3.328683272890492, -4.65540412389281, -0.6666666666666666, -1.3333333333333333, -1.992094861660079, -0.6587615283267457, -1.3306772908366533, -1.3306772908366533, -1.9927097304261931, -1.9927097304261931, 0.0, 0.0, 0.0, 0.0, 0.0], "label": "4"}
{"weights": [0.0, 0.0, 0.0, 0.0, 0.0, 0.0, 0.0, 0.0, 0.0, 0.0, 0.0, 0.0, 0.0, 0.0, 0.0, 0.0, 0.0, 0.0, 0.0, 0.0, 0.0, 0.0, 0.0, 0.0, 0.0, 0.0, 0.0, 0.0, 0.0, 0.0, 0.0, 0.0, 0.0, 0.0, 0.0, 0.0, 0.0, 0.0, 0.0, 0.0, 0.0, 0.0, 0.0, 0.0, 0.0, 0.0, 0.0, 0.0, 0.0, 0.0, 0.0, 0.0, 0.0, 0.0, 0.0, 0.0, 0.0, 0.0, 0.0, 0.0, 0.0, 0.0, 0.0, 0.0, 0.0, -0.666000666000666, -0.666000666000666, 0.0, 0.0, 0.0, 0.0, 0.0, -0.6666666666666666, -0.6666666666666666, -0.6666666666666666, 0.0, 0.0, 0.0, 0.0, 0.0, 0.0, 0.0, 0.0, 0.0, 0.0, 0.0, 0.0, 0.0, 0.0, 0.0, 0.0, 0.0, -0.666000666000666, -0.666000666000666, -0.666000666000666, -1.3201436603858543, -2.650820951222508, -3.9814942659436787, -2.6613506055578244, -1.9973399813878379, -0.6666666666666666, -0.6666666666666666, -0.6666666666666666, 0.0, -0.6666666666666666, -0.6666666666666666, -0.6666666666666666, 0.0, 0.0, 0.0, 0.0, 0.0, 0.0, 0.0, 0.0, 0.0, 0.0, 0.0, 0.0, -2.648224593112751, -0.666000666000666, -5.938144372235916, -8.58173115386679, 2.6417381966997695, -0.043166668070303005, -0.7104914186729426, -3.36528731221601, -6.009538632531786, -15.233061786414947, -5.980211746954042, -1.9960238568588469, -3.3168528715612764, -3.9821888662385887, -1.3320026613439788, -1.3326673326673326, 0.0, 0.0, 0.0, 0.0, 0.0, 0.0, 0.0, 0.0, 0.0, 0.0, -5.296420601936988, -8.6047112016504, -11.922960082696203, 0.019620754248718564, 5.3128635812821505, 15.223891911810515, -11.924259371055342, -3.3235434027619224, -16.56518812539562, 1.9349348599720644, -2.705292220888177, 10.850164150353134, -14.291670912534059, -29.546449743164917, -20.25735701864956, -8.299057283498751, -8.310224323030045, -8.938097476630526, -4.958543813612456, -1.9782665017701575, 0.0, 0.0, 0.0, 0.0, 0.0, 0.0, -2.6469281014044164, -2.644239337420398, -0.6600286252361761, 3.29267652396132, 15.225902375482, 5.655241404576884, 2.330376191389351, 8.24572316653179, -6.31610725549218, 10.203748817887671, 8.234700329674009, -4.283234294979278, 2.9395200148047027, -1.6895489936455323, 1.6697404087488152, 5.539770156817626, -13.581794761962659, 5.633748872051471, -4.315403824063054, 6.282598887855439, -6.299784296407362, -7.267569897210064, 0.0, 0.0, 0.0, 0.0, 0.0, -2.6469281014044164, 6.621164378970425, -3.2736014743361945, -7.280686833064067, 19.838026845376827, 2.314783671875187, -1.007073698473501, 2.349827556645248, -3.016695653777501, 24.789539869136913, -3.6546372302614394, 17.443254878852315, -14.231171868051621, -7.612084381658788, 1.6448630485805698, 2.3279972936448248, 7.611683551647215, 2.3344042840682917, -10.884850485580966, 2.25601604397501, -5.638474718158866, -6.007075530577322, -10.597531760363346, -16.531072815790022, -7.2714591586225765, 0.0, 0.0, 0.0, -2.6469281014044164, 7.9446272408948255, -10.56255023475265, 5.237452232738054, 19.83488445782917, 1.9850961055197565, 8.342366375100887, 14.23529820662888, -4.956654050652105, -6.974066347704602, -8.273281057627273, -0.33064839006645586, 4.280650490675945, 11.573154913268986, -0.30000720737824715, 2.295078893283872, 4.645019186940159, 5.9696397373509615, 2.6518118985896426, 13.891290483126213, -5.924981024724824, -7.952521486198266, -4.619319934430517, -16.531072815790022, -7.2714591586225765, 0.0, 0.0, 5.2964054436326204, 1.9901008437139174, 0.6752585246514469, -0.030774045638977343, 3.948253976546369, 5.909685696759038, 3.3151314446685323, -4.95183430210409, 6.300101154212501, 9.567994250284553, 10.921764401107161, 10.273416127177907, 1.6654627839659955, -1.274873706258084, 11.977668954696249, -1.5924185406066624, 4.334548432242139, 1.975766743288367, -7.896972253401757, 12.617262214543299, 13.887642221713953, 10.648591909056119, 3.329899708731137, -2.639042622588218, -11.89807203053697, -7.2714591586225765, 0.0, 0.0, 0.0, 1.9901008437139174, 17.228592133088405, 25.11738636283056, 9.903309847668705, 2.6561442513817433, 12.616608031668292, -9.20376688218019, -3.282682503309935, -1.3034415809001643, -8.926269488827138, 1.0143689978510908, 6.297809611224675, 10.615172715472639, 5.37125576457207, -9.930562258246553, 15.948528539221666, 7.316548007817136, -7.928965542719717, 4.015206922123609, -7.903814420282576, -6.610136423436596, 14.565110398961451, 6.623753402190267, 0.0, 0.0, 0.0, 0.0, 0.0, 2.656767510380584, 16.559316257902296, 13.26143671078902, -11.273407518905962, -1.3250039561020124, 14.5420915196386, 2.6351407789293955, -8.592479187891845, 3.9688537065283658, -4.327306042011169, 2.334540277960547, 10.953675668004294, -1.9715759186546915, 21.833037431866327, 13.28183988015316, 6.669783597397685, 20.60914881149243, -2.658171769244248, -5.303473346610434, -5.322657005521811, -0.015083754353042655, 4.646733583191954, -1.9876678621004582, 0.0, 0.0, 0.0, 0.0, 0.0, 1.9848954311611555, 15.88997292091354, 6.64030187493584, -21.84119689466391, -7.940949792796773, 0.6106241669009828, 2.629708300604281, -7.9716137686152395, 3.9579430482304785, 3.9558139266468357, -12.229331040700707, -0.3869312660263312, -10.30801686880724, -4.609403112318716, 9.914512418143275, 5.322223643388682, 10.01099109393634, 3.284478121623207, 2.631097111462176, 10.556673325039895, 5.284191055892682, -1.337936374240316, -6.637030314799384, 0.0, 0.0, 0.0, 0.0, 0.0, 1.318228764494489, 14.559285199520751, 3.3627800237334764, -1.9686028163555012, -15.2253152666881, -12.616612348430149, -6.57597548059134, -2.0498321740866787, -11.330198161369086, -17.902887056353904, -14.289158063348097, -22.303869460664693, -9.01103634922071, -22.176578090190926, 16.24881984401348, -9.92549447424997, -1.289803961419814, -3.2826941776730374, 5.304384694819749, 7.96822633179453, 7.28855506939722, -11.284384383008081, -7.325199081701221, 5.955951769609232, 0.0, 0.0, 0.0, 0.0, 1.318228764494489, 8.595531977491733, 4.011803542723993, 4.636336501618845, 9.248378867448633, -5.986731390648223, -3.9475950482755504, -7.299021234033555, -5.288807237941526, -13.202592618165465, -1.3538372944473007, -5.042643989145817, -3.050788793174661, -10.269048374976421, 12.216016795257328, -20.870539470044854, -5.022938739784912, -3.3517418286558085, -5.946757551578121, 4.657320791035137, -6.617157928504506, -6.636211753071453, -7.9682387150048415, 8.608104088957175, 0.0, 0.0, 0.0, 0.0, 0.0, 7.928213716830678, 10.601484452185797, 0.6508978403692978, -4.637644415469387, 11.227163685660418, -2.6202163030481764, 1.2959929043081986, 0.028435643398509347, -13.91923987847137, -13.289900377755703, -20.57460698873896, -6.980040417331326, -6.321596432049765, -1.0192473690641446, 14.243494531100417, 1.6436559143327152, 8.32304078603865, 1.407395337279386, 7.957846950268366, 1.9889457278199063, 6.614853116094304, -0.6469030309181091, 7.299599227915389, -0.6620324395895398, 0.0, 0.0, 0.0, -1.3175243431174488, 9.264860680060501, 3.323441801204977, 3.9623499604791768, 10.598101469104076, -1.9848975958656423, 9.262107305803617, -10.584448316845254, -12.649115819388747, 2.5679320540317825, -5.342062608782707, -2.6501200070694484, -7.26172701644863, -25.843645078575886, -4.305288025949698, 11.644162006350225, 12.92427246917454, 22.27768098715218, -3.947256245434467, 9.961870319736907, 1.3440533727576698, 4.647632610214372, -7.910491411929361, -3.280781968767232, -3.291936364374787, 0.0, 0.0, 0.0, -1.3175243431174488, 2.664026107412421, 5.294474895813136, -5.314331237657832, 3.3148225727662037, 10.580472329627153, 9.890952744708152, -10.004754335077866, -14.605869641276616, 9.926002797918446, 1.3626992792173445, 4.608746178602732, 3.3788734108780973, 10.58949983601499, 3.338418922828602, 4.298907532364562, -4.29102628468887, -10.894548386579615, -0.9960420782248275, -4.020920343182532, -9.924826643948421, -0.028083130857984306, 0.006033912607531944, -3.953257445559493, -3.291936364374787, 0.0, 0.0, 0.0, 0.6725765005964689, 2.013045502026348, 2.0137894401378453, -6.621945285689086, -6.645005323397035, -11.909252159747332, -10.605265724449541, -15.282466349373667, -12.584905125452284, -14.56378088578419, 2.700536199774814, -7.3352380205131045, -0.3452352180902073, -6.320846983069083, -12.867829799147952, -14.271480389333842, 4.304234919765197, 8.27322606611597, -2.6949398466857373, -3.340557402644035, -4.6580273595079715, 1.984188104534295, 4.608774175039201, -3.9533120257504484, 0.0, 0.0, 0.0, 0.0, 0.6725765005964689, -1.3018382818368557, -7.272071466768585, -11.249033210931442, -17.235099140105145, -23.875958723965304, -8.659942801635697, 1.9386853515902578, -7.2886802062242815, 1.9834754785865494, 12.25153222911728, 2.3241139554837376, -11.623496415837696, 5.573307312711963, 4.947145889812513, -6.312803482487106, -6.283344041566953, -9.612703046890658, -17.89982642290315, -2.6601476827532204, -5.972370548660693, -6.607502844064807, 6.585738314578487, 0.0, 0.0, 0.0, 0.0, 0.0, 0.0, -3.291939125550773, -8.600770573024793, -10.605917507521257, -12.598868890487104, -8.652037813750066, -2.6771522160684587, 2.644157407011023, -6.96966233705672, 4.334653544965519, 4.349072027950502, -2.3323180278168962, -11.649257725397309, 4.98351483928578, -4.275581737892654, -14.899056877817284, -4.984157221586477, -10.604702479981349, -3.3116627674792998, 6.619718363286442, -9.94139933961156, -18.506719817710138, -3.9717382867174336, 0.0, 0.0, 0.0, 0.0, 0.0, 0.0, -1.9744147824333242, -3.9691145546901967, -9.272598698028206, -5.3195620520514915, 3.2425380264622916, 2.9480178915434907, 11.563945213195225, -14.90961078716813, 9.577225580407791, -2.3071824397802625, 2.3196756516416386, -0.3365787146658955, -8.943371561838655, -18.82149837923172, 3.9409178457151057, -5.994485434305307, -15.253520260601906, -7.9388726853420275, -6.613473029594009, -9.278725508992526, -6.625819702403806, -3.305071620050767, 0.0, 0.0, 0.0, 0.0, 0.0, 0.0, -1.9744147824333242, -5.953945184880783, -6.6054998683421315, -17.86099775512543, -5.629091932780985, 4.268259859987173, 1.5998009213790696, 10.852338697239666, 2.312911902619791, 3.661094243764257, -4.298607178816412, -4.317605395136548, 9.250017049209074, 3.295157186643057, 0.6671657617314123, -17.251500026433618, -22.500176537266046, 11.89713734761559, 2.634950570936488, -10.620455785297187, -6.639511290882925, 0.0, 0.0, 0.0, 0.0, 0.0, 0.0, 0.0, 0.0, -4.310869717834631, -4.293842163456848, 3.6266625472626233, -7.6053576461843315, -6.917111300330292, -6.950377523330539, -19.574483353451857, -8.93407331843948, 7.611887404851264, -11.278695181765887, -2.6501460660035785, -4.584923590499497, 11.913009437157633, -9.268834306661855, -9.947274059923501, -24.482331048760987, -3.989449548273541, -11.257639732256774, -10.604724241441398, -7.2969734868066585, 0.0, 0.0, 0.0, 0.0, 0.0, 0.0, 0.0, -0.6646726487205051, -0.993408332869466, 8.934147232643653, 13.573853598728704, 6.308257301740214, 13.577234074662538, 0.3380966250600105, -13.594006313885409, 1.9937483488468617, -7.351314461885125, -21.860850714083284, 9.899227021526336, -3.2382248443913593, -1.9723072419985037, 11.912452850059253, -6.635621229957014, -24.509178605147767, -8.622471006123845, -3.986772193249192, -9.934802356647506, -5.288572804510647, 0.0, 0.0, 0.0, 0.0, 0.0, 0.0, 0.0, 0.0, -0.6653359946773121, 10.601453193182646, 9.975451795462398, 10.592298712162751, 9.27090543741614, -3.9260476816087655, 11.909269646912279, 12.638070706436825, 0.6850607788826911, 7.952635091706228, 7.345668266646063, 4.654766943724602, 2.036096789774253, 4.65143109850744, 9.264705391378453, -9.926339277231065, 3.3166230134556773, -0.661408324653301, -5.2866546185347945, -1.9861988838347786, 0.0, 0.0, 0.0, 0.0, 0.0, 0.0, 0.0, 0.0, -3.955241463589231, 3.9743067842595727, 3.978918284735263, -5.280702484039234, -3.9552972971471894, 6.597669579473936, 6.619258866986848, 6.6113153385745385, -2.0117786109175295, 0.00259334059679861, 8.563393680594345, -11.262612556348, -3.9573718897041577, 10.603203015839476, 18.539962996601208, 15.870153170737165, 15.189096671405373, 4.62258939495825, 4.623207266244614, -1.3287366879110443, 0.0, 0.0, 0.0, 0.0, 0.0, 0.0, 0.0, 0.0, 0.0, 0.6568144499178982, 5.2813999535363605, 4.624585503618462, 4.624585503618462, 0.0, 1.9946865777592384, 4.642207731475338, 2.6475211537160996, 6.627017687066919, 6.626354341110112, -2.6397213468287726, -2.6397213468287726, 0.6646726487205051, 0.0, 0.0, 0.0, 7.274727823672478, 7.274727823672478, 0.0, 0.0, 0.0, 0.0, 0.0], "label": "7"}
{"weights": [0.0, 0.0, 0.0, 0.0, 0.0, 0.0, 0.0, 0.0, 0.0, 0.0, 0.0, 0.0, 0.0, 0.0, 0.0, 0.0, 0.0, 0.0, 0.0, 0.0, 0.0, 0.0, 0.0, 0.0, 0.0, 0.0, 0.0, 0.0, 0.0, 0.0, 0.0, 0.0, 0.0, 0.0, 0.0, 0.0, 0.0, 0.0, -0.6600660066006601, -0.6600660066006601, 0.0, 0.0, 0.0, 0.0, 0.0, 0.0, 0.0, -0.6646726487205051, -0.6646726487205051, -0.6646726487205051, 0.0, 0.0, 0.0, 0.0, 0.0, 0.0, 0.0, 0.0, 0.0, 0.0, 0.0, 0.0, 0.0, 0.0, 0.0, -1.315575978244644, -1.975641984845304, -1.3234159236819205, -9.252347304427289, -12.548152408280135, -12.548152408280135, -15.878675515060065, -10.583619193035588, -8.600134701593788, -9.93147401698096, -2.6646726487205052, -5.978830532684819, -5.312163866018152, -4.647491217297647, 0.0, 0.0, 0.0, 0.0, 0.0, 0.0, 0.0, 0.0, 0.0, 0.0, 0.0, 0.0, 0.0, -1.9822426449113104, -5.944676239009911, -7.934758829358498, 0.002678320386793609, 7.2721344361202185, 6.619168077417966, 5.256884144792706, 2.5864061689186313, -6.024237809615242, -15.259025693362407, -9.940941410886314, -6.664591555641841, -7.956491754025869, -7.293031427396175, -3.97821545949589, -0.6509602966295879, 5.293788734203626, 0.0, 0.0, 0.0, 0.0, 0.0, 0.0, 0.0, 0.0, -2.6587196188789814, -2.6587196188789814, -6.633080105258669, -6.593853119797056, 2.668465771011199, -9.957627337515646, 4.610855071035779, -3.9846337160351872, -4.662811160462828, -17.190542716159516, -11.891800811847773, -5.214495174335943, 7.275969676607881, -13.243079461712966, -2.6402992854084966, 18.573615487853285, -8.628185531931926, 9.30817062741298, -0.618630936212269, 17.83153361630504, 12.54756945078675, 0.0, 0.0, 0.0, 0.0, 0.0, -5.9643544959822465, -7.956407448194561, -8.623074114861227, -23.85572825056586, -10.56677680511562, -0.61607663940114, 3.948178669364995, -4.625971010267275, -3.9688855843440027, 5.940157783055305, -13.93216364141249, 14.589737242986342, -10.610121587382856, 1.0008197995432822, 8.95575165812281, 9.545575137651017, 10.94991049721823, 2.340058170754747, 16.890966281127554, 18.249722102556586, 18.235664024964414, -12.569802401472021, 5.269531262179591, -4.625843150238512, 0.0, 0.0, 0.0, 0.0, -5.9643544959822465, -8.623074114861227, -3.990745267636618, -12.602060491883798, -4.025638934098399, 3.6533793062477784, 4.3200941407954945, -1.0213858851837019, 13.586967574354631, -7.623053175195428, -2.312856555369783, 1.54972516598162, -8.997223026003741, -6.2479853383051696, -18.842489010888023, -8.251698458073843, 3.020914812251359, 3.0021029365214176, 1.6537291788726494, -14.879792052357775, 15.620253214826885, 12.66294090549205, 1.3712937657080726, -6.615386268484156, -0.6666666666666666, 0.0, 0.0, 0.0, -5.9643544959822465, -21.88250560957547, -13.918999530224442, -24.51773862931491, 0.3254478989802102, 1.643732632699522, -0.3592738203809621, -2.3718419629724927, 1.6618999114096846, -1.6875161388179682, 4.9454948102888245, -10.253042456964053, -2.941261256042073, 18.893565751471975, -16.22408348836033, -14.268907363557485, -7.602294319224353, 6.899606313971642, 11.5771726247578, -6.8980836188960275, 7.999487321587163, 13.341239688293943, 31.798476797598717, -14.525884414473513, -0.6666666666666666, 0.0, 0.0, 0.0, -13.899804809707348, -17.917486442269873, 13.158360823962344, -15.237547478825572, 3.89068409507063, -5.606613040526401, 3.7412591079354875, 1.0099751881927617, 7.633780804894392, 11.57899037944701, 4.68025236532571, -14.589879275322765, -5.984374497588735, 7.983398706141643, 3.2250431174858942, 20.203195598024987, 7.586751206400186, 2.3987902416535967, -5.579022559667834, 9.626376245540953, 20.216667025288896, 3.1447504818264935, 39.500269519337614, 0.03738324048795816, -1.3162129683889314, 0.0, 0.0, 0.0, -9.939375770591507, -15.918168244995467, 13.824308157101658, -5.2923292788056004, -3.24535932947507, 5.005784457830214, 2.3459219383957555, 0.3811611030101626, -18.83700470352501, -1.9593191457955985, 2.649364132820666, -2.9859020055217886, -7.715670436567774, -29.164257756219993, -20.574908448384154, -2.388559045458477, 11.521169621515778, 4.292458069549652, 20.132265197163658, -14.27540044182713, 18.931806883117197, 28.24285783520148, 58.03324700528416, 12.588894543397164, 0.6666666666666666, 0.0, 0.0, 0.0, -1.3333333333333333, -4.648781184233311, -1.999963183944116, 0.6707334113175257, 10.576442753707553, 25.165393322507427, -1.286571142664771, 17.927470648445276, 17.869546319211356, 6.715791656563203, 2.6764883986257333, 10.234697939936336, 9.579158574734624, -20.204889251770346, -9.634416593918818, -15.574256619567638, -36.12441455607507, -19.554835042394647, -12.30140840453414, -20.18294829143244, -3.6361062679206517, 20.22369063304112, 37.767984387362034, 15.867658116151233, 0.0, 0.0, 0.0, 0.0, -0.6666666666666666, -0.6666090258019195, -5.330486664927231, 24.526086687320515, -17.20270339668204, 3.3314102769031697, 5.309787906797668, 12.595895665932755, 5.919218749611897, 7.259904766311587, 3.3221568189210835, 1.6296524249357867, 0.33360952107510866, 7.980885535185522, -6.62776682979728, -0.7297932455910655, -22.53787924231555, -29.834743861412885, -31.828729363639475, -58.28667937602481, -18.611137818234784, -11.323887226568115, 5.303640657327804, 13.2082896357884, 0.0, 0.0, 0.0, 0.0, 0.0, 0.6673903081974147, -31.104572751485257, 15.926897799688241, -2.598892144296048, 7.990076422366381, 0.6187303722291254, 4.650278008859091, 2.35426748686766, 10.672340932802491, 4.630442183994083, 1.6653764642129887, -9.868235361158384, -0.7155790381548471, -3.3987555580802358, -13.283641941471533, 7.884572358608293, -0.6970347367362691, 7.870908991500301, -34.51431199731886, -11.382147763975915, -31.165243916981478, 1.9815580445033198, 0.0, 0.0, 0.0, 0.0, 0.0, 0.0, -1.9690835181169724, -3.2979392898174282, 4.639491833752554, 12.554927276676047, -15.22835929330449, 6.58340973858947, 3.299136111884625, 14.978661650769556, 0.7369203290996146, -11.240226076505785, 9.308629980544385, -9.610329268107286, -18.240982256966465, -14.592885480667476, -11.32095051053015, -13.869764178801429, 6.677700852519005, 5.250873695564541, -16.61713928290462, -33.84472298004581, -18.597306638740342, 0.0, 0.0, 0.0, 0.0, 0.0, 0.0, 0.0, 1.9966676087470505, -2.0132446656015484, 0.5707949944117451, 13.244551930054826, 11.937646588517726, 7.295086997756879, 3.3857020595148697, -11.525352831226758, -1.6305360917887306, -3.2757590883623555, -5.265765205534697, -6.309990638933207, 18.161400914852322, 2.934296531569295, 18.26514564783024, -8.629885683235099, 11.888125339900423, -15.86117354677826, -1.3749683554010241, -11.302300097195108, -3.3766328962783803, 0.0, 0.0, 0.0, 0.0, 0.0, 0.0, 1.9888353116699573, -7.92288396604135, -4.024176853104082, -6.025414745100759, -8.378261207970766, -10.266446631638964, 11.278031142109743, 12.682821759982215, 1.9969677469628424, 14.898314527432856, -22.20677685004617, 8.637692818368457, -9.983899589647613, -20.86505469471802, -6.992931867209285, -22.243556967236724, 9.558161469417016, -8.60751883357873, -6.577394467786579, -4.626769458263443, -15.262735588716438, 2.609466826277889, 7.268856366067549, -0.6640106241699867, 0.0, 0.0, 0.0, 0.0, 1.9888353116699573, 9.925671213633443, -19.923898367267352, -16.948383755447548, -11.646542184770727, -23.551385453600943, -3.334748777411118, 6.630495941062185, 9.24314870846409, 0.3397263668342497, -1.7033059991784185, 6.888202184759626, -3.7215695345216053, -8.976841590547401, -6.303985864249813, 0.8937628885403027, -7.607776462011343, -15.27247251050127, 15.900211795766964, -6.60847978007611, 0.6686042931467785, 11.213593411201291, 5.943454364789577, 0.0, 0.0, 0.0, 0.0, -0.6666666666666666, -3.2905354228201076, -9.918908511011793, -10.59893539738771, 23.468530376475655, 8.258721019910734, -12.628551577374207, -29.834820470641276, -9.3029468471739, -25.799420390487782, -3.6998847337168206, -10.9640887806111, -22.237839667857315, 2.9316130165297993, -0.6833639933741263, -4.316981769715523, -10.25490834030174, -9.623193303089415, 8.315408367968274, 15.280973983611055, 2.0056590077255416, 20.530852125269952, 8.58784320909945, 4.619384262706665, 0.0, 0.0, 0.0, 0.0, -3.2957839721474254, -4.613370068489399, -3.9690625927212633, 13.89704248860722, 8.991019868472364, 0.988758646124343, -19.917093380530964, -11.934266146967747, -11.285222702201143, -7.690233451392952, -26.199554638539755, 0.9445721886117949, 1.928944240643875, -5.974221476881111, 7.5823433067021435, 16.216851461372144, 11.635078429323233, -5.0443553033754585, 8.572575503086473, -7.895409504135409, -3.2375725548135006, -4.579841350054019, 2.647647047385376, 3.9619143364147567, 0.0, 0.0, 0.0, 0.0, 8.595580004750257, 15.857832239381928, -13.218872253399443, -14.55266807469085, 8.31409433309343, 5.053456053155188, 4.964324955064346, 14.250207555509121, -1.689571379507889, 10.227348405984078, 14.565278005932996, 1.364587834673607, 5.9715521296248575, 4.301778840505526, -22.831481216687585, 16.86091907074065, 15.607088460299092, 3.5749059196713526, -9.255461088509893, 9.93950432916203, 6.6500752292896435, 7.991818108809164, 4.670444585205129, 3.965851615546171, -0.6613756613756614, 0.0, 0.0, 0.0, 9.262246671416921, 7.948584501744013, -10.579758891446378, -1.3407974868623866, -4.874516163290281, 24.255525003020605, 0.35558483453366463, 2.9597593738350305, 5.9884439755001075, -6.553201319367537, 0.68505692257518, 5.286679174177321, -22.491040898574738, -4.976276723732016, -6.353034418044504, -24.839968040688742, -1.7047843614378855, 0.6577797723975957, -3.9965697763219517, -13.897966825182905, -1.3090880008164847, -1.2631276875120268, 13.919419650321142, -6.59299318854129, -0.6613756613756614, 0.0, 0.0, 0.0, -5.278710297038811, -6.6074537030370815, 19.15033894598328, 0.6672952572494312, -27.782374062624125, 16.311742723103478, -7.2981118973476455, -0.023469512580893026, -3.9892078542142837, 11.867170097263298, 3.972527125678779, -2.689915282213634, -0.9993026350668756, 2.296915611033538, -4.957522064776003, -13.895126300212809, 5.978667561305114, 1.3082820816722895, 19.86670550267654, -0.6880813096567174, 20.50199855955711, 6.653457396170778, 14.589941402311808, -5.931630335387123, -0.6613756613756614, 0.0, 0.0, 0.0, 0.0, -3.9749798550498636, 7.2354191974861735, -9.298116766184982, 5.952320562532357, -2.350464399061896, -2.9390444563100377, 4.989261581567219, 24.202489645489283, -0.934990331727472, 0.905178780300503, -8.212826958262333, 12.900025865918842, 14.529805523323748, 8.614880591668005, -3.2980863071213697, -2.5958651608621084, 15.18989987853196, -3.9280999772463696, -6.60524589014345, 11.928879955507114, 11.939320135051158, -2.610258255458303, -4.616018494750747, 0.0, 0.0, 0.0, 0.0, 0.0, -3.308313188383197, -1.6573741514309193, -14.174077656753479, 17.564247225678244, 4.2649153344774025, -1.6871503868958886, -4.988061693256715, -6.907438964244255, 8.941407253643202, 9.56672842382785, -2.0188130409663616, 10.617292990718653, -0.6105145612366519, -2.6385028628136586, 10.5521549713837, 3.964985128084236, -1.948655489060266, 2.6758798875815373, 4.662614105338618, 11.266107332956693, 0.6750829484557913, 2.665173361613579, 0.0, 0.0, 0.0, 0.0, 0.0, 0.0, -0.6633499170812603, -0.34772102136561067, -4.304271283577989, -10.23391567655429, -14.225367041950292, 7.591017510553461, 1.0283916135184246, 21.473295145175058, -3.277455700786862, 18.576780575649543, -3.3017444377615934, 2.6684045641323504, -7.921000242414171, -11.200882682400092, -0.6714089166833527, 6.646608126160451, 7.247836186183461, 1.996129316936838, -7.916247222865564, 6.632325339688606, 1.9893982507036392, 0.0, 0.0, 0.0, 0.0, 0.0, 0.0, 0.0, 0.0, -0.6666666666666666, 3.289304969105956, 1.3024596992666784, -2.6737061365344514, 3.9612793735392, 3.296079354376573, -1.9563979788973058, -1.2985773546321218, -2.5991023845339347, 9.908340465021013, 14.555217516706676, 8.602067489226084, 0.004504072895117339, 3.330492043515365, -1.9855407620593795, -7.301664668610957, -13.246259053299719, -13.246259053299719, -2.6620139515146315, -3.9578840823058945, -3.9578840823058945, 0.0, 0.0, 0.0, 0.0, 0.0, 0.0, -0.6666666666666666, -0.6666666666666666, -0.6666666666666666, 0.0, 0.0, -8.603941619755865, -8.603941619755865, -1.980300666879566, -7.263736277333156, -7.252592390083074, -7.930978671777571, -8.596313337112237, -1.3326220949620837, -6.629659815540272, -1.3293033092099629, 2.6351565440360964, -2.6633446235039857, -12.580923058622409, -12.580923058622409, -10.584245101785088, 0.0, 0.0, 0.0, 0.0, 0.0, 0.0, 0.0, 0.0, 0.0, 0.0, 0.0, 0.0, 0.0, 0.0, 0.0, 0.0, 0.0, 0.0, 0.0, 0.0, 0.0, 0.0, -0.6666666666666666, -0.6666666666666666, -0.6666666666666666, 0.0, -10.584245101785088, -10.584245101785088, 0.0, 0.0, 0.0, 0.0, 0.0], "label": "5"}
{"weights": [0.0, 0.0, 0.0, 0.0, 0.0, 0.0, 0.0, 0.0, 0.0, 0.0, 0.0, 0.0, 0.0, 0.0, 0.0, 0.0, 0.0, 0.0, 0.0, 0.0, 0.0, 0.0, 0.0, 0.0, 0.0, 0.0, 0.0, 0.0, 0.0, 0.0, 0.0, 0.0, 0.0, 0.0, 0.0, 0.0, -1.9789245091287984, -1.9789245091287984, -3.9677130207617664, -1.988788511632968, -0.6640106241699867, 0.0, -2.642936519495891, 1.9644471518740487, 4.60738367136994, -0.6850703531703052, -1.9973399813878379, 0.0, 0.0, 0.0, 0.0, 0.0, 0.0, 0.0, 0.0, 0.0, 0.0, 0.0, 0.0, 0.0, 0.0, 0.0, -1.9907288283994689, -3.3029866708616007, -1.3122578424621318, 5.297833239458241, 0.6733148581712685, -9.947064046318147, 1.2854751164516935, -1.3265918268283086, -3.999864089341137, -10.623846033209972, -13.938897381283283, -4.685956593642083, -5.322304778636815, -4.651539046715517, -1.326040440606774, -1.326040440606774, 0.0, 0.0, 0.0, 0.0, 0.0, 0.0, 0.0, 0.0, 0.0, 0.0, 0.0, -3.9683346847090575, -3.9683346847090575, -0.6382626074080439, 12.585117869179772, 14.588308253928641, 11.921840459256337, 1.362305076923167, 3.9804234466415727, 4.669938233636337, -7.3192199389698, -0.7539728860897082, -15.952873092761802, -5.389982065801572, -10.64168869139434, -3.3596524948240782, -1.980974249970771, -3.2819795872262016, -8.590887124976831, -4.626500157288141, -1.3260430637595264, 0.0, 0.0, 0.0, 0.0, 0.0, 0.0, 0.0, -3.3050155988500824, 7.265539347494728, 15.879551532774618, 1.3281184196099152, 2.6698581499428, 11.920865679781418, -13.889012253487362, -13.96331741030123, 16.532488053607004, -5.321733845859814, 17.193705840663732, -10.583557526026375, 12.497833945051163, -2.7131044932682817, -7.2911783984772, -13.981900858188222, -8.67097796769151, -6.637448042342872, -9.90977039612266, -12.565983223104208, -3.948667189003391, -1.9559574585771973, 0.0, 0.0, 0.0, 0.0, 0.0, 0.0, 3.3069210466956243, 14.539530676778522, -2.640923840646804, 4.004416733057982, 7.959677791507876, -8.604980490666982, 2.661159999007176, -4.6309892438645255, -2.7160997368442388, 25.17964388068563, 22.561734811683372, 10.006656187835226, -9.569990224132063, 8.32936050885177, 7.632462706232057, 4.288009520613636, -20.19825637039801, 13.528475696956985, -9.626061829790117, -12.915003444155587, -6.606079744734816, -1.9559574585771973, 0.0, 0.0, 0.0, 0.0, 0.0, 2.661285536558723, -1.290077692566595, -7.255162049319063, -11.927480613029967, 3.953870819721123, -12.919775505383448, -11.541226131154524, 0.32518287266731494, 3.0036581570047165, -2.974434820020404, -10.851977774870715, -8.264760363930694, 0.9992455554828722, 2.3456228769829623, 20.155648144818578, -15.515791966523434, 6.29694401859045, 2.974678107338244, -2.3301777263950925, -2.9520361859890185, -5.636407325708777, -1.3471149119412447, -1.3136403757399742, 0.0, 0.0, 0.0, 0.0, 5.30558132010559, 1.3299462211715514, 9.279748704098502, 2.6344484149317196, 7.894171062169007, 6.255682217427192, -1.6391589987048047, 8.887982144514346, -1.0079217263649003, 14.242531767632794, 18.173520281378057, -4.323969548447581, -10.978832008383069, 11.537106807234156, -19.54165489090707, 14.162253924560499, -16.893402514027866, -8.966990547586562, -5.612254867412879, -10.933437694079057, -0.3483020992549085, -15.227472012188507, -17.86434137968392, -9.90000521786974, 0.0, 0.0, 0.0, 0.0, 5.30558132010559, -3.985502892107565, 0.6619532289636163, -10.581627631307509, -35.74561565232553, 7.951859473202227, 9.571902622814449, -0.3298193175138737, 4.987519017671085, -20.201330045866715, -10.873876654336758, 16.877910030515142, 1.0129893279005096, -3.69068965681842, -16.59422085426098, -2.2839622501603927, -6.622446855538699, 9.970231206147897, -3.9784272622844714, 7.27268078874622, 2.634549512793517, -4.000676697276779, -29.113923215952582, -17.863594470408263, 0.0, 0.0, 0.0, -1.3326673326673326, -6.623132806540459, -5.95719964209727, -3.940122824921482, 25.808361691221233, -4.6605285579517925, 15.148557644528566, -10.30034355471912, -1.020831330345879, 9.628269292758283, -8.293554987484722, -1.6934162857562223, 2.327809485755349, 2.3090811200774652, -2.3491954219830076, -6.667301158693117, 26.520285078430312, -0.33553011714800296, 10.9275560701568, -0.3126306869358805, 2.915237234855889, -1.0103183704426613, -10.291695288686757, 2.942843790653437, -14.241752086364192, 0.0, 0.0, 0.0, -0.666000666000666, -6.623132806540459, -7.951818511989326, -12.555338562289705, 5.305556057503607, -4.032199526153625, -14.621805219401274, 7.269924745258779, -11.951811413144437, 4.60950865976373, 15.565780024386548, 11.62154795029829, -17.162288984726448, -7.697353701523139, -10.211119082343892, -4.945520810390156, -18.853847320439595, -4.954069361187881, -5.662581960773849, 12.24350655537479, 0.951316371658156, -6.285192508292552, -6.930386169963987, 0.28931492076971876, 2.654635330407693, 0.0, 0.0, 0.0, 0.0, -2.6481572179636474, -9.264761826854773, 22.479697548147776, 4.5949562102673, -39.747054065128495, -8.669216803988217, -19.2045022804328, -19.963462335003527, -10.681876447204125, -12.318789560379923, -9.016667058951903, -16.039640099981522, -10.954632825240385, -2.9484777799642554, -6.3339782968804625, 18.850372989765173, -11.604213020667903, -8.92499115984284, -0.6580923572985949, -4.664521560577821, -3.980092858189151, -3.3312439355080183, 15.177990100337507, 23.150823882041784, 0.0, 0.0, 0.0, -2.6481572179636474, -2.6481572179636474, 4.598406656346858, -2.654813172342072, -18.57171884312286, -23.912294938037114, -23.886203115336386, -19.9426187454753, -4.706728178498496, -8.618664615527205, -19.859449719993215, -11.961617244776548, -7.334007307480546, 2.5912700789866703, -10.276186375177154, -12.24210040429417, 5.879293280817242, 1.2875554214220082, -3.9972243510466283, -13.201092451933754, 16.46937893122695, -12.551400104528511, -7.946832415090014, -0.6772946852037516, 13.240198792857417, 8.605938452851685, 0.0, 0.0, -2.6481572179636474, -3.3148238846303144, -9.276567491609779, -13.918220129643625, -0.740923929367887, -25.88097123873814, -12.619159710325441, -0.089422412749389, -17.26729260037096, -5.357606781963217, -5.620472167467755, 10.5509071168186, -25.19761300506023, -5.447262103128978, 6.64015962588073, -35.09909463052817, 3.6993896051910538, 0.5966790495032613, 3.9617963048605738, 3.2843931169540506, -3.9422383960232965, 0.6558312190907313, -9.283525960434755, -5.942346892617034, -2.61368201872645, 8.605938452851685, 0.0, 0.0, -2.6481572179636474, -2.6481572179636474, -1.3463342055889322, 11.86965154982111, -13.277965058219898, 4.520414907539609, -13.865205151091534, -5.993091672522334, 2.595166318352148, -22.926328389982373, 1.0149625869260617, 15.541773203744377, -8.618334314162059, -9.932224759824898, -6.632707616756303, -6.634552127443835, 4.024101959559348, 4.972946151936558, 9.94661659287162, -25.158144997462824, -32.46585668664761, -21.192097977082568, -12.586441688519038, 1.938024007792512, 2.0018039397717393, 11.228055287367933, 0.0, 0.0, 0.0, -2.6481572179636474, 4.598406656346858, 11.196475759866527, 25.808039293085965, -1.3812980497049958, 3.998502277448754, 17.86570583911828, 3.3574874110217436, 17.569069388026133, 12.915805637146942, -13.589935841050973, 11.281926968017526, 8.987084335044322, -11.93488667679193, -9.905834073153745, 3.984147775159891, -5.604317421144488, -12.299023572519246, 12.629386847002358, 5.879589923094377, 3.94518783241043, -5.326022779222901, -1.99536584758514, 16.581365705034095, 11.911050836547936, 0.0, 0.0, 0.0, -3.3168268635598137, 8.558150293833028, 3.960481835184245, 1.9581349772099967, -1.293419313126603, 15.580243246643295, 7.97631678955583, -10.559557572936217, -2.3269306553665645, 2.8857959844092544, 3.3498506250404496, -4.592906763888864, -0.6262912785530398, 7.537591167030741, 9.277210594326572, -7.928119008628628, -6.954190360574801, 0.3142410139127464, -4.01312562020268, -11.92057268298609, -11.254632709302687, -15.881511777207333, -1.3267798061658405, 11.954220551445175, 11.911050836547936, 0.0, 0.0, 0.0, -3.3168268635598137, -2.656736565208056, 12.536386746608088, 10.53156876282668, -5.62297431587168, -2.9020752210227236, -6.595593321040879, -2.021068826599064, 7.959766769976668, 1.331483115375447, 21.199303196286976, 7.297247270727405, -7.952942851839212, 7.629109822357241, 14.88963602208445, -2.6815222409107973, 0.9815471932311017, 10.93261730645363, 2.288391014169406, 18.559239437773456, 20.549652209554182, 5.296371164301049, 7.9354527466903315, 2.017781926726686, 5.29053397512954, 0.0, 0.0, 0.0, 0.0, -10.596829930975197, 0.048407346289357056, 8.59264805510842, -4.895338766813823, 0.9673609398549984, 16.89568583648021, -5.941924743193637, 15.291461079648727, 0.025788804180840286, 0.06549757631047881, -2.636788540674204, -11.919004886459973, 13.244704520106094, -1.283175776324196, 10.97037634058163, -2.967563682212422, -4.314912957532037, -3.3516042654471825, -18.493324335837574, 20.58921944720059, 9.969437670832583, -1.2774895329551605, 13.903836978334034, 5.29053397512954, -2.6337838991897704, 0.0, 0.0, 0.6483330423197287, -11.942452044409674, 9.26932031020026, 5.350291692882853, 30.14813996039462, 12.905451024645853, 15.597903004386758, -8.281957617990527, 6.333700549423084, 4.994164417910931, 5.999024384340821, 10.581418194904987, 21.226787735039697, -0.606176416437714, 5.94291057183476, 0.9944855643189338, -3.6187200705743443, -14.900662128380745, 9.228865647969336, 16.549687662687518, -1.2852095322001351, -9.919524169557619, 0.6940989947496331, 8.598773866918535, 0.6653359946773121, -2.6337838991897704, 0.0, 0.0, 0.6483330423197287, -15.898361130260056, -4.616799638215635, 4.626821013604239, 10.959136365780303, -20.146873024999007, 12.991516662860928, -4.937981943679661, -3.2932176416487433, 13.911273279164405, 5.951999183308143, -5.294414907309563, -6.647839071940282, -7.926429969901664, -0.983116723084684, -2.344050160468868, -17.538982053820803, 18.57748557478557, 0.6881602344949592, 17.883598455151795, -2.6038563438622413, 25.847196946809678, 14.569917081869203, -0.6391660344684604, 0.0, 0.0, 0.0, 0.0, 1.9743734829265027, -8.599445608498336, 7.9151265728620155, -1.937543890125768, -2.652732706731469, -3.3100424949441294, -1.7204943471762792, 13.558697530603272, 8.975416361210346, 8.942014629699937, -12.949132200362712, 3.5903393688188032, 0.9369256711314379, -28.90000931969448, -6.9861113867789175, 13.201551909013954, -2.600804707041126, -9.864663651275002, 0.003971334131700699, 17.925603151338052, 18.540958481893092, 4.005348160801282, -3.968882787185045, 7.275427108705388, 0.0, 0.0, 0.0, 0.0, 0.0, -11.924141198627936, -6.015009815032943, -4.6423364905970095, -2.644983196504211, 14.316170837003956, -5.630378691236373, -2.9862181991684924, 10.934748946552403, -4.2952329453405245, 6.310066381278669, 8.956853856885004, -12.249010446566533, -1.9606300383883033, -2.6547410502543256, -9.222485405180556, 28.490888676900404, 3.35566314109714, 2.733708728687759, 2.667424818879861, 8.649553508754522, 2.698832908172566, 0.00010785930612589034, 6.608760442038721, 1.3320026613439788, 0.0, 0.0, 0.0, 0.0, -9.91574577763733, 4.285968874431893, -6.945452855428669, 9.598519324213122, -2.3170370451323814, -18.21758348806955, -5.651102889542958, -15.539093563893289, 0.9710343955217281, -9.638310067241711, -19.239775499082093, -15.246126539458793, 6.60426317196083, -21.214065167553176, -4.014868700477519, 8.579312798674717, -11.878903665093315, -9.306688247406488, 3.289422943434889, 2.049446576563598, 5.333863245109198, -7.27411442668432, 1.3320026613439788, 1.3320026613439788, 0.0, 0.0, 0.0, 0.0, -4.613429761962933, -2.2783302309332, -1.6255061703251124, -1.636686043312419, 12.910123167336973, -10.245318167143072, -10.888923931905545, -5.703309899180363, -13.985692150909028, -2.699217858807894, 6.55049738996243, -1.3143086501406338, 0.6402527360669698, 10.554710096434068, -17.16622052536056, 6.645397152753531, 17.882539801464212, 12.567268211601867, 14.566439760176747, 7.96633454758993, -0.6344826238869221, -1.331336660677978, 0.0, 0.0, 0.0, 0.0, 0.0, 0.0, 0.0, 0.0, -13.871731385711914, -16.523209107337415, -13.245682566316649, -16.57171241186412, -15.262107985732833, -19.24960837067556, -15.930795242419762, -7.968304004594147, -9.929506871581488, -14.529080274599703, -19.185720920014763, -15.208912428834957, -1.3339561263798896, 5.289177652276204, -5.301601860409104, -5.955838039669817, -5.289300021963809, -2.642387289856589, -1.331336660677978, -1.331336660677978, 0.0, 0.0, 0.0, 0.0, 0.0, 0.0, 0.0, 0.0, 0.0, -1.321461137877575, -1.9848110549588354, -1.9848110549588354, -1.9953525784252393, -1.3320026613439788, 0.0, -0.6666666666666666, -0.6666666666666666, -0.6666666666666666, -5.315449113279116, -5.972263563197014, -0.6568144499178982, -0.6568144499178982, -0.6568144499178982, -1.3142766458416326, -1.3142766458416326, 0.0, 0.0, 0.0, 0.0, 0.0, 0.0, 0.0, 0.0, 0.0, 0.0, 0.0, 0.0, 0.0, 0.0, 0.0, 0.0, 0.0, 0.0, 0.0, 0.0, 0.0, 0.0, 0.0, 0.0, 0.0, 0.0, 0.0, 0.0, 0.0, 0.0, 0.0, 0.0, 0.0, 0.0], "label": "2"}
{"weights": [0.0, 0.0, 0.0, 0.0, 0.0, 0.0, 0.0, 0.0, 0.0, 0.0, 0.0, 0.0, 0.0, 0.0, 0.0, 0.0, 0.0, 0.0, 0.0, 0.0, 0.0, 0.0, 0.0, 0.0, 0.0, 0.0, 0.0, 0.0, 0.0, 0.0, 0.0, 0.0, 0.0, 0.0, 0.0, 0.0, 0.0, 0.0, 0.0, 0.0, 0.0, 0.0, 0.0, -0.6613756613756614, -0.6613756613756614, -0.6613756613756614, 0.0, 0.0, 0.0, 0.0, 0.0, 0.0, 0.0, 0.0, 0.0, 0.0, 0.0, 0.0, 0.0, 0.0, 0.0, 0.0, 0.0, 0.0, 0.0, 0.0, 0.0, -1.992041082987357, -1.992041082987357, -2.6495032789110913, -3.9828366122444248, -4.644212273620086, -2.6613756613756614, -5.306233019253783, -3.978190691211455, 0.0, 0.0, 0.0, 0.0, 0.0, 0.0, 0.0, 0.0, 0.0, 0.0, 0.0, 0.0, 0.0, 0.0, 0.0, 0.0, -1.9789569564638356, -1.9789569564638356, -3.295184528702868, -7.271412680859797, -6.627063350674434, -5.3108357784354014, 3.3017148108952394, -0.0013045657134034272, 5.985922699584551, -4.628474215422042, -8.598789657177507, -11.262654680929337, -0.011119037649752639, -0.6790642747867555, 7.275997030330183, 0.0, 0.0, 0.0, 0.0, 0.0, 0.0, 0.0, 0.0, 0.0, 0.0, 0.666000666000666, 0.0, -3.9709901464355877, 0.6575085656979559, -2.6507561489138887, -1.337229160016224, 0.668504235053418, 6.6151566423702155, -0.66873704822305, -8.603615532354027, -7.287942812377174, -3.3293546082664105, 4.636432125333572, -4.680920663722321, -5.297729619207556, 1.3438146845301526, -2.6428322080580404, 0.6470324298515409, 0.6575008912949232, 0.0, 0.0, 0.0, 0.0, 0.0, 0.0, 0.0, 0.0, 0.0, 0.0, -3.3089444769745207, 6.626995697699236, 3.968291888659757, -10.586273015381241, 1.3168481271601866, -13.253474356790399, -5.955855030981747, -12.563338560395056, -1.2997781338519534, -2.61479812824941, 0.6756937868768508, 5.658603107557255, -2.3122707998396503, -2.934315641555238, 19.563624873365438, -3.5988036804614154, 5.626535418306298, -8.284517040435773, 0.31686710546365393, -1.9783222244930139, -0.6666666666666666, 0.0, 0.0, 0.0, 0.0, 0.0, 0.0, 0.0, -5.292514513913929, -2.6567921697684866, -5.315495978807966, -8.28785929067767, -2.3294598159566986, 7.591403956610189, -6.323904594084834, -5.658561215790634, -2.3432375213471617, -4.2939465559756975, -5.63109918037382, -10.314715846880379, -4.9834576400258275, -5.630358100135724, 9.605390318538031, -6.971986936412938, 6.973581753099282, -5.649467948662171, -8.95645263884552, -3.975000181330333, -7.285231585593186, 0.0, 0.0, 0.0, 0.0, 0.0, 0.0, 0.0, -14.893343352442429, -8.96179998717008, -5.988840873106896, -13.873064978903965, -13.25887857102147, -0.012073635818872441, -11.310095220153624, -11.965471778234654, -9.278656905450479, -1.9955034209096025, -3.9928464612894814, -12.952269725799617, -0.3621792688722517, 5.62644145926669, -3.6541858204894195, -1.675799999866376, 2.9907464643839035, -5.625946577653366, 0.6619982826438362, -10.596835213144718, -2.648259004047546, -1.3149256707142127, 0.0, 0.0, 0.0, 0.0, 0.0, 0.0, -14.890701874886487, -3.6679009532246454, -4.316855428021263, 3.297727080099544, -3.3143110021217, -4.007216059081448, 8.628949561489511, 3.2998265537422466, -5.325859827862599, 7.2949198332796445, 2.636272322858316, -0.029571578055904046, -12.260818055000414, 7.295647591703723, -2.665398246832077, -5.955976248559198, -5.295784803805429, 3.956323055584895, -4.642948236515978, -1.9815923373808793, -1.9815923373808793, -1.3149256707142127, 0.0, 0.0, -0.6666666666666666, 0.0, 0.0, -1.3280225658017655, -12.573176683215783, -3.3247260758979316, -14.552711534227768, 4.293083793674618, -2.98746082449623, -8.27795627524354, 5.33262208205187, -14.568389907262535, 3.9407798345182643, 4.337699257315516, -5.5989336142355475, 0.6541899503831695, 1.9781810451179784, 1.334514619242107, -16.617635445260955, -6.619966540566835, -3.95674755453847, -9.282004809301387, -4.658695880522937, -2.6640066480545044, -0.6646726487205051, 0.0, 0.0, 0.0, 0.0, 0.0, 0.0, -1.3280225658017655, -5.935540077811488, -3.301086933654757, -2.6566336013140157, -1.9854497825761204, 6.612038760741227, -7.323898446251754, 4.988770425496265, 5.565276746986258, 0.9712150136556738, 8.641528131056134, 5.673007407518252, 2.351527665836917, 0.32209917665969434, -1.3608898306692936, -5.989973884590972, -7.2943339957073, -0.6831520035909906, -3.9835245441383895, -3.9815305261922282, -1.9973399813878379, 7.281940718436309, 0.0, 0.0, 0.0, 0.0, 0.0, -6.6153000776441315, -7.943322643445898, -9.913736163029762, 1.3142611138189633, 1.99722179927757, -4.6292306496309745, -7.9597803645446215, 1.2761306010191587, 2.31947689175478, -7.6563928179471334, 0.32354792870144555, 7.978830889604613, 3.0184194150460586, 8.309485206513017, -6.282642481271214, 1.3088811538821377, -3.9986128545936035, -10.61713133705115, -2.661472139423938, -2.6521852287512178, -1.9868412937237958, -0.6666666666666666, 6.615274051769643, 0.0, 0.0, 0.0, 0.0, 0.0, 0.0, -7.279972726364637, -10.579072157707074, 15.235626302367333, 3.978816448461556, -4.634348810683453, -0.03154562288249063, -15.944445141751789, -6.672522586126783, -1.004516633243421, 14.198547160009092, 12.929601535285787, 12.306059352176398, -6.933392980079358, 0.33186150331599973, 11.911445445324876, 4.585676114854791, -11.943938381627028, -7.29182475914271, -1.3320026613439788, -1.3320026613439788, -1.3320026613439788, -0.6666666666666666, 0.0, 0.0, 0.0, 0.0, 0.0, 0.0, 0.0, 5.967613528670556, 16.54665483046223, 6.59621787493463, 5.288525203136189, 9.22804306942679, -9.987227536962934, -11.2813920796549, -2.9841425723730293, 12.273378816489878, 4.681271663434731, 7.968952706617999, 11.298750018680465, 0.01696605101948756, 1.9715945326189352, -17.89774533557778, -9.961685327995689, -11.937973313231199, -2.6633419767311506, -1.3320026613439788, -1.3320026613439788, -0.6666666666666666, 0.0, 0.0, 0.0, 0.0, 0.0, 0.0, 0.0, 6.623781507673181, 2.001095066580369, -13.232597934973253, -8.62313875391103, -6.638304574381018, -5.357001040912644, -0.6846010781379438, 6.027175641246512, -1.294349115172607, 1.3425896625516813, 1.3844619708999133, -4.93483533803011, -2.9403209400425605, -0.3886187551297601, -13.238572617724667, -0.013890234639630905, -0.027050164254767917, -1.996675310064484, -0.6653359946773121, -0.6653359946773121, 7.9406023635136584, 7.9406023635136584, 0.0, 0.0, 0.0, 0.0, 0.0, -0.6633499170812603, -2.639686309021303, -4.6245817401824585, -9.247190097008378, 1.304951089528128, -4.656104962705762, -19.268040237509425, 1.9781491302338905, -0.27452054132796566, 4.9743444050917605, 5.967681766873983, 2.051715026529103, 7.627050617118411, -4.3279184967766104, 0.9695441798801455, -14.881545092078717, -6.605510585035679, 0.6508070507508823, -1.9946892324684322, -0.6633499170812603, 0.0, 0.0, 0.0, 0.0, 0.0, 0.0, 0.0, 0.0, -0.6633499170812603, -0.6633499170812603, -3.9643987323479157, -5.280140753219357, -0.0269969735979535, 5.9366244505729275, -5.3301098639075635, -2.6862460528621934, 0.3247604293653692, 6.995906739826671, 0.4068242133598846, 5.335100021638465, -4.992820577493605, 9.569038230744749, -6.986060860746597, -1.0162685202228081, -13.898498091723809, -9.92485533505706, -1.330016583747927, -0.6646726487205051, 0.0, 0.0, 0.0, 0.0, 0.0, 0.0, 0.0, 0.0, -0.6633499170812603, -0.6580457566599465, -1.9893850720471185, -5.965720134644514, 9.930087409261407, -8.6152090343586, -1.3568765402641638, -14.915533407972614, -11.63207067187101, 3.6791487741875377, 7.299058074374534, -7.986586953690481, -9.959857480308639, -8.958240303126967, -7.637529353485177, 5.604971938474398, -8.279286087043467, -8.612593760116617, -4.654076161538848, -4.652082143592686, -3.326694540585246, -0.6666666666666666, 0.0, 0.0, 0.0, 0.0, 0.0, -1.9802808486912007, -2.643630765772461, -6.642804337613223, 1.960554314387859, -7.312137743903418, -4.032736135696188, -7.974127506759541, -1.3935551844185277, -4.327997146823667, 0.9940955337916674, 7.656008884795196, 11.57941049632289, -5.639545107277756, -10.273446700675837, 2.279569855033782, -8.938188109635101, 5.60484571195123, 9.920889914933397, -8.59693993431076, -11.257011043963924, -8.609444156337723, -3.3116552370475176, -1.9841910097841153, 0.0, 7.94855370199321, 0.0, 0.0, -0.6574621959237343, -2.6377430446149353, -3.963125401285735, -9.95111829189463, -17.91018335525324, -21.892449822009453, -15.886592273998986, 5.286683726939439, 11.197322317875496, -6.949264460686783, 10.626317006379683, 5.968907131001159, -4.976702825652604, 4.931604132521449, -6.94009769500691, -12.281800418337639, 9.618174458340903, 12.265798890059138, 9.258779176476093, -0.6713846903910099, -2.6588037755039817, -2.3222489081609763, 4.3147161987062965, 5.963681599782029, 0.0, 7.94855370199321, 0.0, 0.0, -0.6574621959237343, 5.9676045687971735, 4.6415615050376475, -1.3339101652429086, -1.363552515396175, 6.637577366651377, -4.007653895642067, -3.3285270700506135, 12.218961883045544, 0.6312917298240509, -4.635681117194742, -5.304915589976476, 4.6585168169951405, 2.045069579991453, 13.25013238768291, -13.231989664958103, 2.664522284975594, -1.641818796143352, -4.983465989373745, 3.6619255471250023, -3.6293172929499526, -3.6279542852733844, 2.3357592422424602, 19.17720528889071, 0.0, 0.0, 0.0, 0.0, 0.0, 6.625066764720908, 3.9768888563171423, -3.978195726795115, 19.195532126794237, 2.6639101462392514, -3.6383199184575483, 11.583787655232307, -7.643495534149332, -4.342391837328055, -3.3517010266785263, -3.348389841894436, -11.238573813136181, -2.029478157472661, 5.964244228027422, 3.6586294508400856, -11.584317957548969, -6.312264923490734, 6.924967168906366, 8.278537825411787, -0.3275363188391316, -3.6442903596895304, 13.55531319912809, 11.229332679324568, 0.0, 0.0, 0.0, 0.0, 0.0, 6.625066764720908, 5.960394116000403, -2.633082779433494, 8.623815516322164, 11.602618586824423, -10.917608053146242, -4.319974232657514, -7.63704808653116, -0.9855279435028, 5.632198861139002, -2.3373536153149606, 8.950333337720767, -8.99123001356844, -8.282488298512083, -0.9879804589835203, 0.01775774075330183, -6.651191553270714, 3.9546867423902077, 9.251713475778951, 3.9474110939275358, 5.93160210371165, 11.229332679324568, 13.2082896357884, 0.0, 0.0, 0.0, 0.0, 0.0, 0.0, -7.604751850452609, -4.285267762664134, -0.32730074416300137, -1.6645617028567603, -4.302201093589472, 0.9565024555097831, 3.613279686670829, -6.971531014836318, -5.0011344993617675, -5.980229393616163, 11.227887715110128, 2.6311291412976114, 2.6345173888757696, 11.950480239906021, 11.277871514943673, 4.628567887063525, 3.973029358285343, -4.638867109003614, -5.297730575612915, -5.297730575612915, 0.0, 0.0, 0.0, 0.0, 0.0, 0.0, 0.0, 0.0, -7.623140329772054, -2.978263408261421, 2.335848403045259, -4.29236742608954, -4.995724224651094, -13.583519704611355, -1.640494062483202, -2.6255673536746897, -15.240327816449128, 3.3056436656990495, -5.965774645716376, 2.6428207597239894, -0.6495977830918499, -3.296495721367238, 3.9809371723167333, 0.6693495774785734, -0.005224733512098179, -9.267365821137158, -1.3169112870027684, -1.3169112870027684, -1.3169112870027684, 0.0, 0.0, 0.0, 0.0, 0.0, 0.0, 0.0, -0.6620324395895398, -1.3286991062562064, -2.6560596475074534, -2.6560596475074534, -4.655980200411073, -9.275244943242367, -15.261309281652235, -9.96883064294994, -11.308745250924996, -11.939844054628665, -19.21067620912177, -17.2252534619197, -13.239800039780542, -4.644923744055576, -2.646842301167813, -2.646842301167813, -1.3247386553211653, 0.0, 0.0, 0.0, 0.0, 0.0, 0.0, 0.0, 0.0, 0.0, 0.0, 0.0, -0.6620324395895398, -1.9893929808407869, -1.9893929808407869, -3.31093847120626, -5.949307301453785, -5.949307301453785, -3.3063635141943517, -5.312862204579843, -7.310865531924487, -3.314883783863203, -3.9736427506653533, -2.6389893404019693, -3.3083067559880415, -1.9920804549884668, -1.3260797889878009, -1.9841517776422994, -1.3247386553211653, 0.0, 0.0, 0.0, 0.0, 0.0, 0.0, 0.0, 0.0, 0.0, 0.0, 0.0, 0.0, 0.0, 0.0, 0.0, 0.0, 0.0, 0.0, 0.0, 0.0, 0.0, 0.0, 0.0, 0.0, 0.0, -0.6594131223211341, -0.6594131223211341, 0.0, 0.0, 0.0, 0.0, 0.0, 0.0, 0.0, 0.0], "label": "1"}
{"weights": [0.0, 0.0, 0.0, 0.0, 0.0, 0.0, 0.0, 0.0, 0.0, 0.0, 0.0, 0.0, 0.0, 0.0, 0.0, 0.0, 0.0, 0.0, 0.0, 0.0, 0.0, 0.0, 0.0, 0.0, 0.0, 0.0, 0.0, 0.0, 0.0, 0.0, 0.0, 0.0, 0.0, 0.0, 0.0, 0.0, 0.0, 0.0, 0.0, 0.0, 0.0, 0.0, 0.0, 0.0, 0.0, 0.0, 0.0, 0.0, 0.0, 0.0, 0.0, 0.0, 0.0, 0.0, 0.0, 0.0, 0.0, 0.0, 0.0, 0.0, 0.0, 0.0, 0.0, 0.0, 0.0, 0.0, 0.0, 0.0, -0.6640106241699867, -1.9960132855139654, -3.318202731597217, -3.3201927734278964, -7.277941443999048, -7.279272115988403, -5.3049036486418775, -4.6408930244718904, -0.6587615283267457, 0.0, 0.0, 0.0, 0.0, 0.0, 0.0, 0.0, 0.0, 0.0, 0.0, 0.0, 0.0, 0.0, 0.0, 0.0, 0.0, 0.0, 0.0, -2.647572744473707, -12.547551142959943, -14.535076583720503, -3.9842033975978826, -7.94075449298944, -9.265510956593097, -11.914358921962148, -7.945952606908251, -8.611950626136082, -1.9960093093984832, -1.330008643397817, 0.0, 0.0, 0.0, 0.0, 0.0, 0.0, 0.0, 0.0, 0.0, 0.0, -0.666000666000666, -0.666000666000666, 0.0, -2.6501511581084656, -2.6501511581084656, -10.5751356190642, 1.3168720999848407, 8.59346437681548, -1.2985404939797904, -18.486397172162796, -16.545506985010316, -13.956906141956917, -14.630252574345146, -24.52105898483104, -21.855149484772145, -21.85243253693777, -14.567201169806784, -11.238503392893225, -9.903897247646555, -8.57914813064811, 0.0, 0.0, 0.0, 0.0, 0.0, 0.0, 0.0, 0.0, -1.3326673326673326, -1.3326673326673326, -5.980794318776778, -11.911757660769464, -17.22581265856291, -15.256058931467262, -19.210131251979043, 10.549585095198125, 11.201287588393004, -20.55380775222401, -8.70855881727493, -12.59168868923296, -29.460324426689255, -9.615695307877345, -19.572559810175893, -14.260903404170286, 2.9106922041523466, -32.774712386418145, -20.18705920785903, -6.968914444967465, -5.303679919578889, -1.3221894460832515, 0.0, 0.0, 0.0, 0.0, 0.0, -1.3326673326673326, -2.660054184335651, -20.52168637461352, -17.233837075323514, -22.550758279377405, -3.670563740118003, -3.0229717119824784, 8.96234898905173, 8.94343709668954, -2.6215247906147594, 27.823351215238723, -1.6136367696687852, 6.3303106661238955, 10.34462737402022, 17.25543511100682, 0.6879119346194872, 4.623955175700802, -1.000110451392871, -16.91596798995613, -42.05138104181585, -16.270028543002233, -15.911649110291377, -14.58298239611212, -0.6666666666666666, -0.6666666666666666, 0.0, 0.0, 0.0, -3.9861102939011523, -13.913000791309644, -9.293750605328597, -21.899231284083317, 12.181845440474326, -7.623503033422478, -5.669764771337656, 0.05472026966350474, -17.87830307022562, 0.06032875355591405, 8.2710889261071, 31.517142801875703, 34.81715925019854, 20.234736930186198, -1.2702117031678695, -6.622658614674616, -3.990076880886517, 11.229140144655695, 8.1986242822749, -16.949008384946634, 1.2660987875787875, -17.918811009646426, -20.551926619277673, -9.944623429231182, -0.6666666666666666, 0.0, 0.0, 0.0, -3.9861102939011523, -4.671095897463017, -13.968844442488113, -1.3748395086316658, -6.64308945934389, -16.934564164598456, 3.2977873153165014, -7.977750123922939, -1.9562918917302472, 13.214599540066086, 10.958413002282995, 14.999996653067559, -6.259807965894605, -1.348984978057004, 16.591178986865362, -6.961627939809022, -10.279294309376859, 1.6173920442763143, -0.06487443272308702, -5.98487043823588, -14.651539303863398, -28.529510313188748, -17.22657069103189, -9.944623429231182, 0.0, 0.0, 0.0, -1.9782445281191006, -3.3194436272344854, -5.358744279070678, -6.629138012308089, -1.3732294100603477, -6.017736972932952, -4.330223550179168, -4.984481330530989, 4.619907851094918, 2.0188951555000054, -0.6449073812159897, -10.983281960453603, 3.9747693800399455, -9.987694908716378, 1.2447836647397947, -12.593461520879242, -5.015142896337409, -1.6759164175305163, -18.560704646055996, -9.98378407777033, -6.6621685320157065, -5.993707974598239, -27.170022640719004, -15.893903358364554, -3.319490425983048, 0.0, 0.0, 0.0, -2.6377106309835456, -13.915554278312174, -21.2073830804321, 18.5262179114996, -5.971515911525756, -3.330055805917196, -0.7045072666783619, 23.21576178167326, -12.55347900807445, 0.6621480794976752, -5.98806826178325, 7.239415157707457, 8.905733196800767, -7.014742287757704, 4.298252279672781, -12.254751412986558, -0.9824273819021262, 9.65263647817611, -6.658228578935675, -12.54023460741126, 12.607123285420574, -0.027666347378916933, -21.824847277004753, -3.319490425983048, 0.0, 0.0, 0.0, 0.0, -5.299063875409452, -18.531685505497514, -7.936939918221634, 22.538678845259835, 13.930922037181304, -3.9696365601857977, -5.230611095908892, -0.6414111870326725, -3.9646130496526437, 10.27910154182296, 1.9483170162384056, -13.317739009284491, 1.633811033446002, -2.998885863824264, -7.611305766678272, 16.27642879322171, -8.248088261045673, 12.89102430018674, 6.5556912295938075, 15.304051019658143, 0.042461403499588046, -11.251038958489818, -11.27982276761357, 3.944086872168098, -0.666000666000666, -0.666000666000666, 0.0, 0.0, -5.299063875409452, -12.544937293806573, -4.620028335376518, 6.627987791046675, 2.0078098509878024, 27.854671428629267, 0.03972577555197021, 7.265533943118717, 18.559072293425526, -1.3131149415276457, 11.248347966918217, -8.666384776804776, 5.248237735377457, 6.3173507904358095, -6.939439263514769, -1.570586184103187, -7.65634496733674, 5.316990581874628, 9.275776936240671, 15.872494756223613, 2.661938237259064, -16.546626931896448, -1.9992626171443346, -6.614636990160725, -0.666000666000666, -0.666000666000666, 0.0, 0.0, 0.0, -7.248477558575113, -9.92298851022418, 13.90463658505925, 9.350870342839702, 15.287309005420713, 11.249496452569367, 3.3078742810701183, -11.190682805500607, 1.2630886633132339, 8.649432463173913, 9.299214299098168, 13.597639443571527, -1.9742408397111664, -2.6595657111061968, -9.578168275104316, -5.009057762451139, 3.0013236541515598, 4.274117954769169, -12.949396374036088, 15.855667372857415, -13.260724312193435, -8.61907485809067, -9.260831363085643, 0.6666666666666666, 0.0, 0.0, 0.0, 0.0, -4.5990024408516135, -17.208904209770076, -9.906284316443202, -7.26872448068336, 3.975043206562664, -11.92300591930978, 11.929059695826297, 1.9594534145079523, 5.326624387418225, 9.276558640305726, 0.9567966409883327, 10.319810160321062, -6.634690469748654, -9.33454446537554, 19.18909017230626, -3.279349443566451, -1.6902477954558943, 4.276760316512062, 6.922421092207038, 12.538409676366882, -5.978012602120421, -20.485573322420446, -7.263494036406998, 0.6666666666666666, 0.0, 0.0, 0.0, 0.0, -0.6496700946492309, 5.277982862294136, 8.533152882859241, 11.914967976293457, -16.571979853131676, 5.936169124061275, 11.932005027270051, -2.3110937745624724, 3.6338951840644755, -3.991313505079522, 1.3992933840085504, -10.205529908423049, -6.630358406872925, 1.3179216889129135, 5.3636326868467945, -0.651569547435629, -17.18866813957273, -5.948999600775381, -15.9102048962954, 3.2447756527883787, -11.288289605089616, -28.438856156597268, 0.0006660006660006434, -0.007892228430378845, 0.0, 0.0, 0.0, 0.0, -3.952790246135695, 5.3022866888331155, -14.535215999138174, 0.012857062238017969, 6.541204624905275, -11.270419206819135, 10.562845263224741, 2.9715759149048946, 4.332012459689755, 0.6273902881658285, -15.306705778462383, -11.304230031676408, -4.928171528943142, 5.985227393643772, -16.542936065214718, 5.951857068072346, 6.305244795219834, -22.492347796598587, 14.503465573576072, -23.890931834604448, -27.14291471248059, -13.926206922828962, -1.9940232318024314, -2.647551116530536, 0.0, 0.0, 0.0, 0.0, -2.627319092815042, -13.204400626050397, 17.18877316808717, -4.6437074440228905, 3.341494054509716, 5.936833329197471, -5.241025188987218, 10.329968872167115, 25.456620518849114, -19.511425285710562, 7.97089506992677, -4.657404065126799, 8.301756367752592, -20.21672704862789, 15.533750065312784, -17.52311170365868, -0.3385935469964225, -3.0243468548669945, -0.688447272972783, -23.88258666818914, -25.846378057617702, -15.90977477515127, -3.3109036883209897, -3.314883783863203, 0.0, 0.0, 0.0, -2.6508881568117117, -3.294639903987295, -19.807860547038654, -5.958433392470848, 2.6381411344386727, -5.939412688334279, 12.614471515478321, -6.632987331608525, 6.560824150052885, -8.890026812854764, -2.2731097339761432, -8.661254456506889, 14.245810947476915, -9.937665953883972, 13.665658033926878, -12.910229404011947, 7.644892144248051, 7.623894936345008, -11.228361260073424, -17.25496452093123, -4.028787474891316, -9.965679506026166, -5.958550971404164, -2.6449030223203236, -3.314883783863203, 0.0, 0.0, 0.0, -2.6508881568117117, -3.9579898210685553, -12.559428270916076, 5.9041054038886776, 1.2947162104221293, 4.6023123106253285, 9.247926397398462, -29.799023852685945, 16.529136842246636, 15.50530288461334, -11.285672974068959, -8.896206422854206, -15.64943074106949, -7.306472947872921, -5.641826707699435, 2.921016899790204, -10.96885688857687, 6.253109149633391, 3.287638413601119, -8.655380581123818, -5.980805828092474, 1.2878711589113607, 13.225267999289535, 0.0, 0.0, 0.0, 0.0, 0.0, 0.0, -0.0007885084453375102, -13.21884139323721, -27.80101838056078, 19.139869504934943, -1.31355809617946, -9.926935930245147, 1.2368048932133608, -16.949218731612245, -22.590833172613376, -6.684964108998083, 6.299385808136111, 4.928398116169918, -20.575656861922738, -8.288119718415262, 5.652611969374309, -16.899256448023074, -11.935199635935387, 17.221811930161678, 1.9342810763794218, -6.543242069922961e-05, 0.64487100644635, 17.194390617122647, -0.6568144499178982, 0.0, 0.0, 0.0, 0.0, 0.0, -3.978925270073841, -5.956658282574077, -14.558731421500585, 1.9617438253702462, 9.885416095242881, -11.579638925914718, -9.645876033069957, 8.582903766798278, -3.9852582752493193, -7.324139530241396, -8.948568421254784, 5.614243662509763, 4.313564911800047, -12.93090615570139, -27.85466780399852, -5.304913366066513, -1.3253877721125322, -2.628573565712702, -13.260106140877888, 0.6510088934643462, 0.6371097929036675, 13.22010531226816, -5.293132194361925, 0.0, 0.0, 0.0, 0.0, 0.0, -1.3260797889878009, -5.300416670307127, -17.21074809651629, 15.851211749316146, -1.7080105446182934, -2.9888066557037423, -11.564505784422167, -3.307183764961243, 3.294595261037358, 7.300440699802534, -9.580475455362702, 0.9664110674214363, -7.91986243426038, -17.227416917480333, -11.94746356327186, 15.20549325492216, 1.3204463955753303, -13.892529060939118, -6.634126962753299, -15.208117538136541, -9.922243891367149, 0.015234696966006434, -5.293132194361925, 0.0, 0.0, 0.0, 0.0, 0.0, -0.6594131223211341, 4.2984238071395735, -3.641645543716817, -31.412989454383276, 18.81891627540984, 13.496860035419008, -4.667949103618369, -7.23965133151579, -19.272589758702047, 1.3323284100653021, -4.685093010613608, -13.632026180076153, 14.510713823362192, -1.3959455949944521, 3.272449754844441, 12.53430853415367, -13.26737783411307, -7.961793483643869, 7.278135541312338, 6.612671229661178, 14.537072849817786, 8.607444132912834, 0.0, 0.0, 0.0, 0.0, 0.0, 0.0, -1.9821877743806562, 5.627736800717866, -0.3273137869375319, -4.9610624001068, -4.957970118428446, -6.9364273998287835, 10.536428657085036, -2.675884149617569, -20.213927156200047, -8.901499860063755, -14.622384155622466, -12.920373065079378, -2.017557780658332, -14.61729749850501, -23.844568714162445, -13.913186473622513, 12.530377648134362, -11.907203410291444, -1.9645172423460298, 34.39264270318519, 18.49743773079806, 0.6777884852541041, 0.0, 0.0, 0.0, 0.0, 0.0, 0.0, -1.9821877743806562, -0.6495204417133235, -6.593541439364891, 16.50295820594016, -23.838589755391926, 6.649863988601221, -15.590532702150426, 14.909797172735644, 1.660490794959204, 8.969407911781616, 3.6312454829027843, -10.936129315072474, -2.660743924082306, -11.20443774720247, 8.70506368940898, 8.683568475444254, 7.272954706417298, -7.926128272827584, 9.927605740514185, 37.69176301097997, 12.5613832818982, 8.598908409316643, 0.0, 0.0, 0.0, 0.0, 0.0, 0.0, 1.3326673326673326, 2.655482448585897, 2.6429937190911756, 1.2840868734105158, -5.984737540753319, 5.2905052102037775, 4.585349170871671, 8.559389061451315, 5.881762755983703, 1.362661286263918, 14.583551675505618, 11.950595091460848, 1.3311965155381964, 11.870525521288943, 7.230265092079108, -3.317910086244173, -17.18757964655608, -3.2793374003991653, -2.62123735038863, 2.002570829953216, 9.914413763369494, 0.0, 0.0, 0.0, 0.0, 0.0, 0.0, 0.0, 0.0, 0.0, -9.909135703874323, -10.57580237054099, -1.3333333333333333, -1.3333333333333333, -2.6423122291140464, -4.617993970285434, -5.9433959715634055, -7.261546966965828, -5.266961256939539, -3.2905745939670297, -2.0142753194441916, -3.346945290979604, -12.584188948386213, -0.6502214973376098, 0.6666666666666666, 0.0, -11.88807479369786, -11.88807479369786, 0.0, 0.0, 0.0, 0.0, 0.0], "label": "9"}
