{"weights": [0.0, 0.0, 0.0, 0.0, 0.0, 0.0, 0.0, 0.0, 0.0, 0.0, 0.0, 0.0, 0.0, 0.0, 0.0, 0.0, 0.0, 0.0, 0.0, 0.0, 0.0, 0.0, 0.0, 0.0, 0.0, 0.0, 0.0, 0.0, 0.0, 0.0, 0.0, 0.0, 0.0, 0.0, 0.0, 0.0, 0.0, 0.0, -2.0, -2.0, -2.0, -3.9781291912785797, -3.9781291912785797, -5.97812919127858, -2.0, 0.0, 0.0, 0.0, 0.0, 0.0, 0.0, 0.0, 0.0, 0.0, 0.0, 0.0, 0.0, 0.0, 0.0, 0.0, 0.0, 0.0, 0.0, 0.0, 0.0, 0.0, -2.0, -2.0, -4.0, -7.97812919127858, -7.944697529528334, -9.944697529528334, -9.96232643952413, -11.956344385685645, -9.956344385685647, -9.958342387683649, -19.91482065617124, -19.91482065617124, -13.928762920895522, 0.0, 0.0, 0.0, 0.0, 0.0, 0.0, 0.0, 0.0, 0.0, 0.0, 0.0, 0.0, -7.978077679439231, 0.0, -11.962267855807509, -11.995699517557755, -25.85968488190804, -37.74114087024823, -29.808434583111413, 9.877517591835174, -3.970534033025198, -39.726994377564246, -4.016019392228909, -3.9471507106291512, -51.70748372032396, -45.70029379969385, -31.842037126965252, -19.895268855905396, -2.0, 0.0, 0.0, 0.0, 0.0, 0.0, 0.0, 0.0, 0.0, -2.0, -2.0, -7.978077679439231, -7.956574447112445, -2.018022146922932, -27.922532717840674, -29.904663125029412, -2.0708033843648797, -21.951751066476543, 1.9253043480316414, -29.75717145423343, 17.944347130235776, -17.87524459792021, -4.0044147422244905, 9.99153179847991, -31.59178562741945, 5.989636357143938, 11.953996308302862, 3.988099148751372, 3.9153899113545396, -2.0115255720741247, -15.89324573973862, 0.0, 0.0, 0.0, 0.0, 0.0, 0.0, -4.0, -4.0, -11.984024055024204, -15.903223314408818, -10.035568864453715, -39.881110014560505, 11.767322133110527, -19.938220093045143, -13.906927443659246, 41.82342101519661, 17.980444904513007, 4.087103531793661, -9.92073806270381, 19.802828126310576, -5.975917854179912, 0.029709458783766518, 3.8938784825799853, 8.09226443453061, -3.9316380025338673, -11.983794963604934, -23.892960576026358, -19.869530324718855, 0.0, 0.0, 0.0, 0.0, 0.0, -2.0, -0.01992431856276755, -2.0139422647242835, -15.936654976159062, -11.923151585356962, -29.89312579319308, -3.9801129707202567, 13.837852608469692, -11.995604201309478, -27.839099516225875, 1.9186875633944416, -35.72091926468465, 10.001975746803565, 8.070758857953077, 9.970046598715953, -37.82896381429335, 7.843064034288636, -23.827342373434373, 13.901478071090052, 23.88870823319234, -31.792636674529007, -43.75079849671225, -45.668089568835185, 0.0, 0.0, 0.0, 0.0, -2.0, -2.0, -11.972210306248737, -13.990006108862689, -13.991992182514243, -27.920931820640686, 13.83546399964258, 2.021425702138165, 19.95967521765375, -23.95542286220019, -0.07670297846176322, 33.72698913571207, 31.80564536135648, 9.90868949425759, 4.01368810060324, 20.04094326058365, 4.049089895159701, 19.916812239152204, -19.890701812462925, -10.046588102324657, 3.922474595489432, -17.859664448898297, -35.8119533505125, -31.77688224996302, 0.0, 0.0, 0.0, 0.0, -2.0, -2.0, -13.940479896627258, -19.958275699241213, -23.89732177231197, -39.72611964261187, -11.91345304859898, -67.55222656538051, 7.912605581464648, 1.8220966972855832, 9.833489954847456, 7.987954984216534, 13.92840906269073, 11.875601224621903, 17.95196314918514, 29.81412493124548, 2.112135847290548, 21.861921179204227, 3.8398036142241083, 1.8891337690764178, 1.901642555355454, -29.982781936100018, 3.9172710020535573, -27.828009879740243, -3.9782393669634026, -3.9782393669634026, 0.0, 0.0, 0.0, -2.0, -9.96826959037852, -17.936687176484945, -23.86186009600923, 3.9969769884491044, -1.9965961504360283, -19.884558761881856, -9.892103719084542, -25.77683740579043, 3.919094123523028, -23.912679585288366, -21.829503038112456, -3.9192735671749213, 13.980476867027216, -25.755015954952924, 20.041166657424714, -3.942076651596745, 5.879950084495871, -53.55160894677959, 5.97604001069206, -15.92999869221244, 5.852058588111494, -25.79862208298293, -3.9782393669634026, -3.9782393669634026, 0.0, 0.0, 0.0, -4.0, -13.938712940132215, 3.9461921740850388, -33.63930046611848, 15.817960940492023, -6.032235946376208, -25.98764148403739, -17.918506074205855, -6.04559365545183, -8.030841608070626, 9.907182586301268, 23.79676371531236, -37.85127668978775, -0.12029460110941326, 33.8724647560313, 17.89542269799364, -5.955775554932721, 7.927867379081054, 51.598054640376255, 19.87586813349665, 5.911807064047638, 13.873246192642865, -9.905476139638502, 0.0, 0.0, 0.0, 0.0, 0.0, -4.0, -21.918784633541506, 0.06235265481811414, -13.84024706940857, 11.918883495488801, 1.8600970533711783, 15.96816253976255, 15.855842016427333, 21.839893813258083, -11.952140510003852, 17.802557285109412, -2.0493197658358864, -31.83185509137328, 3.9502785403517593, 23.85111793131805, 6.074631828391372, -5.970472507530287, 45.71594703557306, 37.736095332716054, 33.89514990118154, 45.72156850138577, -5.954271708599514, 5.940815043406157, 2.0, 0.0, 0.0, 0.0, 0.0, -5.9860973187686195, -23.910656845064683, 18.020995556736004, 4.030066697598491, 21.816601576529507, -0.013732938043051757, -13.853850730647324, -39.767882096766435, 5.873667562766897, -9.97992453879942, -37.65505468893912, -21.929504726154583, -14.036229982981057, -37.94469664118247, -23.84380399951521, -3.9143847758611217, 19.936317039710808, 24.037078549630746, -33.79794841017813, 27.96486278146212, -3.822440533622131, -5.958099466683883, 1.9468050613722223, 2.0, 0.0, 0.0, 0.0, 2.0, -19.922644004338554, -2.0630186605495124, 17.94039897357718, 29.835840346728027, -21.881413382448564, 13.912958261680965, 35.778215095436465, 9.864161340942092, -9.942408309909734, -3.945023999584815, -51.670558016966396, -43.83010935838069, -73.72882591318064, -12.246899150483605, -6.047624403786916, -15.934553044163549, -27.914470059750908, -13.971392961127574, -2.02388808099605, 6.134238779885459, 12.066738169574561, -17.821980414394623, 1.9567553101284414, 2.0, 0.0, 0.0, 0.0, 0.0, -21.908717572917094, -1.9564756868693145, 45.71921489009507, 43.681707576228696, 10.068483541443168, 23.932598812580277, -8.021292564180206, 7.856251554315692, 5.984806708954096, 7.838334991906402, 11.815466823811803, -87.5098360510599, -40.02303269550909, -45.922600659201095, -6.056887938827208, -21.82586276075067, -37.730930067546964, -5.999803110470339, -19.918652507549442, 11.94286372066778, 4.147447791897388, -11.839981319194747, 3.9507652921623757, 0.0, 0.0, 0.0, 0.0, 0.0, -5.974177248959936, -5.897451368830914, 14.049146469227676, 29.87154903594493, 63.763842123546276, -27.738485657131903, 57.586887043520626, 13.877277628904006, -0.06500701351921379, 13.857176765448012, -4.048243289703079, -127.36861271479897, -47.95595949689688, -41.940148208010946, -4.056416639038183, -10.019895693910568, -0.0002028618799152504, 7.88951650033423, -1.9764348482129543, 25.808431541215366, -5.81101287013504, 31.8594968775428, 1.9448070593742204, 0.0, 0.0, 0.0, 0.0, 0.0, -7.956477777849865, -21.790663723922616, 2.082806526217943, 21.915397146992355, 12.073349620028921, 14.091025948775313, 24.085770044478938, -13.82226655339624, 5.94033556612132, 25.848615896986438, -109.48387794943449, -99.52559676971107, -38.00184920917129, 7.8228485000525385, 21.78474375668938, -8.040982281363434, -19.928786302636517, 13.793238838376391, -23.823835183419767, 7.897411091822756, 8.054635550884553, 11.914892718165513, 1.9448070593742204, 0.0, 0.0, 0.0, 0.0, 0.0, -25.825969103534906, -7.932797521528466, -21.89432867712235, 17.939091401240223, 4.09879311161513, -7.828134114479539, 35.93753491366501, 34.008774459672246, 43.77580362842994, 2.015600845504955, -67.7802178081482, -26.178957706950218, -22.10027068174214, -6.168811736053952, -16.0310534946893, 19.73331292088687, -9.97000635065599, 6.0177253513674245, -25.953935920112528, 13.881584770423508, -15.884120980552341, 7.899647132873296, -25.881141767806437, 0.0, 0.0, 0.0, 0.0, 0.0, -23.859528891348678, -43.74860400360254, -2.036941794571916, 19.877819026545744, 19.901239224019633, -3.885448686042102, 8.033271077843862, 10.074555734804438, -9.970174837231067, -15.899091020263084, -36.07582979169243, -65.85688477742093, 3.724239381508246, -6.110337373841878, 5.9328331817806905, 27.86895356476995, -29.866858015106253, 13.944066120552808, 9.895588309325381, 13.85213953441022, -41.7471625441559, -13.964013843300805, -2.027504047024062, 0.0, 0.0, 0.0, 0.0, 0.0, -33.817915462701436, -25.85701694484722, -13.918632411462728, 47.69336292235642, 23.914447814430563, -11.977520359205297, 3.9923287224886814, 73.57291191876084, 4.058995798366087, 1.9488680303881365, -6.039520128611105, -31.92495553381111, -9.801054746038249, -43.7056266038479, -39.780553833368124, 7.899419251170945, 9.908712003778842, -27.904790037006233, -18.038587157615588, -0.12758337551776444, -25.83769736275136, -23.84561373877993, -2.027504047024062, 0.0, 0.0, 0.0, 0.0, -2.0, -19.901100535797973, -13.930486347375808, -4.061142803602571, 15.84180857909441, -5.842855931720846, 15.88693512987133, 31.916735605120135, 61.778020921281296, 16.019785727304086, 21.908631860791715, -21.834046660037465, -5.960669844858586, -4.033716018503906, -19.875891606907214, -12.007416799908558, -21.961981736023624, -29.858123620406076, -45.7685602421794, 17.79115674271434, -8.015427904456335, -19.944391393263025, -23.873289899949604, 2.0, 2.0, 0.0, 0.0, 0.0, -2.0, -11.962419626822427, -2.073054604403733, -15.918951921240069, -13.875832900489321, 7.944417713675291, -10.02402628468442, -31.77835518432295, 2.075140648972312, 23.940335117356657, 6.029492413096261, -43.703704956283325, -17.826805874129985, -12.057295056435972, -11.968271025409715, -57.56744554779274, -9.941480221515215, 5.891314676176583, -14.015432533731863, -8.033506040838994, -0.09057109776124594, -19.926629975816528, -15.9166956315064, 2.0, 2.0, 0.0, 0.0, 0.0, 0.0, -0.027613412228796763, 23.800618241304722, 55.63625697491125, -4.007760090949489, -27.692353823630686, 23.854889206954507, 35.683701856713924, -23.841494568424245, 21.755141456951087, -25.74516089156745, 41.75633474512117, 11.957452713504358, -11.881327510881762, 2.046873916923625, -23.9012175722751, 5.800127686301831, -35.8497335737019, 13.889114934336774, -4.013707823520416, -4.001779370287881, -21.885199568514274, -19.88519956851427, 2.0, 2.0, 0.0, 0.0, 0.0, 0.0, 0.0, -11.976224879771221, 21.735541593666568, 11.876021462508094, -19.853125200048403, 31.773201084812822, 15.915362816862931, 43.73721318848527, 19.907391820964786, 37.79254970145479, 45.755437135834796, 15.8817956813507, 15.976044468072095, -10.013705071373453, -12.037739229960401, -27.83803526515309, 0.023679637855989588, -5.93687904581412, -5.954430148254205, -7.938493893274125, -19.88519956851427, -19.88519956851427, 0.0, 0.0, 0.0, 0.0, 0.0, 0.0, 0.0, -0.029752228954238902, -8.007881420232819, 3.9033610068918403, -19.956301043698232, -21.92073573758402, -23.944116507953566, 9.850072457784444, -9.90487895214474, -9.938336265686162, -39.70716542316222, -19.899142671914575, 5.928806807888611, -21.855913951119515, -39.730932025109595, -7.9134174617078745, -21.79480530371086, -21.780808639651454, -11.851960657845979, -3.9387282399034778, 0.0, 0.0, 0.0, 0.0, 0.0, 0.0, 0.0, 0.0, 0.0, 0.0, -5.97812919127858, -7.97812919127858, -9.942765733518264, -23.84188168253956, -19.822236397800804, -13.804901549375138, -13.907096015886202, -10.001990048898842, -55.683936910549725, -25.909331819295918, -14.00629126881686, -39.77673476944298, -19.92285796383941, -15.877530698522571, -17.80859084485517, -17.828177718516596, -9.89932973671112, -3.968269590378521, -3.968269590378521, 0.0, 0.0, 0.0, 0.0, 0.0, 0.0, 0.0, 0.0, 0.0, -5.97812919127858, -5.97812919127858, -7.942765733518265, -3.9546862934834666, -3.9546862934834666, -17.810204774897652, -21.798284214932455, -27.794292198964396, -21.91892719512449, -23.91892719512449, -15.990017966065869, -9.994009982033933, -9.994009982033933, -7.948682716717097, -9.879742863049696, -9.89932973671112, -3.968269590378521, -3.968269590378521, -3.968269590378521, 0.0, 0.0, 0.0, 0.0, 0.0, 0.0, 0.0, 0.0, 0.0, 0.0, 0.0, 0.0, 0.0, 0.0, 0.0, 0.0, -3.996007984031936, -3.996007984031936, -5.996007984031936, -2.0, -4.0, -6.0, -2.0, 0.0, 0.0, -3.968269590378521, -3.968269590378521, 0.0, 0.0, 0.0, 0.0, 0.0], "label": "0"}
{"weights": [0.0, 0.0, 0.0, 0.0, 0.0, 0.0, 0.0, 0.0, 0.0, 0.0, 0.0, 0.0, 0.0, 0.0, 0.0, 0.0, 0.0, 0.0, 0.0, 0.0, 0.0, 0.0, 0.0, 0.0, 0.0, 0.0, 0.0, 0.0, 0.0, 0.0, 0.0, 0.0, 0.0, 0.0, 0.0, 0.0, 0.0, 0.0, -17.879418656574195, -17.879418656574195, 0.0, 0.0, -9.930895373288816, -27.84180974660862, -25.84180974660862, -19.83217433895365, -15.846100770375113, -7.911285895827296, 0.0, 0.0, 0.0, 0.0, 0.0, 0.0, 0.0, 0.0, 0.0, 0.0, 0.0, 0.0, 0.0, 0.0, 0.0, 0.0, -1.998001998001998, -1.998001998001998, -37.77620382453283, -39.77620382453282, -21.916595251481347, -51.6835936031862, -41.72532944374871, -21.98964428688718, -23.926349470882702, -23.926349470882702, -41.6365204082502, -19.879444945875626, -13.940545637819534, -5.960438337016982, -1.9723865877712032, 0.0, 0.0, 0.0, 0.0, 0.0, 0.0, 0.0, 0.0, 0.0, 0.0, 0.0, 0.0, -3.968351608550459, -1.998001998001998, -29.800149597201617, -49.67956825377582, -63.64959346548077, -41.88455910425808, -55.756523709738, -53.74476369928788, -51.758786586580946, -41.81206118032345, -47.73510913230546, -23.977851398024335, -31.80028759191131, 0.00014659752323997743, -5.932529874915607, 9.976246518937554, 0.0, 0.0, 0.0, 0.0, 0.0, 0.0, 0.0, 0.0, 0.0, 17.873358431908695, 5.972257617758207, -15.869452422700945, -9.912969817918729, -7.90700400536319, 11.915309582553167, -19.796187647343825, -25.82783724609185, -25.924239809772367, -30.00116976467784, -12.00017821359145, 25.84351704584773, -23.792956691446186, -27.83022389409572, -19.940713449994508, -5.962363469845323, 51.54745509836326, 9.903384343394643, 31.68425122357394, -4.021437026338853, -6.021437026338853, -3.998001998001998, 0.0, 0.0, 0.0, 0.0, 0.0, 0.0, 19.873358431908695, 7.96628350423823, 19.902938487586802, -3.933173895133925, 49.61843597910129, 15.847382706005869, -5.905660450088927, -23.838131655538486, -2.014148444279236, 15.875087211632907, -19.728266983225396, 17.883671743697246, 23.871600415346336, -29.78045105738989, 31.779841848983143, 3.998082825971459, -3.9722639315127553, -15.957692854019419, 39.78480294842348, -5.867707090325094, -17.936099727087974, -5.9624634317546095, 0.0, 0.0, 0.0, 0.0, 0.0, 3.9821605550049552, 27.769247833343297, 27.789121075004825, -11.830010080058658, -7.8526858577658984, 13.895591321539225, -11.994124307588892, -21.87935107364488, -27.830192989306713, -3.8980059393277275, -19.877810459032897, -79.57545798477018, 3.8717307544070825, -27.859838053764175, -39.650747670691345, 24.05524409700497, -11.909070597868284, 35.82679973047011, 19.822623680716294, 41.859750104216936, 27.896967053848556, 21.879433336278243, 11.863942898390663, -33.63484297717176, 0.0, 0.0, 0.0, 0.0, 7.946621850920166, 7.856936653898181, 17.842687602954527, 7.956200383674236, -29.823913101161438, 29.749124969046512, 5.934897034302475, -6.042748250285815, -39.80224129069228, -26.03349071883795, -23.917511030166903, -65.71830082178377, 1.9106215507181838, -45.835805400942725, -25.891491077975374, -1.9722284503192453, -29.661758338727566, 15.901744867773107, 33.86321809949882, 35.77911905396802, -21.77683435877653, 4.00033234480191, -0.015708381510645797, 13.989650817447718, 0.0, 0.0, 0.0, 0.0, -13.912788111381138, 9.831223236880415, -7.914906305817491, 5.991857225876561, -0.06232142355576187, -37.82381468111055, -9.85810784027172, 15.845207943825491, 2.0089480088789324, -55.4579307939839, -4.117523523862779, -97.48510286477656, 1.938310283808712, -65.63819977344676, -24.117535270271805, -6.0914064738160665, -11.962429340654017, 2.015106747745575, 9.936864338973324, -27.754902669601773, -3.962920456374628, -27.834347123644232, -2.0850329676912573, 21.832017930410235, -17.89894335189051, 0.0, 0.0, -15.891115837612986, -41.71903266559623, -9.908924781020417, -1.9334405804169297, 7.926421796122785, -0.11202741491998136, -19.91171710019105, -20.013769645388386, 17.695679006568916, -41.7403992408496, 53.669790614171795, -49.718500470382594, -35.808988818554795, 23.876281292037394, -13.992817604093908, 0.146884216040994, -39.7609316716308, 53.38436900343475, 15.924918665558954, -3.793070324101596, -31.737258994743204, 8.026154789390743, -8.008008943956858, -7.943049833071429, 9.875817535571557, 0.0, 0.0, 0.0, -19.81846091763481, -39.7587023185735, -25.806450173119174, -63.500787543718204, -10.117960467927302, -2.0934088695143136, 1.836837523082878, -43.79033528315913, -14.017687463793628, -33.83145197362953, 35.848372516314406, -0.24484607033073136, -71.70923489598636, 12.014863688409632, -11.80901999172801, -23.648095069731966, -6.071085801982623, -35.81081427246852, -3.9860137740003663, -2.0351658580774528, 17.813938293090434, 3.8989826164342696, -23.841824898611403, 33.677943831643574, -7.893532512318725, 0.0, 0.0, 0.0, -19.81846091763481, -9.930862890621881, -11.872112483676885, -11.889537491690223, -23.796944427806963, 41.567377755732906, -6.055831867500746, 99.21393320028348, -21.910627073527596, -27.7644602915553, 13.944243706593461, -53.65206015244068, -63.69985440752287, 5.916398656235241, 11.993795420028727, 10.011031965124978, -11.897009949226744, 13.936156627679456, -13.944271368007367, 0.03291207458996981, 9.849919526333299, -41.72347758355206, 15.690585520526298, -21.86146860083604, 0.0, 0.0, 0.0, 0.0, -5.9173948312656055, 3.9823032907772458, -3.962844140776691, 23.83229191211761, -53.60892237687541, -5.97948752483439, 3.8151527659939366, -7.792426967964989, 14.11541250134749, -1.8654439078925518, 36.034964204617594, 15.835546444634089, 7.799057244860462, -49.66550944847778, 63.642542142843105, 1.973537025362921, -0.17295280720441664, -15.867904327791637, 3.963040669574775, -11.934634476118708, 5.971982058385747, -33.869108421992415, -26.010641095642008, -29.894656678310273, -21.80838759934335, 0.0, 0.0, 0.0, -1.9900497512437811, -13.822297524142957, 13.965306713068632, 19.887580467636486, 65.60109167580902, 27.738299765314697, 19.91757299924091, 16.069159596712833, 101.41789445978173, 0.2158318987946357, 45.733682606137734, -11.918616631320718, 9.867450664512356, -27.736380469462315, 41.7119368012608, -7.746246867938368, 55.687716303028786, 15.87750835770491, 15.896608625629648, 25.8296189865079, -8.082450554876141, -19.868769742718452, -39.84257444689937, -8.033188077474223, -21.80838759934335, 0.0, 0.0, 0.0, -1.9900497512437811, -7.893378901509668, 21.874517230879015, 2.05958663178456, 53.71776541622745, 23.84206153834615, -23.886446939618626, 17.708412083179248, 37.941974892381666, 25.80276747210592, 8.072617502495122, 7.994305219995741, -53.775950175517494, 11.868381415496861, 17.94481547769315, 23.96167396885048, 2.059457830209802, 43.77375463095435, 17.89920319064097, -0.0274504928709276, 25.7180639677865, -17.945742326678545, -15.95809137138772, -17.910934619840575, -13.912932621838575, 0.0, 0.0, 0.0, 0.0, 9.944811331146564, -27.682608858092358, -21.744775820330382, 15.972721809681135, 41.63433249842657, -7.830044563009956, 2.025219191523327, -23.805729213707217, 27.98930409515965, 22.00170133248888, -25.985109137024864, -15.805116626180473, 37.7328630788131, -27.75711991624176, 25.976158938698173, 0.07071843155904967, 6.0331592834368255, -6.0071750437853115, -75.27551165077408, 33.92966008421648, -21.646950166331834, -73.32099448414937, -21.89304788676871, -2.009705284445085, 0.0, 0.0, 0.0, 0.0, -4.050969989014446, -43.72310259067452, 16.001161774719215, -31.66185480872964, 2.1739919514280452, 45.87740375742439, 37.68815326587184, -7.928695084723582, -4.101242855565964, -5.925530144751482, 49.77059823276009, 4.049998498015231, 8.011229966164377, 57.70732646816485, 11.998094480464255, -3.7675077879149623, -7.863880785372029, 37.75705935054387, 27.741724002684425, -1.9925810414523948, 35.84697864370533, 51.56143196268378, -41.685942670036304, -4.009705284445085, 0.0, 0.0, 0.0, 0.0, -15.910988732840908, -63.63192501189568, 9.846228191546118, 7.800937825937034, 18.082627404162892, 39.718424913995264, -27.874450269549133, 3.8102437308926373, -37.80164091435332, 25.794670245951917, 39.599173136674835, -11.930395419942872, 8.05153516982204, 33.94659358482623, 39.709909691162466, 11.979174619614293, 9.790328928796718, -21.804185936020833, -23.920604704513565, -51.75733883152261, 57.49735332788245, 7.834324310680987, -19.893047886768713, -2.0039236819038933, 0.0, 0.0, 0.0, -15.891115837612986, -31.800110556483833, -53.61074262427016, 17.864397091291078, -39.90474933924627, 17.729420874970202, 0.06071537858286513, -5.879579408726324, 11.95425867753753, -19.812356951033664, 25.760632786941322, 21.650272533423085, -1.8835941032885595, 31.897570442034496, -33.8845091557406, -15.950976786639254, -53.73985859199675, -21.97351930417797, -0.013965580891409868, 41.50064487219149, -49.7921940257017, -45.76893548539807, -79.52714543067721, -15.883550154897097, -0.003923681903893028, 0.0, 0.0, 0.0, -15.891115837612986, -19.88712382164492, -51.59298614299369, 6.029545305715324, -0.06946101103427749, -95.39326606519168, -29.956144458974443, -20.003617799603695, -59.616873644542956, -41.66256702707235, 29.787870101174327, 37.982256374206486, 33.80792352772238, 6.101086460887647, -21.809739161682124, 5.958201416114704, 1.9157477053280951, 19.821664066578112, -4.029656314191595, -29.87559524411474, -23.917105337497706, -45.69620211858109, -27.810229418465784, -13.883550154897097, 0.0, 0.0, 0.0, 0.0, 0.0, -3.996007984031936, 11.865633560767504, 4.040995148691394, 17.812092698644516, -61.5814554942071, -18.065197960678702, -15.946017680057787, -16.09702286043033, -5.987200771747947, -59.61309407252193, -13.771369586496824, -13.871538203781192, 32.00458952976205, 13.969921579533978, -27.67890408006783, -45.774412194393314, -35.780910036054074, 19.70987942978639, -17.968575977276373, 1.9228792338161336, -19.850177424234747, -15.891315805808372, 0.0, 0.0, 0.0, 0.0, 0.0, 0.0, -3.996007984031936, -9.978136966160918, -27.832036823111, -35.898527257957106, 5.746218849638359, -12.111843734142788, -17.95097468047288, -39.773893554670344, -31.85418285395333, -35.79445421601569, -43.917978936302326, -8.039083003504736, -49.892569781253364, 15.80069721443167, 5.9369127238977555, -39.71940873244185, 13.879579511962877, 35.71301288975392, -27.804777549686268, 35.73856399818071, 2.0487810859853353, -9.946516710561733, 0.0, 0.0, 0.0, 0.0, 0.0, 0.0, -5.976206003833916, -11.958334985962898, -17.912974894789194, -83.39139040032583, -10.033531037482204, -53.65196849669254, -11.954952208061464, -13.990062768875317, 3.9362618424722755, -14.105633169054824, 27.769210484601523, -5.847045942891979, -47.75872825107863, -3.826902085441143, 23.83823546015689, -15.709567956894096, 15.932775983134347, -10.025394283342417, -17.865382876911735, 25.89481524675962, 11.979736083717217, -1.9920635865446048, 0.0, 0.0, 0.0, 0.0, 0.0, 0.0, -3.976206003833916, -9.958334985962898, -17.912974894789194, -12.003783184341087, -13.956319903770884, 33.80415265716221, 41.647911975503796, -39.82376912295643, -2.0880113281185193, -81.57235539101256, 5.953391602195706, -17.89135971922593, -1.9351449369070268, -0.04463378807377394, 57.69941089571935, -7.9186364735232555, 12.010255928228474, 11.958437645973314, 25.926364163960166, 2.025311910141848, 2.060574831609476, 3.9742473509953387, 0.0, 0.0, 0.0, 0.0, 0.0, 0.0, -3.976206003833916, -5.976206003833916, -15.90897579311174, 35.57949387868315, -33.776324798118154, 31.78093827472562, -11.955948865304347, -33.7724364739208, 29.709436107538274, 5.770853109517095, 8.007919270165905, 21.768861735419975, -25.947999371757675, -21.836341167484836, 3.8287345746800203, -29.975301464824916, -23.778706462729442, -10.00922589156693, -15.952129084017065, -23.7594815739617, 2.0506444041840184, 5.96827323747536, 0.0, 0.0, 0.0, 0.0, 0.0, 0.0, 0.0, 0.0, -7.934767791275828, -35.69777961201186, -49.54733801074199, -69.44647281765621, -33.86307293625796, -35.82834749929209, -63.693358481452414, -49.7198339067242, -61.61837881245965, -21.963069765725812, -16.053195236341182, -65.58733013484346, -25.95218306777712, -23.89991128083005, 3.9245807596698, -31.796414374151134, -35.73913975143751, -43.66413284512834, 21.845601256639622, 19.863642303118503, 0.0, 0.0, 0.0, 0.0, 0.0, 0.0, 0.0, 0.0, 0.0, -9.90515638258459, -25.772771230935206, -4.031456844815361, -15.97981843456456, -31.84155782887569, -31.83947405622838, -25.906684374476527, -49.67561334613527, -61.71523671579328, -49.739442921185066, -67.45699597099446, -49.57559032961531, -29.81037332824221, -11.980059800705408, -13.96215328166233, -25.851464767780058, -25.851464767780058, -1.996007984031936, 0.0, 0.0, 0.0, 0.0, 0.0, 0.0, 0.0, 0.0, 0.0, -9.90515638258459, -23.80813468869552, -13.90297830611093, -13.90297830611093, 0.0, -1.9920318725099602, -5.974192427514915, -9.970188483200404, -9.970188483200404, -13.980047872358961, -2.0, -2.0, 0.0, 0.0, -5.9860418545438945, -5.9860418545438945, -5.9801034430865005, -5.9801034430865005, 0.0, 0.0, 0.0, 0.0, 0.0], "label": "4"}
{"weights": [0.0, 0.0, 0.0, 0.0, 0.0, 0.0, 0.0, 0.0, 0.0, 0.0, 0.0, 0.0, 0.0, 0.0, 0.0, 0.0, 0.0, 0.0, 0.0, 0.0, 0.0, 0.0, 0.0, 0.0, 0.0, 0.0, 0.0, 0.0, 0.0, 0.0, 0.0, 0.0, 0.0, 0.0, 0.0, 0.0, 0.0, 0.0, 0.0, 0.0, 0.0, 0.0, 0.0, 0.0, 0.0, 0.0, 0.0, 0.0, 0.0, 0.0, 0.0, 0.0, 0.0, 0.0, 0.0, 0.0, 0.0, 0.0, 0.0, 0.0, 0.0, 0.0, 0.0, 0.0, 0.0, -1.998001998001998, -3.986073568578539, -1.9880715705765408, 0.0, 0.0, 0.0, 0.0, 0.0, 0.0, 0.0, 0.0, 0.0, 0.0, 0.0, 0.0, 0.0, 0.0, 0.0, 0.0, 0.0, 0.0, 0.0, 0.0, 0.0, 0.0, 0.0, 0.0, -1.998001998001998, -3.986073568578539, -3.986073568578539, -5.938689817945722, -9.90322215212783, -13.897232134161763, -11.928774441797538, -5.97617053703889, -1.9821605550049555, -2.0, -2.0, 0.0, 0.0, 0.0, 0.0, 0.0, 0.0, 0.0, 0.0, 0.0, 0.0, 0.0, 0.0, 0.0, 0.0, 0.0, 0.0, -7.934868432553624, -3.986073568578539, -19.833970368793533, -27.759153593630582, 5.960495159608786, -9.980118979776615, -10.015349576197544, -13.98401251405211, -17.946308221553853, -39.72728256151859, -17.899154793029535, -9.930905023981776, -9.91320521787046, -9.91320521787046, 0.0, 0.0, -1.996007984031936, -1.996007984031936, 0.0, 0.0, 0.0, 0.0, 0.0, 0.0, 0.0, -2.0, -17.887128896225473, -27.8219973287791, -35.79637530867363, 0.007859421371845698, 31.683892364402812, 47.53001332637129, -43.74281476244343, -15.979954861022469, -49.634925957542436, 3.9479321730494257, -8.0866477328437, 23.69353464460032, -49.778152379230775, -93.50530401066189, -61.677924835031355, -27.828220993741393, -19.891334444669187, -27.779106593740792, -23.82647567260593, -9.883838548315484, 0.0, 0.0, 0.0, 0.0, 0.0, 0.0, -5.958716521814075, -7.9564975035210574, -1.9092074171242661, 9.897539301864406, 45.695299292401636, 25.827780119040987, 13.877073306532235, 17.893196471876887, -13.930827751873135, 23.754947421004875, 29.69399143495209, -27.723473418359507, -5.974514403167607, -9.98366596792204, 23.71014238073178, 5.921821755569091, -39.70031530253918, 19.89246657033777, -9.932982371121973, 17.825901776540032, -23.91301949577142, -21.82235196941827, 0.0, 0.0, 0.0, 0.0, 0.0, -5.958716521814075, 19.861395668663835, -3.907665212568494, -27.76717427555031, 49.599209198628934, -9.834528649882166, -4.0725258133794835, 2.0618178610186173, -15.836175696332253, 59.57701846424142, -6.046783302364229, 35.54167493931948, -33.80434495509429, -29.81230399336036, 15.825025306640084, 11.912857863536265, 13.906132756385361, -3.9354770433011006, -27.638471865497532, -2.009908152107319, -19.871321274456314, -23.936837201901707, -29.859231639755023, -41.728734368174706, -19.8673350424158, 0.0, 0.0, 0.0, -5.958716521814075, 19.861395668663835, -27.62889985519721, 15.769879900817608, 53.634114573832534, 7.903545113542718, 16.213573162485876, 37.851387690182015, -2.0649331342125437, -15.938661057313182, -21.846038534674374, -7.885613068872043, 19.93067749801891, 25.81027859761812, -0.021171208457386737, 5.94103463724907, 23.80832465871757, 19.83175747034732, 6.0416144273498595, 43.845081878018, -27.619394309246953, -27.825900062404628, -15.881633426493705, -41.728734368174706, -19.8673350424158, 0.0, 0.0, 11.946394699336258, 3.984126984126984, 0.1100502808243875, 6.01563130890508, 7.892022517381738, 7.934903616838602, 2.1123511298542614, -5.8869853246602, 17.869718943144328, 29.62004337229171, 21.894668398239958, 25.946349631292016, -1.8969000640485687, -3.9366298215430597, 35.92411003576922, 8.133800515908451, 18.015417039331666, -5.916601367191825, -11.904724837976142, 27.930576225679804, 23.95184406648495, 31.91811618397845, 13.983775802870934, -0.013779527476543318, -27.815759128781902, -19.8673350424158, 0.0, 0.0, -1.976284584980237, 3.984126984126984, 45.70766257179516, 71.51972870608068, 29.674035039271626, 9.88578435950969, 35.82380611057766, -21.723529686615656, 7.879424989087976, 3.893121363195118, -27.819982416253524, 4.034977206603514, 21.844178608081606, 27.9597573137356, 27.96000360376942, -23.91812476932289, 41.92390512552877, 24.013755786942443, -15.930550369453696, 2.1104028038643006, -21.739736849871957, -21.74739357656715, 47.72280297264754, 19.83209208175603, 0.0, 0.0, 0.0, 0.0, 0.0, 3.984126984126984, 45.71553612256972, 39.77826904391282, -23.99926097197255, -2.0663251986696403, 37.67592566964225, 3.947309454045374, -31.78077338266269, 9.896884758887118, -4.0044179891678935, -11.805319003299047, 37.82980235810442, -3.9133910442652504, 55.701661397966205, 22.069794743943454, 16.047250305946438, 59.77051644057086, -7.854235940877906, -17.851618661632692, -8.040811055106317, -6.015238518400201, 8.023080211504528, -0.02951703527278604, 0.0, 0.0, 0.0, 0.0, 0.0, 3.978121321820322, 49.6306735686533, 17.901161562560457, -57.62837949810457, -19.891163326488194, -4.05173836742739, 13.926742267466786, -37.71045664652364, 2.0976312512771202, 1.9996240173721036, -39.607953657405254, -11.839502586066317, -35.78159711426118, -21.68098974380074, 25.786926189882593, 15.919281718414132, 16.166534423644773, 9.784815655712134, 9.924750700415938, 15.971542908438716, 13.934532205738162, -6.039366181229461, -23.863423713852825, -2.0, -2.0, 0.0, 0.0, 0.0, 3.978121321820322, 49.61280233960402, 13.994138575999878, 3.9836346060151486, -57.543515096736705, -35.86951089284218, -21.72663854687376, -15.973189780143358, -33.79885380727641, -59.599422189359565, -33.95239508879236, -71.80578099090168, -25.991545261311636, -63.60853307014445, 55.665337088153414, -29.7415850758381, -5.7615366775074985, -5.8528358660277195, -1.9525793482311795, 16.013488367270604, 27.6707591110158, -45.76286543704825, -27.930425777499742, 19.832025627357392, -2.0, 0.0, 0.0, 0.0, 3.978121321820322, 33.74523008132243, 21.924621839166257, 13.896985107275903, 29.80403068118858, -9.990104024355455, -4.113885692432744, -19.899552471147754, -17.83962142652273, -35.753573846883285, -6.065617630979272, -12.249992965670957, -10.138086021319634, -25.926135793293785, 27.780569992333074, -69.47698650306165, -14.105748973880013, -8.047275609934191, -7.904013178627835, 21.798798833360777, -14.018926698635362, -16.054185876601082, -27.92618557059806, 27.86513550486983, 0.0, 0.0, 0.0, 0.0, 0.0, 31.743486247284544, 29.849523032835577, -3.880392300771108, -15.881369656418427, 27.707899020116436, -0.05694113154282432, 3.9721347491456025, -1.9043526337976608, -45.71048063023296, -41.84103789932063, -63.79023122459498, -27.77735106461266, -19.88389104293055, -13.77070674593948, 43.67932514883771, 6.079328321904638, 16.033052090444297, 6.113032758213821, 27.826231816977455, 4.0433077249013305, 17.830109515395236, -1.970377961275286, 19.98912746707197, 0.0, 0.0, 0.0, 0.0, -3.9603999219683583, 31.75133609436394, 2.011849667832095, 6.028581157591658, 41.69525394361641, -15.885258070308383, 23.869310043151685, -27.828000440033527, -49.828635671272956, 3.871777471435902, -13.9553029789183, -0.051174482151636, -23.804885205382902, -87.54839117821247, -5.961479861293702, 27.81442790316231, 41.764857650650065, 69.69970638171496, -19.76035483688279, 26.06293758607701, 2.1395284595654824, 8.006917308106642, -27.664985595825343, -9.863834923595036, -9.873804010952533, 0.0, 0.0, 0.0, -3.9603999219683583, 4.0256339922570294, 17.90908887665264, -15.948298228908584, 11.987139221644147, 27.83351971139434, 35.719034781377815, -35.786573667481534, -53.68135323382397, 25.837209242760405, 9.863992067361252, 17.822472903775523, 18.058598650055373, 43.51646218064993, 9.964632295252017, 13.926370801079127, -11.813193247957186, -41.58484460547805, -9.738445887162348, -13.8129391220317, -35.7119081219615, 1.8840628901054157, 3.968385090050561, -11.84011950857527, -9.873804010952533, 0.0, 0.0, 0.0, 0.0237270621586263, -1.93479245205607, 6.039248709684627, -27.831970318826023, -19.864045793435068, -35.7218851271461, -39.739326143647176, -39.877437793129225, -43.75042412703985, -35.68346055768704, 13.860348206130833, -10.123531380310068, -2.0712073966483526, -11.964552068783753, -31.723992051689148, -47.657126102111384, 9.842307055044623, 31.74269544215368, -10.037231593984151, -9.972299982840616, -14.01348018585393, 13.863826107800426, 17.810443907186823, -11.85008859593277, 0.0, 0.0, 0.0, 0.0, 0.0237270621586263, -5.924818382249522, -19.85157455034845, -37.72917795771491, -49.64491374313326, -67.60029298739536, -25.98194237474759, 1.9243320071092969, -25.904368024631292, 17.851787849066753, 33.82728154324144, -7.8603503405674005, -53.5445087367434, 9.947398297073248, 3.975306170932543, -21.938600975308148, -9.927131447802688, -21.96047011144767, -47.748918617930244, -9.97634973015235, -21.94796806393494, -19.9103967300258, 17.72608197221671, 0.0, 0.0, 0.0, 0.0, 0.0, 0.0, -9.908945366376505, -23.816211092588134, -37.77842003439155, -29.884922165624758, -27.924449075542032, -9.986306345266582, 11.885148903193405, -10.08235444160501, 2.097168667142743, 6.08035320245777, -11.940954903284863, -29.956318754191997, 6.056885191259504, -9.815044495648198, -41.74475535221259, -16.030815072778466, -25.92067435567591, -2.0531832328441895, 17.839693054091207, -31.86088589926464, -53.586655251068876, -9.932605994624135, 0.0, 0.0, 0.0, 0.0, 0.0, 0.0, -5.948545444408148, -11.911183984649831, -27.83579470813565, -10.074454624419712, 15.670552634298087, -2.0770687842254802, 35.58152231825665, -45.77795503454851, 29.861433068586944, -9.909211752196372, -5.901221828603386, 7.863983340024253, -29.793327091328344, -53.50592937294783, 9.8373226246389, -15.977753080476989, -39.874853251300976, -21.891443209627727, -19.856256334029432, -27.90288421131228, -17.891097676046297, -7.940574122114175, 0.0, 0.0, 0.0, 0.0, 0.0, 0.0, -7.9131819866478335, -13.907191968681765, -19.84000429909894, -55.53003062529797, -17.86390358247346, 7.942622567151076, -4.015967176262166, 29.774562517655415, 11.940635467554142, 19.959299170894525, -5.8957218421489115, -11.917382082326085, 19.92415892078946, 19.68814049485255, 9.935138091151188, -51.73493840374489, -61.685673492758184, 35.634350820107386, 3.905125671089069, -29.857367769282924, -21.900909706829612, 0.0, 0.0, 0.0, 0.0, 0.0, 0.0, 0.0, -1.9646365422396856, -7.958646524273619, -15.818894465867915, 5.952459485858249, -23.81987166184252, -19.81246386046109, -29.778712122405203, -59.58092852928385, -37.77028245839967, 15.869010671714117, -23.983191648210326, -5.902260742376801, -15.788815376737851, 31.68025258062271, -19.837762777995383, -21.930477978370675, -65.63025460456178, -17.88957006592951, -33.7315634999115, -33.782785426085205, -25.869226164319812, 0.0, 0.0, 0.0, 0.0, 0.0, 0.0, 0.0, -1.998001998001998, -1.9785115561146995, 27.831559443001666, 43.762464888044946, 12.03527056668948, 53.601063652919805, -4.035308677711583, -41.63612652092288, 9.96387071861982, -26.1032078991729, -57.63151910581215, 13.94150452702539, -7.765369257694971, -5.926752807018078, 37.719493394666515, -13.951800449151754, -79.47825534666373, -35.704137860239534, -11.870106092254332, -29.77089990343906, -15.881411148169828, 0.0, 0.0, 0.0, 0.0, 0.0, 0.0, 0.0, 0.0, 0.0, 35.77472826108931, 29.961490483342885, 19.925012128955583, 33.74134631510559, -13.811461435986805, 31.826566531594462, 35.83078584876134, 5.9730331699844275, 15.963977795885791, 20.009304239498043, 6.153320279243951, -7.727940513088612, 25.820633421397677, 25.76523700168452, -33.757116330931645, 13.967637191147595, 0.04684839889291492, -11.87988568138517, -7.923159197441516, 0.0, 0.0, 0.0, 0.0, 0.0, 0.0, 0.0, 0.0, -7.914978055287697, 23.788710680719216, 17.934498031310365, -13.83982285213099, -6.001831507760423, 17.819872635897333, 13.865797288442687, 21.865768897975315, 1.9316211630976277, -1.9289087380956937, 25.640779333930524, -33.73731760553295, -11.926864076542381, 31.87095781859881, 49.609146693753225, 49.59122483075213, 43.665994858252404, 11.971891340326765, 9.948409375412153, -3.9548427399513173, 0.0, 0.0, 0.0, 0.0, 0.0, 0.0, 0.0, 0.0, 0.0, 2.0, 11.917186585618936, 9.917186585618936, 9.917186585618936, 2.0, 3.998001998001998, 13.864033161327528, 11.866031163325532, 23.78699193219872, 25.784993930200717, -7.9405815008624, -7.9405815008624, 3.998001998001998, 2.0, 2.0, 2.0, 19.84787220048793, 19.84787220048793, 0.0, 0.0, 0.0, 0.0, 0.0], "label": "7"}
{"weights": [0.0, 0.0, 0.0, 0.0, 0.0, 0.0, 0.0, 0.0, 0.0, 0.0, 0.0, 0.0, 0.0, 0.0, 0.0, 0.0, 0.0, 0.0, 0.0, 0.0, 0.0, 0.0, 0.0, 0.0, 0.0, 0.0, 0.0, 0.0, 0.0, 0.0, 0.0, 0.0, 0.0, 0.0, 0.0, 0.0, 0.0, 0.0, 0.0, 0.0, 0.0, 0.0, 0.0, 0.0, 0.0, 0.0, 0.0, -3.9722298923119403, -3.9722298923119403, -3.9722298923119403, 0.0, 0.0, 0.0, 0.0, 0.0, 0.0, 0.0, 0.0, 0.0, 0.0, 0.0, 0.0, 0.0, 0.0, 0.0, -1.9646365422396856, -1.9646365422396856, 0.0, -25.761104067040286, -35.68979683913771, -35.68979683913771, -47.620734322198665, -35.703869474542465, -27.747275206099257, -31.731362489567754, -9.948408393478411, -19.91653976476036, -17.934379209755406, -11.968131371281949, 0.0, 0.0, 0.0, 0.0, 0.0, 0.0, 0.0, 0.0, 0.0, 0.0, 0.0, 0.0, 0.0, -3.9646365422396856, -13.895425049981245, -15.895425049981245, -5.864694325937198, 13.97525607516991, 21.784397078165284, 19.697869036177675, 11.735683671488035, -23.995302274147406, -47.72517663678859, -29.816478463662346, -19.954558581412115, -27.829644648194733, -23.863088815551226, -9.964047290915637, 0.08250830050110514, 11.89941525416587, 0.0, 0.0, 0.0, 0.0, 0.0, 0.0, 0.0, -1.998001998001998, -11.952407389442797, -13.918975727692551, -25.92653765267822, -25.820612990144603, 3.98538393474335, -41.69024779429948, 2.048532294987251, -17.787319705147087, -19.920513260003425, -33.86158604650363, -19.967438306005132, 1.9968393731928842, 27.674372798585065, -41.78359125809756, -3.969954971959217, 55.627128650222275, -15.900647840859849, 21.934853943013792, -3.800893921486703, 57.49052535612202, 35.681992998162116, 0.0, 0.0, 0.0, 0.0, 0.0, -15.869569777509597, -25.821977166952394, -27.821977166952397, -59.640328496122244, -27.828162718707752, 11.887658788897319, 9.907491369492197, -11.832478131070127, -4.017339199568259, 19.692396012497614, -23.913214251990976, 49.65349607521152, -31.798113067275917, 0.009556358278652421, 21.855421514252768, 21.715747143093115, 29.76843749936652, 10.044527667188074, 32.08575036251589, 63.59347035000706, 49.80533267891711, -29.71140789235679, 13.977909931277878, -19.81805766931199, 0.0, 0.0, 0.0, 0.0, -17.869569777509597, -25.823975168950398, -15.94859675187463, -29.942134617018468, -8.196671390324273, 0.070185207651694, 7.915825746513594, -1.9838989092635613, 35.73881446976972, -14.00299707822856, -11.869656536532338, -6.165658640122187, -25.877203276032304, -21.719654938408997, -51.559433196191144, -13.763044372146089, 12.095191882853175, 13.966694248073924, 10.095862189890216, -47.768395137496576, 41.93175795875662, 35.87926014034109, 10.129796412174537, -23.719667249212048, -1.9880715705765408, 0.0, 0.0, 0.0, -19.869569777509597, -67.56690259690309, -39.84569195038655, -63.71657693359396, -10.000893520600652, 4.001786254971691, -0.06603484176871133, -19.847821336932483, 17.79924138517179, -23.648448173634414, 15.862057682764425, -37.74926763591922, 13.828809337691434, 47.68903439941211, -41.68965053332231, -25.955185753572486, -25.837423460090477, 0.1592081465796502, 27.842781283593087, -17.764564564511147, 18.09848022896908, 42.05860685900957, 85.569078290526, -53.40573346253113, -1.9880715705765408, 0.0, 0.0, 0.0, -47.68364875166615, -51.70926124881695, 31.596812683373923, -51.71109854605527, -8.06221285144391, -3.8576259838398763, 29.814757195365722, 3.980806485898419, 27.751524334944676, 35.61730919391157, 31.663196347592486, -39.71334313971873, -23.88506407487458, 31.778060967306484, 15.607700787045557, 55.62540444848637, 1.9469087977428368, 2.2890090515840993, -11.698588480871745, 31.887203528214688, 53.760369533801885, 4.596943064507505, 117.49539839646557, -5.765511423842469, -5.9407607657646695, 0.0, 0.0, 0.0, -31.782645857538224, -53.62663426458202, 41.575000156224675, -25.65288194037346, -11.717367302626295, 13.98106639510461, 17.910949971459345, 5.97018039080117, -61.54941527637693, 6.020037646203749, 8.041192658695879, -9.948946134693356, -28.005459116697782, -85.6885539306183, -61.60548103166114, -11.984178151966248, 39.48856914459581, 9.804164029022623, 49.57062648614635, -43.70793436925418, 55.71476537667342, 85.57516336605953, 173.04848574671811, 37.78041274275167, 0.0, 0.0, 0.0, 0.0, -2.0, -19.832083727810403, -2.0922216916288314, -1.7853404074123418, 29.82467912703335, 65.49259832970098, -3.861809678345305, 57.7920560023431, 45.76694376588671, 16.141653370876767, 11.85999807541088, 19.96755245591087, 19.946860936790863, -57.64381721168242, -47.60199580999558, -49.704838148476405, -103.4742045922407, -41.83010283383732, -43.923398890229635, -43.89314670896145, 11.796784909384742, 73.49006652249602, 119.2506530129285, 43.64833443962742, 0.0, 0.0, 0.0, 0.0, -2.0, -3.9253526240320618, -15.987966837660297, 85.45858047869092, -57.52380714444864, 15.964044345097767, 19.899215886177963, 28.066296692482137, 19.783638394246882, 23.79888004833057, 3.8132447679663923, 9.925393047744523, 0.03343833673665619, 18.14448354942133, -33.65425131951602, -2.11278392180315, -73.6059251824458, -81.64774050279728, -101.48388310371838, -160.9955659105546, -51.9335917757369, -39.855538114381496, 8.0072322983131, 37.658300569115454, 0.0, 0.0, 0.0, 0.0, 0.0, -3.9213923220986424, -85.3458777339202, 49.64659010224086, -15.741055069502663, 29.856247301040288, -5.9818657431155575, 11.88851383408462, 10.082786251967345, 39.942485486434016, 10.06500300760204, 3.9608311161791243, -27.95604002770043, -6.110821843402123, -12.161745356187627, -31.893186556604288, 17.742580693801237, -2.1219634614601515, 27.636245301613414, -101.55441641667501, -53.88820535370174, -95.44836251674488, 2.003663299155321, 0.0, 0.0, 0.0, 0.0, 0.0, 0.0, -5.895760813680379, -0.025705121312633583, 17.84144688553681, 45.733507856318845, -51.63220525999437, 2.0824007756130105, 0.04282644862292306, 49.78731648849946, -5.747222647809213, -43.51299111436188, 43.7174074760488, -27.83788827330216, -45.81335309329218, -39.843931367621884, -39.80453414728212, -45.55416286217473, 14.149680597038094, 15.915832352903221, -57.8180431979909, -111.44349393613481, -61.714923251732046, -2.0, 0.0, 0.0, 0.0, 0.0, 0.0, 0.0, 5.922804750497073, -8.073003096660994, -0.2540619083099367, 41.80803107733145, 20.050791724176303, 35.788769101309285, 24.035395673704972, -17.872572281150653, -5.882281892469331, 3.974582057038632, -17.76141592201629, -29.77106457642024, 37.682815636619466, 1.9008986772845242, 53.67186227345927, -35.77059580927429, 31.790364500335276, -45.65777022008416, -8.092787943930041, -31.928542548882337, -4.160966105722144, -2.0, 0.0, 0.0, 0.0, 0.0, 0.0, 9.958393395666658, -31.73936511361604, -25.909313552811497, -31.99539894161889, -28.00139359582384, -29.89034473722286, 37.904979452005996, 41.85786732135705, 7.99006184536754, 47.69969399280161, -59.720582715124685, 33.64532917811375, -33.87337030550132, -57.631372146596604, -14.081070472696684, -67.66230018614775, 27.80580536263697, -19.85347926728671, 3.873933899052427, -17.89516884323432, -49.70567983559594, 11.78931799787887, 15.877440121729121, 0.0, 0.0, 0.0, 0.0, 0.0, 7.9583933956666595, 15.944319875374246, -55.691600678364054, -47.84352693996379, -39.79512400015156, -69.78151248264535, -13.876034011444894, 15.857938495811721, 29.78472879753501, -7.889932889639555, -17.854939298569825, 8.01449552469574, -18.219854244743495, -31.77209290356862, -12.056907196528444, -8.137271468703595, -19.88803734767543, -41.87039736907077, 49.579668476949806, -14.038979726775326, -3.866724664538522, 43.56365054986958, 15.877440121729121, 0.0, 0.0, 0.0, 0.0, -2.0, -7.878095606655972, -37.546773349929126, -43.80291054293524, 65.61963298451465, 15.82993175530938, -38.015529626614374, -81.7028911614939, -29.928785287213607, -67.6030754015766, -10.174594279271618, -39.76884184510794, -75.55140721543854, -2.049568384430405, 1.9034045589206983, -21.728444046893998, -37.597577006325984, -37.65123771437155, 27.726474954021455, 57.58401789935205, 2.0184721797575453, 59.54097820905303, 17.89708122333693, 7.989955671367227, 0.0, 0.0, 0.0, 0.0, -7.903583829001254, -13.852389685552014, -17.70512854290565, 53.515943241731335, 18.076261858342527, 19.896597368682162, -65.77088336176115, -29.811164724159354, -35.779531776362255, -16.139946540715865, -83.67892302767576, 7.8413799378588855, -4.108527365844063, -13.88099983480262, 21.856483366760614, 25.918014617337747, 43.84128217060556, -25.906819560468314, 39.53671187255607, -13.904058992949551, -5.757920066051554, -5.815024103545287, 9.938707471098217, 11.938719197733898, 0.0, 0.0, 0.0, 0.0, 27.790454782896322, 49.57883468793891, -35.54112198192574, -33.78022561456827, 18.032792737636782, 10.303195570927171, 19.825753734666247, 45.64066578950178, -6.082427959517997, 27.82561563820096, 25.979663314947764, 2.0723172132520564, 14.04064611794479, 5.961778054449532, -65.64963459342492, 57.3234136118582, 43.6672642597753, 3.9077895138145213, -27.742605480567132, 25.913156648532176, 27.920212075815396, 25.859328957435267, 17.897117815489697, 5.958790187270701, -1.998001998001998, 0.0, 0.0, 0.0, 29.790454782896322, 17.92234507939378, -49.401048620527035, -27.884903306244475, -11.659544193771294, 79.6913841675043, 6.088813881889163, 21.715821117165287, 33.73921406664467, -23.701429370121488, 6.011246789116104, 11.971692159208041, -81.33158422989023, -23.73484215349443, -8.145198222841259, -65.56486126198847, -8.11730894505835, 2.051449894596699, -17.930275623191484, -43.7253180689166, 1.942848308557266, -11.753507072217161, 53.62647584143479, -17.818462513859235, -1.998001998001998, 0.0, 0.0, 0.0, -17.800673996244452, -25.737817288191284, 49.61557827029281, -2.0333111765680156, -75.47809337122035, 65.58379018292504, -27.90364947723881, -0.09389266998983548, -23.85733328089113, 27.782528998544688, 17.925306581556885, -8.027418365410218, -5.9464582674533, 5.834106404352147, -7.990661026378122, -29.88257737721957, 19.787328040771413, 5.932576515423548, 61.52164589368348, -0.034521166680902216, 51.64180409295238, 10.017545180307742, 51.66359126342226, -15.818665317210085, -1.998001998001998, 0.0, 0.0, 0.0, -1.9821605550049555, -15.889535972533285, 13.814384195006646, -39.67040193768282, 27.630704881682515, -8.017538959588348, -7.867922314704284, 29.69485866391422, 73.6510338941578, 4.149348433119512, -12.123616716560555, -25.682164632143902, 41.76103267825076, 39.72353935249218, 25.81449755276084, -6.035288284674859, 11.956660996657524, 43.693371475522184, -9.846768799028585, -27.72709413224872, 31.839539050935503, 35.81342161923711, 2.0705941728568056, -9.873896961156353, 0.0, 0.0, 0.0, 0.0, -1.9821605550049555, -13.889535972533285, -5.960477954920675, -31.701388009664246, 65.43369154817366, 5.849219523006994, -13.909763883059394, -13.950230143521491, -19.769020988164524, 25.923656728377935, 15.873308721495766, -13.934913932649899, 4.089747289098371, -5.796608255995405, 1.958695048593876, 35.634121233592886, 17.719930367081037, -11.797895252414053, 11.925773871995174, 21.773248493952885, 29.823546942747758, 9.934560706587703, 7.946489136011161, 0.0, 0.0, 0.0, 0.0, 0.0, 0.0, 0.0, 1.95094858849617, -13.924742868606485, -25.759130187133444, -37.74481428521126, 13.992836067515004, -11.710875637631231, 59.535677238572944, -5.738135124524694, 55.673742355117845, -8.00585004043745, 8.054622969489802, -21.88871267087484, -25.806302330215175, -1.9451530314274885, 17.926738010601156, 29.654683881141516, 3.9546666571551996, -29.685883883131815, 15.926467884723703, 5.948487138009163, 0.0, 0.0, 0.0, 0.0, 0.0, 0.0, 0.0, 0.0, -2.0, 5.938728173692178, -0.05528180834175567, -7.970188663338169, 5.899354879871877, 5.9645450714227195, -13.863886720559499, -1.9860734495856764, -9.800871586835896, 23.749408954887194, 41.74652346795902, 23.81590281334885, 7.9108641620130715, 9.973695547802059, -9.891570053371714, -17.90697381002247, -35.764448034354686, -35.764448034354686, -5.984099316770617, -9.912905783909217, -9.912905783909217, 0.0, 0.0, 0.0, 0.0, 0.0, 0.0, -2.0, -2.0, -2.0, 0.0, 0.0, -29.778530177093497, -29.778530177093497, -5.992019944163514, -23.849729478166893, -25.831858460295873, -25.798145438144655, -27.768689887916384, -13.932874566711762, -23.838155570496227, -7.92517721458522, 7.944532800575758, -7.988035868513956, -33.778350715586065, -33.778350715586065, -29.78034871758406, 0.0, 0.0, 0.0, 0.0, 0.0, 0.0, 0.0, 0.0, 0.0, 0.0, 0.0, 0.0, 0.0, 0.0, 0.0, 0.0, 0.0, 0.0, 0.0, 0.0, 0.0, 0.0, -1.9920318725099602, -3.990033870511958, -3.990033870511958, 0.0, -29.78034871758406, -29.78034871758406, 0.0, 0.0, 0.0, 0.0, 0.0], "label": "5"}
{"weights": [0.0, 0.0, 0.0, 0.0, 0.0, 0.0, 0.0, 0.0, 0.0, 0.0, 0.0, 0.0, 0.0, 0.0, 0.0, 0.0, 0.0, 0.0, 0.0, 0.0, 0.0, 0.0, 0.0, 0.0, 0.0, 0.0, 0.0, 0.0, 0.0, 0.0, 0.0, 0.0, 0.0, 0.0, 0.0, 0.0, -5.925230420951529, -5.925230420951529, -9.887938958733669, -3.9627085377821394, -5.925013478234947, -5.925013478234947, -9.86988257102204, 5.92697162754681, 9.871840720333905, -3.97839466309296, -3.9762845849802373, -2.0, -2.0, -2.0, 0.0, 0.0, 0.0, 0.0, 0.0, 0.0, 0.0, 0.0, 0.0, 0.0, 0.0, 0.0, -3.9781685390368917, -7.9033989599884205, -3.9252304209515287, 17.92450125471958, 8.032888720667819, -23.788790115140802, 5.92734002000274, -11.883509085058453, -15.99165978695858, -35.88932229901896, -49.85322194354614, -6.169203587264928, -12.050933506415843, -7.980356534953521, -9.940667652649298, -7.9406676526492985, 0.0, 0.0, 0.0, 0.0, 0.0, 0.0, 0.0, 0.0, 0.0, 0.0, 0.0, -15.844031050502595, -15.844031050502595, -9.814875176200225, 31.871102283739138, 31.938174281239892, 33.93990624201283, -11.76159937519889, -1.8241743036134634, 14.005425724501075, -15.854279771416413, -0.2737927269999956, -51.72260878820891, -16.126579051886733, -20.09889099109675, 1.7366905476567909, 5.860161839340364, -11.885655586989868, -31.741224153459424, -13.922819546057166, -5.976158856636944, 0.0, 0.0, 0.0, 0.0, 0.0, 0.0, 0.0, -11.88549265324728, 17.822375250609525, 45.64432389451801, 7.915209660507076, 10.043225873390996, 29.85571503292535, -35.60990919296114, -45.79577014930869, 53.595303501652076, -15.902732277837847, 47.64208530900672, -33.78441781733717, 37.54468379692194, -19.90775582989887, -31.731960324612448, -37.81702791778142, -14.212081375199253, -27.81275229848598, -25.78040785803409, -29.710043774262775, -9.877826857284505, -3.901668000647562, 0.0, 0.0, 0.0, 0.0, 0.0, 0.0, 1.9116558777068247, 43.573630837363154, -13.883386653096057, 8.05902463505613, 19.983836798257983, -27.73769959953185, 13.88413324517919, -9.88183288928742, -14.042050775236556, 75.54933610347777, 71.61613543024998, 22.083133660368365, -29.743019821649312, 14.049288546403956, 21.912179725980387, 0.04274365945777481, -51.612912185770654, 15.966939523091662, -25.810189178413196, -41.61527639227994, -15.832392991958974, -3.901668000647562, 0.0, 0.0, 0.0, 0.0, 0.0, 7.944766621965014, -5.9564084268303965, -6.005426732741945, -33.78479296261288, 5.905710509164512, -21.887671121868635, -29.798287586403518, 15.572728737381025, 13.813366291017925, -4.022786233128494, -33.559724892524, -8.03058010503633, 7.8987557653644345, 12.011001191062126, 51.604213383827435, -55.382725515197954, 15.924428258982369, 3.90316754042234, -7.990357491525128, -3.9996800027544968, -11.926456199220958, -11.92116794025459, -3.982105302800556, 0.0, 0.0, 0.0, 0.0, 15.909055807599891, 5.944766621965013, 25.763242362709185, 5.921416123219387, 19.796668149431955, 13.944434817477632, -2.017888019494662, 29.511209059377567, 7.886268556511261, 55.64260242067158, 55.50026133358411, -23.71248387215176, -37.8227858466947, 19.91955693543896, -53.81069060747245, 35.6623551839518, -43.799918989618156, -25.828114298270307, -17.92062439317204, -37.5797849285643, -2.0591453937650073, -33.84570976810114, -59.500847934266815, -21.83222437460843, 0.0, 0.0, 0.0, 0.0, 15.909055807599891, -9.983857850314413, 1.9095851418663745, -39.693625093398154, -103.235777691978, 20.04396479249711, 15.910713943543724, -15.940484053983015, 17.87254550993167, -57.56471097608603, -37.589507760079506, 43.66795984526384, -5.972624384251416, -15.875743907877892, -45.88028068101446, -11.667333690617488, -23.851226913090116, 25.94611826035562, -6.093911037247031, 13.874164290427139, 9.738734964414448, -6.101832282727667, -87.28102003820794, -57.54746710003552, 0.0, 0.0, 0.0, -3.9683164574901975, -21.845834180084854, -23.829836427622254, -9.871630439762948, 79.45196373545296, -10.068794453738143, 49.506483045362174, -27.926456919334218, -0.062490035147023004, 41.78662816881175, -23.912193488934275, -19.885267049639513, 7.945311114929433, 12.058456025375586, -0.09840764897954646, -18.120175232215015, 63.82470383744447, -5.9081981584957415, 43.6854970888094, 5.95117348566605, 7.8459022068255315, -0.011847493942326981, -25.961869698360985, 1.932835169175675, -51.60460735106345, 0.0, 0.0, 0.0, -3.9683164574901975, -21.845834180084854, -31.774603049587267, -41.57168897406169, 10.074054761933205, -23.956820479488844, -35.869655286810456, 25.7425130690104, -29.748857807644285, -3.9740541951832555, 45.67924642636862, 35.84085332857157, -55.61078480323599, -18.029200912683066, -33.64145593760606, -9.938753345551348, -47.74089825350309, -13.986227350564924, -27.784948749655925, 49.51582680498599, -2.114024205589113, -17.981793504928316, -19.776654592004903, -0.0985897349133027, 5.985560403403625, 0.0, 0.0, 0.0, 0.0, -9.903231737891614, -33.70385398782346, 59.539396863117894, 15.80440824253114, -123.14299371130275, -16.118219832106703, -61.73649170253975, -67.75042235732555, -34.006935974583186, -43.86084637745872, -33.943768261572345, -61.74870136231772, -37.79490597002366, -8.041450397478837, -20.0217766450986, 53.78714277081974, -37.87133380985967, -21.76495727080744, 0.03526942262535426, -17.968948564934163, -2.0155022450698974, -9.974667050807676, 35.671920817293284, 59.543008024017944, 0.0, 0.0, 0.0, -9.903231737891614, -9.903231737891614, 11.86376175895798, -7.948647692040089, -49.72925466740684, -67.7747525174309, -75.67158235976183, -44.10568295716449, -18.096774447429993, -19.972820495437684, -45.82821502909742, -39.91770606631085, -33.77068397425972, 11.692298861641197, -16.071204620318547, -25.846133328415814, 5.805094366949037, -5.969880940938408, -17.828369481737067, -43.5876752067845, 41.58742552240379, -43.58969132194374, -29.76321691565905, 7.885308539047481, 43.64810564920834, 29.745192762716183, 0.0, 0.0, -9.903231737891614, -11.89724968405313, -23.78884615059521, -45.687806846929526, 1.7572935120893147, -91.55913307007539, -24.007538179921443, 1.680072189128862, -59.73068886516696, -23.941579815320615, 5.751494940100944, 23.72916877521529, -73.67560206598147, -16.27114488878475, 25.657521494619605, -101.46304413313074, 8.044788566546293, -21.85965203174889, 10.01284726033696, 7.861458665964433, -5.915318284380037, 13.831925809732407, -16.120835751016507, -13.897565690558796, -5.8566799725918735, 29.745192762716183, 0.0, 0.0, -9.903231737891614, -9.903231737891614, -1.986123596394937, 27.71154677234525, -43.79238517336646, 3.5742706501460852, -35.59618874253629, -35.75773510047326, -9.984056473139441, -67.6910791239105, 4.030261186846646, 39.657058712114576, -25.829514501113106, -21.818530545709784, -19.9604082605953, -2.065245545170552, 10.101420877116016, 17.86662489057574, 27.780608802307544, -71.6884901065693, -101.41040430424457, -55.77634957800005, -29.814221509702342, 9.716419125973589, -1.8860515899124342, 33.71153040831567, 0.0, 0.0, 0.0, -9.903231737891614, 11.86376175895798, 29.670248824816344, 79.33395149737645, -4.0550841629911325, 17.9280581212624, 31.95595775272542, 2.16280460530998, 67.50256821147082, 45.74666931270891, -35.84389603185962, 39.753120517745394, 25.839499487018657, -33.853425754311964, -16.02475453662018, 20.01256255181225, -21.714743646694387, -31.789170271169358, 43.65034650841147, 13.748418526394119, 15.785173682382295, -19.99527711546717, -0.021459641050453282, 45.748296163073654, 33.805867443025264, 0.0, 0.0, 0.0, -11.8895127762198, 19.810273661147725, 2.025237841465513, 6.013824364442801, 4.049228870935572, 57.57625439761105, 18.08040479366319, -23.822512165679914, -2.0537695421830997, -2.1330459204837102, 6.143654130092688, -11.763736760761782, -7.756965814811728, 25.577767877432912, 11.90703906155576, -35.66559477393926, -25.849255406558022, -15.683131210817754, -11.948411893692338, -51.28048116765381, -23.97729769678898, -49.681502874705494, -4.003905867162349, 35.758187124964735, 33.805867443025264, 0.0, 0.0, 0.0, -11.8895127762198, -9.895490492452847, 27.784576880516607, 17.883366043343365, -11.887418652310744, -7.825477518220643, -15.822624281838136, -10.025664438673104, 14.114940077269287, 0.12486412347115428, 71.46858162064241, 19.966049731742636, -25.77277193969961, 25.96212695171826, 31.833755654430323, -8.009030055537897, 2.0358781531995573, 29.72544252720384, -0.11722403509386492, 41.88561298076133, 75.53108907271378, 27.725622421216276, 33.77270563650325, 9.976106723501195, 19.886860355558277, 0.0, 0.0, 0.0, -1.966568338249754, -33.76072492093766, 7.921340923867092, 25.93672959577726, -23.725797624986136, -5.847803414278793, 45.68356645360912, -33.68407285822004, 61.654178205577644, -5.830139650056433, -7.6717689323565725, -9.85215753131656, -39.721120617773316, 29.884456211627196, 7.962942934389309, 31.8906554038433, -3.9235620857876587, 3.754326978614884, -13.927334336420873, -61.36762186762233, 55.634741048342015, 23.932325157539914, -1.8344598681136346, 33.723416952365596, 19.886860355558277, -1.9704433497536946, 0.0, 0.0, -5.934753167686887, -41.75235069825257, 21.85563329672081, 19.874500845139867, 107.16638008258192, 32.039956234004826, 59.61452660412031, -19.91013342352876, 23.952117933376815, 19.943066946825656, 21.869897439495016, 25.7358363799559, 63.61038826339699, 4.015330406483772, 13.867193557704695, 7.950205749622203, -4.054884038267666, -41.71225475243103, 4.0644355826021545, 51.5776300444292, -11.739481790610899, -45.577415488702044, 2.1178412665430213, 31.662803572239365, 0.0, -1.9704433497536946, 0.0, 0.0, -5.934753167686887, -49.67529376410386, -15.963890123557514, 17.982568682399165, 31.8282383167839, -69.41391443126474, 49.84578739524044, -8.046040805883825, -3.9858080858829443, 43.78612327646529, 19.78537071987978, -5.91728913216817, -25.73304363725478, -23.743978678839362, 1.9484614976642005, 9.696924127239038, -49.63445709203314, 59.64422393881656, 17.96014123205083, 45.70327699383746, -1.8382587628328229, 77.6350803461306, 37.73359534217526, -5.922984387726544, 0.0, 0.0, 0.0, 0.0, 5.9252848600638295, -23.876839879207143, 21.686427333029904, -1.9105198301031878, -4.003467409234032, -19.89942018558193, -6.08828233324471, 47.63078164246929, 23.913545885076225, 19.90339755625656, -45.7275124842037, 11.749568568015512, -4.189807868771579, -93.48483811215512, -25.906857911357456, 45.46514467290992, -3.875345677662566, -11.809881624592657, 0.07351567127937964, 43.975900301248195, 51.736331102172976, 16.076907794446758, -9.879423330679687, 21.847715398412742, 2.0, 0.0, 0.0, 0.0, 0.0, -27.827932241457635, -12.095989193172265, -6.0757586448849565, 9.793809097186779, 35.94387702751683, -9.936827957336826, -2.0273925594056665, 29.67152209467165, -5.873718151093092, 25.808373453433312, 23.92362941739253, -31.976978149853696, 0.04382430842527851, 0.07875753336459201, -27.762317598524323, 73.6259317354624, 19.89159553899193, 15.903634860810621, 9.976416177048154, 21.934838666368744, 2.1143263393135165, -3.9446401509085485, 19.847715398412742, 5.996007984031936, 0.0, 0.0, 0.0, 0.0, -21.867368733485748, 15.747947246081322, -15.916409250954102, 23.863105939006402, 2.1016616621506166, -45.862906187765496, -19.943254222393183, -37.701509663593896, 15.707780430754712, -32.001463990024625, -53.6843399577409, -35.81255130941336, 21.70323385072791, -69.56104825001054, -6.029735168752188, 11.958310598337945, -35.71483569076724, -17.940529228024864, -0.058971682602082964, 10.039672493593539, 8.025676302767728, -23.82006976169963, 3.996007984031936, 3.996007984031936, 0.0, 0.0, 0.0, 0.0, -7.917021812575152, 0.03747298269920707, -3.9190295030865525, 1.9803456247426436, 35.66381730707022, -29.78132108759524, -13.929060554409716, -28.04219250378561, -34.01990116130857, -6.068552014123597, 11.784996066216355, 15.8635529397911, 15.753811791586037, 41.5187713476958, -45.64585430406977, 29.88543607562265, 59.58867309874248, 27.819813991961137, 47.62061442476588, 33.79425782522102, 6.013632782770605, -5.9781449302885, 0.0, 0.0, 0.0, 0.0, 0.0, 0.0, 0.0, 0.0, -37.65431739975476, -47.63038916059173, -47.699560557862796, -51.73278442975325, -39.858832249288525, -59.74596299103761, -45.79172645496141, -29.86529928078594, -29.784803668247996, -37.66043377600186, -53.589058248281276, -49.5950622334815, -7.970193326116288, 9.911166978842218, -9.97011089839058, -11.956208217159197, -17.898904700200756, -9.958260195218635, -5.9781449302885, -5.9781449302885, 0.0, 0.0, 0.0, 0.0, 0.0, 0.0, 0.0, 0.0, 0.0, -5.984051816673474, -5.984051816673474, -7.968178800800458, -1.9841269841269842, -1.9841269841269842, -1.9841269841269842, -2.0, -2.0, -2.0, -17.928624472279424, -19.92264241844094, -3.9801152649301352, -3.9801152649301352, -1.9940179461615155, -3.974215965963496, -3.974215965963496, 0.0, 0.0, 0.0, 0.0, 0.0, 0.0, 0.0, 0.0, 0.0, 0.0, 0.0, 0.0, 0.0, 0.0, 0.0, 0.0, 0.0, 0.0, 0.0, 0.0, 0.0, 0.0, 0.0, 0.0, 0.0, 0.0, 0.0, 0.0, 0.0, 0.0, 0.0, 0.0, 0.0, 0.0], "label": "2"}
{"weights": [0.0, 0.0, 0.0, 0.0, 0.0, 0.0, 0.0, 0.0, 0.0, 0.0, 0.0, 0.0, 0.0, 0.0, 0.0, 0.0, 0.0, 0.0, 0.0, 0.0, 0.0, 0.0, 0.0, 0.0, 0.0, 0.0, 0.0, 0.0, 0.0, 0.0, 0.0, 0.0, 0.0, 0.0, 0.0, 0.0, 0.0, 0.0, 0.0, 0.0, 0.0, 0.0, 0.0, -5.9425643708923666, -5.9425643708923666, -5.9425643708923666, 0.0, 0.0, 0.0, 0.0, 0.0, 0.0, 0.0, 0.0, 0.0, 0.0, 0.0, 0.0, 0.0, 0.0, 0.0, 0.0, 0.0, 0.0, 0.0, 0.0, 0.0, -7.964250071743012, -7.964250071743012, -9.930818409992767, -9.930818409992767, -15.873382780885134, -7.9425643708923666, -19.88694917552674, -11.944384804634375, 0.0, 0.0, 0.0, 0.0, 0.0, 0.0, 0.0, 0.0, 0.0, 0.0, 0.0, 0.0, 0.0, 0.0, 0.0, 0.0, -5.954686293483467, -5.954686293483467, -11.903353618261352, -21.81636035858471, -21.87724093544194, -15.912857521809215, 3.9053221469532278, 1.9212798090760477, 27.786515442447953, -13.928112976094136, -25.80384923742037, -37.77812093203725, -3.989896136138768, -4.013611551158531, 17.86951417490076, 0.0, 0.0, 0.0, 0.0, 0.0, 0.0, 0.0, 0.0, 0.0, 0.0, 1.9880715705765408, -1.968503937007874, -9.92119222849334, 1.9701360258260237, -9.946761027132585, -5.97841575015725, 2.078454862227106, 17.97575280971149, -5.995575580651808, -33.70964205208794, -25.883072219034894, -0.025162838719776204, 13.917129412842751, -10.119261153012202, -13.873175561537344, 4.041315593482913, -3.981837731439795, -1.9936798879455808, 2.0338131240330424, 0.037291462217860616, 0.037291462217860616, -1.9627085377821394, 0.0, 0.0, 0.0, 0.0, 0.0, 0.0, -1.968503937007874, -7.930889348642597, 21.849229182585052, 13.906665792015387, -29.762926877458852, -5.972607499364152, -45.63632579167642, -27.72577879534783, -25.82442054749143, -9.747957183182772, -9.830946722135849, 4.062421404535007, 11.981714296477724, -5.991663072755411, -3.924674795737506, 61.65984666299239, -11.716274634648038, 8.044728798877543, -27.800141776039244, 1.9467778311777355, -3.9527775550928257, -1.9627085377821394, 0.0, 0.0, 0.0, 0.0, 0.0, 0.0, -1.968503937007874, -13.891320329800159, -3.976549201118338, -11.919112591688, -21.798745375042063, -11.949144229770962, 11.876709019929182, -25.797222515892244, -13.999487492605144, -2.039705315985199, -15.86199368620582, -13.913118199691542, -35.86779320188884, -13.958697617795666, -23.90271357824878, 35.69998848101299, -15.894811178619507, 21.961126180642214, -15.940769402756475, -23.918649847209018, -7.978096945506137, -19.883217586733775, 0.0, 0.0, 0.0, 0.0, 0.0, 0.0, 0.0, -45.689289278261796, -27.857495500340292, -19.895288574896092, -39.674055550581876, -41.82376284976149, 3.8713429619970827, -29.97427903917303, -37.915811200857476, -19.952079623308972, -2.007860078865904, -15.838203097782147, -43.84978454221051, -9.928972869927213, 19.92075226790804, -11.993259724620005, -0.0490473731480745, -1.9316315742436, -11.972893742575634, 3.916772726781188, -31.82387643606408, -7.952630921134858, -1.968503937007874, 0.0, 0.0, 0.0, 0.0, 0.0, 0.0, -41.71716317495698, -12.019148446605454, -7.973805447732609, 13.84605362932193, -4.082637913251569, -10.027401017677272, 19.916459636716617, 9.897775588155083, -19.92447503637297, 25.806415722056652, 3.8874966529235464, 1.9935844596663284, -35.80476552092303, 19.84917503761857, -14.00674723838096, -23.867613219957, -13.935375719638891, 13.825663831341307, -13.952630921134858, -9.952630921134858, -5.952630921134858, -1.968503937007874, 0.0, 0.0, -5.986057735275717, 0.0, 0.0, -3.998001998001998, -33.770799860094904, -11.985870180554867, -33.787946538976364, 23.762968113592073, -6.066887266640526, -9.940446949762048, 9.974472583169772, -39.8388424746829, 9.75172636904584, 20.019505928348337, -7.88150869841378, -2.0233449728322297, 4.017437983646785, 11.814285536646004, -47.82888771245037, -15.899720377920337, -3.9707883287357917, -29.820178786771347, -9.984126984126984, -2.0, -2.0, 0.0, 0.0, 0.0, 0.0, 0.0, 0.0, -3.998001998001998, -13.87572358905317, -7.974110571136487, -6.028918110143476, -0.06653751951815412, 19.820338547120347, -19.942274577430208, 19.89926069643524, 9.800473300827468, 13.837998409615896, 25.93283298480235, 19.90368045801826, 7.966713225854878, 3.9781237006034, -0.021734172329534118, -21.953778207732896, -11.911067373529933, -2.0376232217658856, -3.9723865877712035, -5.9723865877712035, -2.0, 21.847500593422183, 0.0, 0.0, 0.0, 0.0, 0.0, -17.869391037855472, -21.86739303585747, -29.76657540343758, 3.923373557127413, 7.938932726265861, -9.918483663676646, -19.932181316954612, 3.8895025798695504, 1.815057810784365, -31.835707059270884, -2.0054774160921243, 15.964348553147266, 21.909784999803694, 37.81404063665819, -19.889452202536624, 3.8911502922776546, -10.070275426369882, -41.79600351805973, 0.0038587652221373503, -5.9723865877712035, -3.9723865877712035, -3.970443349753695, 21.847500593422183, 0.0, 0.0, 0.0, 0.0, 0.0, 0.0, -19.86739303585747, -29.76657540343758, 43.69341480774972, 21.889103332927846, -13.944044409586464, -0.05723238918144302, -43.825589005839134, -10.110140177976158, 0.0020246240229284673, 29.829604375299034, 35.79043349840768, 37.76295327826276, -23.862945512933162, -3.9663768337870065, 41.64427986727387, 21.64117599591465, -35.873276289779795, -17.901160819228352, -3.970443349753695, -3.970443349753695, -3.970443349753695, -1.9704433497536946, 0.0, 0.0, 0.0, 0.0, 0.0, 0.0, 0.0, 15.924524582576161, 45.67363064416738, 21.83575195509368, 11.92069975928794, 17.75477560673297, -41.85521467346162, -33.839823286158484, -17.791037892623503, 41.92437359474294, 10.098802440557105, 19.89103169259018, 43.79988771336269, -1.9434741514551943, 15.784500994844764, -47.75652728945503, -29.8713488850651, -29.826024153904786, -5.964461295915211, -3.96446129591521, -1.9704433497536946, -1.9704433497536946, 0.0, 0.0, 0.0, 0.0, 0.0, 0.0, 0.0, 19.873195755327604, 4.015369658544833, -39.656453748195524, -27.850075272334095, -31.87545592649501, -14.057534349809009, -9.962992072604944, 23.96336798656198, -1.9262912570604054, 2.0967372614389235, 10.043210107345605, -13.76458811423614, 3.915158461190478, -2.1502592688070545, -29.84737973847087, 5.895619031063882, 3.9271039909139747, -3.96446129591521, -3.96446129591521, -3.96446129591521, 23.788815209276816, 23.788815209276816, 0.0, 0.0, 0.0, 0.0, 0.0, -2.0, -7.913085048811488, -21.84192425661539, -23.775072853592953, 5.914723778514624, -21.897156181572118, -57.70761003590874, 0.0324782149577838, -3.8309724515256143, 8.004215747268582, 13.997711568096388, 17.885993447858304, 23.875385809760694, -13.986342579360034, 9.891211892771008, -43.776032829645224, -15.951932425497807, 5.895549338669667, -3.9940179461615157, -3.9940179461615157, 0.0, 0.0, 0.0, 0.0, 0.0, 0.0, 0.0, 0.0, -2.0, -2.0, -19.83969369676255, -17.804813542466036, -2.0434636394968533, 5.929834412084643, -6.045785518292334, -3.937453518513538, 0.015306622067626119, 16.07452788149652, 4.132091836904992, 23.789151606279166, -8.02998639269653, 11.729003614702993, -27.843969279844753, -14.001704601394882, -43.691291081180765, -29.78654893922062, -5.994017946161516, -2.0, -2.0, -2.0, 0.0, 0.0, 0.0, 0.0, 0.0, 0.0, -2.0, -5.948463717662561, -13.932590701789545, -19.80838428838317, 21.902278300429984, -41.70052868880536, -8.054933338886856, -49.59525332090301, -39.751339912301034, 13.971937809217103, 15.913296412354084, -29.90029995336871, -27.853730641305287, -31.779304371831184, -19.850075182611143, 13.890865878820605, -25.82795307996759, -23.849513689238343, -11.958228622622874, -9.968178871379093, -7.982081552610474, -2.0, 0.0, 0.0, 0.0, 0.0, 0.0, -3.958514920330235, -5.958514920330235, -23.908646558180447, 5.952201353850498, -25.840086069957295, -15.966298617318587, -39.88249203325825, -8.175081291813266, -17.824381164007274, 1.966237942917565, 25.928277803266003, 31.84763691304703, -15.958097973870343, -31.810023476466274, 7.945581831407647, -33.691739983861744, 19.900893994961436, 23.8319684985434, -31.760631056903105, -35.77049285502436, -27.80015519663142, -7.928903645036967, -1.9704433497536946, 0.0, 21.85328727833684, 0.0, 0.0, 0.0, -3.958514920330235, -7.938712940132215, -29.84735949831266, -59.66383030008903, -65.65776426243035, -47.66182961910028, 7.903667239828341, 27.70765447844252, -25.743112254213155, 29.821854712748973, 17.94256929839566, -9.877615964031873, 19.8397422329317, -19.92226837874843, -45.703716117155835, 31.839305164874002, 37.80518826632005, 23.796199892056976, -3.96644529216776, -9.938576874441226, -4.007581745516584, 13.917012340861929, 21.86930742606003, 0.0, 21.85328727833684, 0.0, 0.0, 0.0, 21.859501806304632, 17.88727191399269, -8.01738262821969, 1.8558765951015332, 21.831658208273076, -13.934530179901605, -8.032816320961635, 31.757060281451803, -2.0822447194941422, -7.930588039963464, -4.033668456919875, 17.853208490914913, 10.015631800451976, 45.6222115219835, -33.851542940763736, 15.883076023180687, -9.895835779580208, -15.897512549489283, 11.95414087849584, -11.877859259422863, -11.91722123583963, 7.952375798622246, 57.533414802689485, 0.0, 0.0, 0.0, 0.0, 0.0, 21.859501806304632, 13.928756993662457, -5.979889564517988, 55.58652406592986, 6.040724808637249, -3.8585664556536057, 27.788509981222234, -16.0171831704666, -13.991894890875496, -16.009477487674236, -12.00045299452653, -25.84367100247992, -10.019149773531625, 17.823619109573617, 13.864510221805311, -31.715828825467955, -17.915414857349145, 13.812053082541935, 23.79020469871274, 1.9621874598255689, -13.946608333265452, 37.67396643901595, 33.69366402687577, 0.0, 0.0, 0.0, 0.0, 0.0, 21.859501806304632, 17.900986885974397, -1.9524975803824614, 25.893274736785617, 27.90880569063876, -39.563723303626816, -8.006965466786303, -10.068841519754429, -9.950530197286316, 17.89691768197118, -13.98619313414235, 21.878503247504643, -29.828093741815827, -21.935813590865564, -2.0130653103766756, 3.9921023395626167, -27.82811009990854, 3.9167973368286026, 27.746774309645936, 9.863573891416415, 13.834017241170109, 33.69366402687577, 37.658300569115454, 0.0, 0.0, 0.0, 0.0, 0.0, 0.0, -23.839769494375147, -9.877358150175905, -9.926544708855724, -13.868140024254336, -15.834428975775358, -4.009851607238664, 5.99932854979574, -23.784665106821613, -12.02949976603855, -17.976165281886612, 33.73653752019472, 9.893169472992009, 11.887985624014856, 37.753514631265915, 29.91045838795874, 11.918954076554092, 5.978231202073726, -13.88723797753706, -17.869597034461876, -17.869597034461876, 0.0, 0.0, 0.0, 0.0, 0.0, 0.0, 0.0, 0.0, -21.879256572046913, -7.956332305519432, 2.0236660538114326, -19.839596238112705, -17.94427392580799, -35.78069548094645, -3.9804376914883854, -7.9529572979082594, -35.856796035275124, 19.74540384479065, -17.904944529874204, 1.9975419398714704, -11.79353958663492, -11.806912776308295, 11.991777832603407, 5.996035299882296, 0.019790298394961825, -25.80011204609233, -1.9743336623889438, -1.9743336623889438, -1.9743336623889438, 0.0, 0.0, 0.0, 0.0, 0.0, 0.0, 0.0, -3.9702243028956037, -3.9702243028956037, -7.942559963286545, -11.93856794731848, -11.95040397746123, -27.79031980605018, -49.711030728349535, -33.87889408944269, -37.93968755977843, -33.90018613635458, -55.67896447113228, -47.69128307696966, -35.782151412688876, -11.94239504908409, -3.9643366857320226, -3.9643366857320226, -1.9782393669634026, 0.0, 0.0, 0.0, 0.0, 0.0, 0.0, 0.0, 0.0, 0.0, 0.0, 0.0, -3.9702243028956037, -5.944557965284547, -7.942559963286545, -13.88541198114088, -19.820312657612654, -19.820312657612654, -11.926920620635288, -17.920750505792263, -23.900885473951185, -13.942379215218038, -13.930615558838362, -11.934607574806424, -5.956462644517925, -1.9860973187686197, -1.9860973187686197, -3.9643366857320226, -1.9782393669634026, 0.0, 0.0, 0.0, 0.0, 0.0, 0.0, 0.0, 0.0, 0.0, 0.0, 0.0, 0.0, 0.0, 0.0, 0.0, 0.0, 0.0, 0.0, 0.0, 0.0, 0.0, 0.0, -1.9841269841269842, -1.9841269841269842, 0.0, -1.9860973187686197, -1.9860973187686197, 0.0, 0.0, 0.0, 0.0, 0.0, 0.0, 0.0, 0.0], "label": "1"}
{"weights": [0.0, 0.0, 0.0, 0.0, 0.0, 0.0, 0.0, 0.0, 0.0, 0.0, 0.0, 0.0, 0.0, 0.0, 0.0, 0.0, 0.0, 0.0, 0.0, 0.0, 0.0, 0.0, 0.0, 0.0, 0.0, 0.0, 0.0, 0.0, 0.0, 0.0, 0.0, 0.0, 0.0, 0.0, 0.0, 0.0, 0.0, 0.0, 0.0, 0.0, 0.0, 0.0, 0.0, 0.0, 0.0, 0.0, 0.0, -1.998001998001998, -1.998001998001998, -1.998001998001998, 0.0, 0.0, 0.0, 0.0, 0.0, 0.0, 0.0, 0.0, 0.0, 0.0, 0.0, 0.0, 0.0, 0.0, 0.0, 0.0, 0.0, 0.0, -1.998001998001998, -1.998001998001998, -9.958537807519832, -9.958537807519832, -15.881369858719289, -17.88136985871929, -19.877540504515004, -19.877540504515004, -1.998001998001998, -1.998001998001998, 0.0, 0.0, 0.0, 0.0, 0.0, 0.0, 0.0, 0.0, 0.0, 0.0, 0.0, 0.0, 0.0, 0.0, 0.0, 0.0, 0.0, -5.9563568764389245, -31.68795938217655, -39.64849519169439, -13.926983155275524, -25.78866873022224, -23.83003718349718, -37.73922607946173, -25.85187416690395, -29.835941864309245, -7.9820696954072945, -3.9840676974052966, 0.0, 0.0, 0.0, 0.0, 0.0, 0.0, 0.0, 0.0, 0.0, 0.0, 0.0, 0.0, 0.0, -9.934537097278874, -9.934537097278874, -29.71361823758761, 9.94064707388241, 23.796522567241247, -1.952783180133097, -53.524334812448025, -49.68380181944573, -47.8513029243372, -37.88129993552696, -71.55969700049562, -67.56573553429452, -67.6479170388229, -45.69543180274017, -27.74872483215087, -29.734810329075856, -23.76465713474557, -1.9821605550049555, -1.9821605550049555, 0.0, 0.0, 0.0, 0.0, 0.0, 0.0, -2.0, -2.0, -13.962299100241117, -33.74706924807784, -55.6027369699948, -49.67179936270879, -71.35071445152386, 31.652375800629148, 33.5751416625958, -61.6537512348301, -39.876975667249795, -43.70835424624782, -87.36540197371451, -21.944452610913757, -57.77306337805788, -43.891144309298184, 7.765356723809385, -99.29030152988295, -55.62398382765591, -21.833950054028943, -13.914945394119751, -5.966287539131939, 0.0, 0.0, 0.0, 0.0, 0.0, -2.0, -7.99203187250996, -65.54363761782625, -57.742896103034894, -59.79105662176265, -12.033227004784166, 3.8990488928870826, 33.807769289644725, 15.967772123806517, 3.945133972694633, 85.39712746985816, -7.773130457338642, 16.096500076288716, 39.8507219867615, 59.62473379274352, 11.862812708884862, 9.871996779572488, 4.062198695671782, -51.8623982605623, -125.23671490745899, -53.79423874314053, -55.69160684107318, -49.699667505901424, -3.998001998001998, -2.0, 0.0, -3.962366351090387, 0.0, -5.984126984126984, -37.7880151470586, -29.85779954991293, -65.78747890057579, 31.532025550337696, -22.018831255205036, -25.93353359464555, 2.122068860080415, -61.561593059648104, 6.099340926054824, 19.924881566048633, 99.48009705969488, 89.79591987691391, 63.64136215017826, 0.21664166021854614, -19.968232484568393, -19.785185251083306, 27.786331329540854, 13.761247325651109, -37.90039259422323, -0.20770979173453874, -59.72739253408478, -65.62039523630177, -23.8911846485702, -2.0, 0.0, 0.0, 0.0, -5.984126984126984, -27.842372418567322, -41.79859159568485, 1.7875407832068313, -6.2202107470182675, -49.722931569571195, 7.916262587769788, -17.990196349112658, -2.0049576468592383, 47.60400818410321, 33.87412691956364, 55.64266797729227, -25.67137125608009, -17.81231638281805, 41.983078733642444, -19.788497833149588, -27.787250227919266, -7.9199715894292115, -11.879006745060673, -17.988097322650795, -37.93711502766848, -81.50049551345606, -49.68782501375982, -23.8911846485702, 0.0, 0.0, 0.0, -11.885614741203357, -9.942610890666806, -25.928788066650284, -21.728166093432847, -11.868149276171819, -8.145566953380122, -12.019863595467042, -22.02322958790282, 19.928689333090947, 4.006383559292997, -6.028247145174685, -39.87155821208814, 19.833414454911882, -26.039532189316333, -2.191422307257437, -35.99537645763651, -27.832473702934262, -13.911441995115926, -65.57330123515484, -43.711593952333615, -8.153125777935163, -18.005976549197204, -77.49234119339872, -45.70156341211361, -7.956718519816073, 0.0, 0.0, 0.0, -9.913217205546129, -39.70751270507368, -63.56018468231484, 51.67848838968702, -13.895477387734221, -10.041309386846352, -1.9604085454899698, 57.819826684726166, -31.835038156130853, 4.0456576144619625, -21.832530656899042, 21.687935976547895, 11.867398475096925, -31.77913220145106, 21.827522228940303, -51.6444567937914, 6.016891540335207, 22.036847286790426, -2.1281602056784834, -25.895967429731677, 35.80180931293896, -7.917597525139456, -67.41765277439677, -9.940845503943057, 0.0, 0.0, 0.0, 0.0, -15.89534618767511, -51.64416459156483, -25.802932741082724, 63.62803228067961, 41.744876752517165, -23.70439362116767, -7.665027886538445, -1.8195991307178372, -5.913045558038105, 27.863065834491398, -3.993998795186768, -35.94759733420487, -2.011981610304992, -13.90798408447899, -17.890748206813324, 49.81923008503776, -15.900686344971591, 33.721758745075, 2.032632140509352, 41.89487219403409, 0.08855820334829456, -21.906699551359832, -39.72909257751364, 1.9448770422730663, -1.998001998001998, -1.998001998001998, 0.0, 0.0, -13.89534618767511, -33.7175292055902, -7.992008578759556, 6.088734105662393, 15.942342845720725, 71.5530196655939, -3.8614128895149995, 33.72373659211192, 55.56218413368878, 7.865989069340435, 27.82745369628501, -29.929916283784507, 5.96182559107039, 12.09769469404316, -15.936062633116583, 9.98806148721101, -18.072899148110015, 21.824927029275507, 4.226382755857511, 45.74618205694352, 3.9956111427050733, -43.622714757734876, -7.948424362431723, -23.814038452250802, -1.998001998001998, -1.998001998001998, 0.0, 0.0, 0.0, -13.84410237981252, -13.964010896031063, 35.810307902790036, 36.01068062526165, 51.839630982146275, 29.716254329925377, 4.0376302740844, -27.813889540735875, 5.838389445009579, 18.07631678904518, 18.056908426727272, 37.884949693074056, 5.747142398793294, -6.035587903635301, -29.767255433093666, -19.825193552474644, 10.00827327871833, -2.0078921760660844, -59.47313983801845, 49.615946322232844, -37.82164935883207, -27.77085511918154, -33.699793572319386, 3.990049751243781, 0.0, 0.0, 0.0, 0.0, -3.932883176264396, -35.8766264727409, -27.69166608383291, -25.71185603080842, 19.742663409625, -29.87713203956389, 27.88097151580332, 15.714123822070844, 25.852302302704466, 31.70797588126123, -2.0256960435229834, 37.90267417197818, -15.876910488051747, -25.94459636727748, 51.77346597942057, -9.848219557356812, -11.761673535921663, 2.0515070827449287, 7.934932276624735, 23.845683288699902, -21.871699119396865, -63.433361728343066, -23.771035567564503, 3.990049751243781, 0.0, 0.0, 0.0, 0.0, -0.005810285393867964, 11.798976466464607, 29.585758567655873, 25.817378204683003, -47.706725188964036, 19.818012809251012, 39.795651684831924, -11.91794804870049, 11.907131558393884, -11.982170880471188, 8.061060780001062, -29.845741064394964, -12.145684329853896, 13.710281556872005, 12.060418987533252, -3.8458910803863344, -45.55227556675765, -9.940808078606752, -43.633166966206915, 11.914855284423846, -41.79252503623537, -85.35587664734985, 0.01376516626354407, 3.9904536891099176, 0.0, 0.0, 0.0, 0.0, -9.899841769198677, 19.85591249177528, -41.635025721720694, -7.954726142531175, 17.80227231244009, -43.61252084028983, 29.819760085197572, 0.07311332590836583, 4.152567881437713, -12.031088889993796, -45.94969064985921, -35.863852261377794, 1.976084483925315, 13.998026183848015, -33.98290082720387, 21.752935660405463, 10.026543749301723, -55.71322170353705, 37.60448863321267, -69.6360821609581, -81.37615388373044, -33.81996868828509, 0.0316046112585886, -1.9407587856800959, 0.0, 0.0, 0.0, 0.0, -7.874069898776177, -39.607042395058386, 47.62799431028802, -15.901619760103635, 4.054220008659398, 17.814639466108513, -13.782774415388708, 31.91330673374085, 69.63502588722706, -55.63066319610418, 23.87678806062235, -21.861563855247017, 31.853740444945647, -63.54715699718218, 43.750262581090844, -49.56578318584504, -13.754201576808818, -8.149581978571357, 3.8245063243422757, -69.59274875360173, -75.50987532625736, -41.78596659515863, -9.926862902892852, -5.936684506948596, 0.0, 0.0, 0.0, -5.96645133378563, -5.913576797778701, -53.54541669869528, -12.007434730432502, 5.908986033879776, -21.724144087381852, 31.967272334065786, -25.90859444999947, 21.685777915387217, -13.876838237062628, -13.77915526866014, -19.957031303137686, 53.61927604955301, -19.922913961941543, 43.79777813761054, -43.72601316733716, 17.871153490288645, 25.82861525573126, -25.908871013575734, -43.955022518773866, -14.015909349246632, -27.903327146366863, -17.87163413940041, -7.950578317912615, -5.936684506948596, 0.0, 0.0, 0.0, -5.96645133378563, -11.865992900112868, -39.67628685457595, 19.701967250915867, -7.992584540405193, 11.928154555125557, 25.918033101426296, -99.2846251031965, 31.782402678593375, 47.60966998608907, -29.80232507977989, -21.87927636057725, -55.82485626036148, -12.0974771592659, -4.115443343767323, 5.80387177921579, -49.63839204860556, 17.78112754407727, 11.737596826403406, -29.97965130449826, -25.765313561181813, -0.0814779030533006, 41.69333143093827, 0.0, 0.0, 0.0, 0.0, 0.0, 0.0, 4.001844743006633, -45.63077145736017, -83.35822953082796, 53.481817053364864, -11.801947578772056, -33.704299032481025, 3.7379316248937973, -49.73911924791522, -67.79392294709542, -15.978197841909319, 31.673763486752417, -0.07841513531985544, -65.73584937177749, -27.821696875082406, 25.836958058023058, -49.680019386892845, -33.78795858497099, 53.432085807608864, -0.1887581061288186, -7.856357292869779, -4.004407887093167, 49.643909748850874, 0.0, 0.0, 0.0, 0.0, 0.0, 0.0, -9.93266846459648, -11.87377748704668, -39.66452402175147, 2.0052806905892, 39.614632484244524, -33.80960704920972, -35.76677447818395, 27.59509776801713, -8.102187047174915, -21.87565081555091, -25.858354227932338, 21.731815322740747, 6.02125282194487, -26.03225108782304, -81.64125625391434, -25.90238848480653, 1.9646093877776387, -2.0745763508275954, -47.685018981242465, -3.8995566957624717, -9.93894498437204, 35.74676482532, -15.871478585919833, 0.0, 0.0, 0.0, 0.0, 0.0, -3.9564826047822175, -11.899101318134916, -53.53380986115165, 41.6051329883844, -6.017466604579953, -17.9108212557863, -37.63665118348555, 3.8690215208600542, 19.72149120125281, 14.019851840047519, -21.833856297185974, 15.79996512317234, -25.591039512648234, -57.50922921605317, -31.919877080351885, 51.49464519358836, -1.9367842763497296, -33.83492738032511, -17.86901333982097, -55.4828395178898, -39.62684168910663, -5.853994655050466, -15.871478585919833, 0.0, 0.0, 0.0, 0.0, 0.0, -3.9564826047822175, 15.842073215937257, -13.962124494258672, -91.34342965785596, 47.655702019052946, 35.679678545102355, -13.986286232135543, -13.966130322372692, -61.860572136787354, 3.9617657378897673, -18.00718421311985, -43.75291659433241, 35.589906689376036, -10.094942892543742, 19.583783156761207, 37.63458628830695, -45.65045760960179, -4.070178771177206, 27.836196911758456, 19.865770776313262, 31.800073514475354, 21.89497556443784, 0.0, 0.0, 0.0, 0.0, 0.0, 0.0, -3.970247771045761, 13.824646328335604, 7.891757418592668, -13.875762540820226, -27.863306858146544, -11.94286078251318, 11.7747258174872, -7.980691884868509, -57.555438535761766, -33.627788375978575, -45.91782062050979, -45.716535080729635, -0.1539075413495672, -41.797135589357765, -69.52986276623224, -49.65427515368405, 41.60763850213385, -29.92755527483741, -3.9284975597513907, 107.17221679171541, 59.47487551859934, 2.033365455762312, 0.0, 0.0, 0.0, 0.0, 0.0, 0.0, -3.970247771045761, -1.9685938429152012, -13.904871407075426, 47.47702514707822, -75.38543823479992, 21.857865485946295, -47.61841356894209, 41.77228706425362, 3.9238029176492764, 29.788528965445515, 10.025110419556693, -24.004870912040854, -13.922609299651564, -33.5979499559813, 37.79478246416523, 43.72628940633904, 23.813444459989007, -17.877946904863954, 39.743639631418176, 115.09329965500403, 35.71744543042005, 19.87754844483351, 0.0, 0.0, 0.0, 0.0, 0.0, 0.0, 7.96423025041225, 11.90708317364224, 13.830216557212406, 3.818883854563913, -6.084602850153942, 15.900579545826277, 13.822322972662121, 17.788443408494246, 7.749986345420375, 17.881524001403953, 55.6659697937494, 35.71977994521157, -5.811363829188087, 29.624644837059094, 21.77707419200402, -7.844484598046877, -49.557616365214116, -13.84607855022799, -11.791327153264348, 6.032880339957572, 29.731371861841506, 0.0, 0.0, 0.0, 0.0, 0.0, 0.0, 0.0, 0.0, 0.0, -29.735284190009413, -31.735284190009406, -2.0, -2.0, -7.905331318378268, -13.836302196841972, -19.82632812703542, -25.731504114712873, -19.79274113458436, -11.860007004301075, -4.064439307400777, -0.11788835302560807, -31.747074687669546, 2.0355480207882497, 5.982275955522182, -3.958483906539823, -33.6859818684166, -33.6859818684166, 0.0, 0.0, 0.0, 0.0, 0.0], "label": "9"}
{"weights": [0.0, 0.0, 0.0, 0.0, 0.0, 0.0, 0.0, 0.0, 0.0, 0.0, 0.0, 0.0, 0.0, 0.0, 0.0, 0.0, 0.0, 0.0, 0.0, 0.0, 0.0, 0.0, 0.0, 0.0, 0.0, 0.0, 0.0, 0.0, 0.0, 0.0, 0.0, 0.0, 0.0, 0.0, 0.0, 0.0, 0.0, 0.0, 0.0, 0.0, 0.0, 0.0, 0.0, 0.0, 0.0, 0.0, 0.0, 0.0, 0.0, 0.0, 0.0, 0.0, 0.0, 0.0, 0.0, 0.0, 0.0, 0.0, 0.0, 0.0, 0.0, 0.0, 0.0, -1.9940179461615155, -1.9940179461615155, -1.9940179461615155, -1.9940179461615155, -1.9940179461615155, -1.9940179461615155, 0.0, 0.0, -1.976284584980237, -3.9762845849802373, -7.940640740537015, -5.964356155556778, 0.0, 0.0, 0.0, 0.0, 0.0, 0.0, 0.0, 0.0, 0.0, 0.0, 0.0, 0.0, 0.0, 0.0, -1.998001998001998, -1.998001998001998, -11.940658849330308, -31.73725133975209, -7.928809003590992, -9.871639431282075, -13.92300285627764, 13.796417342260233, 3.830127982333565, -13.929184618297228, -15.830867130761304, 7.983799088050439, 35.74656722881622, 8.003435748645908, 18.038590772453258, 6.088238934172134, 13.920657464056537, -5.974192427514915, 0.0, 0.0, 0.0, 0.0, 0.0, 0.0, 0.0, 0.0, 0.0, -19.833914302412197, 15.87549684800572, 1.998242940691413, 29.783387685581438, 17.91963184101976, -39.670376342731814, -1.825141233972826, -37.6706862666532, -7.844539848366379, 1.844486174572392, -31.825007884384053, 5.81135548630343, 23.70425165879197, -11.92827918839857, -13.905167241441905, 13.772782990089528, -67.58146982538689, -43.74616119582654, -0.014699985662804504, -33.723904771612304, -5.998001998001998, -2.0, 0.0, 0.0, 0.0, 0.0, 0.0, 27.796256503053097, 23.804319131756674, 7.935028320340956, 21.84491275498172, -7.841670939243835, -15.885161236522391, 39.70257324463016, 13.881551879755868, -29.779901665496723, 33.89521807343095, -51.55414274296859, -14.092234173250224, 35.63343938009718, -63.562843960038954, -13.882240804608946, 11.957242630999671, -59.82119346900925, -43.877404581933625, -75.6737970363062, -22.01080397612442, -37.90633718000562, -9.988039856541896, -4.0, 0.0, 0.0, 0.0, 0.0, 0.0, 41.69161423685389, 17.926401378201962, 16.055704723233386, 45.71760433582435, -25.67408134724851, 49.53955434530709, -41.61646188720331, 51.60579396026201, 19.940848540562683, 39.72569658268129, 33.79893673548214, 19.836854528718806, 5.935367799192109, 19.827294257559945, -5.921916475221794, -43.7975419660387, -14.109430650785404, 11.886049104262051, -5.973899859385817, 1.879362647579435, -73.55266125822358, -47.75835440397663, -31.78620745578177, 0.0, 0.0, 0.0, 0.0, -5.966200761855121, 29.800458979783052, 51.636484003381675, -29.76863425659228, 29.729471431173543, -17.75802391083692, 19.872519803429547, -1.958867867797796, -25.978810852517434, -49.47758605870515, 27.926239525150084, -39.69564460936311, -1.81096822676909, 7.998911929271445, -47.69091998552874, 35.6748369628328, 37.900753575305416, -1.9286047594993407, -29.81997041212746, -0.1867094452969007, -9.941581383855059, -4.149632761015782, -61.65968710788112, -37.77033443990876, 0.0, 0.0, 0.0, -2.0, -23.792441590783618, 25.946134970134132, 73.55051375726231, 13.987010956412774, 21.98897971118993, -61.65118573599655, -53.79765773100132, -9.982306735928786, 59.378839148661136, 5.774792939467471, -49.85288492710424, -33.74971656249621, -7.950666778214448, -23.809129916940133, 31.704132641320665, 13.940736152290679, -31.79029395104457, 17.908001580070575, 31.710389733539333, -5.970115162623507, -10.105387777140466, -15.964740108748023, -109.27847865842807, -29.839675798870893, 0.0, 0.0, 0.0, -4.0, -19.847872187318814, 13.954226871752294, -5.824809825045673, -43.51081349991109, 93.4403286851797, -5.777453622460813, 19.90681113715272, -9.833825427207124, -39.739558032097264, 5.757157284266222, -0.014144194883787709, 31.73095771150199, -9.934194806468147, 6.076446449272449, -17.725635665360073, 6.016233146815477, 29.7829397352182, -27.84106770898762, 20.085675405954948, -25.75899055867832, -12.01371235135267, -45.721746804385425, -91.29254387893502, -19.875257423371316, 0.0, 0.0, 0.0, -2.0, -13.853854241157297, -9.879349042306842, -3.9626623169661888, -5.974525068423684, 25.692163303930037, -27.843258742534164, -13.882075851210256, -55.90444703968146, -57.77468118578177, -47.79693255678866, -51.6914417335092, -29.83951249605431, 41.48557463187247, -10.168794324932781, 61.589584789526356, 0.03997267544464611, 41.45098512440504, 9.856001440251974, 43.93564405246852, 10.019759214591211, 21.92610327327072, 9.792655929410124, -39.654156198106605, -35.71337835235818, 0.0, 0.0, 0.0, -2.0, -15.826240828928498, -19.861334279381357, -13.954261444233564, -31.821903152423534, -49.71453172061849, -7.963968925334642, 3.9577364199037217, -27.809141530922975, -39.786273812261896, -25.916979411403403, 3.8074038252913884, 7.893814294185548, 25.873238497904225, -5.879361397297789, 47.66419772724817, -8.147163910566093, -15.945124708849681, 19.96561377687753, -11.94542741421255, -19.841608308624192, -8.138393896186177, -33.900477801366726, -21.821990232075006, -31.727328533686695, 0.0, 0.0, 0.0, 0.0, -19.804440846732476, -19.804440846732476, -31.692104538078834, -39.658662564943754, -25.918850848687743, 5.712500699984981, -13.964631791504448, -49.81848396602023, -67.66229903466231, 43.839267575938244, 10.031031989681246, -8.003551459268287, -3.7712162490700742, -27.819560996130274, 33.762922510840625, -27.801326888249992, 57.61754762662051, -47.70004949713342, -5.87422307939743, -51.990364989163005, -51.69548239903162, -25.928315619652434, -7.8974191696148495, 0.0, 0.0, 0.0, 0.0, 0.0, -3.978200017803978, 5.879961329389008, -25.86719740573501, -45.78425598915436, 11.77259877296545, -2.0639396689426914, -27.979858200624047, -9.722677785099739, 47.58499498435461, -3.6470763452945802, 2.1573954303213516, 27.752884530813862, 43.81155008830224, 0.1420251723754289, -43.6276988166781, 48.01481372230512, -35.800198564712225, -6.0433802713097435, 5.826120080751929, -49.8038487667462, -45.870353659810085, -29.76088146160572, -13.867584185788765, 0.0, 0.0, 0.0, 0.0, 0.0, -3.978200017803978, 0.0, -6.023450248039303, 1.826342188466095, -8.024174493131245, -27.906922445092714, 7.979431346118501, 53.67545075122067, -51.69324698918118, -19.926050691335085, -3.820443705529314, -29.930720623836955, 35.64690176386876, -35.82394164196125, -16.001706011954383, 41.488281407600304, -19.770986716683332, -11.876025784999444, -2.248388944141191, 6.001746467651953, -26.003017966168514, -27.747086874786444, 21.790778786566566, 0.0, 0.0, 0.0, 0.0, 0.0, 0.0, -25.790660371322925, -15.962337441046424, -25.89743336497932, -107.43196462688033, -40.00072159754626, 19.67025082596495, -11.929071770495698, -39.755419025212404, 43.66550273607406, 29.761117055226947, -3.9629438527038308, 20.02202912982121, -21.89461608757716, -6.067825651957735, -41.920307807192614, -25.977852732711586, -11.883283070012107, -61.69720925732027, 31.851856433939286, 27.58754356584716, 27.705829951404922, 25.747123876380947, 0.0, 21.77511162014758, 0.0, 0.0, 0.0, 11.966302551046105, -15.780691738444057, -7.95451710314399, 39.51128971153592, 23.733727159350163, -41.92352099742537, -16.04674965305928, -2.083046562473433, 1.8634600824552838, -37.80611553648625, 2.0057495391512257, -47.72126994197005, -2.1083072867660158, -4.04795043851901, -23.68920197904432, -21.841809681142593, -33.536287751272226, 47.69594588880953, 45.71538384814034, 14.053300309735802, 65.49238114861673, -17.824263857322443, -11.989506955966043, -37.69348363306748, 0.0, 0.0, 0.0, 0.0, 11.966302551046105, 11.991994142906695, 83.37168382870391, -11.924572627205146, -27.994584374892437, -19.951872363594266, -29.636142767492473, 29.747958575224054, -75.62225646314921, 3.746657673143066, -35.914940701177194, -31.999477490907598, -79.67533088588586, -1.8962873749009717, 17.888942077201875, -29.680414694039108, 75.59567184711403, 35.86357557508278, -9.953767645952528, -29.609344521303797, 45.725436253457154, -45.68571837342007, -43.75443450101482, -41.689491617099414, 0.0, 0.0, 0.0, 0.0, 2.001978109523974, 39.82527265722153, 47.83898463172236, -11.927825319430918, 3.844460181952942, 43.619003777251294, 3.9702164869863434, -32.007275711174074, -4.026507833737767, -16.099163285568434, -55.69553874062574, -10.219071244768179, -73.52488317221622, 3.9531597561373695, 13.743090905954002, 10.020016427987645, 31.86353870919965, -31.75472677641157, 7.908655106508485, 6.052548557149612, 27.863250857629442, -37.965220564433146, -43.805599956170795, -27.839700560037294, 0.0, 0.0, 0.0, 0.0, -41.61889878187318, -5.840586897940481, 55.72311220720365, -11.66671945140722, -4.060845848466796, 41.69978354457637, 11.991497463160753, -27.97842222573198, -63.69338329418945, -19.98243346827463, 1.8136167579815496, -31.71208754128998, -55.69791323227177, 4.02417481036114, -19.74264458480223, -37.790250854223224, -31.923561319281244, 13.813164911041092, 0.1338903804439604, -21.891254183484666, -37.68954063043731, 21.62911299564917, -57.68527640584327, -27.841694574007356, 0.0, 0.0, 0.0, 0.0, -33.67227352304497, 16.040614315952404, 33.991038075579404, 125.19881400313847, 31.843891887498092, 13.862081510413613, -4.027096385521185, 11.917051987596807, 7.813125557202726, 23.713796780177894, 1.877324885468774, 23.786461254222388, 13.928588041517127, 5.880118751096056, -11.834178641490942, 35.64932567426995, 53.695256543689446, -0.12326976667765432, 33.85330730647643, 37.81577797818283, -19.858292414343765, -21.966216234764083, -37.78445657918776, -1.998001998001998, 0.0, 0.0, 0.0, 0.0, 7.954577505586412, 45.72711853604374, -1.965462808204963, -51.527227334887634, 53.743526697049035, -29.958900020223446, 35.76779561476603, -47.6558457544753, 8.048896127511997, -13.745866162913682, 9.714527177750183, -31.77894576487473, 21.94354361658626, 25.73196565191619, -27.87242958334704, 10.102482556437227, -19.760163399470525, -15.753597282544627, 8.144696884183775, 89.29897910753567, -33.72363405796276, 63.34825661300129, -57.57153218840504, 0.0, -3.956668414749646, 0.0, 0.0, 0.0, 5.9565755075844145, 2.0591874569814546, 25.933207538496642, -2.1093077582477133, 29.902880148180692, -39.66331495329785, 55.701293686085684, 27.743002075855085, -29.971504720398805, 7.95503681329974, 7.99795088704734, -19.786366812294446, -16.062576830622305, -6.123379331639278, -0.09993726393520763, 35.80904737015616, -31.79093934339107, 19.956829062515293, -63.34460084202234, 49.65150479916106, -15.983863339014702, -27.902540032048503, -23.80450587592229, 0.0, 0.0, 0.0, 0.0, 0.0, 0.0, 47.58732423715484, 95.44804840036804, 49.81334173829826, 8.004348884312485, 19.68410340352795, -27.876299803748072, 22.007449706897624, 5.9320361516837945, 43.82948642195451, -9.929298825363581, 41.61915166892398, 3.9902576100090994, -5.9676802338251775, 1.963804637325608, 0.030976014435816435, -67.35652122490453, 59.58068050996221, 53.65545461183493, -61.54532915439063, -59.63221460920481, -23.87717328048249, 0.0, 0.0, 0.0, 0.0, 0.0, 0.0, 0.0, 47.61688885152872, 45.73497217880899, 39.83685531504283, 47.81270776126247, 85.38204791017806, 35.7704060817215, -11.895279322103287, 3.9208173911276067, -53.620797074642546, 17.94209346006132, 10.097432064906128, 1.832633295022636, 31.83160539092702, -7.93382194753088, -85.44106108957642, 25.77621991740638, -39.64907326987744, -57.45416760914819, -43.670248425262834, 1.9585885901498954, 1.9645706439883797, -21.826051554661785, 0.0, 0.0, 0.0, 0.0, 0.0, 0.0, 0.0, 25.811966107792106, -15.810904797575096, 10.052946757073855, 39.79231622649603, 17.950588044507164, 43.68983878765179, -41.665971292614095, -15.979765983608461, 2.0311324440301552, 25.79444860612064, 3.981972930434982, -31.790681431514823, -55.59339936822969, -61.46340572776058, 25.754836508779317, -0.05345471140315228, 17.873152696960364, -3.923226771309136, 25.790622198650166, -1.9743336623889438, 0.0, 0.0, 0.0, 0.0, 0.0, 0.0, 0.0, 0.0, -9.911334678735304, -9.911334678735304, -27.74928043174359, -23.73767742080131, -15.802922247044885, -9.86817701554872, 25.70388987941659, -11.989454622889761, -53.67140184385729, -49.651883061744456, -51.64590100790596, -23.826353499346748, -2.039760388032717, -0.014046971014952003, 3.9483193800754353, 19.80231732079742, 23.800319318799424, 25.76495586103911, 0.0, 0.0, 0.0, 0.0, 0.0, 0.0, 0.0, 0.0, 0.0, 0.0, 0.0, 0.0, 0.0, -5.899731667793029, -5.899731667793029, 0.0, 0.0, 0.0, 0.0, -15.855842331586004, -15.855842331586004, -15.855842331586004, 0.0, -3.998001998001998, -3.998001998001998, -3.998001998001998, 0.0, 0.0, 0.0, 0.0, 0.0, 0.0, 0.0, 0.0], "label": "3"}
