{"weights": [0.0, 0.0, 0.0, 0.0, 0.0, 0.0, 0.0, 0.0, 0.0, 0.0, 0.0, 0.0, 0.0, 0.0, 0.0, 0.0, 0.0, 0.0, 0.0, 0.0, 0.0, 0.0, 0.0, 0.0, 0.0, 0.0, 0.0, 0.0, 0.0, 0.0, 0.0, 0.0, 0.0, 0.0, 0.0, 0.0, 0.0, 0.0, -4.0, -4.0, -4.0, -11.889209803724613, -11.889209803724613, -15.889209803724611, -4.0, 0.0, 0.0, 0.0, 0.0, 0.0, 0.0, 0.0, 0.0, 0.0, 0.0, 0.0, 0.0, 0.0, 0.0, 0.0, 0.0, 0.0, 0.0, 0.0, 0.0, 0.0, -4.0, -4.0, -11.97614314115308, -23.865352944877692, -19.865352944877692, -23.865352944877692, -23.85760360554124, -27.845639497864273, -19.869496356711192, -15.928719185164791, -35.90058404041051, -35.90058404041051, -23.940314104092668, 0.0, 0.0, 0.0, 0.0, 0.0, 0.0, 0.0, 0.0, 0.0, 0.0, 0.0, 0.0, -15.95219899754398, 0.0, -23.940314104092668, -23.9720601358387, -47.78998822123, -75.47052762085404, -63.57356216004736, 0.04638286341322617, -15.803348444317656, -79.42283428295923, -4.125736565239415, -0.05447660883527128, -95.5399089089071, -95.50099913991794, -59.75889580749017, -35.86173517566094, -4.0, 0.0, 0.0, 0.0, 0.0, 0.0, 0.0, 0.0, 0.0, -4.0, -4.0, -15.95219899754398, -19.88147208202335, -4.075010014663836, -47.94780069326659, -51.919951755464844, -0.18117220791846655, -51.74229071616969, -23.786253989627436, -75.34396182344538, 28.023097038318387, -35.750846104835006, 3.7989224061127675, 35.72735423978092, -71.21802907572359, 16.018034498234783, 8.077326911952621, 0.23916586164188303, 11.865555917209146, -4.00737243727381, -27.845520927168042, 0.0, 0.0, 0.0, 0.0, 0.0, 0.0, -8.0, -8.0, -27.940234889867007, -35.75532108951462, -24.051191974340856, -83.83625283124167, 15.570033642024345, -43.72399144404216, -23.873217734374645, 83.65503639913598, 36.10880750939485, 23.87415214973958, -0.1246898865678725, 71.34876311739532, 15.647065620768451, 0.1225031693763059, 11.857373577110764, 16.247200056246996, -7.796540080698759, -23.91691667425721, -47.782034036945355, -35.778657603667554, 0.0, 0.0, 0.0, 0.0, 0.0, -4.0, -0.04380499846001573, -4.031840890783047, -35.82604800503525, -27.85382430086655, -59.77844642567765, 7.803492090354242, 19.81384421103705, -12.124877796637545, -43.81993502289069, -15.945328497948225, -79.21041510187268, 12.21194967531408, 12.204464388567594, 19.81145365267299, -87.57398898945834, -3.9525065648567033, -67.28494716820319, 19.979296237409848, 43.648422533351784, -67.68671194867491, -87.51374432891522, -95.29691685905858, 0.0, 0.0, 0.0, 0.0, -4.0, -4.0, -23.928836920562325, -31.952198997543977, -31.956171144847087, -51.94355953103847, 51.32842373280993, 23.708627224956953, 31.807243646932637, -36.00952034048592, -7.871341847931491, 55.5687327198848, 47.773591281581155, 0.0386073619163918, 4.2040582824762724, 40.06688002897207, 7.99676556702281, 47.72763882420162, -47.66669825414846, -27.884966267771063, -4.086426767811294, -31.751128663132874, -71.67484164268154, -67.53374052129638, 0.0, 0.0, 0.0, 0.0, -4.0, -4.0, -23.904980061715406, -39.92834213869706, -39.93990908045564, -75.6127912688893, -4.0787881253235385, -127.48474774720425, 15.719742189088795, -4.159323015326304, 11.816761451082595, 12.140731729212312, 47.564966410442786, 31.65697534535825, 31.91282635249068, 55.76984628606146, 8.11091066730172, 35.87630609904127, 11.706297079962212, 11.605812643842516, 3.8315955383276394, -51.942174933106294, 15.767573935500906, -63.52221585503434, -7.972194637537239, -4.0, 0.0, 0.0, 0.0, -4.0, -15.97614314115308, -39.86507823761386, -47.84096549133755, 15.739458128952531, 11.703987787456422, -8.264919041721612, -4.020026073429464, -51.43982770502475, -11.893402041382199, -63.534771379238705, -31.840388589479613, 3.902435167834918, 31.956261946567256, -47.6239971905806, 40.109184698423526, 8.16488021476555, 3.9365227486768886, -114.99257326178574, 0.12630708812620917, -23.973618130718787, 7.72048580106601, -55.522314615409016, -7.972194637537239, -4.0, 0.0, 0.0, 0.0, -8.0, -27.896942985089797, 7.825944879460999, -59.54496500795001, 31.541818055159784, -4.315745302648392, -51.92537385120536, -27.84574448959643, -23.92228964229866, -0.20052428444371806, 11.947823686062197, 39.78980010107706, -59.88818615737307, -8.138614696995003, 43.93922221232182, 27.87365635963971, -11.802420649684976, 8.184474296521525, 91.48625749089128, 27.995872475556265, -3.955052524554789, 43.49144611573731, -27.758965514371976, 0.0, 0.0, 0.0, 0.0, 0.0, -8.0, -39.87698686942082, 15.771509177958983, -27.778159533387623, 43.52623329151925, 7.773673805901368, 24.06962138381107, 23.85293832538507, 67.31656129710684, -27.818093206349978, 31.738652307399253, 11.758871652684245, -59.80897932383466, 11.852996896008623, 67.36429728855585, 20.070497609239823, 7.858007987629539, 59.93473983228979, 51.813772237465706, 63.872407673713646, 91.51000276485664, 15.772118807135936, 11.901272071310101, 4.0, 0.0, 0.0, 0.0, 0.0, -11.980099502487562, -47.844918723062065, 51.778686736821676, 19.9414155173732, 43.75798312520444, 4.018841745877725, -39.54997612140924, -87.30891130044806, 11.728073122639852, -12.15607125751281, -59.64388926874675, -35.988742769921714, -39.98512612810565, -71.90538181017959, -27.82648514003282, -11.851775041847628, 35.78755056867114, 55.955926343709535, -79.3956722655594, 52.008132434597705, -3.7591786088885195, 7.952647928749958, 3.913252107242233, 4.0, 0.0, 0.0, 0.0, 4.0, -35.884946600773866, -8.078799646230838, 39.728114489295905, 71.50203455573916, -31.833919495025317, 39.66003326674005, 40.0487329218789, 23.80233067857346, -31.80065930628925, -23.649935827646676, -83.59769925702324, -79.7238665545425, -147.51615076211957, -28.552027462553607, -16.083276516054102, -43.722347012046946, -43.92363017258643, -8.120973374651221, -8.075474232839088, 16.212918178680873, 28.00825459471622, -35.5848754993546, 7.913252107242233, 4.0, 0.0, 0.0, 0.0, 0.0, -39.86501434179778, -3.980012088798411, 91.39548502890999, 91.21895899973278, 12.208013281105103, 39.893306606987764, -39.73080991223624, 27.60580844379946, 31.740634766909974, 27.57361903877669, 23.61189378529413, -159.2213709386909, -76.08961553310789, -83.9322262648627, -27.819407603654245, -27.83696238222238, -63.580611739150136, -11.912986331209549, -43.82620460792933, 16.01968800102155, 4.2723290208654525, -35.54955216264421, 11.901272071310101, 0.0, 0.0, 0.0, 0.0, 0.0, -15.908890744382969, 7.9049769412403545, 39.932696159839374, 51.8613957052512, 119.59045594549083, -43.58057944693081, 103.24160448200597, 27.778177848548623, 7.779384316402006, 35.58872023875598, 3.675687108868594, -246.82031920708755, -95.9748150788283, -95.7383440284113, -7.933726836257823, -35.948484559822404, 7.78335877437116, 15.826287746588562, -19.822888003817397, 27.96763714425391, -7.7079595295446, 55.719744965251365, -0.07084339924133332, 0.0, 0.0, 0.0, 0.0, 0.0, -15.94432570528188, -39.5788599670785, 8.020192778134668, 35.846334669369284, 31.973101147061204, 47.88186273302225, 59.8339538138579, -7.991218939349779, 3.932196696180215, 63.50889006445218, -207.05086901848094, -202.90663840094805, -99.7429221969638, 3.897231459578231, 16.021786093477143, -27.904815518596315, -59.67112049212017, 7.909445486964491, -59.42870438730137, 0.07464894753407236, 8.075451250826136, 15.846599575431245, -0.07084339924133332, 0.0, 0.0, 0.0, 0.0, 0.0, -39.821645728212125, -27.716393686456744, -39.78527691022144, 39.87793286124388, 23.96127239153753, 4.099638265730371, 87.48275981295986, 71.7713497396611, 75.69797336687871, 8.026739398610527, -139.53694039241344, -56.30284996654382, -60.077627938699486, -55.762801366826224, -31.995920432748694, 31.615543763599685, -8.031554367502146, 8.130185581782904, -59.68763636632485, 15.999760490640167, -39.73168009703988, 3.9646894302592592, -59.62861946972388, 0.0, 0.0, 0.0, 0.0, 0.0, -39.82561787551524, -103.20261782510399, -15.7718251670868, 43.771268183192596, 43.82957955124113, 4.165157015795274, 23.892946523110165, 0.32754293388602385, -35.673071878155575, -27.70967578815916, -83.9124246153137, -139.59175347140115, -4.135896693853994, -20.118643556184523, -11.88548418513837, 59.57332321835547, -47.985047054136444, 35.74285511772021, 15.900784890061448, 11.921152874278917, -79.53733118935834, -35.8097395918345, -11.972115470551435, 0.0, 0.0, 0.0, 0.0, 0.0, -63.66761469634951, -51.59717582612923, -27.754983818690977, 87.52862363715575, 55.68341597175404, -19.95534297400037, -11.693341729853072, 127.37808223284024, 12.007286702436815, 3.960802433809201, -15.992247935195284, -67.68484115735258, -7.814639533867788, -79.59546752763264, -59.83609098707241, 19.696649389568364, 15.876451757730411, -51.830115560103, -32.13279040849131, 7.704798215153276, -39.81713050333399, -43.78549018343459, -11.972115470551435, 0.0, 0.0, 0.0, 0.0, -4.0, -31.912468792704544, -35.707797320703804, -8.110679643768371, 47.43214494954762, -11.81870485111893, 11.95101012655778, 43.975279545689624, 111.76027769177827, 16.087793522958595, 51.656800105301755, -35.74312826309717, -8.019704706812579, -12.074204327233826, -43.82178275045245, -19.994801064754903, -31.9647284988601, -63.6099079347842, -99.54826238229221, 35.58961443933484, -16.042803754621634, -43.88034830402527, -47.77768779940865, 4.0, 4.0, 0.0, 0.0, 0.0, -4.0, -23.94433368133776, -19.941380078090507, -20.05835095192078, -43.7850498265226, 15.748917693129044, -0.33991966554087494, -63.42408778147367, -7.726381305197983, 39.96786598021065, 31.79480774176105, -51.982081067288675, -27.978893149529654, -12.381437964544428, -16.03476355252324, -123.16146258081119, -20.03091526333833, 11.911186859142166, -51.79039968904204, -35.81492174957538, -12.054883240139828, -43.8214609889765, -31.817536436534198, 4.0, 4.0, 0.0, 0.0, 0.0, 0.0, -4.0, 39.75009220823669, 95.45363937505122, -23.853540495230458, -47.73703033552501, 43.67891184742296, 99.02469577003531, -35.785597413329576, 55.33374182227428, -35.73452084862023, 71.48693926119489, 23.809928678082713, -8.034191518032625, 19.763859635398475, -51.817392253878104, 11.552946302922326, -79.59711964300487, 11.936452863322575, -12.007810241368153, -11.972131303759916, -39.8175364365342, -39.7818575465441, 4.0, 4.0, 0.0, 0.0, 0.0, 0.0, 0.0, -27.90135679356716, 39.505803539055314, 19.818258076308837, -43.596734255555916, 63.573455007562366, 20.11713333723703, 71.76531714104613, 28.049713171841958, 55.74671173807952, 83.7299815350905, 27.916120467018555, 16.133536220212605, -23.99149228161025, -32.047087584228834, -67.54190460929814, -7.799016406744037, -11.881568680216496, -11.889706661246695, -11.877734648798974, -31.853215326524282, -39.7818575465441, 0.0, 0.0, 0.0, 0.0, 0.0, 0.0, 0.0, -0.08699642945271302, -12.071060174472633, 15.70757904629163, -28.10578163362684, -35.95203342510382, -43.865619198346806, 19.80948121199179, -15.767656424496064, -23.669480584645388, -71.46266091838827, -39.77105563762377, 11.826431129200795, -39.759405557532745, -83.41840256789739, -11.881650575725725, -35.7310640972545, -31.731053463960325, -11.865770541122004, -3.9015915076458905, 0.0, 0.0, 0.0, 0.0, 0.0, 0.0, 0.0, 0.0, 0.0, 0.0, -7.98406374501992, -11.98406374501992, -15.94838485502983, -39.76273716934142, -39.63275697473184, -19.798541886975677, -27.825979376612995, -20.035325916359362, -103.5052790461169, -55.8020234707354, -31.992187232594254, -79.55738707069281, -43.82549752444343, -39.67573734386052, -35.67167810113388, -27.809561458801998, -11.944278535963676, -3.9761431411530817, -3.9761431411530817, 0.0, 0.0, 0.0, 0.0, 0.0, 0.0, 0.0, 0.0, 0.0, -7.98406374501992, -7.98406374501992, -11.94838485502983, -11.846216919500996, -11.846216919500996, -39.56171958564628, -43.624368995898294, -55.61638496396217, -39.87722697791413, -43.87722697791413, -31.980035932131738, -19.988019964067867, -23.960214601605106, -23.810454421022197, -15.826295675807991, -7.964179033476112, -3.9761431411530817, -3.9761431411530817, -3.9761431411530817, 0.0, 0.0, 0.0, 0.0, 0.0, 0.0, 0.0, 0.0, 0.0, 0.0, 0.0, 0.0, 0.0, 0.0, 0.0, 0.0, -7.992015968063872, -7.992015968063872, -11.992015968063871, -4.0, -8.0, -15.972194637537239, -7.972194637537239, 0.0, 0.0, -3.9761431411530817, -3.9761431411530817, 0.0, 0.0, 0.0, 0.0, 0.0], "label": "0"}
{"weights": [0.0, 0.0, 0.0, 0.0, 0.0, 0.0, 0.0, 0.0, 0.0, 0.0, 0.0, 0.0, 0.0, 0.0, 0.0, 0.0, 0.0, 0.0, 0.0, 0.0, 0.0, 0.0, 0.0, 0.0, 0.0, 0.0, 0.0, 0.0, 0.0, 0.0, 0.0, 0.0, 0.0, 0.0, 0.0, 0.0, 0.0, 0.0, -31.81013105144109, -31.81013105144109, -7.9013906447534765, -7.9013906447534765, -27.782444451760355, -55.663878150918826, -51.663878150918826, -31.766936569078368, -27.770932573074376, -11.908937261095728, 0.0, 0.0, 0.0, 0.0, 0.0, 0.0, 0.0, 0.0, 0.0, 0.0, 0.0, 0.0, 0.0, 0.0, 0.0, 0.0, -3.996003996003996, -3.996003996003996, -67.57256718583633, -71.57256718583633, -47.69981752173282, -95.38331591594883, -79.45856887808716, -39.983449734466475, -51.75859863284603, -51.75859863284603, -87.27288924421889, -47.7500485102034, -39.789778573885556, -23.825615468664616, -3.9486673247778876, 0.0, 0.0, 0.0, 0.0, 0.0, 0.0, 0.0, 0.0, 0.0, 0.0, 0.0, 0.0, -7.968135394810593, -3.996003996003996, -55.61618169175899, -91.4263127432001, -115.42550008139493, -79.76956358248698, -91.71819139475751, -119.21453030399486, -115.38730439571312, -79.68741756697997, -91.58051500594064, -59.86839173650225, -55.699115802087135, -3.925240078700419, -7.830463627134235, 16.050448759284848, -7.893594194489282, 0.0, 0.0, 0.0, 0.0, 0.0, 0.0, 0.0, 0.0, 27.853185019263158, 15.928516211959733, -19.892804202114018, -8.011000200836623, -23.7933985615134, 15.929529775973293, -35.623996445190315, -43.750326057106626, -55.70757918792709, -55.92506969809875, -35.909199781707706, 67.44965772258045, -51.57453855647108, -43.85718219949206, -31.916854555724928, -15.760207295526026, 103.03238429096174, 31.684139525952144, 55.427627361786925, -23.822173268757155, -19.928579074267876, -15.928579074267875, 0.0, 0.0, 0.0, 0.0, 0.0, 0.0, 31.853185019263158, 15.932504239899858, 31.80651873845799, -4.022679357472072, 118.89111067856052, 35.550202265585796, 3.7767196562259837, -51.50812589398342, -35.49328219841292, 23.80521341351889, -55.34113118407851, 20.17046484532768, 67.60363387634112, -67.36484461280949, 55.486095220177845, -3.924979363365545, 3.9838152307988945, -31.840985500659354, 83.65929203728942, -7.731577809003938, -51.64419658477612, -23.856793927463116, 0.0, 0.0, 0.0, 0.0, 0.0, 4.0, 39.78658612676357, 47.7317863953086, -39.44323931684452, 0.02779151132074542, 35.70430864335979, -24.003558600570187, -16.008175873939436, -71.38555837088633, -7.834753854658769, -43.7085013833534, -155.37373534505824, -0.06895716155641285, -55.78945140377265, -59.576534229181945, 71.61929610414245, -35.77448564579332, 71.76629474066213, 27.909180749148515, 63.89036561690249, 59.61440516325591, 51.59309564877379, 15.860846123424153, -67.26968595434352, 0.0, 0.0, 0.0, 0.0, 7.99584730147195, 11.976157209391854, 23.925080806691295, 23.782703213554573, -59.60834407885973, 55.49462190865294, 7.999119047524432, -15.878145958952405, -87.34138866906139, -28.36709923568814, -47.75300321177042, -139.43204459635922, 15.553934696719008, -87.71031351283632, -36.10079222200226, -11.935558117812786, -39.483511644797424, 20.198346289134335, 47.98595031086909, 87.55976428567388, -39.56603615609227, -11.732417414654535, -15.741686737950356, 20.019251722676263, 0.0, 0.0, 0.0, 0.0, -31.7352092005947, 15.924730375356322, -11.810712138764071, 15.948429405009726, -7.768019282186104, -95.36045801853177, -15.854294924332272, 51.30429543454545, -0.06787444003081067, -103.15148528995586, -12.309227482264589, -159.46174851222312, -11.98434269510253, -111.61496094687341, -48.33991566679161, -4.363284872292124, -24.115866898986436, -3.8091522465127508, 27.833249597647857, -43.65633991069581, -15.905357090834045, -51.833263071186074, 3.758274113061751, 47.55796761498279, -31.829718152567764, 0.0, 0.0, -31.817411270236057, -83.4457148441616, -15.810382098812564, -3.979838983774017, 7.920771685584289, -8.141475594999616, -59.70796348202159, -55.92707917087832, 35.38332463086212, -91.23340448081578, 111.34694816007665, -95.68238540897315, -43.79700449792479, 31.868480385694564, -8.417339904850898, -7.658459251390227, -79.66239448307483, 106.8313690699609, 20.049506158901117, 4.1300646708500794, -67.47498122217561, 23.836476288263633, -15.968755016234411, -11.901658138509625, 23.74731791891707, 0.0, 0.0, 0.0, -35.74668435471543, -71.61578182151753, -43.69171474540971, -127.04400593749882, -20.251397193368817, 3.7586647026303774, -15.977428913391432, -91.47849986202775, -20.168166963721276, -67.56022930620499, 107.12268784509655, 23.34890032248085, -159.30750865436207, 20.07808088433089, -11.779106247280886, -19.948015068737107, 3.48906977024786, -71.86730764558693, -3.9453278483502974, -3.949429086501274, 35.43584794372445, 15.769369313908268, -43.6680849232421, 63.47761798959349, -7.901251909469211, 0.0, 0.0, 0.0, -35.74668435471543, -23.77080126239439, -15.889403897932777, -19.830632805541853, -31.900020234789547, 83.2914581815422, -8.015082991148233, 154.9915199280547, -55.452552817046175, -63.41437507087172, 8.25892923073054, -87.67368567075694, -135.4208290599604, 31.42126486569055, 31.960372097331717, 19.96769729221418, 3.8785354128181524, 43.530693942849055, -63.44725899186789, 7.947731813528368, 15.824535964820935, -87.26706512027167, 27.487409801640236, -47.58161954809874, 0.0, 0.0, 0.0, 0.0, -11.811054134037526, 4.070960435714342, -0.08253682851279631, 20.03841416532022, -119.21981764633328, -35.409701565270645, -11.843462041030314, -3.6764378731083394, 55.84107273154476, 51.281503595094236, 91.7005879345067, 7.963029106596644, 27.525647976506512, -75.52900754606028, 103.72967895125957, -19.71916024877471, -12.094661449513644, -8.098200619073825, -27.43733637600847, -11.984196799766014, -3.770173310473635, -87.45524305150015, -51.947398638573475, -59.7149051554542, -35.67621834114594, 0.0, 0.0, 0.0, -7.881781049558155, -35.45950954700438, 31.836513947528214, 27.87407574842271, 142.96995476166992, 51.546238553562574, 8.361364697496938, 36.161269356604436, 222.5446034719058, 12.132664304155071, 79.79276856057062, -7.9580525128414985, 19.625314643843563, -47.761992106994455, 79.43981555902933, 23.940500636468816, 83.86650354462958, 31.621669230363675, 23.82531371583492, 39.812287032116934, -31.86678342653734, -31.872270650069797, -75.7058369227169, -12.133285607355436, -35.67621834114594, 0.0, 0.0, 0.0, -7.881781049558155, -23.648688727111434, 47.65110240203033, 19.86319577425676, 103.54941954389214, 39.97800902160136, -47.77831739467315, 15.782284116113878, 91.60204633518006, 27.890791093746067, 27.96408223424645, -3.685114685383203, -115.51205522905241, 27.576174816041387, 32.04621776781465, 75.47045135089532, 8.15383661630764, 111.21383937106708, 27.920852318535545, -4.03852907618734, 51.47923343206992, -28.034114426678478, -43.80182268718111, -31.888762103747982, -23.89275810774399, 0.0, 0.0, 0.0, 0.0, 12.000163190572579, -43.62823903499813, -55.12430688570427, 39.901956646433405, 95.07600887531883, -27.413099942955082, 15.709453633628954, -39.650896367040104, 48.081929488533596, 52.045440784952675, -67.86712574277212, -7.968281238889809, 107.03172164410269, -47.62336920611303, 59.771283638563574, -7.790243224175556, 4.039616973370933, -4.113569350853738, -142.5711211496232, 71.84701851824362, -47.18886423805469, -154.56313395136758, -39.83727273399382, -0.07866072460242934, 0.0, 0.0, 0.0, 0.0, -4.1140896330770875, -95.37135367798064, 16.215756601281264, -79.09111231611618, 4.229960783133934, 103.77619793842672, 79.31985285403654, 19.642503087596474, -0.410745163886725, -4.067159464195376, 111.30904197300381, 16.024406662097523, 23.84299770149499, 135.06166435593806, 24.066549748274312, 23.988942157400054, -15.872739937711529, 75.53299613957812, 43.85973397075359, 3.7951934723545495, 87.54305360780884, 103.23556584317907, -79.44286487528039, -4.078660724602434, 0.0, 0.0, 0.0, 0.0, -23.93236159760491, -143.06678450327388, 35.63620470307239, 19.573943130826365, 43.91756174205118, 59.69650759533519, -59.518531729064094, -23.8715249444112, -95.23444572068188, 28.010047168864794, 79.21758743779759, -8.222616269697177, -3.625092152166852, 60.050070319215706, 51.899785980934794, 27.918702627733403, 23.490507281789757, -67.45809539388605, -51.778539946221585, -87.77415827347826, 118.89596231049504, 15.738473757076942, -35.83727273399383, -4.054969236567036, 0.0, 0.0, 0.0, -31.817411270236057, -55.74578483990085, -111.22096264223164, 43.81320060115368, -72.00599525800199, 39.431633783416736, 19.72458874785213, -23.589404342433486, 11.960617410558214, -43.45958488284039, 39.65243145805671, 55.31160281562022, 0.23675486902603726, 91.43991051117723, -75.74540183358116, -31.94021420022072, -103.66828298706318, -28.116373342771407, 3.7760592896749383, 83.02861896336107, -83.79741749974157, -87.64761847204221, -151.2390463515189, -27.865195643652886, -0.05496923656703734, 0.0, 0.0, 0.0, -35.7896059077733, -43.78162187583717, -115.02851393821497, 16.128577010640882, -8.040375179338021, -206.61654690558336, -55.88879361911969, -31.995908509172132, -146.99562514324734, -75.43150696489067, 71.35976571045165, 87.55272829800202, 71.52869898767838, 15.924577111868828, -47.489851936187875, 31.628859866199907, 3.6795716949594652, 31.79698992320535, -19.882211615398266, -67.70263286945718, -59.754645612587495, -95.45060631413116, -47.77002719217452, -23.865195643652886, 0.0, 0.0, 0.0, 0.0, -3.9721946375372394, -11.964210605601112, 19.735682396227016, 7.960895491996618, 39.58458963800734, -127.13156240786857, -51.82708132822343, -39.77687371157995, -40.266914273581015, 11.62834298300481, -107.46189896706906, -11.794223518413727, -47.5221948279744, 71.74971498733053, 31.963597086838025, -35.601955568046556, -83.64727636823282, -83.36082660036959, 51.36792272538066, -28.12919402967196, 3.8301949690720622, -39.7002930537246, -27.841839422537376, 0.0, 0.0, 0.0, 0.0, 0.0, -3.9721946375372394, -11.964210605601112, -23.88948768608448, -55.71891762442699, -63.81767862372685, 11.593515902110774, -28.04403884989553, -43.913559609734726, -64.08467010334962, -48.07734097506937, -71.56898737493599, -95.75731083058301, -23.8820732391773, -103.83493000461954, 27.562121267804585, -7.880505949391234, -71.6506149209377, 11.855126598878236, 71.35189467522486, -47.77405820461195, 63.47429226356291, 11.998976020715972, -15.95625838255716, 0.0, 0.0, 0.0, 0.0, 0.0, 0.0, -11.94068329284176, -23.865960373325123, -31.846059875812685, -158.85793204030574, -8.283554123567072, -79.61272547659348, -12.016807275571068, -20.01635079339638, -0.09539213866099328, -28.163948846199535, 67.63074970573233, 7.889714088765479, -115.32021276297732, 11.998816205215576, 39.89247195896016, -11.687998732990419, 12.133614821717224, -24.061702783789613, -31.770094344054822, 47.907495727737945, 23.951613358312482, -3.9920477769560483, 0.0, 0.0, 0.0, 0.0, 0.0, 0.0, -7.94068329284176, -15.936687288845754, -31.846059875812685, -16.133829876643027, -31.947938283639786, 67.58066786867249, 71.48056734579026, -99.41065590228955, -12.053833521466345, -175.03721232230163, 23.82340592390269, -12.195080440556836, 0.02793002656773247, -19.661609880715964, 111.52835364292534, -7.939900278005713, 16.229085645365487, 31.779408147867187, 67.59742662014008, 7.983828266333408, 4.0549070729761265, 3.992015968063872, 0.0, 0.0, 0.0, 0.0, 0.0, 0.0, -7.94068329284176, -11.94068329284176, -27.842040086408915, 67.20228579334542, -67.64663489127034, 79.3603957139236, -47.44452951576618, -55.61604476050152, 31.73429091161802, -8.182445757030301, 0.08362160543940522, 59.46551672188593, -63.62980800666757, -35.673800861614794, -8.12622804585611, -48.007073817924784, -55.40756768991662, -19.920611901606918, -23.952144567657, -47.64429915694957, 4.042966821992049, 3.996003996003996, 0.0, 0.0, 0.0, 0.0, 0.0, 0.0, 0.0, 0.0, -7.976079713083792, -63.56439587368509, -103.18848918869828, -158.59008519527998, -79.55722235285727, -75.7573773098247, -131.40206512401977, -79.75739765822557, -127.27489051655404, -28.173689188092826, -20.3415889152978, -103.53768099923575, -51.91286662413451, -67.6296350102725, 7.766733493487104, -71.55699964069287, -59.6285784700577, -83.4228067930765, 39.726771363095004, 35.78611865871084, 0.0, 0.0, 0.0, 0.0, 0.0, 0.0, 0.0, 0.0, 0.0, -23.790342866300755, -55.56085136176023, 3.814512878774501, -12.114515932698522, -59.64066073031702, -55.68378610410078, -47.77478017036778, -107.17455652982714, -135.2729834766846, -103.4352730884418, -130.94961700694316, -103.09212900179679, -63.55402211474925, -23.960119601410817, -31.873036100201546, -55.64027756239871, -55.64027756239871, -3.992015968063872, 0.0, 0.0, 0.0, 0.0, 0.0, 0.0, 0.0, 0.0, 0.0, -23.790342866300755, -43.70284360905475, -19.912500742754, -19.912500742754, 0.0, 0.0, -11.92481046593097, -23.900866322321868, -23.900866322321868, -27.960095744717922, -4.0, -4.0, -3.9761431411530817, -3.9761431411530817, -11.972083709087789, -11.972083709087789, -15.908936423049889, -15.908936423049889, 0.0, 0.0, 0.0, 0.0, 0.0], "label": "4"}
{"weights": [0.0, 0.0, 0.0, 0.0, 0.0, 0.0, 0.0, 0.0, 0.0, 0.0, 0.0, 0.0, 0.0, 0.0, 0.0, 0.0, 0.0, 0.0, 0.0, 0.0, 0.0, 0.0, 0.0, 0.0, 0.0, 0.0, 0.0, 0.0, 0.0, 0.0, 0.0, 0.0, 0.0, 0.0, 0.0, 0.0, 0.0, 0.0, 0.0, 0.0, 0.0, 0.0, 0.0, 0.0, 0.0, 0.0, 0.0, 0.0, 0.0, 0.0, 0.0, 0.0, 0.0, 0.0, 0.0, 0.0, 0.0, 0.0, 0.0, 0.0, 0.0, 0.0, 0.0, 0.0, 0.0, -3.996003996003996, -3.996003996003996, 0.0, 0.0, 0.0, 0.0, 0.0, 0.0, 0.0, 0.0, 0.0, 0.0, 0.0, 0.0, 0.0, 0.0, 0.0, 0.0, 0.0, 0.0, 0.0, 0.0, 0.0, 0.0, 0.0, 0.0, 0.0, -3.996003996003996, -3.996003996003996, -3.996003996003996, -11.877589916608308, -15.87758991660831, -23.865609880676175, -15.976055856390898, -11.9760558563909, 0.0, -4.0, -4.0, 0.0, 0.0, 0.0, 0.0, 0.0, 0.0, 0.0, 0.0, 0.0, 0.0, 0.0, 0.0, 0.0, 0.0, 0.0, 0.0, -15.869805926598104, -3.996003996003996, -31.672824083466615, -51.54603333630448, 15.892845473342234, -16.03915655852298, -12.082677824596171, -20.051359166522072, -43.80627093446055, -87.39150745799606, -27.90091466185779, -15.948431931926992, -19.869231775863707, -23.853295520883627, -7.936632914980395, -7.936632914980395, -7.944585138024346, -3.992015968063872, 0.0, 0.0, 0.0, 0.0, 0.0, 0.0, 0.0, -4.0, -35.76665363252226, -59.62449545144339, -71.5886910183516, 0.1176043321751079, 39.620438768506126, 106.94222335796793, -87.42743840619192, -23.933113454423516, -95.1725299161338, 15.762426274906858, -16.15380072768024, 43.30464089519356, -71.80204841363924, -183.08174623152064, -139.28773952812836, -59.694924030693294, -43.7781904912, -55.67153386528671, -43.78226231074949, -15.928405331128433, 0.0, 0.0, 0.0, 0.0, 0.0, 0.0, -11.936789143606278, -15.983585451036571, 0.12198598736448307, 23.802262006487442, 95.37086073792857, 55.59198019989399, 15.900310737584903, 39.69976510366734, -24.098000818437747, 55.36822975348089, 39.70370966095271, -43.411855474750766, -7.897940146809496, -35.69269208143966, 27.606009085886285, 23.483154176975102, -91.38725936106394, 35.739295109920675, -19.82622457689076, 27.63378687794952, -47.92372860787192, -43.70346718425734, 0.0, 0.0, 0.0, 0.0, 0.0, -11.936789143606278, 27.8338780117245, -15.787310510057342, -39.69603658595481, 111.20937212362014, -7.812265235542107, -4.161560896458034, 23.895169961053888, -12.289258866056976, 138.84602021218635, -39.68462995194891, 71.23220603993707, -83.35239159169619, -51.87217705702405, 11.956006752614112, 31.790413080712387, 35.77242299406523, 0.0970112955524014, -63.23049478307518, 7.80672662787929, -35.86741053288086, -36.136975262490196, -63.61331402281251, -95.19851891862025, -43.64834301777114, 0.0, 0.0, 0.0, -11.936789143606278, 27.8338780117245, -47.40361130959065, 31.527336443313462, 83.47399754750869, 8.180158015362121, 44.090835381627016, 91.44310460172059, -15.964088364282496, -43.80572129753082, -59.35651764169023, -0.03848386847681606, 35.86562983161219, 67.30569829322584, 15.948397892303102, -3.842528122197953, 51.65596084147232, 31.829013812445528, 15.989053338650631, 87.68257432287724, -39.497759169362894, -47.931012989095784, -23.87800939957334, -95.19851891862025, -43.64834301777114, 0.0, 0.0, 19.8972760673141, 7.98406374501992, 0.20067378906131594, 27.68525985765792, 11.831262927090581, 8.074289817661624, -11.660372902249364, -11.667673674671235, 39.704363514218336, 47.46749435600421, 67.47047976920221, 55.79849251158732, 19.976556445977412, -23.636510277833874, 79.66755534596555, 4.471806813394736, 32.18324585612724, -31.428600069564116, -51.25884594824434, 67.72724276251755, 67.49173817159705, 83.42446811473198, 27.900350627067915, -0.027751407442737186, -63.45109972895401, -43.64834301777114, 0.0, 0.0, -3.9603960396039604, 7.98406374501992, 87.51753066314784, 162.79869781047742, 63.39476533550593, 11.995813886016862, 91.3399082894124, -43.53296270307759, 0.01859066154284328, -0.028838734239635677, -67.35359930579222, -7.741178050736319, 47.6991955425391, 55.68807091729026, 51.8935411006094, -51.85891258228577, 79.86468466800017, 40.08826812554759, -19.986768474793383, 0.326523462636124, -27.887222734365402, -39.57325464434125, 103.40539383963588, 47.5539692591899, 0.0, 0.0, 0.0, 0.0, 0.0, 7.98406374501992, 91.5016569915045, 71.69401979724597, -51.869485751096185, -27.72054552816023, 91.17431396023366, 4.020475864936736, -47.7859486512127, 11.787490865935844, -3.9972152524547546, -3.795769991661393, 67.72750428476404, 4.078854400827475, 119.35620466934604, 75.68650563767999, 32.16457673649225, 127.33338952921228, -11.893632681164277, -31.805996541348907, -12.214606248368337, -8.12497632733622, 23.959250379387214, 3.9367721016514103, 0.0, 0.0, 0.0, 0.0, 0.0, 3.952569169960474, 95.33607794105511, 23.991240348820405, -111.3825553422946, -27.983003203269774, -4.192429533301191, 35.7869012159821, -71.49884282245976, 35.67255534156128, 7.916160131572728, -87.21071248856833, 3.787276205920433, -83.63233778694814, -43.5151800541942, 39.72670288944129, 35.79562567698144, 63.924089597912605, 3.9385039244349223, 7.897375757005421, 51.63588097566729, 27.79062781328812, -8.157502865026643, -43.715602573561675, -4.0, -4.0, 0.0, 0.0, 0.0, 3.952569169960474, 91.32809390911898, 20.09797492209497, 0.019338975697965388, -111.25627055591784, -56.02211611693257, -43.64048318639854, -24.098684343015545, -59.81651358410922, -107.36508178522949, -83.68873677841907, -127.85565570944966, -48.00152453528829, -131.10268259966776, 99.46917475753605, -55.61959440583731, -7.723482728575571, -7.756155498419603, -3.7478068531377433, 28.2144188315733, 55.40790607813758, -83.62817270457539, -55.78277560576559, 35.69968162687562, -4.0, 0.0, 0.0, 0.0, 3.952569169960474, 67.55693480011792, 32.00240989591798, 8.070106355071058, 55.59744390518138, -24.12836656107768, -4.317282586885423, -31.976298635544534, -27.89063289722845, -63.63356040282947, -19.97383293259309, -28.369392415982073, -12.382201815615208, -71.54962012982128, 71.5086429414236, -162.73743892977623, -36.05945297195946, -0.21738814850411448, -39.34074333926757, 39.60219777814375, -31.802538636232864, -36.0181888899434, -51.84134391667927, 59.61215571051318, 0.0, 0.0, 0.0, 0.0, 0.0, 71.47039810783136, 47.809770795278574, -7.838575286487182, -35.617417653365855, 71.30447711945496, -0.03973025475391889, 31.468182869195946, 19.728400099585553, -63.88018674046928, -72.04481121401763, -119.5805853145312, -35.83017081378155, -43.685468247128334, -31.525966133525895, 83.56885007235222, 3.882340075070248, 36.081446439779626, 4.3526211370274455, 43.75898212309404, 19.897726935082183, 19.822080845153245, -7.9016239727407696, 51.7890846002211, 0.0, 0.0, 0.0, 0.0, -7.874023376006898, 63.56082156943222, -3.9048176285737632, 11.92083541700919, 71.42370119262185, -23.963620742730374, 43.735512809862456, -55.649053414143395, -87.70598705921726, 3.759636587261719, -20.212309438114957, 3.91591411158222, -47.63420243887284, -182.9243989275906, -19.77807081902585, 59.74286078843853, 79.5927602300358, 127.36754075659705, -39.34969924844198, 68.04578371091124, 0.3458389657198868, 12.045770723917201, -51.400935557138325, -23.61755853785951, -19.73179249958843, 0.0, 0.0, 0.0, -7.874023376006898, 12.062326273394733, 27.878401863496503, -23.885213461658687, 23.8179482518014, 71.55627515416064, 59.56040285799199, -75.5969874140392, -79.70999087733215, 51.55806409389115, 23.72706025380355, 35.59382093670813, 44.10018697203276, 87.16660970683256, 31.84175377385296, 32.036539555656624, -4.120739030266944, -86.98954092536317, -31.390165585566002, -27.67391396063693, -71.36896912779262, -8.007442456736563, -7.858112008014285, -31.554112994415235, -19.73179249958843, 0.0, 0.0, 0.0, 0.1100403690130225, 0.16124740406684523, 4.126642834433254, -47.74235147002066, -43.734848904270805, -71.58041955776689, -63.644103299798466, -71.70776487168533, -99.22153397704803, -91.05974510799165, 23.96339588931296, -24.195641326465513, -4.201059058266143, -47.65606950435939, -83.27770533602052, -79.68582894456371, 23.60227555409227, 39.718737490479135, -15.996582954043038, -27.85472086941755, -35.90103854049339, 19.88087269118811, 27.76653583336213, -27.648760312668074, 0.0, 0.0, 0.0, 0.0, 0.1100403690130225, -15.771122169593946, -47.65182126357183, -75.45431664072865, -115.2802791660596, -143.13383526206002, -44.050611925930674, 11.777601105994083, -43.85629942939997, 15.860456821224556, 59.552984207981254, -27.601647658289295, -87.5523904787479, 15.805683524776835, 31.557466441828783, -28.21201029832056, -23.838260477013836, -55.67638486567375, -87.3808757573577, -19.797178786689418, -43.747738722576955, -39.64524223438919, 35.57331807684345, 0.0, 0.0, 0.0, 0.0, 0.0, 0.0, -19.767150022290835, -47.6637853712488, -75.51786956988042, -63.61287367100356, -63.67208653736073, -19.968845835813347, 19.719467463688563, -35.804147196064235, 8.28704722810308, 4.153521662908013, -4.082780712400724, -44.14002937620636, 24.14864641840921, -15.877072721128748, -87.42633988802233, -20.036368855559754, -59.65205103680316, -31.70950180385303, 35.772925593202345, -59.67241092627864, -111.08797329424146, -23.794663923476783, 0.0, 0.0, 0.0, 0.0, 0.0, 0.0, -11.893126646283937, -23.86132527982517, -59.62051332808038, -27.99947512641249, 15.53075609036797, -4.165949629742873, 55.39098461883848, -107.17836956957953, 55.72735686665131, -7.866703626854229, 19.939497438475236, -4.078668288228815, -75.36524244506583, -110.96530553172886, 19.709320297809597, -35.815330253083886, -99.57588751657431, -63.43683368556268, -43.66522881705806, -55.83704476819729, -43.74289077371764, -23.794663923476783, 0.0, 0.0, 0.0, 0.0, 0.0, 0.0, -11.893126646283937, -31.813737287493, -39.68337582243823, -107.19313619340133, -16.01911015713278, 15.873655599306094, -4.17770394122543, 55.62787545031221, 8.004418037246243, 35.82012883188248, -3.904924048740199, -16.140546474656183, 71.3875382336777, 19.538848069957634, 15.843475991761448, -107.40274901988528, -139.10719177943756, 63.4140033866526, 7.892480377594713, -59.73826172545463, -51.75030512037056, -3.9408866995073892, 0.0, 0.0, 0.0, 0.0, 0.0, 0.0, 0.0, -19.920610641209066, -27.735219129817256, 7.862216874120899, -47.68251530657094, -51.4834763219846, -63.501966658487156, -135.15986405655798, -83.44643032780372, 23.75135848286956, -16.399724367146618, -4.054457312889495, -23.722961299037088, 67.54512608489726, -39.76550691656887, -47.74330493187779, -127.29986478643754, -27.788090258536577, -83.30088056389478, -71.63924842540531, -55.72644826152364, -3.9408866995073892, 0.0, 0.0, 0.0, 0.0, 0.0, 0.0, -3.996003996003996, -4.0075230541095275, 51.68001448453895, 83.53719089477362, 35.955693536407, 103.38660232424527, -15.936418075288415, -79.30773793897447, 27.798137715129904, -63.896584591738026, -119.20894851108194, 63.317609392009054, -7.550600485800356, -31.608634544356686, 55.42079540640315, -39.64135520629042, -147.12996685344157, -67.44015516571615, -35.66466558299368, -67.55244679979702, -39.667783086111434, 0.0, 0.0, 0.0, 0.0, 0.0, 0.0, 0.0, 0.0, 0.0, 63.6088774047959, 63.86409348331809, 67.5226918435296, 59.722041514049266, -7.734420878900985, 91.4385133516217, 95.17913725950213, 16.147992781335528, 35.743273578767024, 28.16057336881124, 16.290840566740332, -11.472164711446833, 47.80189401246725, 55.65446513891752, -67.5415549509141, 15.983498853520405, -11.82672426158498, -31.758580998599093, -8.007365662142215, 0.0, 0.0, 0.0, 0.0, 0.0, 0.0, 0.0, 0.0, -11.869815563426098, 47.5533283224306, 28.060718832966216, -39.37383268358546, -43.50444671130723, 27.65966578637687, 15.963564871509739, 47.53939602276466, -11.944029367064605, 11.82692291596759, 35.44776354922484, -55.61212740728295, -23.8181448578877, 67.6630766532341, 103.25278892760967, 107.10722873419077, 91.28821885627434, 23.900634216024983, 27.77086451286326, -4.031222520989133, 0.0, 0.0, 0.0, 0.0, 0.0, 0.0, 0.0, 0.0, 0.0, 4.0, 31.759553749000286, 27.759553749000286, 27.759553749000286, 4.0, 7.996003996003996, 19.79931564509141, 15.803311649087416, 43.68002299744252, 47.67602699344651, -11.920657767402918, -11.920657767402918, 7.996003996003996, 4.0, 4.0, 4.0, 43.69141262114203, 43.69141262114203, 0.0, 0.0, 0.0, 0.0, 0.0], "label": "7"}
{"weights": [0.0, 0.0, 0.0, 0.0, 0.0, 0.0, 0.0, 0.0, 0.0, 0.0, 0.0, 0.0, 0.0, 0.0, 0.0, 0.0, 0.0, 0.0, 0.0, 0.0, 0.0, 0.0, 0.0, 0.0, 0.0, 0.0, 0.0, 0.0, 0.0, 0.0, 0.0, 0.0, 0.0, 0.0, 0.0, 0.0, 0.0, 0.0, 0.0, 0.0, 0.0, 0.0, 0.0, 0.0, 0.0, 0.0, 0.0, -7.964163247507482, -7.964163247507482, -7.964163247507482, 0.0, 0.0, 0.0, 0.0, 0.0, 0.0, 0.0, 0.0, 0.0, 0.0, 0.0, 0.0, 0.0, 0.0, 0.0, 0.0, 0.0, 0.0, -67.28596124173912, -79.20292905481878, -79.20292905481878, -95.27660792516518, -67.50180079477393, -51.56135289478307, -59.576544160597834, -19.90867787375732, -43.80924608095935, -39.85276734703254, -27.900568207202024, 0.0, 0.0, 0.0, 0.0, 0.0, 0.0, 0.0, 0.0, 0.0, 0.0, 0.0, 0.0, 0.0, -4.0, -23.92056328311544, -27.92056328311544, 7.944175299483971, 43.63214767034791, 39.59250481494487, 27.568975088757625, 19.444539119941364, -36.18347195385881, -87.59988185629992, -43.95870800460696, -51.77041636208758, -59.59234048785492, -47.656313322611226, -27.802673581166946, -3.8234437260352765, 47.553458322552636, 0.0, 0.0, 0.0, 0.0, 0.0, 0.0, 0.0, -3.996003996003996, -15.921156640567375, -19.850429725046745, -31.956819715141684, -27.89389018667353, 19.746474430915587, -71.65552903675085, 7.963817629962629, -31.85754147800658, -31.980551306331876, -79.76471194788738, -55.67187240848306, 15.96887970736887, 43.576920821316925, -71.67457417595365, -27.5902195346044, 99.53350127432539, -19.8461993150953, 55.80093256580526, -7.594882253170167, 122.88185208823117, 71.34850131999205, 0.0, 0.0, 0.0, 0.0, 0.0, -31.766322385708637, -43.68747902627602, -47.68747902627602, -123.18204898428252, -63.42415723381469, -11.697324102821042, 39.56995637594152, -12.034009422908383, -19.88499152382201, 31.7294352646288, -87.16559620304702, 79.42637020307532, -63.44856772266292, 8.034252990271643, 31.891930551534042, 51.33740073160359, 59.423598824007016, 19.93324827223442, 91.66126073692618, 111.41866660461406, 68.02062647476947, -63.407103745541484, 35.77183231615058, -27.7468135087299, 0.0, 0.0, 0.0, 0.0, -35.76632238570864, -43.691475030272024, -27.912843111943197, -83.50260443744023, -28.200964916558892, 19.853419374027116, 19.948099337357686, -0.08935008589076698, 63.759791024477956, -47.50351624725331, -16.02271660667944, -12.343077749832595, -55.74663715052465, -47.396547749138975, -95.22953221663778, -47.2546590583918, 31.893546334511402, 16.08340427918182, 8.189651390127526, -75.721877136306, 103.50582880563938, 67.72344379339751, 20.22470740328957, -35.60483676787499, 0.0, 0.0, 0.0, 0.0, -39.76632238570865, -135.12556054218837, -83.60118443551734, -139.10391412581697, -11.924298424242952, 4.023574196848804, -7.9749809832252945, -16.062004409659842, 39.61044061514787, -43.617295042636194, 23.993574360349616, -75.63557761817812, 12.030472290751913, 91.31211823299448, -79.52966723193236, -71.7065218724939, -63.302763500601394, 47.6526944910533, 63.56043337444424, -47.449075583031274, 67.78673819688966, 107.75938751276243, 171.0994329480471, -79.18575407687123, 0.0, 0.0, 0.0, 0.0, -91.40231151508999, -103.37913865399213, 71.13021779624691, -87.56434849864816, -0.38028100057597136, -3.9146346233460587, 43.85759630238768, -3.995079343391849, 55.462562283394774, 79.02142917273358, 55.721259398675166, -83.4454075773692, -23.95639827687503, 55.573691178704586, 15.49044313800507, 99.580420503584, -15.833719728110538, 16.317866218455386, -23.486935598053496, 47.98652373353127, 111.35566545069497, 32.844065863101044, 239.1035180757145, 16.059441997965788, -7.956258382557159, 0.0, 0.0, 0.0, -59.63978173725535, -99.39034086750266, 79.29110145718677, -39.60047282518085, -7.608718276449573, -3.514244935033341, 31.9869387021828, 43.47613743066114, -130.98879367105056, -11.594759787870569, 20.02697435279964, -35.77393625021555, -36.34523460407037, -179.18864124577823, -123.36217472509315, -0.1744914535734221, 74.9613471012463, 43.3629742826126, 118.85858655706507, -87.5047573682564, 103.51670368796131, 171.3575068581665, 338.27747394922613, 87.36415324726832, 0.0, 0.0, 0.0, 0.0, -4.0, -31.7156510997977, -7.965193072685676, -11.526434000730053, 75.48688890317608, 119.38168386684397, 7.907705752540102, 107.5746689890295, 115.38961230057369, 51.9175044295888, 23.754704068153604, 55.687059595813814, 67.46077324655066, -119.18971051217089, -71.6958006466751, -91.46852388139763, -222.75147690693217, -95.24772592159351, -88.02931400079724, -99.74547023766897, -0.22047026567604, 166.69990841130686, 254.29592869583192, 103.09534765406299, 0.0, 0.0, 0.0, 0.0, -4.0, -11.830603016977221, -47.766228676774354, 155.15697095070178, -126.86938261490515, 27.858366176353528, 43.72819719965999, 63.87684853748841, 19.79988601933357, 28.01123861332099, 7.70129650614635, 11.973005939252815, -31.522537502529058, 51.98694651368976, -43.850524804848874, -8.1859883100365, -119.39105860524522, -179.02428696652868, -198.8038488870737, -322.03094020331355, -107.79298839677583, -64.0689255172872, 19.857485440502224, 79.24973781473041, 0.0, 0.0, 0.0, 0.0, 0.0, -7.88596981728401, -186.41184697642447, 95.39129470737686, -23.53780141665464, 48.010075834628125, -19.813715876770388, 15.921284468781113, 31.75677230243991, 71.99955335633845, 23.93374402782354, 27.700095085323625, -59.657627070699306, -4.179092641822668, -43.86008146271246, -71.83288382901043, 35.300685151765215, -8.178700966725255, 59.29962862514026, -202.99160143575378, -84.12329550434563, -187.0891478213056, 7.893353906840234, 0.0, 0.0, 0.0, 0.0, 0.0, 0.0, -11.795085023233536, 7.834048657016937, 19.880848543687115, 79.46642064689007, -103.22492661862198, 11.898438993658498, 23.758885106913436, 91.71181135961311, -7.7223932761863745, -67.40713125919268, 63.93035019894308, -55.7932108699654, -87.69794123166955, -119.11714060322394, -99.4543151526958, -75.36006344279943, 48.10175801740516, 35.48351384519963, -135.351605516615, -211.0330587985331, -115.63002256382902, -4.0, 0.0, 0.0, 0.0, 0.0, 0.0, 0.0, 7.8737222074497755, -4.319299304413865, -12.28772057009223, 71.81218116359445, 36.15743243982964, 63.794401192267024, 48.00104301179496, -51.69259746719045, -4.073842236542939, 7.8164239800859034, -15.947234914591483, -31.870669041504176, 91.0747876036421, -0.0883158531683117, 103.42142452487387, -59.76934018017572, 75.56787967661039, -83.50825926105695, -28.101642211284076, -67.7585034875029, -12.301908713753114, -4.0, 0.0, 0.0, 0.0, 0.0, 0.0, 15.913437039632147, -51.596540823533566, -39.99564437454661, -63.8546618810179, -60.00626699727479, -59.68668650914306, 59.962774730803275, 115.28196495867789, -3.760114271688911, 115.31477408283934, -99.69358053857924, 55.49557056963744, -67.64787124293085, -91.57770629684735, -20.27950635149543, -127.38412421707676, 23.968027982625014, -47.58143439240506, -15.886144704815074, -31.9587847929775, -95.43898073578006, 23.578813813434667, 51.5105941022856, 0.0, 0.0, 0.0, 0.0, 0.0, 11.913437039632147, 55.726583437353824, -99.57201679607144, -103.64716113992351, -63.919541795218485, -139.508405752034, -12.277868259203817, 23.817972603042175, 40.00877935383981, -19.72959002308734, -23.902437197517916, 23.755511341000275, -28.502698885045273, -55.83848525695496, -28.07842955177345, 7.442756126420265, -63.339327307834814, -71.93304288471532, 99.25592016869236, -12.157431556473288, -3.799294568066733, 71.25444645635982, 47.534450961132514, 0.0, 0.0, 0.0, 0.0, -4.0, -19.841235700964436, -75.19022448955864, -59.93330121227302, 135.08550883944727, 39.65940868231143, -72.07887851524127, -147.54804838436945, -67.71152062239578, -154.95385637171572, -43.842247815005464, -83.45849375221069, -147.10127382931873, -15.893785586166118, -3.9239636642142415, -39.49691578514923, -63.377469375489866, -59.652723163324175, 67.38793896994581, 115.3709551593473, 39.521006694163475, 119.00918720307556, 55.55337644741854, 35.72388867679537, 0.0, 0.0, 0.0, 0.0, -19.853522685887896, -31.758668744592587, -35.557551409996286, 87.36571847496205, 51.891692532360835, 16.061552411417857, -135.34825427974812, -59.65391217735244, -83.56964859954502, -40.07269755181048, -147.66155880891506, 27.392148039768408, -4.060359007409579, -23.805598867294687, 35.627949510992835, 51.951700731708314, 44.24998433669059, -55.80240154732265, 31.710265915688158, -39.63082214551669, 12.051122834021221, -11.758024275122331, 39.64849864630913, 43.62903473550006, 0.0, 0.0, 0.0, 0.0, 51.57761538503781, 95.07268045917164, -71.20654128868672, -99.07296951837219, 28.26568069554268, 28.362995719094965, 35.78942722397961, 79.52936511045345, -19.937311375227445, 51.52171819383672, 87.42379768647515, 11.956741726557464, 63.506516848827395, -0.0017128286429697326, -135.16633783992458, 87.15043117988026, 95.37633665600879, 11.802981889304107, -63.21147744741685, 63.65744165303445, 51.79748362344511, 47.69640382704331, 35.82971883997053, 23.79132213587608, -11.94042460850147, 0.0, 0.0, 0.0, 55.5776153850378, 47.58573210137659, -75.21497110356744, -35.83064050111007, -23.28425181558855, 151.44983173693618, 20.09450310834489, 51.059010401976806, 43.89063723479798, -51.25369387847226, 39.781873654843665, 39.61327802737462, -151.00014659852891, -35.62669943061028, -59.53630663063941, -146.8709275056978, -19.929944737438582, 4.076399783594958, -39.81662663865627, -95.28116276482102, -16.02249397829364, 4.157310744534487, 103.32784391800826, -51.50209142565136, -11.94042460850147, 0.0, 0.0, 0.0, -35.640321063233834, -35.754863650653114, 83.35866177664327, 7.878169311813843, -147.12046668359707, 135.1363072585976, -35.985365565390744, -4.145001833459863, -39.55905310439012, 43.76172831730362, 55.49260175776089, -31.72971131274245, -7.773169288723808, 19.526484787576685, -12.220184036267934, -51.76204762816525, 55.62421453362223, -8.069621177976302, 107.24475617712581, -23.652825526360765, 119.01173779482224, 35.892393143856665, 83.58373178655832, -39.5933339664306, -7.960325106013907, 0.0, 0.0, 0.0, -3.9721946375372394, -23.940314104092668, 27.56273143166764, -67.53378935234596, 35.83134849135477, -4.071709239723569, 7.945725686604942, 39.501614673374974, 111.790916074784, -3.4183467062987436, -20.446797714412494, -35.667093762363066, 83.25203814192298, 67.55675459484712, 59.7364867948413, -35.82990413189374, 15.963523282102578, 106.95135318620399, -27.35332366746026, -47.56478976689765, 83.46179713580668, 71.60753414970948, -7.728139374952864, -27.68823568487429, 0.0, 0.0, 0.0, 0.0, -3.9721946375372394, -19.940314104092668, -11.95267395335662, -71.33964462346187, 107.29630290245443, 19.61200142558915, 3.5353552157466455, -28.11861723035663, -39.46755879613068, 43.91136030789802, 51.44665816983144, -27.9201626181382, 32.1653576619616, 8.07977758014011, -11.763793711528226, 86.96629503521217, 47.21639182329712, -15.585134141092876, 43.703929084300164, 39.67515900277304, 79.41477645696952, 11.97987070639508, 15.924488353521388, 0.0, 0.0, 0.0, 0.0, 0.0, 0.0, 0.0, 0.00756443365625481, -27.822100900297944, -55.4784546584018, -103.07922186688309, 43.86434699310499, 7.962027267395681, 126.88414922661424, 4.224966918100056, 107.50003908454126, -55.55777181449077, 12.113904713555769, -27.868389170543523, -43.87971314072979, 3.7805601107595166, 35.99403955052588, 47.52985506554313, 0.10177605887320773, -35.61648264195821, 43.711361457965225, 7.964163247507482, 0.0, 0.0, 0.0, 0.0, 0.0, 0.0, 0.0, 0.0, -4.0, 15.814356127822034, 3.8263361637541657, -19.932422785975547, 7.771555300673251, 23.80295450531738, -4.070183915146153, 15.880923032564056, 0.17682008209971123, 55.533367282049014, 95.42547562933358, 59.49027451460275, 27.77725633861832, 16.006132738350715, -3.8319234199327656, -31.80648772206149, -71.51718941628184, -71.51718941628184, -11.960325106013906, -23.77472677683479, -23.77472677683479, 0.0, 0.0, 0.0, 0.0, 0.0, 0.0, -4.0, -4.0, -4.0, 0.0, 0.0, -51.67133881442347, -51.67133881442347, -15.936609058287502, -43.707939963797486, -39.72384445731392, -43.55425798965683, -43.562210212700776, -15.988175691484678, -39.782631321794284, -11.936619906896368, 11.87782100536542, -19.924583070271872, -71.51718941628184, -71.51718941628184, -59.55686431026791, 0.0, 0.0, 0.0, 0.0, 0.0, 0.0, 0.0, 0.0, 0.0, 0.0, 0.0, 0.0, 0.0, 0.0, 0.0, 0.0, 0.0, 0.0, 0.0, 0.0, 0.0, 0.0, -3.9682539682539684, -7.964257964257964, -7.964257964257964, 0.0, -59.55686431026791, -59.55686431026791, 0.0, 0.0, 0.0, 0.0, 0.0], "label": "5"}
{"weights": [0.0, 0.0, 0.0, 0.0, 0.0, 0.0, 0.0, 0.0, 0.0, 0.0, 0.0, 0.0, 0.0, 0.0, 0.0, 0.0, 0.0, 0.0, 0.0, 0.0, 0.0, 0.0, 0.0, 0.0, 0.0, 0.0, 0.0, 0.0, 0.0, 0.0, 0.0, 0.0, 0.0, 0.0, 0.0, 0.0, -11.905003705402677, -11.905003705402677, -15.905003705402677, -4.0, -11.850149777745052, -11.850149777745052, -23.739320062694507, 15.814292269366337, 27.70346255431579, -0.03979867195458242, -7.937007874015748, -4.0, -4.0, -4.0, 0.0, 0.0, 0.0, 0.0, 0.0, 0.0, 0.0, 0.0, 0.0, 0.0, 0.0, 0.0, -7.94068329284176, -15.845686998244437, -7.905003705402677, 43.71159739224213, 23.94793572179405, -43.625089191317365, 3.9528951544372197, -27.72821268971924, -32.00719089203974, -71.77094526295728, -91.76971232505869, -4.307839256488141, -16.121383848288044, -11.956752508462527, -15.912965209564435, -7.96039603960396, 0.0, 0.0, 0.0, 0.0, 0.0, 0.0, 0.0, 0.0, 0.0, 0.0, 0.0, -35.648421126363374, -35.648421126363374, -23.636778854327773, 51.89632545273998, 55.967004179728576, 63.899741417124, -3.692583382023793, -11.38980617371034, 24.128864401077376, -39.782023476435114, -24.123321902943392, -91.52055645070003, -8.48689504598222, -51.844895474802954, -12.216462990522434, 15.668553798676157, -27.73622439934133, -51.589144602859804, -23.92441749177411, -15.92054810827877, 0.0, 0.0, 0.0, 0.0, 0.0, 0.0, 0.0, -27.734951496034643, 43.68743955122081, 103.24021023584407, 11.838636901765032, 47.82956209495065, 55.753767184388145, -71.32143807123428, -91.84932936801808, 103.19137947862129, -35.82450772752436, 71.73578171898008, -71.39707160837285, 75.21857492899414, -32.14049935383192, -55.543097509151984, -103.41205784472906, -52.034591799047995, -51.85330708399505, -51.54893892639169, -67.3882217425046, -27.700328850803896, -7.803637601372045, 0.0, 0.0, 0.0, 0.0, 0.0, 0.0, 3.9960740424355654, 103.13434964927406, -31.797096868727554, 12.110210970187644, 59.719651995266716, -47.51086834867662, 23.987257474003567, -31.653242761071144, -35.83049534085913, 143.3174023799825, 119.4372056703864, 48.25627859568942, -75.30359496934572, 8.447342975048404, 47.63616911160667, 27.715369233209714, -119.11165517998671, 47.46270811951932, -55.506458579966015, -71.39998937947736, -35.629221917490874, -7.803637601372045, 0.0, 0.0, 0.0, 0.0, 0.0, 19.88525878146283, -15.759065463559049, -15.86166001864185, -59.671634517983875, -8.037787180430346, -35.93984236276077, -51.797393878099825, -16.08359319798771, 16.022753797395385, -7.987530368112016, -63.23769972189482, -16.03813731875057, 23.593866520125463, 39.78162182501782, 111.08232871326003, -95.0291781234121, 47.49490325518925, 27.60870899152215, -23.8117627125067, -23.458157017119397, -27.735738440463, -23.838496778125386, -19.775427119638852, 0.0, 0.0, 0.0, 0.0, 35.774343698970455, 15.885258781462833, 55.59654170741581, 7.890255573502004, 59.21618208284107, 23.701458746950678, 3.865588546415637, 51.30949695702938, 11.789172025645648, 99.56437695119322, 103.12442263453664, -31.835831725088536, -56.1324388677676, 43.659751515093696, -111.49200919859176, 67.4885527250953, -107.29283406318054, -43.598345944411705, -23.869927317010383, -71.27785526557518, -3.9725381765412244, -67.72693040720556, -115.15439511044274, -67.37247798793744, 0.0, 0.0, 0.0, 0.0, 35.774343698970455, -11.99171971563007, 7.850068932222488, -75.35187203075421, -210.35362325004436, 51.86074736738853, 51.46780330681688, -4.204348509379899, 0.26371019141775154, -130.72963274400232, -71.1924723821997, 103.0440943357499, 7.861778978091487, -8.219167011106496, -87.74254843337, 0.18134428213264275, -27.997332421217237, 47.95119726177018, -27.98665175401372, 27.864662649362664, -7.988635868149254, -15.975983631768884, -162.8094904056318, -111.15003703459695, 0.0, 0.0, 0.0, -7.956258382557159, -35.809569174234106, -39.671762203797165, -31.62087131266288, 150.92057610522022, -31.95565013811355, 79.29685179368211, -79.61559285291219, -4.164963799882778, 75.62523768285129, -39.83386488545319, -39.81331215247561, 19.78268320432848, 43.69008212087857, 3.5363489798806826, -36.25180738227058, 131.53903252372825, 3.9236917097119974, 87.37071253233077, 12.04308030615864, 7.672799097557527, -15.850233239793265, -55.94240535170905, 23.550864400121245, -87.32835375980244, 0.0, 0.0, 0.0, -7.956258382557159, -35.809569174234106, -59.557020985259996, -91.04839218895323, 31.931866143616237, -28.192454045720115, -71.67676732489208, 51.58690487201733, -75.52140791803322, -3.910130606470455, 91.48730379995541, 83.65810941378216, -103.22306217367586, -32.23925932586555, -47.58978152727935, -15.873180514674, -99.61378552283314, -23.869820452397608, -43.782545385801576, 95.05656330911505, 11.566155513513639, -39.74361403168905, -47.431082291817035, 11.679928863944571, 11.889300989633389, 0.0, 0.0, 0.0, 0.0, -19.790615951090587, -71.36013739564748, 119.04757671434491, 35.447592452926735, -226.65962320472215, -67.8297486558269, -119.32490659415066, -135.40669134470681, -56.088310124936804, -64.2000663693195, -64.00902046012327, -99.80134411943507, -99.23920853471262, -7.942279654110828, -47.85784894681091, 103.48083678280328, -87.48286382689251, -59.34475974916337, -3.773120837726254, -16.40876351588247, 7.850649258479366, -16.081456342631604, 87.22095667966224, 122.96072116572792, 0.0, 0.0, 0.0, -19.790615951090587, -19.790615951090587, 19.779026956159434, -19.858291521629283, -91.63965450747716, -143.54475043718693, -159.20151086060227, -103.8413266509886, -40.12228335934468, -36.08178961548759, -91.77690446654283, -75.93459712563943, -55.47621644261222, 19.63508839492527, -40.1498721678289, -43.940401408151175, 27.35708307581973, 27.571022108839742, -23.806608848488498, -71.42277611510853, 71.25059422910611, -67.45819620513242, -59.70204089052591, 7.814754844229879, 99.16600346752229, 63.442961314143766, 0.0, 0.0, -19.790615951090587, -23.778651843413616, -55.46728467107327, -91.44646796913628, -8.398692615645796, -163.33582181170533, -40.10165646172522, 3.469358800988429, -123.26917926159891, -47.953419009680054, -8.217389340559354, 35.80008266286424, -155.34692876404074, -71.80710522504147, 32.01344537840782, -199.07604721553932, 16.24273959129656, -16.24910752592906, 23.80660288477726, 31.302715925217083, -31.559032144150525, 15.810329327646855, -32.07706368491981, -12.109500896394213, -3.8935312016218235, 63.442961314143766, 0.0, 0.0, -19.790615951090587, -19.790615951090587, -7.893400330403673, 63.33992799337701, -75.7744868901691, -0.663446559903436, -55.48232918265704, -59.98161806898746, -7.961356393818279, -151.1148163429001, -3.5197283823171377, 55.69880297640194, -63.3884356746759, -35.70099936658671, -43.85813583762709, -20.01616427631893, 31.85699430446446, 71.1685900640398, 63.546315131957634, -131.36957198938467, -186.8111473106163, -123.3372501301414, -51.47613792177825, 15.558330000453104, 0.11414174142956401, 67.4267936864328, 0.0, 0.0, 0.0, -19.790615951090587, 19.779026956159434, 59.36780052191886, 150.77724666209758, -8.163943662936887, 67.39229857338131, 91.35784160418677, 4.21226824688645, 115.56648654399831, 87.6077133883253, -83.56132114582141, 67.78133634261738, 59.61499956868637, -51.93451283377587, -47.73165954898877, 28.13288657832631, -31.84145999701938, -63.804796935847655, 95.15565698655605, 43.19850873128387, 11.767320995438496, -36.00264939014361, -15.826337054079382, 91.4300122871689, 71.52911667372044, 0.0, 0.0, 0.0, -19.85350705704163, 51.36924630817062, 3.8900295035231185, -3.701080158625765, 0.30700266236206364, 95.73342545920048, 59.77139663135752, -47.79303864623796, -31.760692894216948, -4.306297311653794, 35.855290965812245, -23.62818477696627, -15.768401647663076, 31.47858823650228, 51.702028946512094, -59.37177413768258, -43.651937557080345, -19.538985518518636, -19.916830667283605, -83.0868903524713, -63.75443777817147, -91.48948995993636, -19.799485313303144, 71.5594718598527, 71.52911667372044, 0.0, 0.0, 0.0, -19.85350705704163, -11.983701206953153, 59.556594417767116, 16.00240786305188, -15.853993902270386, -15.749505115594967, -27.735794372746994, -4.188304977542171, 35.89209351759858, 8.213266665680603, 131.09838963800752, 63.58237809017435, -47.58123899909646, 55.805329559671186, 47.79830438724583, -55.4866244959266, 11.972975103585071, 43.81123183246433, 3.663189973771148, 111.3502733645355, 131.20053958786104, 59.38397177854185, 71.5722500632841, 8.047011837287311, 31.821622116494925, 0.0, 0.0, 0.0, 0.0, -51.6444193905408, 8.202824854866972, 51.93582762806092, -35.71135827134466, -11.735379076827225, 75.65804227615845, -47.5924511865893, 127.3305840803868, 0.10851897082130701, 12.021103863686193, -4.131670559488179, -63.66267752674329, 75.41527363606971, 12.015785147948488, 71.77697255749322, -23.704746268393, -27.800488563786445, -12.003014095238928, -114.70776038243292, 99.60718011290135, 43.900668683861475, -3.618446645048029, 71.29784224075934, 31.821622116494925, -11.842384888643924, 0.0, 0.0, -7.932792820610414, -79.37640313413138, 51.79672558057122, 4.2329739460095945, 190.74227032589855, 83.64016449907339, 115.32692400445126, -35.87175148549672, 16.219819285876586, 79.44788674348462, 51.37574434013217, 71.09121785085931, 131.37379497284465, 31.622094036888736, 47.53718660322296, 15.94789458701434, -16.1622904347894, -44.07649659722266, 35.58212288257344, 103.29145994333267, -19.471266385271456, -71.4761394331886, 31.771360387290134, 67.29739768045845, 0.0, -11.842384888643924, 0.0, 0.0, -7.932792820610414, -107.11934683471327, -47.52041696685625, 20.26754343385095, 51.89222754553847, -146.94076313065216, 80.20137165308275, -19.955403831960368, -19.83032077290251, 83.66696822869923, 51.40506193894992, -15.907415491770518, -67.19109659249537, -43.62485654790654, -7.7889371049549085, -0.24889456275387722, -99.32042428221028, 146.8627658924525, 12.000636528769299, 79.52037042497594, 8.093001030004636, 163.08298593090566, 79.39240043661448, -7.8698103527252625, 0.0, 0.0, 0.0, 0.0, 7.948494701990677, -51.66749936040021, 35.56014277118461, -11.551305000195399, -7.984150953650105, -19.91739283526384, -23.905325494375752, 75.49466218031729, 35.87399014018215, 47.765299523852256, -79.67611204661044, 11.828257544022065, -4.571657922823558, -167.27241208650148, -47.890063024615415, 102.77248228941701, -11.722671702119719, -7.737605319507947, 0.06779305382100365, 95.89957576566516, 111.32760651502556, 43.99620148583377, -3.9361818076473893, 43.73856186767173, 4.0, 0.0, 0.0, 0.0, 0.0, -63.59255924383666, -24.157280256160888, -39.684219465839014, 3.866354097924253, 91.75631290894236, -8.125551844276437, 7.493789800014292, 59.61378624122085, -19.746282488146413, 39.66407672366239, 75.49214278747871, -63.96991822645557, 4.168812297120049, -7.758414111067045, -55.49656142866976, 162.86752152946454, 24.05413935264936, 23.987470157788305, 4.243747172736609, 40.12459687353465, 12.079657763299565, -11.830132688732451, 39.73856186767173, 15.980051860386903, 0.0, 0.0, 0.0, 0.0, -51.57716407702314, 15.775620585887303, -43.502300643927725, 43.81271248061204, 0.3139401748371471, -115.18697151869424, -16.33837772639845, -79.22170793715986, 31.51668401084469, -75.66516105372088, -123.23366674601667, -63.76300360809004, 55.17908209354514, -111.39006070071088, -31.791135219587286, 51.635434852298964, -79.28038787618387, -39.73918037264112, 7.850132269541192, 27.980591744828786, 19.933206692037057, -63.49783479941369, 11.980051860386903, 11.980051860386903, 0.0, 0.0, 0.0, 0.0, -23.719749469439606, -15.71235296395525, -3.8388543569594393, -3.803845707043708, 71.38271721015809, -55.77435909825632, -16.117451008163883, -44.17102818541385, -83.67341928034419, -4.321531305828434, 39.23948990195837, 31.63388942725663, 3.8898002696347795, 67.37952894262362, -107.00075237077147, 63.800806856151475, 103.4409094334814, 63.52158993491083, 83.31627243034659, 59.675093994931544, 8.0157484955083, -15.912986336850341, 0.0, 0.0, 0.0, 0.0, 0.0, 0.0, 0.0, 0.0, -87.16285855823263, -107.10708147603974, -95.39518871602102, -103.43012701813728, -79.5805772560831, -107.4222751611392, -79.57254014930206, -47.81381337560752, -63.564919648508024, -87.2370035952129, -119.1020179846288, -91.30441876295347, -8.054680948223062, 27.73903182902359, -31.821589020186785, -31.821589020186785, -35.80978756495834, -19.90102222917337, -15.912986336850341, -15.912986336850341, 0.0, 0.0, 0.0, 0.0, 0.0, 0.0, 0.0, 0.0, 0.0, -11.96018302948011, -11.96018302948011, -11.96018302948011, -3.9840637450199203, -3.9840637450199203, 0.0, -4.0, -4.0, -4.0, -31.8769784970929, -35.86501438941593, -3.988035892323031, -3.988035892323031, -3.988035892323031, -7.940605062283505, -7.940605062283505, 0.0, 0.0, 0.0, 0.0, 0.0, 0.0, 0.0, 0.0, 0.0, 0.0, 0.0, 0.0, 0.0, 0.0, 0.0, 0.0, 0.0, 0.0, 0.0, 0.0, 0.0, 0.0, 0.0, 0.0, 0.0, 0.0, 0.0, 0.0, 0.0, 0.0, 0.0, 0.0, 0.0, 0.0], "label": "2"}
{"weights": [0.0, 0.0, 0.0, 0.0, 0.0, 0.0, 0.0, 0.0, 0.0, 0.0, 0.0, 0.0, 0.0, 0.0, 0.0, 0.0, 0.0, 0.0, 0.0, 0.0, 0.0, 0.0, 0.0, 0.0, 0.0, 0.0, 0.0, 0.0, 0.0, 0.0, 0.0, 0.0, 0.0, 0.0, 0.0, 0.0, 0.0, 0.0, 0.0, 0.0, 0.0, 0.0, 0.0, -3.9761431411530817, -3.9761431411530817, -3.9761431411530817, 0.0, 0.0, 0.0, 0.0, 0.0, 0.0, 0.0, 0.0, 0.0, 0.0, 0.0, 0.0, 0.0, 0.0, 0.0, 0.0, 0.0, 0.0, 0.0, 0.0, 0.0, -19.85374764708642, -23.779164722650698, -23.779164722650698, -23.779164722650698, -23.829890788239503, -7.976143141153082, -31.86883782082778, -23.8926946796747, 0.0, 0.0, 0.0, 0.0, 0.0, 0.0, 0.0, 0.0, 0.0, 0.0, 0.0, 0.0, 0.0, 0.0, 0.0, 0.0, -7.952569169960475, -7.952569169960475, -15.916890279970385, -31.809813055527776, -27.93587607406709, -23.896972039621456, 11.84925176238433, -0.028437459327336434, 39.78147788864522, -31.7820467725366, -47.70274073837289, -79.47023238621927, -7.9255357489694855, -11.905910281392723, 31.80569903243522, -3.9408866995073892, 0.0, 0.0, 0.0, 0.0, 0.0, 0.0, 0.0, 0.0, 0.0, 11.842277344260866, -3.9254170755642788, -19.842244209782717, 0.0348281770588148, -19.869846538548014, -12.043113639819833, 11.968360169994483, 43.82977756079805, -11.893617022078377, -47.562488858174625, -51.757953991527515, -3.8147823370584106, 15.992536442918016, -28.139674455040275, -27.754240001337422, 12.082394678454698, -3.948548610578718, -7.842894694942687, 0.2122202475269157, 4.0, 4.0, 0.0, 0.0, 0.0, 0.0, 0.0, 0.0, 0.0, 0.0, -15.83834236460013, 39.75764168498199, 23.837188576897507, -59.510463217076556, -4.059488169786064, -75.50468172418087, -31.751079259632448, -59.67929178829199, -3.7754153304590075, -3.97217009130667, 11.984126309569266, 35.72773518171275, -8.007051776713062, -19.750381711026783, 119.39808239461168, -27.451812746015875, 8.034983973165097, -63.42793600339133, 3.955955777261181, -3.937085640513089, 0.0, 0.0, 0.0, 0.0, 0.0, 0.0, 0.0, 0.0, -23.818441867087692, -11.87445977508063, -27.794912883165114, -35.64547779582916, -19.988443123490008, 31.608252843062548, -39.795138380117905, -39.783333890056255, -19.932886593519726, -11.894413245986755, -43.66459147103909, -71.7004218976584, -23.933295112812356, -27.960664551753368, 63.49860716251444, -39.77336977704832, 39.76992162584204, -35.779464025217514, -55.75423644413622, -23.85753860631104, -39.742783890735076, 0.0, 0.0, 0.0, 0.0, 0.0, 0.0, 0.0, -87.37941710865586, -59.61711279516603, -43.74715105293046, -75.38761696022445, -87.57646846096831, -8.024970451467276, -67.89704180489775, -71.73892113724678, -47.844638620802804, -15.835057939811026, -31.626339369007777, -87.65611529098324, -7.999990580904854, 35.794747020994514, -23.908347794235937, -0.1294109589813992, 0.06208545559072132, -31.81944115042769, -0.04426457410846352, -67.58843875774691, -19.861709837721833, -3.9408866995073892, 0.0, 0.0, 0.0, 0.0, 0.0, 0.0, -83.45382787897131, -24.01496152957857, -19.845730562229235, 27.742832314088005, -16.00775832265577, -35.68550442443692, 39.79371980362982, 39.73476666046114, -20.116933190466302, 43.773563598197214, 3.923838034491096, 7.9167154403743725, -79.40479503558653, 39.77291866199671, -27.743936790139095, -35.89713016144536, -20.00424676375222, 23.69906563100487, -31.85385190907182, -19.893455869467864, -11.893455869467864, -3.9408866995073892, 0.0, 0.0, -11.972115470551435, 0.0, 0.0, -11.976103498491558, -71.5763258545284, -23.99923118664912, -71.5288091513547, 31.691747557271945, -27.889646125460565, -31.70767914475182, 8.176753877187917, -95.32821761366698, 7.704328477515401, 36.14093799703332, -15.805976362272474, -4.062589461579427, 11.975156639832978, 3.8383409572301668, -99.49303820170692, -32.0184221733146, -23.728604460308134, -55.6677853196568, -23.912965209564433, -7.952569169960475, -4.0, 0.0, 0.0, 0.0, 0.0, 0.0, 0.0, -11.976103498491558, -31.770465857146217, -19.955725848831086, -15.93653901836179, -11.956073643332173, 31.75450005945574, -51.71924600628619, 12.164126585381634, 11.69560050147221, 11.959575258578749, 40.05879193679187, 35.89051269051139, 35.727501125750166, 7.920943582200191, 7.7601898341663125, -31.986852551753284, -27.83744539625383, -8.070953053338247, -4.0, -11.96039603960396, -4.0, 43.706729901670435, 0.0, 0.0, 0.0, 0.0, 0.0, -39.66021159200206, -51.63631509049362, -63.47422991316016, -0.027560476743373474, 15.877481071279316, -23.735109302915866, -47.727027288609555, 11.696087322992177, -12.200448565858864, -63.50410827836545, -3.979521831424517, 39.8189610400244, 36.01144850853882, 83.50185518918074, -35.89701800836652, 19.570297396452887, -12.360304782887475, -75.63988356483527, -0.01954932388485009, -8.0, -7.96039603960396, -4.0, 43.706729901670435, 0.0, 0.0, 0.0, 0.0, 0.0, 0.0, -43.65621558800605, -59.4941304106726, 91.3587873603381, 43.7466695560817, -31.759102544009423, -4.059291367851054, -83.61632699784164, -43.87782520111948, -15.643139381723135, 67.4823359235987, 79.38110002764347, 67.64773622452007, -39.867514723681225, -3.9212041474244224, 87.22562228059556, 23.530748419485917, -71.70352307219976, -31.80672296113641, -4.0, -4.0, -4.0, 0.0, 0.0, 0.0, 0.0, 0.0, 0.0, 0.0, 0.0, 39.73097644231554, 95.26089640988246, 51.48297316114804, 31.644993801114506, 39.41939137171526, -63.939430412451635, -67.59319472909459, -27.72679047141841, 87.60594143544922, 35.94919628533804, 35.82963923635437, 91.50579857659693, 11.814191212837418, 11.864724773199747, -99.42664112399149, -59.695634506899765, -59.65584943788271, -11.948431931926992, -3.988035892323031, 0.0, 0.0, 0.0, 0.0, 0.0, 0.0, 0.0, 0.0, 0.0, 39.73097644231554, 15.873740017817472, -71.51285177651754, -39.99893495508233, -51.99469363257812, -24.30621695242369, -12.07481964157654, 47.77055674551316, 0.08039987454276787, 12.055900575535034, 0.2722536368080517, -7.695193238362642, 7.916029119790164, -0.3202415654673514, -59.60111959800934, 11.814619675546538, 7.803337036354929, -7.948431931926992, -3.988035892323031, -3.988035892323031, 43.64049940542425, 43.64049940542425, 0.0, 0.0, 0.0, 0.0, 0.0, -4.0, -11.861771681513462, -39.750565264407754, -43.64797022216622, 15.743213840500399, -39.9200136987383, -95.74164251038592, 27.473291155335282, 19.925437990222765, 31.842314991625184, 39.8500227000057, 31.905794620580426, 47.72713511113861, -27.886742251615736, 4.010435111280989, -87.4977693907588, -31.818182927535624, 3.8623331583431764, -11.948431931926992, -7.9880358923230315, 0.0, 0.0, 0.0, 0.0, 0.0, 0.0, 0.0, 0.0, -4.0, -7.9643211100099105, -39.624489883611915, -31.691735696301954, 7.767070699347316, 27.463442472565728, -16.157497647867043, -8.057529171011605, 11.760648674534956, 39.97206166794366, -3.7222670071438593, 35.77880291173148, -31.93778040640943, 27.46549690958688, -55.62563659504457, -24.066877606896426, -79.38001708619012, -51.679541888990585, -11.988035892323031, -7.96039603960396, -4.0, -4.0, 0.0, 0.0, 0.0, 0.0, 0.0, 0.0, -4.0, -11.846040089755599, -23.8460400897556, -27.70781177126906, 51.57352001036314, -40.041995810176815, -8.223411249760716, -87.3633072976254, -63.847618816390685, 8.14894886585677, 47.57451592914944, -63.741933188469694, -55.65642101652811, -55.68065172640029, -47.64825508398538, 23.680202974668767, -47.6681719243472, -43.65655836985567, -19.936357742758187, -23.896753782362147, -15.964163105220948, -4.0, 0.0, 0.0, 0.0, 0.0, 0.0, -11.83060206850503, -15.83060206850503, -51.75043808484356, 15.908120641954362, -51.656235918447045, -12.254976577426117, -59.96603510088278, -20.177450678923517, -23.810010328929625, -11.855039917835438, 47.81360910577361, 71.627728309201, -19.96776423331847, -75.40776473241726, 27.635962301432272, -51.58908456182565, 35.74685861819587, 51.71778057679944, -47.63680040508724, -51.766063627279685, -35.80973452526177, -3.9840747684630315, -3.952569169960474, 0.0, 51.54559615206434, 0.0, 0.0, -3.937007874015748, -15.767609942520778, -19.767609942520778, -63.58104015334859, -111.35950580833443, -135.2679133734908, -83.48146002696623, 31.605895167078682, 59.38688699876638, -47.580394969963585, 51.6484551511562, 35.85793447663043, -23.863859020296918, 31.833053525503455, -51.54988307372203, -91.42332460472431, 63.66664799896325, 79.46881827727447, 47.549532788406786, -0.047006470369132636, -8.038869915304321, -0.12563294663720814, 35.73920901135184, 47.6835569104326, 0.0, 51.54559615206434, 0.0, 0.0, -3.937007874015748, 31.884392015054274, 23.92418512888127, -31.818268924026157, -4.161968224502922, 39.73003385830263, -27.90048641605495, -12.097919472920868, 75.47264799465205, 7.685741483971522, -23.67261306273422, 3.7871818332241745, 23.750890481578946, 20.105326269313675, 67.51302053199254, -67.60566707093497, 19.94760178755669, -23.830432047466584, -35.78288309758248, 23.877314414549705, -19.834412854167926, -15.940880045819682, 23.786639841391366, 115.07474097309922, 0.0, 0.0, 0.0, 0.0, 0.0, 35.82139988907002, 19.963789089277313, -27.712066071130526, 123.05059160468304, 0.13765973646746943, -19.688029514942674, 51.58141356864901, -39.98338143602032, -27.945087041660624, -28.019230484874406, -23.99668550527662, -51.69488445359511, -12.109553088390868, 35.53806318969559, 4.141837331485873, -71.32900260745153, -35.84617588209391, 27.682960540090747, 47.623647847723205, 0.018767951653123838, -23.909216442528162, 79.3553677646553, 63.438614892706156, 0.0, 0.0, 0.0, 0.0, 0.0, 35.82139988907002, 31.861003849466066, -19.653194816584943, 51.837253299671325, 47.99074955818976, -67.41788217397418, -15.95175367073529, -39.92782111642403, -23.77239344764861, 43.69515612215469, -24.03079101716758, 55.49084652958521, -51.80562412277902, -39.829464915430144, -7.924417452277905, 7.906160465715701, -51.715317212952264, 11.825517334680345, 51.63910054619345, 15.848762545202366, 27.726748790727115, 63.438614892706156, 71.39118406266662, 0.0, 0.0, 0.0, 0.0, 0.0, 0.0, -59.45917677281876, -31.503092347530348, -15.888736471067238, -15.93211372556549, -19.853509501911205, 15.571067271928229, 15.87731193910001, -35.871484180669796, -4.341440542121897, -39.861452109284905, 47.71415312872508, 8.09255832496202, 8.059259089086868, 71.69457662842616, 59.7859924609963, 31.833116839997682, 12.050272224088129, -35.629113473563244, -39.63728317754331, -35.711866101979034, 0.0, 0.0, 0.0, 0.0, 0.0, 0.0, 0.0, 0.0, -51.62457870031772, -27.704102231429353, 4.055227510862601, -35.69940224247695, -31.916345217637037, -75.54915410901862, 7.771307796867539, -12.01956150212477, -75.67019332055796, 31.542762198318417, -39.73169919095112, 0.015268177722512988, -19.685195254201286, -19.712167046383634, 23.928619218323995, 8.035351702036793, 0.047284237588764544, -51.58076878484051, -3.9486673247778876, -3.9486673247778876, -3.9486673247778876, 0.0, 0.0, 0.0, 0.0, 0.0, 0.0, 0.0, -7.916967813079646, -7.916967813079646, -11.912971809083642, -19.90498777714751, -16.046549196916935, -55.6317278634389, -91.54815315863519, -59.809542253992035, -71.78953333139495, -75.56868638756828, -119.17744763919698, -91.37931044863264, -71.49411364103658, -27.872786607887427, -15.892758391187794, -11.928437281177883, -3.9721946375372394, 0.0, 0.0, 0.0, 0.0, 0.0, 0.0, 0.0, 0.0, 0.0, 0.0, 0.0, -7.916967813079646, -7.916967813079646, -11.912971809083642, -23.872943999854744, -43.65182413191099, -43.65182413191099, -27.802523980779313, -23.944309824644865, -35.88499311748662, -23.88120191509559, -31.766877113889226, -23.826193821047468, -11.881679194797632, -7.956242643640644, -7.956242643640644, -11.928437281177883, -3.9721946375372394, 0.0, 0.0, 0.0, 0.0, 0.0, 0.0, 0.0, 0.0, 0.0, 0.0, 0.0, 0.0, 0.0, 0.0, 0.0, 0.0, 0.0, 0.0, 0.0, 0.0, 0.0, 0.0, 0.0, 0.0, -3.9800995024875623, -7.956242643640644, -7.956242643640644, 0.0, 0.0, 0.0, 0.0, 0.0, 0.0, 0.0, 0.0], "label": "1"}
{"weights": [0.0, 0.0, 0.0, 0.0, 0.0, 0.0, 0.0, 0.0, 0.0, 0.0, 0.0, 0.0, 0.0, 0.0, 0.0, 0.0, 0.0, 0.0, 0.0, 0.0, 0.0, 0.0, 0.0, 0.0, 0.0, 0.0, 0.0, 0.0, 0.0, 0.0, 0.0, 0.0, 0.0, 0.0, 0.0, 0.0, 0.0, 0.0, 0.0, 0.0, 0.0, 0.0, 0.0, 0.0, 0.0, 0.0, 0.0, -3.996003996003996, -3.996003996003996, -3.996003996003996, 0.0, 0.0, 0.0, 0.0, 0.0, 0.0, 0.0, 0.0, 0.0, 0.0, 0.0, 0.0, 0.0, 0.0, 0.0, 0.0, 0.0, 0.0, -3.996003996003996, -3.996003996003996, -15.980067741023916, -19.92484091656632, -39.6915766380009, -39.7468034624585, -39.79808848257866, -35.82983451432469, -3.996003996003996, -3.996003996003996, 0.0, 0.0, 0.0, 0.0, 0.0, 0.0, 0.0, 0.0, 0.0, 0.0, 0.0, 0.0, 0.0, 0.0, 0.0, 0.0, 0.0, -7.948384855029831, -63.387701307562935, -75.37176505258287, -23.920844912570317, -39.72729476943189, -47.69157663800091, -67.60453833944025, -51.74286165812107, -55.72696469220005, -15.948360998336938, -7.952357002332942, 0.0, 0.0, 0.0, 0.0, 0.0, 0.0, 0.0, 0.0, 0.0, 0.0, 0.0, 0.0, 0.0, -11.932558447010598, -11.932558447010598, -59.380359525673, 19.90859178397848, 55.55711395964472, -7.799412178757934, -114.91471752400975, -103.30852909805664, -91.80872337626289, -71.93496673496111, -139.4163997188138, -139.2323166835138, -155.0980854522528, -95.32763880745844, -47.545170641663596, -51.486249971317505, -39.59281363933065, 0.0, 0.0, 0.0, 0.0, 0.0, 0.0, 0.0, 0.0, -4.0, -4.0, -19.988019964067867, -67.33797381621343, -99.21464992205968, -115.02516268242115, -158.58710603609396, 39.6116261193137, 51.452904646856524, -111.30964204256915, -64.05663481936959, -71.59366474725658, -174.7573571281193, 3.3023714975483474, -115.56107000822722, -83.88028625885363, 23.346108324777994, -178.83680097124082, -111.18949772254201, -31.82600121102147, -19.909107511358698, -7.937007874015748, 0.0, 0.0, 0.0, 0.0, 0.0, -4.0, -12.0, -119.2605031281879, -95.80047365343559, -115.34502171439873, -35.70248376576824, -8.004737072862856, 67.63970881849794, 43.676100212241, 0.1454878417782952, 155.0850514419439, -7.7342321268067105, 35.981529713912714, 79.53353959278391, 103.50863312087061, 4.000724449429413, 31.78977747655902, 0.12105115951907575, -131.31455639179063, -254.39111959731463, -95.68396102019352, -99.48654089334948, -95.39982665350855, -7.996003996003996, -4.0, 0.0, 0.0, 0.0, -15.932731069797807, -71.52975321774296, -47.9433732000536, -147.35480796570184, 31.461825041647547, -51.882693615858905, -55.8041355749211, 19.949648456200837, -87.79083013682367, -11.47052026588334, 43.576445455307606, 175.4010381390266, 199.1636925471152, 123.54856436575294, -19.31796926764853, -24.293155915339497, -51.335094218397145, 71.35862563339677, 19.753562690571314, -95.47395837834316, -0.3020620715642721, -107.69427978153092, -131.26032997122977, -51.74639705114348, -4.0, 0.0, 0.0, 0.0, -15.932731069797807, -43.90087651982712, -83.77302302968923, -20.04386331189787, -39.97649837343003, -87.63976689543061, 39.45503679068009, -51.69977830585789, -4.040534431103493, 95.21494795305337, 59.88946204684264, 87.66010883821478, -43.573223435724344, -7.921423147350681, 84.0711356474686, -51.25878377258597, -55.72330126249111, -0.14596546713817649, 3.8048685536601266, -39.99851604567621, -71.95650343305518, -147.30772995489536, -107.33177550427102, -51.74639705114348, 0.0, 0.0, 0.0, -23.78664491310157, -15.932731069797807, -32.094316969107155, -27.892183951549363, -4.133356718554169, -63.536898028635086, -16.094758324698294, -31.99173113551537, 43.61121335884318, 11.96407216722179, -35.51999408611934, -60.1059269697213, 27.992175389478824, -67.8939314156691, 3.4407479521367943, -79.89966786450195, -4.533616370819854, -27.791234516593967, -139.0597836411775, -59.88437001159379, -39.878049416635776, -32.082704067025304, -147.16554313688718, -91.39527596617552, -19.88538539750206, 0.0, 0.0, 0.0, -27.79024127213638, -75.5840997864722, -111.42695470271397, 103.21644372417889, -31.85728990842936, -24.109197705812765, -23.68796229342663, 131.33449616203043, -59.571773917969, 0.11939889393253633, -31.861815626379364, 31.644257985888597, 11.880960204475244, -47.70328972905671, 55.2896134535879, -91.41562722110197, 23.692991564302023, 44.17225945381409, -16.157892626844006, -32.11418829964935, 52.13000606161073, -23.818715125822973, -127.04397340960239, -19.88538539750206, 0.0, 0.0, 0.0, 0.0, -39.762388409293465, -107.34708081367245, -35.94788312764681, 135.14982941921332, 115.02248891990521, -43.44369023267768, 16.201157670741285, 23.751737512838336, 3.9574429186269224, 47.77420698154278, -16.00786747152026, -75.7586859278589, 19.61338274774936, -0.24849312828590264, -63.23907950403265, 111.45356820974803, -12.058304526363859, 55.706955249819806, 59.184618924582225, 87.77807372557999, 20.066111278693267, -43.78219071426074, -71.59613162934566, 11.77527259498201, -3.996003996003996, -3.996003996003996, 0.0, 0.0, -35.762388409293465, -75.34861163285906, -19.897631279411364, 24.047572759323085, 28.03386799127911, 131.2192096394298, -7.8905453821163265, 71.38054543887908, 99.23889179818121, -4.114339129214728, 71.47356910437193, -75.49869735570192, 23.8606484735549, 28.007615656352215, -31.80938411332448, 19.889505306346706, -39.9962283795428, 20.023189254506704, 67.19566932029679, 103.18372128041413, -0.003941225900107703, -79.40687157109046, -27.759015168539097, -51.557692118282375, -3.996003996003996, -3.996003996003996, 0.0, 0.0, 0.0, -35.640608187716644, -35.87190025323797, 67.65715700216481, 67.95896788137344, 107.53792664047549, 51.52732070491606, 8.149639815331437, -47.816369006040695, 27.4518948675232, 67.57095277679807, 59.497573485950724, 87.5502364025456, 19.489798954764147, -0.3388229572724324, -47.71947737452103, -20.01177637987645, -7.531447631615866, 15.853875974732063, -107.0959238944723, 99.1417553300456, -79.54152599199102, -63.50992233756418, -63.47069415985969, 4.0, 0.0, 0.0, 0.0, 0.0, -11.78749959607578, -75.72076981072111, -63.144092509971394, -47.560798575833275, 31.923832433194438, -55.82253258322874, 67.65514980099499, -3.9306546249786347, 36.01818693161091, 63.485866101174246, -0.18838274807328936, 91.36263701897633, -27.936989382753033, -55.6534271215015, 95.64571862386056, -19.837013152188696, -43.36842572449856, 15.660131139342152, 23.70829704920984, 59.642663272690314, -51.62126753700626, -130.88204845027295, -47.569578656493, 4.0, 0.0, 0.0, 0.0, 0.0, 0.011652427298060708, 51.26283355323373, 51.25846607541781, 59.48870303897435, -122.9338765126206, 39.647926202979534, 79.64703732964048, -31.554352534425664, 11.959729585823375, -20.08525395819329, 28.256428473377294, -36.01035217173168, -28.197274149428825, 15.604407578786262, 12.372395465130563, 19.961076743978257, -91.15089273486699, -15.792252423258681, -87.4189670853675, 39.64349131323967, -79.68326104402504, -170.74725026551178, 0.0, 0.12597011580972772, 0.0, 0.0, 0.0, 0.0, -11.976353794878463, 39.71582882875092, -79.59057868540742, 3.724487734741599, 47.4464088393609, -91.14261095967943, 39.82115543727123, 11.961611759719151, 16.21075127969721, -4.239648444874594, -111.60046979403904, -48.116317756894894, -15.72527155723175, 43.82234233053318, -75.66423732560207, 55.21215189427155, 31.82445683446061, -131.0416209899906, 86.88763076471159, -127.53923618447116, -151.0189852137996, -59.758266249423755, 4.0, -7.854129386677835, 0.0, 0.0, 0.0, 0.0, -7.9443357726549015, -75.33951476259367, 110.97382067657999, -12.108947373969311, 4.191697567491219, 11.964543038137425, -11.938121823796454, 83.45795505425976, 143.1794121201829, -131.03274606366196, 51.68282779748128, -20.00393381743549, 51.94265633553208, -119.38085703477056, 103.2143571180204, -91.28859024885618, -19.75060658078774, -8.288746357990714, -8.103060120761228, -135.33840057354914, -147.1840328674239, -79.58821905711068, -15.881631378490185, -15.80669855663831, 0.0, 0.0, 0.0, -15.92468464051191, -15.865805075422099, -107.12592697786609, -35.9308820832691, 11.763850527606568, -47.54953919897701, 87.6384208794321, -43.84186784383242, 19.78071378586342, -67.0778459657726, 7.80306678529939, -75.26561841318515, 83.57985969449285, -63.562301157694485, 95.53994589369248, -79.46442554643868, 63.30495032228661, 24.11363329405944, -51.69268646575447, -107.50506895609877, -32.11732813403133, -52.01001011405247, -39.75472356496308, -15.881631378490185, -15.80669855663831, 0.0, 0.0, 0.0, -15.92468464051191, -15.865805075422099, -67.48263422896052, 35.479089430039295, -4.23215331579702, 39.694967808738994, 63.51482830935989, -178.7003369018051, 71.38766616904961, 102.90174276113963, -83.24719878767984, -47.554876568243124, -111.7742001627726, -55.63093028143812, -27.838811795619577, 3.674142576194215, -91.27334318010215, 23.79116546231891, 27.482079711376656, -75.67660576314191, -39.727241140001404, -0.3033592697956955, 83.38288434758415, -3.933136676499508, 0.0, 0.0, 0.0, 0.0, 0.0, 15.897159579754886, -83.37172616223991, -170.6850994019757, 118.72819421619309, -11.955997805006035, -71.49009904199166, -4.421090915727931, -99.59238909094228, -119.74208559459555, -39.92000765578949, 71.17112790291058, 11.789264512334654, -143.11959071580006, -43.55479601607724, 31.76924683907927, -83.58127845257795, -83.23764724556912, 110.88240283093224, 3.723133271498857, -3.963362377913173, -4.137818507798834, 103.20928890161672, 0.0, 0.0, 0.0, 0.0, 0.0, 0.0, -15.893126646283937, -19.84967567522905, -91.21080982798811, 15.821444018028064, 71.30355967666718, -51.699233012535, -67.7295398116541, 67.01744640592666, -16.17325206550995, -20.011961972603515, -43.90156981684715, 0.1596320599152934, 23.682472682823906, -71.59749725784145, -179.10122758805267, -55.78166826912623, -11.818299898006938, -11.984238720586106, -103.13121274986169, 7.945323315050806, -4.125603779267023, 75.4111352313579, -27.798153670258863, 0.0, 0.0, 0.0, 0.0, 0.0, -11.89308793727536, -27.786214583559296, -107.08752369876153, 71.51999636993018, -19.905779013624816, -31.916576681008618, -71.39838826658352, -4.189623170159753, 27.62806686507374, 67.13620589849299, -63.46210814845319, 27.56044956566985, -35.593094122536456, -111.03803470149018, -24.266645905440363, 102.926149655446, -19.707294268745994, -75.55625133699365, -35.55851112012522, -111.00849355404237, -67.45006451351408, 4.130195763184021, -27.798153670258863, 0.0, 0.0, 0.0, 0.0, 0.0, -11.89308793727536, 27.735765266749777, -35.735855941227975, -190.44389856891664, 111.08280652765048, 95.05167380357287, -0.30784267330915416, -23.901976652923462, -123.76044580139273, 19.948737388524968, -35.98412913266271, -95.39246076261306, 63.24293540546342, -24.26317896142951, 51.09204857026586, 63.38745070482624, -91.48876252917802, -16.14414770049405, 39.97491397723606, 39.778781307055255, 79.36419269653501, 51.67580966625909, 0.0, 0.0, 0.0, 0.0, 0.0, 0.0, -7.912965209564435, 19.865277927842993, -7.823122589558601, -15.908551230567344, -47.817133860637696, -31.841834444864197, 27.40545413753241, -23.972720830044363, -130.96481502724217, -59.323474615134245, -107.49294137036722, -91.50688457233052, 3.679671495425298, -83.56252294433712, -135.25972324782592, -63.69951817890095, 71.29813923288683, -75.63888662785357, -3.818603194026174, 222.28114833964602, 115.05201593245593, 4.055117296496606, 0.0, 0.0, 0.0, 0.0, 0.0, 0.0, -7.912965209564435, 0.007708718556649341, -43.54966698940327, 75.22609247336685, -150.87670230110825, 39.92650756789063, -95.43612117531248, 79.56898183820319, 0.0944988171423633, 75.45858551958094, 31.74827558229866, -51.861054843948736, -0.20460329571279878, -47.595302796080155, 67.75491996501175, 71.63836124717739, 63.51901829923644, -23.749847272936076, 91.45410828023523, 242.11489460432185, 83.2186761563679, 43.7155084357106, 0.0, 0.0, 0.0, 0.0, 0.0, 0.0, 15.912689896184956, 31.645274629751743, 35.491564553333745, -8.161080939059861, -35.81883486625114, 27.94654832807759, 15.818862768771417, 67.04143969564585, 15.335495092120269, 43.53149487280382, 107.4503745745613, 71.45544037448077, 0.13393035783921103, 55.41832982192941, 51.43189632945375, -19.73856105454425, -118.90581478156416, -27.72729748126463, -23.594631341385842, 0.16478352306125021, 59.443071181969884, 0.0, 0.0, 0.0, 0.0, 0.0, 0.0, 0.0, 0.0, 0.0, -67.35625120678786, -71.35625120678786, -4.0, -4.0, -15.83001827544827, -23.786276658005427, -43.698997190840366, -31.703632107990316, -27.73927171441572, -31.70727839210245, -0.16501857861253466, -0.2242571454166109, -63.58046475279057, 8.019539626495396, 23.826084483551263, 3.9447731755424065, -75.2617019224074, -75.2617019224074, 0.0, 0.0, 0.0, 0.0, 0.0], "label": "9"}
{"weights": [0.0, 0.0, 0.0, 0.0, 0.0, 0.0, 0.0, 0.0, 0.0, 0.0, 0.0, 0.0, 0.0, 0.0, 0.0, 0.0, 0.0, 0.0, 0.0, 0.0, 0.0, 0.0, 0.0, 0.0, 0.0, 0.0, 0.0, 0.0, 0.0, 0.0, 0.0, 0.0, 0.0, 0.0, 0.0, 0.0, 0.0, 0.0, 0.0, 0.0, 0.0, 0.0, 0.0, 0.0, 0.0, 0.0, 0.0, 0.0, 0.0, 0.0, 0.0, 0.0, 0.0, 0.0, 0.0, 0.0, 0.0, 0.0, 0.0, 0.0, 0.0, 0.0, 0.0, -3.988035892323031, -3.988035892323031, -3.988035892323031, -3.988035892323031, -3.988035892323031, -3.988035892323031, 0.0, 0.0, -3.9761431411530817, -11.932621875079887, -27.712061476719235, -19.77943960163935, 0.0, 0.0, 0.0, 0.0, 0.0, 0.0, 0.0, 0.0, 0.0, 0.0, 0.0, 0.0, 0.0, 0.0, -7.968198633541236, -7.968198633541236, -23.9086465335321, -63.49801380912414, -31.656125800840574, -31.608750305513777, -4.129948309973069, 11.801478616062578, 7.730815490725829, -23.885749080424564, -35.703972899402416, 12.018951040529313, 71.36476844899745, 12.0471321783803, 43.87330039174071, 8.090812257401446, 31.715876817693875, -11.960206886173001, 0.0, 0.0, 0.0, 0.0, 0.0, 0.0, 0.0, 0.0, 0.0, -39.57776659494953, 35.715462119329764, 7.937271111651516, 51.64972250264912, 23.972599821667842, -79.48123255876072, 19.933776048749532, -67.66653301640848, 15.728788630637172, -4.251486302934013, -75.4927112514486, 11.845456411773132, 23.75919100931733, -0.05441847704445113, -39.835844568532146, 35.49015059521349, -115.61873861631462, -67.92026258229299, -4.098857960443039, -59.546265957726675, -11.996003996003996, -4.0, 0.0, 0.0, 0.0, 0.0, 0.0, 55.58086878881556, 47.6283875834448, 7.948863006645191, 35.81937248046414, -7.821523725643737, -27.74374066635324, 75.32865289266527, 47.417650913054835, -35.99612518129899, 71.72039227935612, -126.80710370888643, -24.17025434339299, 51.77682019645677, -138.96477416597975, -11.961120851201002, 4.08574611022537, -119.51746029885865, -83.95512990428182, -151.33170971163665, -44.11089956257826, -75.56240836204799, -23.920852888626197, -8.0, 0.0, 0.0, 0.0, 0.0, 0.0, 83.48503612579457, 35.888464888712114, 36.16972780013626, 95.53686389600254, -35.619289239360945, 106.820602943601, -86.98224623486068, 107.29262403237176, 43.826503849943904, 55.70901003980142, 83.28662577123957, 12.294388506947797, -15.677372667319318, 8.263304711697959, -19.55783747123425, -95.46203148269831, -35.99573241071833, 23.84957018955269, -35.57801986980623, -7.997866754875937, -135.21190381606658, -103.32379569414636, -59.54123392864569, 0.0, 0.0, 0.0, 0.0, -3.9761431411530817, 75.52092052038775, 111.19787246087265, -71.43841704592282, 24.014216536562046, -31.661677607314797, 59.3680599569594, 12.052080726675925, -79.5252735624115, -91.03847357816149, 99.31266538239252, -59.620228555656595, 0.2169581624736363, 4.092036719158558, -95.43251506017278, 83.17525225597865, 87.64658842474708, -11.888269719840565, -63.619987826855684, -51.578587006744456, -39.68903247959369, -12.123612005265024, -123.20946291688412, -75.43078795293098, 0.0, 0.0, 0.0, -4.0, -31.77435140322789, 83.49739251578215, 162.7985784041721, 39.66805527545734, 36.065518299429804, -91.75469039240767, -103.60661033697589, -35.94290715990117, 103.19688496476387, -16.072719120578856, -119.54439606858182, -55.68972115276489, -4.019650773537505, -35.9115831565956, 75.3015520730769, 15.946052889343559, -59.7341411427974, 27.98740750037507, 47.67704061638153, -27.824832717669118, -12.243000922719425, -43.84929664089266, -210.65517436219946, -55.675710346434194, 0.0, 0.0, 0.0, -8.0, -31.833674984437366, 47.6801007025431, 0.08380368340146482, -67.28113444193211, 202.7109153887736, -19.581507797195123, 63.37844229124659, -3.907964591576178, -91.38036213804114, 27.430941331821487, -0.1288625793170235, 43.84735360596315, -0.09021373468523652, 16.075213331114785, -23.671469272185806, 16.137739097809042, 35.767350008572876, -63.48162586711302, 67.63639309779383, -23.85053376754885, -24.05480951224262, -83.70195445005787, -174.64063572040016, -43.67542280117013, 0.0, 0.0, 0.0, -4.0, -19.845639092114332, -15.801524164189477, -19.798563750424396, -27.653942476716608, 31.624756886575444, -35.95390449482744, -24.097194863292682, -131.443732241856, -119.44408432594899, -91.62932538478832, -99.35315203258692, -63.50288746726047, 63.207049344742806, -16.23669158973317, 99.51674468968159, -23.443539462653174, 59.27467368324264, 19.787052933055598, 107.67677923839639, 0.28738017273203287, 55.80015627634062, 27.459403424497115, -91.07214753293755, -67.44657311659104, 0.0, 0.0, 0.0, -4.0, -23.798208262074805, -35.7464628335388, -16.046417969821867, -71.48284939814637, -107.20615466478455, -23.802535044322138, 54.992125339157624, -63.7308869121105, -48.38502804886136, -28.10606738240997, -12.363014399420528, 39.49677361421738, 59.562063008266506, -11.630726021032203, 71.81299009618913, -20.13057316697413, -35.904969783126894, 51.594105290946445, -31.674298756649566, -23.93922058580526, -24.142287433617955, -59.93040012322524, -47.561193000158056, -59.47447347924808, 0.0, 0.0, 0.0, 0.0, -39.68724567920227, -39.68724567920227, -67.40726929780753, -87.12887003583668, -71.53097915878949, 3.6165756310173194, 7.685111290671412, -84.13333783491605, -139.28531278264506, 71.98099725172207, 24.011244679891394, -16.066294422303553, 0.5311493868790773, -47.87444093227702, 75.30667704055416, -35.76584234917622, 115.29858716767711, -79.64710028004956, -31.65172457218919, -99.89587411966203, -111.35511577514772, -47.919422574213044, -15.818265875934834, 0.0, 0.0, 0.0, 0.0, 0.0, -15.889037417127463, -0.12132011328743797, -55.62444777272431, -95.42333863089279, 35.293400143613034, -12.11119986059801, -36.19530127705068, -23.397177625377022, 95.15443873352103, 0.8057384698511516, -7.499505883551478, 59.49836480514189, 87.51822131502472, 8.0324296620852, -94.99640000683569, 103.73823757129225, -71.77199501098809, -8.224137306410828, -0.21353945535306273, -95.6238391487492, -95.611277174637, -55.47145362591511, -31.68361910089368, 0.0, 0.0, 0.0, 0.0, 0.0, -15.889037417127463, 0.0, -23.869415089386973, 3.6333102200319214, -16.228352860359355, -63.72349205742142, 15.904204461263372, 95.57461177459228, -91.52066684317282, -67.681479076575, -3.719489504492242, -51.87348844772229, 95.00110833181363, -63.72738098488808, -55.61418220913988, 98.58372616220801, -19.90375916851923, -23.85704027485961, 7.532943102601419, 23.92731466350011, -79.47051224514179, -63.28658060315746, 35.68833366827457, -3.9447731755424065, 0.0, 0.0, 0.0, 0.0, 0.0, -51.61234465363383, -51.67587889708644, -48.0219037424014, -218.88394500254492, -75.95585474967179, 19.73208069575078, -31.59999795800289, -103.13433660829716, 98.98100556051682, 47.55570982714164, -3.9101770762954366, 51.61691867858392, -43.84068153576586, -0.4183096388121763, -107.54883387010284, -47.865705755938215, -27.798064445904487, -146.8764770897892, 43.97459700112158, 27.654992033467593, 23.864905354862774, 39.577941725312265, -3.9447731755424065, 39.65205135370988, 0.0, 0.0, 0.0, 27.901107551167406, -35.52543492574468, -19.896342703631237, 63.503751841833115, 8.119782676863608, -123.13184450837954, -51.68164407168919, -19.930773603427184, 11.72201126140332, -67.44532148483935, 23.70380728635308, -91.54429942715025, -15.976120798812904, -0.33951935844772496, -31.53600019316917, -51.68192941627099, -39.50581034127206, 87.59202608392724, 103.24498839848037, 0.5902296679917622, 131.07466788538946, -35.523172038162414, -27.90026785711994, -67.45401323488304, 0.0, 0.0, 0.0, 0.0, 27.901107551167406, 20.02797989395655, 154.85480927066956, -27.77533187878864, -91.3021141041462, -32.03032955293773, -39.57902899018592, 47.50445459648437, -159.08780762136004, -0.1378368528830789, -52.031789151843924, -75.62179279244297, -171.1928038923441, 15.88504956816497, 51.487545261028814, -24.036526020561137, 147.257451785016, 63.94212344295675, -23.778507255322662, -71.0618290118729, 95.45880856922707, -71.67774720275646, -83.54015174332942, -79.39859837290737, 0.0, 0.0, 0.0, 0.0, 4.011876822914787, 83.62788988291355, 99.60069167008776, -47.55306872098504, -31.802050769024216, 67.66212074192799, 23.646157918171987, -87.71413412874698, -0.17451584504582307, -59.95590157872941, -135.04541599399218, -28.272890405304107, -127.42980305013101, 43.37871773607778, 47.17552632659634, 35.50660838412337, 83.43148424120128, -39.76972906018191, 19.66037514151071, 39.684004953331076, 91.19061722529254, -71.96211382878352, -71.73375594119584, -55.66742438427013, 0.0, 0.0, 0.0, 0.0, -83.22987695987952, 0.18156821591008487, 107.4585907372229, -38.971864450570536, -15.886630378444242, 103.20523724657617, 23.904484063287896, -63.889908579287614, -123.43843906553886, -28.15787047972054, 3.5500466732993035, -63.518543019494906, -99.66351223390625, -3.9535920177692496, -16.03047588957011, -95.57154550280801, -83.57129036451082, 39.598150642732165, -3.719450630504104, -39.88826014313155, -87.37033467788892, 23.460277422171142, -107.43761470891101, -47.78204502495457, -3.9840637450199203, 0.0, 0.0, 0.0, -63.43503044565815, 39.889222566076135, 91.64760032249302, 242.56144713597035, 91.34719442347283, 7.968168468912105, -27.652934346685775, 12.183225779457413, -11.871032595946883, 35.69599894137596, -19.891088430502137, 47.729099353087484, 23.870264572216602, -3.9123373383275215, -0.08091878724266888, 67.41231781516078, 111.38585373645537, 19.40400384605558, 51.92765154792413, 75.69358804329649, -12.196257559657482, -35.97218054644483, -75.61176547703403, -11.93654647495072, -3.9840637450199203, 0.0, 0.0, 0.0, 23.790850510225336, 99.36357896291766, -19.537963278100477, -106.86688378557083, 103.59239671984446, -71.60779217317952, 51.83836818472048, -75.52443694376497, 47.4689215679049, -27.4847857826512, -0.10367280126299416, -51.591259404171616, 39.83231569052044, 63.4309016822504, -51.73756483392755, 32.012398868852564, -47.406366166420504, -23.8406238778523, 32.03351495577125, 155.06258590497987, -71.54415235106624, 106.86267408423882, -134.95345910523184, -7.940542478946726, -19.80644847840649, 0.0, 0.0, 0.0, 19.79484651422134, 27.86924583475436, 51.955591681763984, -35.53536256873647, 63.6916312068547, -75.3781603087174, 115.37703918197015, 35.70318280129113, -79.70668661578452, 19.897700107792254, 20.04732688015897, -27.66106716053747, -40.02632601916881, -12.262619001185374, 3.765638121943419, 87.21098031251042, -51.887978271480335, 47.96685187958067, -130.6294303649019, 111.27453324902028, -35.95906855844776, -67.65892231196882, -51.57362575204199, -3.9564787339268053, 0.0, 0.0, 0.0, 0.0, 0.0, 99.17030095555931, 198.83643652447378, 99.63001261986038, 4.229426398222807, 39.380053307321205, -63.486196531801376, 51.85749504125072, 19.53872125393078, 95.47776047434614, -31.719834189715176, 79.44264155098716, -3.7870574504139665, -15.899863751232555, 27.565869811667447, 35.6396985643301, -134.78339591882983, 95.51477126406506, 115.31383195814212, -138.80375309473555, -131.153668505599, -47.75811626977983, 0.0, 0.0, 0.0, 0.0, 0.0, 0.0, 0.0, 95.23377770305744, 87.6582095453636, 75.67808744995935, 107.46739896279728, 163.05031321639248, 36.11534240124794, -35.6568774556574, 19.71480560062823, -79.6001266031226, 12.203351488049623, 35.885096579217695, 7.617906838065829, 59.670825733904024, -63.247903978329084, -178.62774407070665, 43.63437184809336, -71.47972609779877, -126.8800342323545, -95.28509475343755, 15.771238006013954, 15.783202113690923, -39.72293005382657, 0.0, 0.0, 0.0, 0.0, 0.0, 0.0, 0.0, 63.411489983573546, -27.731594172663733, 16.118185334203346, 79.59662554518496, 32.026601161192396, 67.46344816047024, -75.43494978899928, -55.676013129095935, 0.14050799341703435, 55.674889035174, 12.026039986645102, -59.780780142670025, -103.47711552541065, -122.97004331597404, 59.4500508411265, -8.012389923553439, 31.81310515492682, -7.772184421204138, 59.50613216751749, 0.0, 0.0, 0.0, 0.0, 0.0, 0.0, 0.0, 0.0, 0.0, -19.912453384097144, -19.912453384097144, -51.65527759640606, -43.596753379356514, -27.758706037003208, -15.849933163051599, 55.383645422380255, -43.719524754703485, -95.51328370759211, -83.55991741419177, -87.55587391038165, -31.822714196106194, -0.0801294982042915, 7.947534211207674, 11.880670887707183, 43.53793353397626, 51.53393752998026, 55.50613216751749, 0.0, 0.0, 0.0, 0.0, 0.0, 0.0, 0.0, 0.0, 0.0, 0.0, 0.0, 0.0, 0.0, -11.853929167047603, -11.853929167047603, 0.0, 0.0, 0.0, 0.0, -31.67999805110389, -31.67999805110389, -31.67999805110389, 0.0, -7.996003996003996, -7.996003996003996, -7.996003996003996, 0.0, 0.0, 0.0, 0.0, 0.0, 0.0, 0.0, 0.0], "label": "3"}
