{"weights": [0.0, 0.0, 0.0, 0.0, 0.0, 0.0, 0.0, 0.0, 0.0, 0.0, 0.0, 0.0, 0.0, 0.0, 0.0, 0.0, 0.0, 0.0, 0.0, 0.0, 0.0, 0.0, 0.0, 0.0, 0.0, 0.0, 0.0, 0.0, 0.0, 0.0, 0.0, 0.0, 0.0, 0.0, 0.0, 0.0, 0.0, 0.0, 0.0, 0.0, 0.0, -1.330008643397817, -1.330008643397817, -1.330008643397817, 0.0, 0.0, 0.0, 0.0, 0.0, 0.0, 0.0, 0.0, 0.0, 0.0, 0.0, 0.0, 0.0, 0.0, 0.0, 0.0, 0.0, 0.0, 0.0, 0.0, 0.0, 0.0, 0.0, 0.0, -1.3326673326673326, -2.6626759760651497, -3.9842214901450452, -3.318220824144379, -3.979514950752286, -4.646181617418953, -3.979514950752286, -3.3148423020317805, -6.644125802585567, -5.9774591359189, -4.646122475240922, 0.0, 0.0, 0.0, 0.0, 0.0, 0.0, 0.0, 0.0, 0.0, 0.0, 0.0, 0.0, -1.3300112901706527, 0.0, -5.304384659133773, -4.644318652533113, -9.287854301894608, -13.923541566437885, -9.283910665380816, -0.023103951112138366, -1.3223081731904494, -11.247736322084881, -0.020417816215936302, 0.6514915370661128, -17.90564536064847, -15.918173351201073, -9.964245993521876, -6.6335753335099, 0.0, 0.0, 0.0, 0.0, 0.0, 0.0, 0.0, 0.0, 0.0, -1.3333333333333333, -1.3333333333333333, -1.9966779568373192, -2.6567439634379793, -0.6686763768189399, -9.268218825633186, -9.930282315514544, -0.679912651756196, -9.249843413590582, -3.9395565574842033, -12.526663687591611, 3.996364870608481, -2.020824057385819, 1.2945398217922666, 4.619413693431004, -11.87019406611287, 1.9547826086160804, 1.3196511724608748, 1.3182235677404428, 3.3004826245383025, -0.006519943945347717, -4.6350337102206005, 0.0, 0.0, 0.0, 0.0, 0.0, 0.0, -2.0, -2.0, -4.662678622837985, -4.658718171902945, -3.331409886185873, -14.591503446171128, 4.588520531098257, -7.277991499430605, -7.254449718468152, 12.586089996014433, 3.333276471031935, 1.9996518388245894, -1.999798496616517, 9.230808657783086, 0.641177547830797, 1.325532852629066, 7.916469618342304, 3.3084394679724545, 1.9716485737022849, -2.681708391356093, -7.302255421766132, -5.301700376887267, 0.0, 0.0, 0.0, 0.0, 0.0, -0.666000666000666, -0.005316061108842085, -2.004650060442841, -4.665318831968951, -6.650844373149367, -10.621123543953637, 2.6240640652327176, 5.270837275934578, -1.303158797218297, -15.231295505447154, -1.992049569120379, -13.231910972984721, 2.660742359997032, 2.6895935175519003, 3.971095878506108, -16.587998140317577, -0.6650608784735285, -9.26078647816718, 3.9829285796020066, 7.26898180081449, -9.953138000970146, -13.922247904845307, -14.56724587945974, 0.0, 0.0, 0.0, 0.0, -0.666000666000666, -0.666000666000666, -3.986802410322494, -3.9960119561713188, -6.660046189183104, -9.307449444976095, 6.571174323944327, 2.660769469673328, 3.9898849959025995, -10.610039347286826, 2.648174433608, 11.936425878780792, 9.303992836505468, 1.9899982990972154, -0.6167747340749518, 8.678313208405104, 4.634492688881317, 10.575977511270484, -4.015450231736406, -1.3580880061952394, 2.6088188135330075, -5.953962174285905, -14.575047374438522, -9.947925650571827, 0.0, 0.0, 0.0, 0.0, -0.666000666000666, -0.666000666000666, -4.646176184262601, -5.9933532905218865, -7.962325610878711, -13.256862872853006, -5.971064364768149, -19.90813044120168, 3.2801726757263, 4.6185813298598335, 1.9621666538885245, -0.6431755295237361, 8.624294880505019, 2.6783509978476143, 3.3561669863281853, 6.631033383971809, 1.3518262655111717, 4.639615500475153, 7.226075491480467, 0.6372833110296735, 1.2802407344943534, -9.964310513735413, -2.0064122546710226, -9.93743628432216, -0.6666666666666666, -0.6666666666666666, 0.0, 0.0, 0.0, -0.666000666000666, -3.325374439940773, -5.989400826803032, -8.610635184249826, 0.6436140074128164, -0.6969685754937264, -3.995955671646735, -1.2925553866662227, -9.936081595270888, 3.9501318082438637, -9.938013520265436, -8.607278123234206, 0.6885307181038717, 4.676690243168877, -11.228554081621684, 7.329940408920792, -3.287972689260215, -0.02046872095911656, -13.869013888960055, 1.9764673621992235, -3.3325125079864835, 0.6410995004591168, -9.256300322285636, -0.6666666666666666, -0.6666666666666666, 0.0, 0.0, 0.0, -1.9907955292570676, -5.310223487532827, 3.2937635996548793, -11.216127214993065, 7.230026095515933, 1.977751927399857, -9.951063230089922, -3.974132160853962, -1.9986349526364702, -3.364035956955693, 0.6226075806409613, 7.976265608231928, -13.262695254491607, -0.6587516435699289, 9.945098706662034, 7.286395583249339, 0.6634888630943107, 2.6661102440906896, 13.277814105879166, 5.308117184765413, -0.0005719997400642773, 5.9263222568116865, -4.635742692800735, 0.0, 0.0, 0.0, 0.0, 0.0, -1.9907955292570676, -6.640234777703478, 5.967507072596758, -3.9676782764304575, 6.610671989102169, -0.03225329151524314, 7.295808643483548, 5.954503324848902, 11.214815424802065, -5.314224458601993, 6.61008369836594, 0.6421537946018362, -9.287272831678731, -0.010025663623081993, 12.580796625048038, 2.703859180836634, -4.651582957207455, 13.922352258550244, 5.297866106986516, 8.633638835214677, 15.923442967252754, 1.3346820648564002, 3.963750097077017, 1.3313393153871718, 0.0, 0.0, 0.0, 0.0, -1.9907955292570676, -7.29312244172072, 7.321923774837382, 5.276967048207896, 3.970348426920107, -1.2899012982614697, -4.598171603949175, -14.558006373928126, 1.326523091556541, -1.980325550700833, -11.256200126443641, -9.975471718826704, -8.669803054950286, -13.289774541987882, -6.629749114228779, 0.012960049107012983, 7.291781120550807, 10.619324965340994, -13.231742821102081, 8.648108423737376, -1.9414135215708175, -0.6581389636103954, 1.9690635193177788, 1.3313393153871718, 0.0, 0.0, 0.0, 1.99138962978172, -7.290540773888938, -0.6594986769567456, 3.3326212899350427, 11.24261531991353, -7.955700045329597, 5.314243565095203, 12.615050135086676, 2.638836123786052, -5.95977455860777, -0.6424081980633581, -14.57900176793023, -15.259527429698633, -22.605743404562865, -2.7383127871949764, -3.9900535436930076, -5.963450581192912, -9.320570738492258, -2.002420295421965, -1.9822297513542724, 1.4005881627731092, 6.651478088214214, -4.619164878431168, 1.3050568712632742, 1.3313393153871718, 0.0, 0.0, 0.0, 0.0, -7.959126888061371, -2.6377131488909256, 13.27791681147514, 13.239814136251862, 2.712680627836691, 4.006723299444313, -4.672198656285766, 1.3136665075346228, 2.665918808657257, 2.626584425838355, 5.900999572009306, -23.897184364653235, -14.648006670152121, -18.579798756071604, -2.6574811870971367, -2.0208351852321993, -11.269858466131005, -0.014249397793229202, -7.299593886848472, 6.633909504206213, 1.9941114472823536, -5.280587263977479, 1.968404133635341, 0.0, 0.0, 0.0, 0.0, 0.0, -1.984922923216804, -1.9808209932300413, 4.016490551493024, 8.633062365099764, 23.195191181144292, -8.585547216422242, 19.200251245184457, 6.623842557087152, -1.3294509581750389, 4.604509453286394, 1.2916491188009127, -39.13534802415218, -20.623044510844714, -17.281201892698498, -7.286116231585125, -4.675842611794249, 3.259239973479699, 4.619981785187505, 1.9888601804184356, 8.591131323427414, -0.6508789044048328, 7.963699921886741, 1.3109784142768055, 0.0, 0.0, 0.0, 0.0, 0.0, -1.9867752189120051, -9.26416098806138, 2.7048805894032295, 6.667089015559632, 9.288829876862485, 4.655019679299347, 8.652800237203262, -5.926935620852752, 1.9709105292226887, 11.890261518246113, -33.84631407061586, -31.18759659959941, -12.006286832079407, -0.02780250843339549, 3.973350400102089, -2.675872842877041, -11.294223875521585, 1.9699022004826423, -5.9675844992134515, 2.6364925260802097, 0.6989150460179595, 3.3109712951412575, 1.3109784142768055, 0.0, 0.0, 0.0, 0.0, 0.0, -9.277807532823696, -5.282708007145249, -5.951038808339964, 6.015659332111984, 4.689621539863819, -3.9630531809095695, 15.250395436372315, 9.325283125592243, 13.934514016503904, -0.6434001688710201, -23.897230052621246, -10.056923168835574, -4.722253416667616, -5.320830943623809, -6.627845733569419, 5.266101216020452, -3.334386159152097, -1.9807584601294197, -9.32442928236328, 5.3129346436570515, -5.948089692275113, 2.6403913264113927, -9.937256843463716, 0.0, 0.0, 0.0, 0.0, -0.666000666000666, -9.286404739975309, -13.940582007654015, -0.0365979118281079, 8.608758606350923, 9.3043260061181, 1.3578313705268918, 4.630747625885925, 4.029343230221261, -1.9789061859606032, -5.982823421968963, -12.049438744250967, -21.29189370245462, 1.2820099853885427, -3.3416817337297013, -0.6575565444085031, 11.264814623083307, -10.60007206140924, 5.2989418138877715, 2.620673981055913, 3.9617554960601984, -11.928116842917682, -5.3166909511649285, -0.655431701412374, 0.0, 0.0, 0.0, 0.0, -0.666000666000666, -9.941307315389523, -4.670442713137894, -3.335152061142705, 15.882686217053251, 9.928267928946724, -3.946710979913817, 0.6800099979579904, 24.546700801892634, 2.6523092330225113, 1.962993173714949, -3.3680060687620443, -10.654726735023228, -1.9658621984436744, -14.572507282094083, -9.970866482042204, 4.6217268197854775, 5.281068852019682, -11.272764674774908, -4.676949699915393, -0.0360511829814294, -9.970200682592102, -7.289070749790612, -0.655431701412374, 0.0, 0.0, 0.0, 0.0, -0.666000666000666, -5.969000381100965, -4.0110745958979, 1.269143084201772, 5.9179266276017515, -2.6290432941469124, 3.31948128720855, 6.6678087855179085, 18.605215721955528, 4.037358387663141, 7.999721450600952, -5.292554549586303, -1.3339338517202721, -5.29396884316435, -8.582692830520294, -5.296744590995096, -5.353040682963826, -6.645575860526409, -17.91473648646156, 5.280509212835668, -2.0296903584908814, -5.329918072381318, -8.619763873992982, 0.6653386493865058, 1.3313393153871718, 0.0, 0.0, 0.0, 0.0, -3.314226818180381, -2.0242955187477194, -4.0022438340300015, -6.631620165555109, -0.006465699029235994, -0.03155441377220014, -8.619825072340777, -3.2820537507178145, 4.649557307281064, 4.674442508668843, -11.258640316402776, -7.945973930967516, -5.981740204343363, -7.276089357957414, -19.842644658085824, -3.3550557661365534, -1.334262124078392, -8.635640955301156, -1.3728187935526757, -0.029609734183660308, -7.965654873349326, -4.6329968412452756, 1.3313393153871718, 1.3313393153871718, 0.0, 0.0, 0.0, 0.0, 0.6620324395895398, 5.289045940350319, 14.569819342702786, -3.290448981708856, -8.579010045630902, 10.601247640066383, 12.574313099686059, -6.611214552464049, 6.624461030535044, -7.904545058572292, 14.586174615946213, 5.949174680030701, -2.6645383948309815, 3.3048979761395874, -7.99334724911293, -0.6898024003724678, -11.930838194130374, 3.963053858433475, -1.98810567654974, -1.329353183206173, -7.298997507245942, -6.629674798082594, 1.3313393153871718, 1.3313393153871718, 0.0, 0.0, 0.0, 0.0, 0.0, -5.291943769335568, 7.270655801749284, -0.0019343188751914653, -9.256897697236365, 6.613434702647614, 6.653317272393618, 16.57615381031428, 5.308318505401269, 12.603644028035088, 13.948006697009994, 3.9837439188116326, 5.320920005858117, -0.6718934504876605, -1.3590364723441062, -10.611982846939327, 0.012411100997570035, -3.965010399788092, -1.9828002453468263, -0.6607017991566264, -6.632330840579275, -6.629674798082594, 0.0, 0.0, 0.0, 0.0, 0.0, 0.0, 0.0, -0.6587902603511248, -2.658124259685124, -0.025015664909876945, -7.317997588309329, -9.306851385746569, -7.316685540110495, 3.946823493383552, -2.669648850540403, -0.03400982290295129, -9.300150056137689, -2.013721768694163, 2.625830698965075, -8.606677476935953, -16.559934599854056, -3.3071141882490407, -8.600834757172311, -7.939329017698525, -4.626427336610725, -0.0006620245505184474, 0.0, 0.0, 0.0, 0.0, 0.0, 0.0, 0.0, 0.0, 0.0, 0.0, -1.3326673326673326, -1.9993339993339991, -3.326720851002318, -7.957110252199995, -7.282514908187161, -2.6598911626516313, -3.3422613732985162, -0.039363967845747916, -17.249473931489746, -8.635012406127375, -4.660743258923448, -14.577101493787236, -5.964406871054528, -3.9677805285010277, -6.6008387332877945, -7.272000326481339, -4.6257653120602065, -1.326040440606774, -1.326040440606774, 0.0, 0.0, 0.0, 0.0, 0.0, 0.0, 0.0, 0.0, 0.0, -1.3326673326673326, -1.9993339993339991, -2.660054184335651, -1.9842013015862165, -1.9842013015862165, -5.291117408916048, -6.625679394282237, -7.95901272761557, -7.961076528459548, -8.627743195126214, -5.318171856633395, -2.6607096607096605, -1.994042994042994, -1.321545514079895, -2.632505272676461, -3.3036668658700066, -1.326040440606774, -1.326040440606774, -1.326040440606774, 0.0, 0.0, 0.0, 0.0, 0.0, 0.0, 0.0, 0.0, 0.0, 0.0, 0.0, 0.0, 0.0, 0.0, 0.0, 0.0, -0.6666666666666666, -0.6666666666666666, -0.6666666666666666, 0.0, -0.6666666666666666, -0.6666666666666666, 0.0, 0.0, 0.0, -1.326040440606774, -1.326040440606774, 0.0, 0.0, 0.0, 0.0, 0.0], "label": "0"}
{"weights": [0.0, 0.0, 0.0, 0.0, 0.0, 0.0, 0.0, 0.0, 0.0, 0.0, 0.0, 0.0, 0.0, 0.0, 0.0, 0.0, 0.0, 0.0, 0.0, 0.0, 0.0, 0.0, 0.0, 0.0, 0.0, 0.0, 0.0, 0.0, 0.0, 0.0, 0.0, 0.0, 0.0, 0.0, 0.0, 0.0, -0.666000666000666, -0.666000666000666, -6.623833854260048, -5.95783318825938, -1.3320026613439788, -1.3320026613439788, -5.303718896609012, -9.939983018638852, -9.273316351972184, -4.6290976835491335, -4.6290976835491335, -1.3208587740938968, 0.0, 0.0, 0.0, 0.0, 0.0, 0.0, 0.0, 0.0, 0.0, 0.0, 0.0, 0.0, 0.0, 0.0, 0.0, -0.666000666000666, -1.332001332001332, -1.332001332001332, -12.566669285384538, -12.56733528605054, -7.2806812900153455, -15.228609937992417, -13.2463698546057, -4.689436601485186, -6.655210800575011, -7.317243240164549, -15.206808841780965, -5.959799311256183, -6.611338634823739, -4.6239133615120425, -1.9723980976614532, 0.0, 0.0, 0.0, 0.0, 0.0, 0.0, 0.0, 0.0, 0.0, 0.0, 0.0, 0.0, -1.9940232318024314, -1.9986679986679987, -11.249117614621209, -18.538953464224573, -22.52562592498387, -13.949723650691434, -16.599294501523783, -19.241596101908005, -15.280570167631883, -10.62506017301462, -16.59470825617648, -7.3397638491024315, -9.274078305550113, -0.6483242451876481, -3.95592182031561, 0.6955269742469377, 0.0, 0.0, 0.0, 0.0, 0.0, 0.0, 0.0, 0.0, 0.0, 5.965714802629372, 2.6633225548413417, -4.630414813589796, -1.971678293471237, -4.601648867991222, 3.324557894532753, -8.578608087333468, -13.260214427788654, -11.286495426832747, -9.340344643553806, -4.014436306932651, 8.58243134778223, -9.250678695698959, -5.969795624272919, -4.643752355218874, -2.6226688209810742, 17.167402462243363, 3.2892763505934717, 10.57711943845532, -2.6475630396376517, -1.988801511310906, -1.9907955292570676, 0.0, 0.0, 0.0, 0.0, 0.0, 0.0, 6.632381469296038, 1.9966558881746748, 4.656044071844326, -3.9579000324101274, 15.868988072437332, 6.592258509447452, 1.9631953831369398, -3.3056999737987702, -5.253832849832609, 7.299480590703675, -8.55931106167992, 7.941653828451494, 9.927052214684192, -12.567063452303572, 13.17938106057878, 0.6692760150878722, 0.648334830842655, -5.960307696475713, 14.611215859809413, -2.6128265148410956, -6.605407352430652, -4.631064014170328, -0.6666666666666666, 0.0, 0.0, 0.0, 0.0, 1.3326673326673326, 8.610082116619152, 7.975579867033923, -5.254973796934508, -1.9396341169457356, 0.6536729032661851, -5.329793115574772, -1.992161205780687, -8.612079718574082, -1.3373041564472157, -6.607661103388362, -26.513159932990014, 1.2997934124335933, -8.631120905404824, -11.930197464091219, 12.595500854392444, -5.94286673896099, 9.93108122859179, 7.926471262988294, 9.330626500076669, 6.642328217458256, 5.967746865164795, 3.952015791557926, -11.882249195181629, -0.6666666666666666, 0.0, 0.0, 0.0, 2.6489478400452104, 3.312436493174511, 4.647622294787142, 5.298279566418213, -11.240633032737946, 7.9434306604405736, 2.005195741099122, -0.7314658662465278, -15.921672638820311, -7.990765032513704, -9.931708455690778, -20.594944255300867, 1.2485133604543712, -13.970220683543307, -7.9832251484301375, 0.6621188093332032, -8.597549436441604, 5.965926873804541, 9.267636572107563, 15.263576509860421, -6.5760559704309545, -1.302535462275828, 1.9886096610613153, 3.990633850655077, 0.0, 0.0, 0.0, 0.0, -4.627093260588307, 5.950214447380652, -1.971074313349479, 3.319857942908177, -5.907577791651947, -14.577730331426782, -2.6504226758646476, 7.253655275410013, 7.89086446308868, -17.232562734724937, 0.5785518604019971, -24.63341782108302, 3.2807426329488827, -20.553896627416478, -6.090896187692237, -0.7232150585673064, -4.637657064827439, 1.9654605637393368, 4.594423930750326, -8.589462927554525, 0.005899080978049254, -9.300277737882514, 3.9092871528260487, 5.9453252863863035, -6.617310686228821, 0.0, 0.0, -3.977589304507212, -13.245606627468415, -1.305001923922266, 1.3227075470007832, 3.9335468977081174, -1.9717794831048052, -7.9885986364611385, -9.966965584129216, 5.255610028843548, -12.558728589449903, 17.8380876474403, -17.888135968779878, -6.003381452301517, 9.228660109463416, -2.014509944376192, 1.305783220225146, -12.61841862511244, 16.528972376916414, 8.56165825471432, 3.9803376030190023, -11.896663040429164, 5.2824205468326, -0.05254088790297551, -4.627254612537239, 0.6429770446792372, 0.0, 0.0, 0.0, -4.633757283509837, -13.901765530727396, -7.277334180831277, -23.83336225011661, -4.663977751123505, 1.3067761518449403, -1.3614601413841472, -18.547515965975926, -5.338351892615038, -6.043550584344582, 15.202858929674232, 1.300937371954039, -23.885453292544465, -2.631394577152137, -5.262889831163008, -2.655840695135491, -0.0722171624896999, -13.266051599541012, 1.9651593144470634, -1.3346721431028277, 3.2845859699710855, 0.6644259741082673, -5.946641938257064, 9.91175504297776, -2.6435804065549133, 0.0, 0.0, 0.0, -4.633757283509837, -5.947236378776788, -3.317568619615301, -5.3037208712634465, -7.934193886789752, 11.212138725309806, -1.9590410135731462, 27.839898549578113, -5.961671219366249, -9.959590482012231, 4.670433091131558, -14.586751989659621, -19.273846787377842, 7.222391643602968, 3.3838407787697804, 3.3301052267143536, -5.299656845780961, 5.289710199550869, -5.345410320523526, 1.9874043381615922, 0.6437796387951534, -15.226772424830095, 3.928420314505523, -7.950470086853906, 0.0, 0.0, 0.0, 0.0, -1.9763012863254106, -1.9782594640695708, 1.9657348887269395, 8.595037375006285, -22.49150089280604, -5.902244810129659, -0.6819972104966382, -0.6054863227702166, 4.677870698415815, 1.3945958333789656, 16.613850100628774, 1.9577146745953504, 1.9244478439180996, -13.896542163838479, 17.262987217923214, -0.6471028812348164, 0.6586788154685544, -7.949920869763335, -0.6416608099533482, -5.331981784591146, -2.599269751133182, -11.894148789127023, -8.636131794854219, -9.964874935326876, -5.957155818209849, 0.0, 0.0, 0.0, -1.3201333073227859, -6.6033063853740845, 5.309417558128099, 7.943554731741637, 19.885994733886953, 8.586429860373972, 6.612784349223712, 6.035717441278004, 33.131233201717635, 0.7338417685915325, 8.657233855328148, -1.3051325335337334, 0.021579487349520532, -7.316599520531032, 13.882378766442816, 2.674434694826134, 19.240838128053365, 4.614352926743211, 3.291739420240125, 10.559448997447632, -2.641709813004221, -7.926184152992056, -13.239698023098875, -2.6804055144736365, -5.957155818209849, 0.0, 0.0, 0.0, -1.3201333073227859, -2.6297353164739263, 7.941863029709101, 2.666254168848265, 15.933949780178505, 6.017484837939387, -11.93121240893457, 0.014433799814457915, 14.616528483799708, 0.701377478664499, 1.4176970882315594, 0.05061050981344839, -17.914293383911048, 3.923977492728911, 6.678238370305341, 11.878107761637725, -1.2884839310407568, 11.97725719493922, 7.307128469852894, 1.3039429253363548, 5.262925413739991, -9.242617116111676, -7.293187315843757, -7.291926736169098, -4.637090758498474, 0.0, 0.0, 0.0, 0.0, 0.6745690440524145, -5.941519562883525, -3.9268746068140032, 6.000413415153384, 14.575650803510232, -7.858919770866147, -1.3208859097590806, -9.266070816385753, 9.340304007345715, 6.679033661418613, -9.318560859385244, -5.938232930431017, 16.504133374968774, -8.58954302205148, 8.62865456313672, -0.6574283458390972, 1.9717313420624234, -2.666510190056007, -19.844385239696972, 12.605946543492077, -7.227558222102754, -23.77698029959105, -7.942153642407464, -0.6405163044799842, 0.0, 0.0, 0.0, 0.0, -3.3096746712681595, -15.220064099958588, 2.018260511883933, -11.252001799449477, 1.3663860458698824, 17.253652188216655, 13.904760583189695, -3.9354481500169296, -4.640804202841373, 1.2899600682271126, 15.264117577686854, -0.6226408876020931, 0.6540291247886864, 21.868778943636723, 4.000143130149427, -2.5564607986836934, -0.6673262032451691, 15.90640872118469, 11.870658362193215, 0.6201361983985766, 12.57297643524483, 17.87001410898838, -13.888187346804681, -0.6405163044799842, 0.0, 0.0, 0.0, 0.0, -4.644912074645138, -23.826123312302137, 5.984560428097171, 3.9114318707539715, 2.0425942915865285, 13.251749606605145, -7.980595956676724, 1.9513701874987293, -13.921408042124213, 7.300987811408277, 11.91089299222152, -4.623187153518753, 0.6904305184566816, 7.989395902003186, 11.23943208107504, 8.618827631813673, 3.2836616645174352, -10.59067326613441, -11.251948275316504, -17.21765166644128, 21.793190937643057, 4.615309162151125, -6.619318996738173, 0.015610627911419872, 0.0, 0.0, 0.0, -3.977589304507212, -9.288502045153017, -19.19568299649413, 4.6410516848325285, -11.938446182292406, 5.2740910231085385, 2.020274876177245, -3.2741199305486566, 3.306360559427379, -6.578616272792758, 3.310780586905362, 1.3155249144946248, -2.585235485055248, 15.259481132552757, -11.25222308636615, -5.356303775017738, -16.61112292196447, -5.3464749639845035, -3.343253643586209, 13.865925218593055, -17.22861327545538, -15.271236027628486, -26.48021387920605, -3.9735890735728137, 0.015610627911419872, 0.0, 0.0, 0.0, -3.977589304507212, -6.643589970507878, -21.840017372427607, 0.6751558595451467, 2.61411200927785, -31.809440226536218, -11.955844934741709, -7.978388499372937, -19.203029583439175, -13.917626140419234, 10.614203667301688, 14.621557086936871, 14.543787456900525, 0.017606411869714345, -9.22317599980471, 3.9514163839712726, 1.2801128266197854, 7.8966827886143465, -3.993047496265538, -13.246532246860028, -9.318632307511358, -12.594117002183413, -7.938674489369729, -3.3075884075721476, 0.0, 0.0, 0.0, 0.0, 0.0, -1.9993339993339991, 2.6127192473581013, -1.3281498604639301, 9.235170387771667, -18.573167379377228, -2.0272702741516646, -6.626910780458056, -6.695613052816485, -0.7368496271379071, -18.57172242406458, -3.2583748953386262, -7.246753213151779, 13.278505796689032, 5.307240706935328, -5.96622765244708, -16.53244210929278, -12.567174801744983, 5.288227076768586, -6.639612702422948, -1.3470399065938992, -4.623853947888763, -4.620608195213501, 0.0, 0.0, 0.0, 0.0, 0.0, 0.0, -1.9993339993339991, -4.659361873252579, -8.638979036576911, -8.688744027650408, -0.05656800858088029, -6.007434193084551, -9.939004657360663, -12.636914661515679, -8.61120883521366, -13.253515025354801, -16.59432072365498, -1.3491606252610469, -20.569764812514055, 8.577286301461793, 3.9718756974943332, -10.57137567150254, 3.3207640357304307, 9.264522667799735, -11.238641277921701, 11.253592873281978, 2.6797570023233357, -3.303709754421255, 0.0, 0.0, 0.0, 0.0, 0.0, 0.0, -1.9933875176689844, -3.987414725586898, -6.6415691568926345, -26.500498773116558, -3.3635909553130316, -19.873031577071394, -2.6465862277006913, -2.017207435609314, 1.9711570244039551, -4.707153318033168, 8.584306616226026, -2.0021484774254232, -13.939105479497808, 0.01897323408713114, 9.219097423922936, -1.9866219653820059, 1.3458095422105218, -5.280253508299661, -9.89352586700737, 7.297229216359603, 3.9992904059099077, -1.3175304852479774, 0.0, 0.0, 0.0, 0.0, 0.0, 0.0, -1.3267208510023178, -3.3207480589202314, -4.652087374307403, -2.68559391448541, -4.661960109022378, 11.924255982524791, 15.861697045995648, -10.632791083880079, -0.05419991787266443, -27.210424091492527, 2.6581674314679056, -5.9789692300273956, 1.9895767138682445, -1.9659276321104833, 19.18667956747084, -2.0037016267099625, -0.598139092914259, 4.669669411679127, 9.299505002392458, 0.6765663405125513, -0.6547544393802158, 0.666000666000666, 0.0, 0.0, 0.0, 0.0, 0.0, 0.0, -1.3267208510023178, -1.9933875176689844, -5.964393005146812, 11.876871679568087, -11.931818164091446, 9.921955792780825, -6.640675062791338, -11.255957768717806, 11.198557708944861, 0.6226758515207828, 0.6811936776388964, 6.6466615372136255, -12.56350773400317, -3.952898137625894, 1.2888879682412018, -9.981926448661003, -4.662592401258702, -2.0151905505621315, -5.989927917520124, -11.23664958558411, 1.311690480524854, 0.0, 0.0, 0.0, 0.0, 0.0, 0.0, 0.0, 0.0, 0.0, -2.6436449462265803, -10.589514823355797, -14.54596028834953, -23.816068878055756, -12.614364677449299, -11.297597280192349, -19.249503143913934, -17.263282002914465, -21.179856329966746, -6.690006821624551, -5.344546048159943, -20.55142912838455, -10.631097845119232, -9.316256455209679, 0.6304469688407599, -10.608029168063759, -12.584981051549278, -14.550140124043327, 8.594846364223471, 7.277335408726222, 0.0, 0.0, 0.0, 0.0, 0.0, 0.0, 0.0, 0.0, 0.0, -2.6573744624166715, -7.2766018383201585, 0.6260213370489852, -3.995361116549577, -10.60877349976316, -9.286580239677429, -5.974961437648397, -15.893288687802656, -20.564494288836627, -14.60666665451579, -21.172696767598882, -16.51923465335468, -8.599597086829082, -1.9869048412706922, -4.633112411056258, -9.927532093050546, -9.927532093050546, 0.0, 0.0, 0.0, 0.0, 0.0, 0.0, 0.0, 0.0, 0.0, 0.0, -2.6573744624166715, -5.2976631352216526, -2.6402886728049806, -2.6402886728049806, 0.0, -0.6633499170812603, -1.330016583747927, -2.6646699940113114, -2.6646699940113114, -4.657403333279304, -0.6666666666666666, -1.330016583747927, -0.6633499170812603, 0.0, -1.3195721739380253, -1.3195721739380253, -3.3135402371182323, -3.3135402371182323, 0.0, 0.0, 0.0, 0.0, 0.0], "label": "4"}
{"weights": [0.0, 0.0, 0.0, 0.0, 0.0, 0.0, 0.0, 0.0, 0.0, 0.0, 0.0, 0.0, 0.0, 0.0, 0.0, 0.0, 0.0, 0.0, 0.0, 0.0, 0.0, 0.0, 0.0, 0.0, 0.0, 0.0, 0.0, 0.0, 0.0, 0.0, 0.0, 0.0, 0.0, 0.0, 0.0, 0.0, 0.0, 0.0, 0.0, 0.0, 0.0, 0.0, 0.0, 0.0, 0.0, 0.0, 0.0, 0.0, 0.0, 0.0, 0.0, 0.0, 0.0, 0.0, 0.0, 0.0, 0.0, 0.0, 0.0, 0.0, 0.0, 0.0, 0.0, 0.0, 0.0, -1.3260483100961666, -1.3260483100961666, 0.0, 0.0, 0.0, 0.0, 0.0, 0.0, 0.0, 0.0, 0.0, 0.0, 0.0, 0.0, 0.0, 0.0, 0.0, 0.0, 0.0, 0.0, 0.0, 0.0, 0.0, 0.0, 0.0, 0.0, 0.0, -1.3260483100961666, -1.3260483100961666, -1.3260483100961666, -2.6370150846963702, -4.62060184703901, -4.62060184703901, -1.9835867623426395, 0.0, 0.0, -0.6666666666666666, -0.6666666666666666, 0.0, 0.0, 0.0, 0.0, 0.0, 0.0, 0.0, 0.0, 0.0, 0.0, 0.0, 0.0, 0.0, 0.0, 0.0, 0.0, -2.6520887507029407, -1.3260483100961666, -7.266112907104791, -7.932772772613784, 1.3378710342211426, -3.321472105988105, -4.656047285851926, -3.9999339237694835, -7.321941519496388, -14.585428168871648, -6.635595591759671, -3.316810048461159, -2.6443839625119443, -2.6443839625119443, -1.3254281949934124, -0.6587615283267457, -0.6587615283267457, 0.0, 0.0, 0.0, 0.0, 0.0, 0.0, 0.0, 0.0, -0.6666666666666666, -3.3253664995906633, -6.644121916960271, -12.603287612908858, -3.2847400487959186, 5.9446915865167345, 14.54600110503159, -13.894682365578678, -4.639838470870679, -13.255702080893734, 7.871198763344735, 1.9066966319048708, 9.197113955319043, -15.937949776058744, -32.48855575342559, -21.21661471684713, -9.944088908244968, -7.295109949868256, -8.597554923962646, -7.279341621020548, -1.3168804565185583, 0.0, 0.0, 0.0, 0.0, 0.0, 0.0, -2.6534794456723274, -0.014451151382895322, 3.308963823132852, 5.929721543100187, 14.573055582317576, 5.992689256948049, 0.03264818531375291, 5.249980751537415, -2.703882764008168, 11.854820185735836, 8.574737690351114, -3.3081472247966595, -1.3281175471506237, -7.284657033943013, 3.9716517244163745, 1.9727462198846473, -13.260733431827799, 5.9696508387498275, -1.3653374047671223, 3.945553385651648, -9.291741626196178, -7.274081419258239, 0.0, 0.0, 0.0, 0.0, 0.0, -2.6534794456723274, 4.6487302854661365, -1.3025900905678576, -5.937022454365638, 19.197812297714858, 0.021071356811205866, -1.3516393277275238, 0.7171168888314402, -3.331958645308985, 22.489518804827345, -3.948849120070422, 10.564197234001753, -13.911069493223948, -6.6358781896197625, 1.9548256509518271, 3.9519383779575303, 5.3308493367074705, -1.3172112465157229, -9.253754972139408, 3.2794191626801084, -4.026058503114509, -5.333878492440069, -9.270718778938797, -13.873629166952888, -7.279346940732047, 0.0, 0.0, 0.0, -2.6534794456723274, 5.315396952132803, -11.836301544545197, 7.266139501376733, 15.87696967704138, -2.601757461392887, 6.041780375179804, 11.961447428795754, -6.625719301601147, -6.628389233986199, -10.575059152763732, -1.303285423125891, 5.306325757768256, 9.26934243122675, 0.6759736920761531, 2.671736568665213, 7.276568695417785, 5.2787178857803, 1.359656028183526, 16.567051849983194, -5.9605543958936185, -6.009634419824895, -3.317564055954289, -13.873629166952888, -7.279346940732047, 0.0, 0.0, 3.955944666156971, 1.3326673326673326, -2.6199882815300617, 2.6697700294165942, 0.6777015362022859, 1.3339371731479766, 0.7118194911332337, -2.635487349411455, 7.270926527541821, 5.949927105360607, 12.589410932089969, 9.941334731923192, 1.3162852377890073, -2.6270183454435165, 11.982833184661626, 2.0112579294162543, 7.976913449906122, -0.6468078836433823, -3.2983341269484816, 12.616027580203657, 13.907158596775599, 11.296803025028492, 4.012074895519214, 0.6515169982473056, -10.57911704713434, -7.279346940732047, 0.0, 0.0, -0.6666666666666666, 1.3326673326673326, 15.242395652900516, 24.524789787675562, 7.918133342131218, 1.3488411057722347, 11.952126647743782, -11.822642839507427, -0.6483731075927522, 0.6502394173864076, -7.956996053749731, 3.3004708719400018, 10.560611663153614, 7.323963679512647, 7.988814442833779, -7.977211998390769, 14.630862936796206, 6.668181008529753, -3.3368929912666747, -1.2451868965831316, -8.59664384816148, -6.5780193170933074, 13.933762644664188, 6.592369027516101, 0.0, 0.0, 0.0, 0.0, 0.0, 1.9980033273446447, 14.585625386483184, 10.649874457693425, -9.310209561635084, 1.2912260959781294, 8.616946000667305, 0.6614029733771155, -9.941450495308558, 6.603623679869853, -0.6909312296599447, -1.2927992455567217, 10.66558281596464, 0.6576370732037228, 21.242332099656668, 12.614576736612413, 7.9841595828602125, 18.607274550858424, -1.3396902628078626, -7.289789639325479, -3.3377666098137455, -0.02287671297476912, 3.9879706609233514, -0.0006812213950606605, 0.0, 0.0, 0.0, 0.0, 0.0, 1.3293466188472989, 14.570475763417882, 4.686863855723189, -18.57862290366826, -3.991403324460893, -2.680542416206092, 7.251097980414732, -6.6496749375894675, 1.333594739469187, 0.6408573118215476, -13.891520365692593, -2.6985790881418437, -11.979270117132447, -7.264126441325838, 6.650002670855012, 5.326004076793226, 11.312918106076609, 2.630396861968052, 3.9504333537612997, 7.253140393157656, 4.6420851134850505, -0.6700758695326681, -6.634908386224487, -0.666000666000666, -0.666000666000666, 0.0, 0.0, 0.0, 0.0013201006444730767, 13.899895631299291, 4.01631081447619, 1.2966490369476888, -13.948448214634919, -12.621734749097207, -7.226233768599439, -3.9916118764672266, -13.275948488956981, -19.19980323575722, -13.938754407054304, -21.948369669252, -8.7040577074481, -19.85899639270373, 17.236433618655905, -11.907871808365375, -3.243045978126677, 0.007728734631138545, 3.3378071103085807, 4.67960237051321, 7.281128874682638, -14.573029149767578, -10.623675640126685, 3.3076558803795177, -0.666000666000666, 0.0, 0.0, 0.0, 0.6640106241699867, 9.26810327741256, 5.994508279265982, 3.9829222589823425, 9.911307599262615, -6.000446393724047, -1.9888487758128548, -7.260403608258587, -3.9732556036357813, -11.909389528121856, 0.5858641450237497, -6.684999987342471, -2.72272689593364, -9.324423544210479, 14.531846804578343, -23.189425702272477, -2.0478093590103947, -2.023038530641, -3.2583921879518174, 0.6844055150267357, -9.259567535980349, -6.6524829635256895, -9.307332885870089, 8.60932878716595, 0.0, 0.0, 0.0, 0.0, 0.0, 9.257646130148478, 8.630373049104737, 1.9808489720943534, -3.3314144493345754, 10.568024304596467, -1.3279322275172367, 0.6133131623562041, 3.9618957388552074, -11.316469073759574, -14.656262659986954, -17.28108615240218, -5.980734976610197, -1.4210208669648496, -5.283786989008549, 15.244486504910771, 1.308335944446223, 8.639010948753068, 2.738756148297031, 8.664453029392824, 0.6988990455659579, 4.644226060714635, -1.317502177759311, 7.9616914200712765, -0.6653359946773121, 0.0, 0.0, 0.0, -1.3155887860172448, 10.590214562094882, 3.3261130229411773, 4.625171587251421, 9.26942064580881, -2.6940588701756942, 10.577294508405245, -7.972970165330655, -11.30941860459701, 0.5909519249057497, -6.663991661050656, -0.682563015289196, -3.97740191482172, -28.494986879543596, -7.253632915435402, 8.65144535454344, 13.259707554248855, 22.55474273177235, -5.917168941742155, 7.349652245872922, 0.06168519206413592, 2.6868261337787818, -7.916460058735761, -2.6232982555137325, -3.9467690341681596, 0.0, 0.0, 0.0, -1.9822554526839113, 1.341176069654146, 5.982142007322695, -4.6559400250762115, 0.034192953756461586, 11.249767451076469, 9.922323284162886, -11.932918147200489, -13.303462088567315, 8.58480905446146, 1.340521818291199, 3.963195194340555, 5.99140325206488, 14.54499019010344, 5.969099289245239, 3.983379308670277, -3.984627272378358, -11.897937550107503, -3.942940581445097, -0.6758500093666914, -10.59808392543571, -1.335329305614065, -1.3240600914517868, -3.286648172594993, -3.9467690341681596, 0.0, 0.0, 0.0, -0.6495881200165788, 0.028224887135367416, 0.03929600315998383, -7.96108221730572, -5.9853858815603775, -8.632167679079135, -13.922926639106734, -15.280647584495664, -14.556863973305546, -15.211487736164788, 5.2970441567230555, -5.305968361181256, -2.0103489103951624, -7.9474089470703175, -11.230166888644359, -14.56260616279722, 3.3133903142037733, 7.954156155771412, -1.363583924043168, -0.7021778926567651, -2.0275167684290993, 3.310207640822841, 3.9486799985697387, -3.9467690341681596, 0.0, 0.0, 0.0, 0.0, 0.01707854665008779, -1.9618733018693566, -7.929635170787938, -11.920291651742856, -17.23845484933317, -20.55457877893232, -4.710515428953373, 1.2846974572131287, -6.626309632875851, 7.270260376027889, 12.57769139732875, -5.9435598312256035, -11.964130624063486, 5.286193806465495, 6.586951813979729, -7.2832713212570095, -5.969049002097567, -7.3108837754887634, -15.914296851941316, -3.988147619505387, -5.329959514700495, -3.9874524251412007, 5.907934328343686, 0.0, 0.0, 0.0, 0.0, 0.0, 0.0, -3.2945406345366894, -7.929635170787938, -13.256946202703453, -13.242552246517171, -10.610039969690593, -6.665195226014056, 4.589757052640054, -4.663333951812895, 2.6675048520393707, 1.3614066384403527, -1.345079675835743, -11.305518350870113, 4.648872149641461, -1.9879062163641716, -16.554006286025718, -5.290670014394395, -9.277943333339362, -3.9704513557328758, 4.634976433080659, -9.301572553978808, -17.195732575576784, -4.646826545974293, 0.0, 0.0, 0.0, 0.0, 0.0, 0.0, -1.9789518485194444, -3.9749611579179276, -10.600814678769071, -7.9513378855882975, 1.945457654405733, -0.6870845412683034, 8.59403805200158, -19.207476587192193, 11.268122567978569, -1.334071421866466, 1.337221870011661, -1.9849732384620822, -12.579059374020169, -17.878557778437575, 3.3051920857325614, -7.31282121328292, -15.261965232734099, -9.280020782862689, -5.971610532874362, -8.639502438267776, -6.625139356005652, -3.3148238846303144, 0.0, 0.0, 0.0, 0.0, 0.0, 0.0, -1.9789518485194444, -4.638974420955995, -5.957813580001854, -19.178553594202622, -3.9591791807918613, 7.248014569545021, 1.9361446469011483, 6.604878660868353, 2.6364119438887137, 5.302158346712171, -4.601118909310578, -5.929836275014678, 5.993125607660975, 1.3011093014346145, 3.9600317665255087, -18.554658751060174, -21.875319120734186, 11.225947473283451, 3.2930765694023085, -8.627087616615267, -6.635681970966002, -0.6626905235255136, 0.0, 0.0, 0.0, 0.0, 0.0, 0.0, 0.0, -3.981591419029931, -4.626523212823, 3.975683072783796, -8.611782901819389, -7.251794886280678, -9.925575644444102, -21.87607516668412, -15.214862317807917, 5.974164986033289, -6.634338242333131, -0.6668523817864379, -5.250502368912567, 11.256878928422765, -5.295694089389448, -5.996551269968345, -21.215231052037545, -3.337837751879216, -11.2568843160331, -9.956922620860276, -5.981445791705289, -0.6626905235255136, 0.0, 0.0, 0.0, 0.0, 0.0, 0.0, -1.3209028459273797, -1.3235483170791782, 8.60938614960557, 13.272643341845438, 5.31743206852515, 15.262201863293416, -1.3205816878812802, -15.872180323504779, 2.6644359945460963, -10.655563570101098, -22.4884322859683, 7.251582324502968, -1.909507458935773, -3.9538243769844863, 12.545127368507327, -4.686677998648657, -25.176460829293642, -9.287798840798441, -4.639673002574798, -9.27522562034536, -4.642215430537395, -0.6626905235255136, 0.0, 0.0, 0.0, 0.0, 0.0, 0.0, 0.0, -0.6607201850016517, 9.956491517736303, 9.30490465026159, 9.294386793204207, 5.993294280765991, -3.244352592752315, 13.920142534121908, 13.23392397465555, 3.3488794606824195, 5.314090897811675, 7.968983477954066, 1.3727161990934338, -0.6049827542969964, 6.622088431227496, 10.534614825689353, -11.914366955424935, 3.302362202702285, -1.9770128363491501, -4.638167352680503, -1.9886510890664382, -0.6626905235255136, 0.0, 0.0, 0.0, 0.0, 0.0, 0.0, 0.0, -2.6383504926445056, 6.589101958296741, 5.975511328662787, -4.627811189117487, -4.634408547609662, 5.2738887079845265, 1.368511259642399, 4.000270825395549, -3.2841097579730842, -0.6614719776500811, 7.92908173559701, -16.4989373697039, -4.613480520382912, 12.585697731768793, 18.51392977867296, 16.53688954279159, 13.230535058769245, 1.339170093931581, 4.639707490751305, -1.3259605655409246, 0.0, 0.0, 0.0, 0.0, 0.0, 0.0, 0.0, 0.0, 0.0, 0.6666666666666666, 5.3010605480648065, 4.63439388139814, 4.63439388139814, 0.0, 0.666000666000666, 2.6345096883402537, 1.9685090223395876, 7.278005082437315, 7.944671749103981, -2.6429725879156605, -2.6429725879156605, 1.3333333333333333, 0.0, 0.0, 0.0, 7.940716348557938, 7.940716348557938, 0.0, 0.0, 0.0, 0.0, 0.0], "label": "7"}
{"weights": [0.0, 0.0, 0.0, 0.0, 0.0, 0.0, 0.0, 0.0, 0.0, 0.0, 0.0, 0.0, 0.0, 0.0, 0.0, 0.0, 0.0, 0.0, 0.0, 0.0, 0.0, 0.0, 0.0, 0.0, 0.0, 0.0, 0.0, 0.0, 0.0, 0.0, 0.0, 0.0, 0.0, 0.0, 0.0, 0.0, 0.0, 0.0, -1.3188314057979662, -1.3188314057979662, 0.0, 0.0, 0.0, 0.0, 0.0, 0.0, 0.0, -1.9874396405239598, -1.9874396405239598, -1.3221036458466477, 0.0, 0.0, 0.0, 0.0, 0.0, 0.0, 0.0, 0.0, 0.0, 0.0, 0.0, 0.0, 0.0, 0.0, 0.0, -0.6555227794165848, -1.974354185214551, -1.3188314057979662, -9.908524910704504, -12.557388569209124, -11.90315238994841, -15.884586512243263, -12.567818976798657, -9.912405606927514, -11.250210189192414, -3.9755674450682017, -5.9584433524326705, -4.634996136959044, -3.3128924911123963, 0.0, 0.0, 0.0, 0.0, 0.0, 0.0, 0.0, 0.0, 0.0, 0.0, 0.0, 0.0, 0.0, -1.3221894460832515, -5.295769379385073, -7.281267451849705, -1.310419982654592, 6.621115682969048, 6.613958818005321, 4.625633769737638, 2.6159609356970943, -7.981440838615478, -17.88336690599692, -10.616461603587865, -5.987364419705591, -9.282345978634023, -6.625686465748931, -4.638231015385467, -0.6397415331241968, 6.606770694874573, 0.0, 0.0, 0.0, 0.0, 0.0, 0.0, 0.0, 0.0, -2.6469516404106628, -2.6469516404106628, -4.657528810195464, -5.319537818195168, 3.964884546264962, -13.235315709132536, 1.9519457252091588, -3.9391242626306164, -8.616047028879215, -14.608597970515877, -11.270152793253402, -1.325525635257435, 10.613573759686947, -12.61571917675797, -3.295248648184696, 15.905063770651402, -5.923501975677968, 7.955266823330157, 3.3387446831807663, 19.81253792471307, 12.552766856371818, 0.0, 0.0, 0.0, 0.0, 0.0, -5.969552899142571, -7.949837872886569, -8.616504539553235, -19.887278418733114, -12.5857817486433, 0.6679012226496001, 1.323428879992428, -5.909524059828175, -1.330868371057449, 3.9668674853558032, -7.97739567092911, 13.897638947524282, -8.603257234450087, -0.6790669985123542, 9.929477091445634, 7.247875816785713, 11.895841292954305, 3.9533591456927883, 12.630252989473739, 18.571257582477102, 16.60123002378206, -9.950194979048444, 4.61998213328578, -4.629074236163374, 0.0, 0.0, 0.0, 0.0, -6.636219565809238, -8.616504539553235, -4.000515735079185, -13.281219200086056, -1.4126575740199065, 8.600236823966863, 3.337477575619473, -5.267007483325007, 8.606458671916279, -4.644911499304308, -2.6317013140235552, -0.07753747573735903, -6.01023118910427, -7.232022131151746, -15.22125023534981, -5.9248847732825105, 4.010096098386998, 2.024281148842408, 0.7402425360949988, -15.233279560010516, 17.25621945025864, 9.967096758573383, 3.3582309346487893, -5.954529903532024, 0.0, 0.0, 0.0, 0.0, -7.964261893851567, -23.19084856341868, -10.633081970529837, -22.551969521612577, 2.6208136660110393, 1.2784477867596653, -0.6382039254398614, -7.232204225176504, -1.9272530483240224, -7.906155100637982, 3.2907425732929414, -12.608043551839344, 2.662376242878943, 14.551993384067995, -13.296726691684945, -8.007323832261008, -10.557004715237035, 0.02357322669637152, 11.245742047156266, -7.229920005311831, 10.649451543547709, 15.953879057251257, 29.848308197704114, -16.50476464288766, 0.0, 0.0, 0.0, 0.0, -17.214026204169215, -18.55329832562009, 12.506798319034004, -16.565625526101098, -2.0448650057827598, -3.9608327818892937, 7.976876675726822, -1.981376278830993, 9.919942111732134, 12.555472473855495, 9.275087056991694, -14.555217831435069, -7.9491345189244, 8.670131780467901, 1.233654401283737, 19.891801914397252, 2.6025160795129523, 2.0598477779279305, -2.633558678185147, 6.648179192522535, 20.597768025517304, 4.152302481603035, 38.51004386295841, -1.9304234022841111, -1.9809119729219562, 0.0, 0.0, 0.0, -10.604659495008908, -16.57486152622895, 14.50681782024132, -6.611097728857815, -1.2615796108913755, 2.7146032636512816, 2.0133689272890454, 1.9916642904388504, -18.540044539774332, -0.5933054842189173, 3.322184753442067, -5.980141254001605, -11.960668465402836, -28.539608339995766, -19.898971686532366, -4.638421289898984, 15.849745410435393, 3.2747599655984514, 14.520506340953812, -13.254268897885119, 19.868870448314134, 27.903238727612848, 58.994334617073285, 11.264124465292495, 0.0, 0.0, 0.0, 0.0, -1.3320026613439788, -5.294382848476618, -2.014372111821568, 0.693138141475332, 13.24769592201191, 23.214755288709753, 0.015951135187134424, 20.58229751106262, 16.588058472061867, 5.341849185605528, 7.278361736193441, 13.22408523164589, 7.958509007527831, -19.903381401656763, -14.591952592470431, -13.249629747154653, -37.100706911151775, -15.911752616830782, -11.356690482361632, -15.973475396438442, 4.565540617286405, 23.141656638994355, 41.05921065748066, 15.206940709138884, 0.0, 0.0, 0.0, 0.0, -1.3320026613439788, -1.988755882032546, -5.333768776395386, 25.874748931501372, -20.482920330994645, 7.294403638923415, 4.6318591434586835, 9.98807946074471, 5.954286717533037, 7.288708861549884, 3.920200499102144, 1.979852596390665, -3.2886480329259644, 5.368594805425929, -9.92570708874701, -1.3676361018874856, -19.943598136074993, -27.191194025608382, -31.799299668209244, -54.32682700551988, -19.950414184816484, -13.299691679561178, 4.659208093481201, 12.551475185870505, 0.0, 0.0, 0.0, 0.0, 0.0, -1.3234198873552334, -29.794170580849613, 15.244471942985786, -5.923538920843487, 6.046434859673268, 3.301393095736427, 2.6295611668338625, 1.3994809135052586, 11.324106095791691, 5.309264586689608, 0.6540926725782809, -9.942054300213012, -0.6977511755233005, -2.732866588349122, -17.847626250343698, 4.5807478335722775, 0.5930784534123666, 5.279678073886808, -37.14883311046148, -17.306084752999272, -33.13111621988483, 0.6665859417255244, 0.0, 0.0, 0.0, 0.0, 0.0, 0.0, 1.3228747103396783, -1.994022653087126, 4.65136956444183, 12.583037712888544, -17.846396342076446, -0.010292596793225917, 3.2842425663375074, 14.664194016422481, -3.9041222242495257, -11.209848384506245, 8.664243166617691, -11.89613262020383, -14.602097315687516, -15.226774460975868, -10.654927440315824, -8.618538568275458, 8.676417453896011, 8.569870295943112, -21.865307982359013, -36.476761203621294, -22.5369710161229, -0.6666666666666666, 0.0, 0.0, 0.0, 0.0, 0.0, 0.0, 1.9782813167546676, -3.992254623149572, -1.390471046835751, 13.247129595556718, 6.014488164144971, 11.890866318759493, 10.61227942376745, -9.252694663643155, -8.523033371403233, -2.6249015585746633, -1.3039175064004982, -7.276971347154978, 15.829610300252064, -0.6864711867308911, 22.467589723553694, -8.640086190818685, 15.19392522043158, -19.852548123051115, -2.026426028270723, -12.600402297659393, -3.9908745869208326, -0.6666666666666666, 0.0, 0.0, 0.0, 0.0, 0.0, 2.659363202595226, -9.25626740462108, -9.935679257600142, -11.935654461303201, -13.287915690254902, -7.30923072656625, 14.583266141152894, 18.55115072416723, 0.6634031460229671, 13.982179919954266, -21.212871210957708, 5.98150517612531, -14.552188134221002, -15.271246048026065, -4.014911102502989, -19.30631090602964, 9.234233394797227, -7.923156703073425, -4.603078486630691, -5.970347025836746, -13.903463720934475, 0.0018206196650794038, 6.614592821039715, 0.0, 0.0, 0.0, 0.0, 0.0, 1.9926965359285593, 12.582226767907272, -21.85068587941967, -19.24643827972563, -11.303664551458809, -21.906293433179417, -1.3677458834107084, 8.587571678115435, 3.3500994690728882, -5.281491018192058, -0.05327602341023341, 0.019525253199877524, -6.057419686240595, -5.329454950419058, -2.055190236473618, -2.0341929872559747, -6.000479706861245, -12.60263884215044, 17.195893504243926, -5.306996709005926, -0.6340340079413113, 9.263353573521467, 6.614592821039715, 0.0, 0.0, 0.0, 0.0, -0.6666666666666666, -2.6305431439633673, -11.236456220357482, -13.912773641471972, 21.83978852235019, 3.976562863385497, -11.994894496047607, -28.553097676261267, -10.620512209931952, -27.094916605454657, -6.675118732069984, -10.590307925386515, -21.170021974701612, -1.381834918880883, 2.6447511664463965, -3.3299629296662365, -7.954438516675283, -6.666004572002861, 9.909861818942993, 14.631837968571041, 3.947257150676416, 19.84514737552501, 8.630171326850988, 4.637676542690665, 0.0, 0.0, 0.0, 0.0, -3.3024146058040413, -4.625895722388607, -5.938822544859558, 13.903531353838325, 9.991103382990357, 3.299529817550386, -19.92271552068705, -12.583909744962789, -11.92332165962841, -5.401958487829447, -27.212631502122562, 5.198649780465702, 0.5890620264387055, -5.293471831949566, 11.203684431489652, 15.19055280590468, 9.976172135613734, -8.661898451473768, 12.519995085362687, -5.934086554941195, 0.703247999370716, -3.915165889588259, 2.6515015623478497, 3.966471042148666, 0.0, 0.0, 0.0, 0.0, 9.258898414830034, 16.51459118053433, -11.203332025398517, -10.645601155535093, 9.280686185513893, 8.645819974053534, 7.936231161157619, 16.533724749513556, -0.07074116394843233, 9.916839677189714, 11.312688447509867, 1.9801435765047963, 8.567448251126788, 6.598967346830367, -22.532722952928847, 15.202313553972882, 15.86168395241442, -0.644684488785677, -7.933895190439128, 8.632389163670304, 9.280448033352048, 7.305644091215541, 5.978216752550771, 0.673228747400613, -0.6574621959237343, 0.0, 0.0, 0.0, 9.925565081496703, 7.95378507095161, -15.152651877777519, -1.3627319381050569, -1.9334203625023738, 30.498216669469866, 4.6000415253181375, 7.219713425798192, 10.577762045887606, -5.922793436640198, 5.29788345784393, 4.633765933028603, -17.269200061899095, -8.578790797042252, -6.683597375800223, -20.53807201252499, -5.3283823053299075, 2.6810198763428295, -4.6800275602779005, -13.890163844568523, -0.006599161253984187, -1.93432543185836, 16.564491846950645, -8.560833841390169, -0.6574621959237343, 0.0, 0.0, 0.0, -5.268280692541583, -7.26103473842288, 15.211917595279495, 1.2892818654480895, -25.14293362744162, 17.24511089449138, -9.263250998718068, -3.304230530745249, -8.571319002992151, 7.946125868326015, 6.64557091029442, -3.3252719969168947, -2.6365013664366774, -1.3234872475279529, -0.7057409328837688, -8.640301495664794, 9.25834282786266, -2.6456050157816637, 17.222516657834085, -2.6126295997407647, 18.530245598598654, 6.663834731376096, 15.249450478124995, -6.583833149010638, -0.6574621959237343, 0.0, 0.0, 0.0, -0.6548788474132285, -4.6344432203470465, 6.585129950259364, -11.958093708269043, 7.284326875542929, -3.373130030154517, 4.0136698504351624, 5.31026199303444, 21.251311900899154, 2.6825427325415605, -2.6974796536298076, -7.260672678484296, 15.197208159970852, 12.56976115767661, 13.23189394707542, -1.3546970748258031, -2.613423531592413, 19.155702357751636, -1.9569898330739761, -9.912339963106952, 13.258787549249103, 12.585006570221033, -1.30176219451541, -4.61206876722553, 0.0, 0.0, 0.0, 0.0, -0.6548788474132285, -3.96777655368038, -0.012366942874437847, -9.900445518638044, 17.898419493956627, 2.5720143588800055, -1.3575947668000543, -5.945459893629979, -3.31066008023992, 6.625115300952628, 11.223462413195836, -0.03418709720848878, 5.354892728878347, 0.01728093370617967, 0.6740299894699969, 11.212101314421016, 2.5995241464476537, 0.023891466598823685, 0.6948137511580942, 5.287193098606573, 9.935385402049683, 1.9802952825394677, 3.96968296980298, 0.0, 0.0, 0.0, 0.0, 0.0, 0.0, 0.0, 2.6155318253418387, -3.3638905137857877, -9.268806464612249, -13.243620818137863, 9.925646052131945, -1.2867712683562007, 18.53876445445861, -2.5981991484634364, 19.212381680644295, -6.63617665120434, 9.87794390813118, -4.677478705501121, -7.260408795457641, -1.3195895546255794, 9.945227755519578, 9.903122228776251, 1.3449404168824728, -9.23456415967759, 5.961149374077078, 2.639671679632327, 0.0, 0.0, 0.0, 0.0, 0.0, 0.0, 0.0, 0.0, -0.6666666666666666, 2.6311840161182602, -1.3575455556839717, -1.9972982170617066, 0.6502411896488717, 3.3122651919291757, -2.6336312116603247, 0.6745597865256557, -1.9284731974440885, 7.932087809534432, 14.582043195313169, 9.90456073654443, 5.273364297023007, 2.013496669102352, -1.9764540167955564, -5.314901427754534, -11.916948622119854, -11.916948622119854, -1.9966779568373192, -3.2899686256638123, -3.2899686256638123, 0.0, 0.0, 0.0, 0.0, 0.0, 0.0, -0.6666666666666666, -0.6666666666666666, -0.6666666666666666, 0.0, 0.0, -11.244463705471645, -11.244463705471645, -1.9842013015862165, -7.953946485921217, -8.606821115856727, -7.937464723864256, -7.2734567464671045, -1.9927544027303266, -6.631679665800149, -0.6685868085256566, 3.2945531961590655, -1.9966779568373192, -11.916948622119854, -11.916948622119854, -9.92027066528253, 0.0, 0.0, 0.0, 0.0, 0.0, 0.0, 0.0, 0.0, 0.0, 0.0, 0.0, 0.0, 0.0, 0.0, 0.0, 0.0, 0.0, 0.0, 0.0, 0.0, 0.0, 0.0, 0.0, 0.0, 0.0, 0.0, -9.92027066528253, -9.92027066528253, 0.0, 0.0, 0.0, 0.0, 0.0], "label": "5"}
{"weights": [0.0, 0.0, 0.0, 0.0, 0.0, 0.0, 0.0, 0.0, 0.0, 0.0, 0.0, 0.0, 0.0, 0.0, 0.0, 0.0, 0.0, 0.0, 0.0, 0.0, 0.0, 0.0, 0.0, 0.0, 0.0, 0.0, 0.0, 0.0, 0.0, 0.0, 0.0, 0.0, 0.0, 0.0, 0.0, 0.0, -1.9933585604790776, -1.9933585604790776, -3.3194383494668784, -1.9927464556544674, -1.3254281949934124, -1.3254281949934124, -2.6508144805390605, 1.9618767094933638, 3.953929661705679, -1.3411919026490087, -1.9920804549884668, -0.6666666666666666, -0.6666666666666666, 0.0, 0.0, 0.0, 0.0, 0.0, 0.0, 0.0, 0.0, 0.0, 0.0, 0.0, 0.0, 0.0, -1.9887728184973983, -3.982131378976476, -1.9933585604790776, 5.948672596991245, 2.6416469415378376, -9.27008649083368, -0.6640243031136553, -3.9624872102702193, -3.355444293791364, -11.281890145303166, -13.294879740090042, -1.402295471136556, -3.3817999843149797, -5.306273762838746, -1.9920529522123147, -1.325386285545648, 0.0, 0.0, 0.0, 0.0, 0.0, 0.0, 0.0, 0.0, 0.0, 0.0, 0.0, -5.285221701192942, -5.285221701192942, -2.6336720712516892, 9.960387239785145, 12.608595222983194, 11.938603996727636, -1.9513722293617652, -0.6075189454025381, 4.661818791942288, -7.956401695717958, -2.0376325501878165, -15.957526831727694, -5.383674336137609, -9.997048365476374, -1.3825436776902906, 0.6135412859266051, -5.961005972183598, -8.58631321094541, -5.288570074303154, -2.6540735225768968, 0.0, 0.0, 0.0, 0.0, 0.0, 0.0, 0.0, -3.9762502776830493, 7.930147048786345, 18.546644978928487, 2.643031235329187, 6.625773918702757, 8.61974589689553, -11.88168216767129, -14.610405114960116, 17.19959955693992, -2.66566010900985, 14.548981239328917, -8.632188409469897, 9.25155519369639, -7.308360927826287, -7.304937954295605, -13.27584191295692, -7.350178473422511, -6.649287011129251, -5.947858618056161, -10.5542183893774, -4.614700738641155, -1.9606272160642586, 0.0, 0.0, 0.0, 0.0, 0.0, 0.0, 3.281961075645218, 17.179184227376474, -4.0018184809240465, 1.3792659545821042, 4.655919843485087, -8.590390157242998, 5.320278357929908, -7.229600691490118, -2.7142351798358115, 23.849093953539114, 21.86225400072873, 7.392909076191551, -12.514568863586401, 2.047016664089041, 7.311992079063378, 3.955643815588675, -11.928783101603212, 7.920257127724441, -8.61772476300693, -15.22012718662349, -7.264231649469479, -1.9606272160642586, 0.0, 0.0, 0.0, 0.0, 0.0, 3.9703567082748714, -3.29659452469689, -4.616477587695267, -9.283554315625365, 1.9873480059473172, -9.921270240192142, -11.244491235033369, -0.7016391400591172, 2.010540440742802, -1.3292615337059628, -9.205681436568742, -3.344327910242222, 0.6585297217123299, 7.32070072905517, 19.190783196142636, -13.904903410435615, 5.2957802642026826, 2.5992026857713055, -2.6620704395567376, -3.2984423486762493, -1.377203001201944, -1.348393020744087, -0.6620324395895398, 0.0, 0.0, 0.0, 0.0, 6.623171482623845, 3.303690041608205, 7.943879128322577, 1.9825737663659861, 9.241987561039167, 5.9579700449585005, -0.03985856484800254, 4.6066342688848225, -0.01962487208554564, 19.215103239409967, 17.206757047111687, -5.988474501548588, -6.727238596905556, 9.26273166088896, -17.257419435847634, 13.855674204876301, -17.2358365352198, -5.310308791319309, -4.0254442888794175, -6.636130125245438, 1.2992138117747003, -10.630365121401471, -16.561254191574196, -8.605342716638308, 0.0, 0.0, 0.0, 0.0, 6.623171482623845, -3.330620174011936, -1.9994210296864519, -12.55097971123421, -33.73461486922316, 7.94334186657552, 7.267290957692831, -0.6443501272526871, 5.300047403697041, -19.843047202329497, -9.245785998508719, 15.855851764070515, 1.3037204773946938, -7.948690306305921, -19.874167274588704, -2.610026059493374, -7.286379030187264, 10.595494735856867, -1.3497205718036414, 3.930307407938219, 2.606989425952446, -4.00664856373097, -30.42433313017698, -20.509163721209532, 0.0, 0.0, 0.0, -1.9966779568373192, -7.941348709295446, -5.951981430127309, -5.944796512656549, 26.485257700747837, -8.595146339757783, 11.899127329807925, -9.291129597725586, -2.6385543079536298, 10.613926875105339, -5.323307873567681, -4.0108417640759715, 1.3276127887991191, 3.3752628561198, -3.346513155898573, -8.020840931197473, 22.547305465464056, -0.00477973095776929, 13.91734006171681, 0.6816869549672341, 1.3001951114748458, -1.3339039053201658, -7.973039793599914, 1.2958666165444828, -15.882054590659244, 0.0, 0.0, 0.0, -1.9966779568373192, -7.941348709295446, -9.255671471735514, -12.52993244720167, 5.967555958342536, -6.023671143204281, -12.646811854236066, 9.197821834031032, -10.598925218838883, -0.6469806398404238, 13.899726464836846, 13.885629304819027, -7.977273725337057, -4.073225076173008, -7.293860137714029, -4.64680848925585, -15.90248964753184, -2.6745058291303314, -7.287190480346494, 15.193128751438017, -0.7303111583324052, -9.251017471148018, -7.906728655257154, -0.03612596923562461, 3.3055625065549297, 0.0, 0.0, 0.0, 0.0, -2.633149075368811, -9.908603172722316, 22.50641170009749, 3.921786077255063, -39.758781226422556, -7.355698949715991, -23.236437944113256, -22.58999885464239, -11.97296488697464, -12.634343462960956, -11.308059010640719, -17.325018692506006, -9.947889908074892, 1.30380862373416, -6.000561457817355, 14.57429653585076, -9.287258792190045, -7.9393499695754395, 0.6477637766671885, -5.964376279937147, -5.286481230037765, -2.654775304400248, 13.878238918450734, 21.82077682366401, 0.0, 0.0, 0.0, -2.633149075368811, -2.633149075368811, 3.9545653104793166, -4.625304935047019, -17.2666352550956, -19.313794843912387, -24.57705383852168, -14.677061904772646, -7.349818047233389, -7.952947634364816, -17.248325593960068, -12.005739020886121, -13.898908362782961, 1.2549992680476931, -5.360711931030472, -9.277406567719327, 3.921926118403233, 0.0032728651768392236, -5.3027559222042635, -8.638880564476736, 15.1880340693148, -15.183411653129905, -8.601556400172399, -0.6694262948372861, 12.595321314812317, 9.266065305266306, 0.0, 0.0, -2.633149075368811, -2.633149075368811, -9.92631422681529, -15.227405939325202, 1.2189591925116803, -25.23699163502552, -11.287317343748942, -0.06472326719351496, -15.938094455171878, -8.648270282274236, -2.6744601680670614, 7.257994280203201, -24.51453849102453, -5.423412732690851, 7.95894549057103, -31.166294020390538, 2.675887712695946, -6.641005179477321, 0.6674859177568185, 1.9492746898813653, -3.9696568789107367, 2.6459690111423946, -9.929186457889582, -5.283566627938624, -3.2729935481218275, 9.266065305266306, 0.0, 0.0, -2.633149075368811, -2.633149075368811, -2.6417863875550127, 11.227798443259623, -13.921782026653876, 1.897287647637274, -14.52351006507779, -10.593092545518289, -0.6771634607314229, -21.920570782537073, 1.3333569572437787, 12.601285553757023, -12.548824978760926, -6.572805946399156, -8.638936005123515, -2.71433261645754, 4.635879566413008, 9.912502746993564, 12.573306760489544, -22.51059088144104, -30.507002227158882, -20.603288103052435, -11.261665837048675, 3.276597238143567, -1.3005020836958139, 11.89399766605404, 0.0, 0.0, 0.0, -2.633149075368811, 3.299686463066088, 9.91028659588418, 24.48203210108371, -2.6704353078446985, 9.916940739953962, 13.262210952007045, 3.3556846565172167, 19.197642176424225, 15.907226139265518, -13.899988451569449, 9.976717826641345, 6.651150700456536, -10.653267787549929, -3.3422528952158004, 5.9931635575348325, -3.2957540462522976, -13.248511864228586, 13.884750785826633, 9.172905023853392, 6.586392434336221, -7.967596376843443, -1.9966510117995826, 13.922113395988305, 11.928082954090806, 0.0, 0.0, 0.0, -3.3063409930718297, 9.26873633034856, 1.346903902427984, -0.640350366545729, 0.006648881322322664, 13.930033194302165, 7.974796514849236, -7.949323748190715, -1.9999094924467058, -0.06313014043169063, 0.6938692750817345, -3.9439763005709993, -1.940409096207548, 6.529566479968384, 5.961758597510242, -9.219579660009465, -10.59880436814089, -3.2945196024019374, -2.0504777675063552, -14.4974662089238, -6.652663236032924, -17.19110137461984, -0.6718632263793068, 11.927348653534864, 11.928082954090806, 0.0, 0.0, 0.0, -3.3063409930718297, -1.3188383032463564, 10.554789898950744, 9.251930014330156, -2.6257843763283706, -5.209137369626891, -5.931079285318301, -1.3385795067923394, 6.005107139622249, 2.015746385881383, 21.206028964271674, 7.998408434921061, -8.582572319835101, 11.943073985685135, 11.252649867976388, -9.246555771735824, 3.3239994161461217, 12.580518840293365, 1.9178059449700022, 15.925414736665331, 24.464359902936188, 8.595584362848882, 11.228228287248424, 3.960681477846463, 7.283224497222274, 0.6666666666666666, 0.0, 0.0, 0.0, -9.943831248586012, 3.3109484015995854, 11.262375372297033, -6.605886636944557, 1.9752573848887716, 12.632153431834023, -11.194030613680646, 15.937146544928666, 0.7095098205434675, 0.69821983835934, -2.614701508464809, -13.265827652982484, 14.550320660402981, 2.6772852117078374, 9.318553069678217, -1.2775045284932256, -5.958657137502681, -3.283350113851345, -19.15725861602836, 19.23243392652448, 7.34764802550668, 2.64588230856838, 14.529983553190792, 7.283224497222274, -0.6567961952577337, 0.0, 0.0, -0.6554526841918016, -11.271164439426354, 9.268194321747682, 4.005887211295139, 33.08503317400092, 17.209963274460062, 17.86628955607906, -8.622720657588047, 9.298950033330811, 4.66846524454946, 11.264400916744957, 11.838347219351, 19.24753793201497, 3.3158825917644394, 3.9667748250239585, 1.9808016416909764, -5.318133795725356, -13.232800241795449, 4.615247426909089, 15.897886196179645, -1.9380251474809294, -11.896465174694136, 4.61815039260823, 9.25515559799865, 0.6666666666666666, -1.3234628619244004, 0.0, 0.0, -0.6554526841918016, -15.897033623074112, -3.323865111497815, 3.9680262322373725, 9.327298205720577, -20.477517709162782, 15.97213184795028, -6.585240833654496, -4.593702754096466, 16.546877584294922, 7.250578330317943, -5.273608084882962, -11.860111631041573, -9.902130108177296, -0.004740884427693048, -0.6967518465621579, -15.227919051578052, 20.546665714067913, 1.3516976253783262, 15.213112027258813, 2.008687030807698, 29.182818514788963, 12.618965759929555, -1.2939384120849007, 0.6666666666666666, 0.0, 0.0, 0.0, 1.987461803878241, -8.59355628493854, 7.240704957453625, 1.3419385805235038, -1.9972255665234568, -3.3312624424639337, -1.3933993209633782, 15.886120085254426, 11.298394963036337, 4.65821546922479, -13.276651308338607, 1.9550949022956061, -1.3782715837906299, -23.93703941145077, -8.009592194560721, 14.53230785195468, 0.720924952006213, -2.6393794600990983, -0.012993348675033323, 16.592553613149427, 21.85059650528146, 4.685033910377695, -6.583096666499123, 7.9505394896521535, 0.6666666666666666, 0.0, 0.0, 0.0, 0.0, -10.603352508815057, -6.002551849070868, -1.3568727188931327, 1.3256769590674287, 14.613824669610288, 1.245961264694249, 1.9174101515130153, 10.543154201457057, -7.249868987391599, 6.672090250473082, 9.953675479990626, -11.27661591485235, 0.030081946638945256, -1.954729139232727, -9.885504567513934, 28.481422457763088, 4.643471955502742, 4.010349392921525, 3.3354056713598874, 6.004586713079011, 1.3570531633235654, -2.6212344776442427, 5.9505394896521535, 1.3320026613439788, 0.0, 0.0, 0.0, 0.0, -6.618632302483456, 4.622514158857891, -7.269067799641189, 6.630276906567734, -0.6396764437603365, -15.293416164104258, -4.043081424975706, -13.233457411473236, 3.9299110102379533, -9.331344424645383, -19.881269865442636, -12.61983737648908, 5.233706321266985, -17.931859057923827, -5.978801869778829, 5.314085045582611, -15.17339904731812, -7.277898053611542, -0.6579337628874956, 0.7239594339251192, 2.679251177258858, -9.263487771852795, 1.3320026613439788, 1.3320026613439788, 0.0, 0.0, 0.0, 0.0, -2.627292322267614, -0.6267671242627652, -1.2966545512918177, 0.025323848748097788, 11.229155486999488, -7.296659643343107, -4.65477040369539, -8.00570366036495, -15.900046368840265, -7.271598304158614, 3.2787119152812148, 3.980786139120166, 1.9638160828547324, 10.560538610117828, -15.83632593580067, 7.990416026802916, 20.530064397055497, 11.903850706077026, 14.553385561719022, 8.613235632670365, 0.6739482928501025, -1.995365772922873, 0.0, 0.0, 0.0, 0.0, 0.0, 0.0, 0.0, 0.0, -13.208928706072829, -16.5309994966323, -15.905790227523873, -15.919564885318408, -13.284497443232347, -17.909026769574268, -13.25759614995453, -8.612021067096467, -9.27599956717339, -13.898554980280142, -19.200196533890306, -13.897248858640026, -0.022292556184953516, 3.9729452728695893, -5.965065556491224, -5.965065556491224, -6.615980359779205, -3.30895285630047, -1.3286991062562064, -1.3286991062562064, 0.0, 0.0, 0.0, 0.0, 0.0, 0.0, 0.0, 0.0, 0.0, -1.3306733147211711, -1.9855521621343997, -1.9855521621343997, -0.6548788474132285, 0.0, 0.0, -0.6666666666666666, -0.6666666666666666, -0.6666666666666666, -6.6343102156201414, -8.614563965664406, -1.9802537500442638, -1.9802537500442638, -1.9802537500442638, -2.6357765294608484, -2.6357765294608484, 0.0, 0.0, 0.0, 0.0, 0.0, 0.0, 0.0, 0.0, 0.0, 0.0, 0.0, 0.0, 0.0, 0.0, 0.0, 0.0, 0.0, 0.0, 0.0, 0.0, 0.0, 0.0, 0.0, 0.0, 0.0, 0.0, 0.0, 0.0, 0.0, 0.0, 0.0, 0.0, 0.0, 0.0], "label": "2"}
{"weights": [0.0, 0.0, 0.0, 0.0, 0.0, 0.0, 0.0, 0.0, 0.0, 0.0, 0.0, 0.0, 0.0, 0.0, 0.0, 0.0, 0.0, 0.0, 0.0, 0.0, 0.0, 0.0, 0.0, 0.0, 0.0, 0.0, 0.0, 0.0, 0.0, 0.0, 0.0, 0.0, 0.0, 0.0, 0.0, 0.0, 0.0, 0.0, 0.0, 0.0, 0.0, 0.0, 0.0, -0.6613756613756614, -0.6613756613756614, -0.6613756613756614, 0.0, 0.0, 0.0, 0.0, 0.0, 0.0, 0.0, 0.0, 0.0, 0.0, 0.0, 0.0, 0.0, 0.0, 0.0, 0.0, 0.0, 0.0, 0.0, 0.0, 0.0, -2.6600305049133515, -2.6600305049133515, -2.6600305049133515, -3.3260311709140176, -3.987406832289679, -3.322726266933486, -5.311459854218526, -2.654734253285706, 0.0, 0.0, 0.0, 0.0, 0.0, 0.0, 0.0, 0.0, 0.0, 0.0, 0.0, 0.0, 0.0, 0.0, 0.0, 0.0, -1.9933993399339933, -1.9933993399339933, -3.3194660125353193, -6.618601458219676, -6.636876918791038, -5.310144245523712, 2.643044263240343, 0.6502683101165414, 7.947283012203626, -5.310104101257613, -7.287835583042369, -11.252883068689995, -2.6410037715990793, -1.314332499489199, 4.650746471294542, -0.6561679790026247, 0.0, 0.0, 0.0, 0.0, 0.0, 0.0, 0.0, 0.0, 0.0, 1.3286991062562064, -0.6555227794165848, -3.31160207153121, 0.6560790457767111, -3.312955093506347, -3.330694077504746, 1.3228360864968276, 5.983998890049158, -0.663282228189164, -7.9538658716610735, -4.669256895373455, -1.9762343787798615, 3.96317107094895, -4.690728270376649, -6.600160702218673, 0.023111953489053816, -3.290494257343977, -1.2972366480185307, -0.6333043542376275, 0.667310598670023, 0.667310598670023, -0.6548788474132285, 0.0, 0.0, 0.0, 0.0, 0.0, 0.0, -0.6555227794165848, -3.297867105851342, 6.619823427024152, 3.9768559603424194, -10.583033222937512, -1.3555996660950695, -15.229742487733837, -5.3048667587062655, -9.95955314819372, -3.289202215986995, -1.2947731999632888, 2.6508426508165854, 3.978312624485409, 0.633883185959918, -1.3149760087368536, 20.58778654234519, -4.556950913848529, 4.663344941404097, -7.943914595211132, 1.3129838165791874, -0.007777382160326307, -0.6548788474132285, 0.0, 0.0, 0.0, 0.0, 0.0, 0.0, -0.6555227794165848, -5.289246164288181, -1.3359606964089878, -4.644928829091386, -8.60021625558506, -5.993968393297051, 5.244591596069193, -6.623988368713892, -2.6699207350046104, -2.662516017262287, -5.938523255091358, -1.3443370028608257, -13.950511598204997, -3.318916333394376, -6.628962937146665, 9.9332659808321, -8.595060895124899, 5.3224710475568475, -3.329941902536058, -7.982500199576937, -1.3429731847455753, -5.9525000069245, 0.0, 0.0, 0.0, 0.0, 0.0, 0.0, 0.0, -15.882779464782548, -7.979453587864066, -4.661384800831054, -13.216179310449554, -13.934775043597519, -0.021770327415955526, -6.694216461195801, -10.647269130061918, -9.285488615633113, -2.6391767923495006, -3.950707861874461, -13.27149234740649, 0.6449583062197636, 4.658074844888696, -1.3353354814941958, -1.3443640733873452, -0.6568881332701265, -4.658118434455227, 1.9664180296676594, -9.267422120419685, -2.6449794766980266, -0.6542361792607131, 0.0, 0.0, 0.0, 0.0, 0.0, 0.0, -13.90708861051682, -4.005796421978141, -2.0091055632189727, 2.6435182819129306, -3.992169343596121, -5.31489257594195, 6.641424565063422, 3.310486251380185, -7.276269351374829, 7.943356277377899, 2.6361888906583464, -0.6714591377229241, -11.26620707388312, 5.9513163726861755, -2.0038247159142477, -7.296322263880063, -1.9952904029627447, 5.940656688811019, -5.3162501307753445, -1.9849134700973665, -1.9849134700973665, -0.6542361792607131, 0.0, 0.0, -0.666000666000666, 0.0, 0.0, -0.6666666666666666, -12.579050909197981, -4.654023622683777, -13.230572716722943, 3.968981002499839, -4.66267153326983, -9.233572063515, 3.3306165490588446, -16.553260173762553, 3.936855615185869, 6.019925012430583, -3.9453647429321395, -2.005190678025203, 3.9702790808920145, 1.9631799329615154, -16.586753988084627, -6.604241758639749, -2.004638601760006, -8.616689161215993, -2.6640106241699866, -0.6666666666666666, -0.6666666666666666, 0.0, 0.0, 0.0, 0.6666666666666666, 0.0, 0.0, -0.6666666666666666, -5.954481677651424, -3.305604669894004, -2.648772604232975, -2.63963172624116, 7.281107860151059, -6.628618687749757, 2.67832092125711, 4.582318903330108, -0.01822880347693734, 8.650690247454445, 3.3374065679292517, 2.67721708118689, 6.5963278780682275, -1.3485650017137356, -5.324517685001056, -8.567554694690763, -5.968459851748526, -2.6443801597491863, -2.6443801597491863, -0.6666666666666666, 7.283160797260519, 0.0, 0.0, 0.0, 0.0, 0.0, -6.620552057842841, -7.287218724509508, -11.236495606986924, 0.6594466287444498, 2.0032134819529377, -5.278711229753935, -9.274142659753633, -3.9740315446988266, 0.6730065294430777, -7.304754929982304, 0.0033651102214398154, 5.979518428772586, 7.326057775960624, 9.912560087213294, -7.9433890903992745, -0.008057451940592708, -7.299706127157572, -12.585084976252148, -1.9757575998820804, -2.6443801597491863, -1.9777134930825198, -1.3333333333333333, 6.6164941305938525, 0.0, 0.0, 0.0, 0.0, 0.0, 0.0, -6.620552057842841, -9.918967404462528, 15.231684958331055, 5.317300110941325, -2.621894719077425, -1.3420389355518911, -17.228759570004655, -5.993473378377648, -0.6634941947069143, 10.579682127136742, 11.276634200212154, 13.907225675461437, -8.585691539542587, -0.6646723930016399, 11.251568749025235, 3.297603119445303, -11.94271302562202, -7.282682520708671, -1.3333333333333333, -1.3333333333333333, -1.3333333333333333, -1.3333333333333333, 0.0, 0.0, 0.0, 0.0, 0.0, 0.0, 0.0, 5.30887945150492, 16.548007237318394, 8.610557240117405, 5.3060792906485945, 3.282529765916709, -13.931014136205949, -11.917342168202417, -6.616597408559142, 14.604778160333414, 6.658772604280979, 7.295174283047747, 15.286764683430793, 3.9469677155326606, 4.613935911531715, -17.25350880787979, -7.972266193271508, -9.947244261647327, -1.3333333333333333, -0.6666666666666666, -0.6666666666666666, -0.6666666666666666, 0.0, 0.0, 0.0, 0.0, 0.0, 0.0, 0.0, 5.30887945150492, 3.3234050584625874, -11.246955916006375, -9.951941157441997, -9.30292446923897, -4.676567395383333, -3.3543896219110634, 8.621750053697749, -0.6472121640396179, 0.689172676179174, 1.3445906229549185, -3.9708682192158014, 2.631454367808446, 0.6177665655027241, -10.597453183566234, 1.3116062299515128, 0.6482016330246445, 0.0, 0.0, 0.0, 6.6172095403131515, 6.6172095403131515, 0.0, 0.0, 0.0, 0.0, 0.0, -0.6666666666666666, -2.6416008967017905, -3.9689640689478094, -5.951242967555051, 1.2971041593706365, -6.656041157108465, -20.546200298950563, 1.9709519630515264, 0.6811941094662689, 5.301345470764118, 5.980268019045821, 4.638548161317654, 7.95519912239329, -5.3332435680530645, 0.6448074132751803, -16.555300294049374, -5.951864982184892, 0.6587003206886863, -0.6666666666666666, -0.6666666666666666, 0.0, 0.0, 0.0, 0.0, 0.0, 0.0, 0.0, 0.0, -0.6666666666666666, -0.6666666666666666, -2.6383978113997006, -1.9789561655622685, 1.9487277518799768, 3.981342156242479, -4.642224203131703, -0.6772817857660097, 3.265762052109581, 7.981625348597023, 2.6866425265435163, 4.673183063614147, -3.338578099338612, 3.2608327678775653, -7.982849727558772, -3.3320400958685576, -13.223295238828065, -9.263460033407515, -0.6666666666666666, 0.0, 0.0, 0.0, 0.0, 0.0, 0.0, 0.0, 0.0, 0.0, -0.6666666666666666, 0.669869751968756, -3.9921441995458746, -5.953965239820236, 8.59221779658708, -11.252974656648568, -4.637746317454698, -14.5591245570083, -9.99177827859036, 2.018384528682513, 9.929073276919816, -11.27844973937664, -11.26487397300071, -8.616001342414265, -9.299737289366092, 5.93476912605832, -9.252396609884995, -7.947876693198747, -4.650107817494332, -3.983441150827665, -2.6600278739185796, 0.0, -0.6640106241699867, 0.0, 0.0, 0.0, 0.0, -0.6620324395895398, -1.3286991062562064, -7.969605966459547, 1.9701370843007493, -9.964472290966945, -3.385731135986074, -11.924281624936686, -3.996782928008674, -6.601045650734914, -0.6633871321110613, 5.314200749805431, 13.249671437639275, -3.9697720256893243, -11.915891893423339, 5.277895301439816, -9.265539445643432, 5.947859746499898, 7.9661056928694345, -9.909143562595037, -10.597352610104238, -9.93728660350358, -2.640383393621171, -0.6561679790026247, -0.6640106241699867, 8.606010744388534, 0.0, 0.0, -0.6561679790026247, -1.3182004185921645, -2.650867751259497, -7.304269971782235, -18.581612060172638, -21.231764428602585, -15.91092300262245, 1.9748776341326728, 7.260106286897457, -5.940827610953689, 12.581700291128719, 7.955668667313835, -3.9943484968688425, 5.284627107205775, -6.608800352248448, -15.889395420898069, 12.603216562650807, 11.256779606424807, 7.280477101072078, -1.9712099498387525, -2.656113974188086, -1.3470191140184629, 4.62981608316592, 7.289136651708435, 0.0, 8.606010744388534, 0.0, 0.0, -0.6561679790026247, 6.627716118343896, 4.635672388583704, -1.3365962511971987, -2.679841742550754, 8.5948105493855, -2.0300180087454223, -5.276103706231066, 8.618317318428193, 0.6464549372146998, -1.334511948458669, -2.027453929925932, 5.934391862227814, 4.661212802917532, 12.571573117895483, -13.893360515432487, 2.6520213382152473, -3.9455783048187874, -4.612905353804621, 3.345489180045279, -4.616109208209586, -2.660645864872566, 2.636416743231927, 19.172625413971424, 0.0, 0.0, 0.0, 0.0, 0.0, 7.283884097346521, 4.635006387917703, -1.994058447120933, 18.537992214889503, 3.31625490298903, -2.682225442550945, 10.590237552778103, -10.609574190147434, -7.9755088784773145, -3.375781598177303, -4.655391211800755, -5.318234802319994, -2.6752453529746987, 5.931635060550668, 2.6613907424884866, -11.891540524821291, -5.964513179034349, 5.935307440599202, 7.9411899517479805, 0.646883051336338, -3.343058984238607, 12.552125280093062, 11.22732078326036, 0.0, 0.0, 0.0, 0.0, 0.0, 6.617217430679855, 6.617217430679855, -1.9972050189366801, 8.621285949620074, 12.618600732503957, -9.267090750413406, -3.969033129187391, -5.983005563735566, 0.013708622693468397, 6.616533063730687, -6.6166448006529075, 7.925348958183787, -13.90970187571238, -7.30041482491789, -1.9599738241398859, 0.6739036090555219, -5.320175651655013, 4.612621235563273, 9.927336640787956, 4.620492494500444, 5.943327140169735, 11.22732078326036, 12.554053456527686, 0.0, 0.0, 0.0, 0.0, 0.0, -0.6666666666666666, -9.281805742272732, -2.6749442401879984, -0.7025823299711753, -2.671701314894576, -3.953122103225125, 1.3239061921950928, 0.6644512324923042, -5.316675672597163, -4.669066089819331, -6.014932679774763, 11.903614500517381, 0.6588998196999521, 1.9827088136721196, 11.294310650692701, 9.960867955872338, 3.958450843684263, 2.6573055467152455, -4.623290159795928, -5.283993643090627, -5.283993643090627, 0.0, 0.0, 0.0, 0.0, 0.0, 0.0, 0.0, 0.0, -7.953106636016525, -2.661833919949036, 2.646993594846796, -5.316653281573093, -7.309335910868734, -13.922677380216737, 0.028097377967257753, -4.631866636697944, -14.599452920676299, 3.298311758807075, -4.633139039634275, 2.618774260009955, -3.9610697856586885, -4.607373982307512, 4.6396282934437245, 0.6666664611707818, -0.008521750255298222, -8.602115164353933, -1.3129977075874588, -1.3129977075874588, -1.3129977075874588, 0.0, 0.0, 0.0, 0.0, 0.0, 0.0, 0.0, -1.3240766307706466, -1.9900772967713127, -3.308966768354528, -2.648900761753868, -4.654144212580191, -9.943171744297313, -17.91017806197563, -11.294858147760852, -15.280332722091917, -12.604502233978188, -19.216481749647215, -15.235094322921672, -12.584295652222114, -3.319490425983048, -1.977673224011795, -1.3123372293344828, -0.6555227794165848, 0.0, 0.0, 0.0, 0.0, 0.0, 0.0, 0.0, 0.0, 0.0, 0.0, -0.6600660066006601, -1.3240766307706466, -2.6429661023538618, -1.982900095753202, -3.9762891751980884, -5.965708466455947, -5.965708466455947, -3.3227526245911916, -5.307640484088318, -8.628376732717337, -3.320736248629019, -4.637608997752079, -1.983539415789727, -1.9828734151237262, -1.3228151159185642, -0.6568144499178982, -1.3123372293344828, -0.6555227794165848, 0.0, 0.0, 0.0, 0.0, 0.0, 0.0, 0.0, 0.0, 0.0, 0.0, 0.0, 0.0, 0.0, 0.0, 0.0, 0.0, 0.0, 0.0, 0.0, -0.6653359946773121, -0.6653359946773121, -0.6653359946773121, 0.0, 0.0, 0.0, -0.6568144499178982, -0.6568144499178982, 0.0, 0.0, 0.0, 0.0, 0.0, 0.0, 0.0, 0.0], "label": "1"}
{"weights": [0.0, 0.0, 0.0, 0.0, 0.0, 0.0, 0.0, 0.0, 0.0, 0.0, 0.0, 0.0, 0.0, 0.0, 0.0, 0.0, 0.0, 0.0, 0.0, 0.0, 0.0, 0.0, 0.0, 0.0, 0.0, 0.0, 0.0, 0.0, 0.0, 0.0, 0.0, 0.0, 0.0, 0.0, 0.0, 0.0, 0.0, 0.0, 0.0, 0.0, -0.6666666666666666, -0.6666666666666666, -0.6666666666666666, 0.0, 0.0, 0.0, 0.0, 0.0, 0.0, 0.0, 0.0, 0.0, 0.0, 0.0, 0.0, 0.0, 0.0, 0.0, 0.0, 0.0, 0.0, 0.0, 0.0, 0.0, 0.0, 0.0, 0.0, 0.0, -1.330016583747927, -1.330016583747927, -1.9966832504145935, -1.9848954311611555, -3.299166783425514, -3.976290597356264, -5.966279310479959, -5.966279310479959, 0.0, 0.0, 0.0, 0.0, 0.0, 0.0, 0.0, 0.0, 0.0, 0.0, 0.0, 0.0, 0.0, 0.0, 0.0, 0.0, 0.0, 0.0, 0.0, -1.9808806348190733, -11.87630913463957, -13.209642467972902, -5.30499591879065, -8.60804925400024, -7.943368664929626, -9.27988995565559, -7.299612643813291, -7.960309149392644, -1.9940298389126854, -1.3273631722460189, 0.0, 0.0, 0.0, 0.0, 0.0, 0.0, 0.0, 0.0, 0.0, 0.0, 0.0, 0.0, 0.0, -3.9808154419164286, -3.9808154419164286, -9.256265264764046, 5.278074034083251, 8.577964824481286, -0.6600924457780123, -15.198426832223706, -14.571132932002282, -13.28308995331437, -16.582904478263128, -23.842462039434075, -25.167227819334478, -21.157674617468103, -15.19917949076456, -9.920907684461135, -8.58893787009527, -7.92887186349461, 0.0, 0.0, 0.0, 0.0, 0.0, 0.0, 0.0, 0.0, 0.0, -0.6666666666666666, -4.650807733010452, -10.598123705925946, -17.866248625501672, -17.868883589701294, -21.84167813696477, 11.229829155884943, 12.54596705479242, -23.145361672303242, -11.313270286112083, -9.944670724265194, -28.526347514523923, -5.354504796254808, -20.56009728648314, -16.52682273679631, -1.3394703561307613, -30.47469873688379, -19.210746230648525, -6.639002786922976, -3.9704036965054144, -1.3201436603858543, 0.0, 0.0, 0.0, 0.0, 0.0, 0.0, -1.992094861660079, -21.825541260171445, -17.90181698078056, -19.236479467549305, -5.962056621600774, -1.361089225587147, 10.622825170004319, 7.278745169265546, -2.6218882188189774, 26.510991326491755, -0.6413632355056212, 7.9786750753021805, 13.273377521802399, 17.222471121819687, 1.3267918824500367, 6.651914129947072, -2.6353299346106738, -18.583948150404208, -43.062467866334615, -16.581601357942027, -15.909072974146504, -14.562547781953763, -1.9993339993339991, -1.3326673326673326, 0.0, 0.0, 0.0, -1.3320026613439788, -11.275221765376946, -8.655186209841816, -21.915467606704006, 7.871522231318711, -4.664433577849736, -8.62857805701411, 2.039441496731661, -17.878779840868145, 0.06439818080375814, 2.031346579198762, 27.267535181288714, 33.869601436523524, 25.177706470395048, -3.8609393688517306, -3.356134396076568, -4.003911347892279, 15.169566905051166, 5.223499667203417, -17.250253532413783, 0.6106197974242237, -19.906481497955877, -23.20008608698323, -9.936034499911973, -1.3326673326673326, 0.0, 0.0, 0.0, -1.3320026613439788, -7.3264844902793325, -11.993704264880112, -2.666537942055089, -7.3162600881866435, -17.255569369098676, 5.280913435670937, -9.968841364771272, -1.9396112002402162, 12.569212554623839, 12.626081699709367, 16.594216272902617, -4.65002727167429, -5.268979381824837, 15.97916791880829, -7.26007995657468, -10.603168596435587, -2.643005385409036, -3.3007511151641165, -5.999936832673909, -14.644225796190646, -27.18582150690857, -19.217298981363207, -9.936034499911973, 0.0, 0.0, 0.0, -3.96253276452621, -3.982198196535706, -3.3588146470471543, -6.621775610332949, -1.976333901918247, -4.045990585339115, -3.3374220691040337, -6.015639483024012, 3.3494991536944614, 3.3379201120065245, -2.6262266245809878, -13.947873873129083, 7.929838682197684, -9.988871748603255, -2.6641057839206566, -9.343034925885856, -5.999069021866518, -0.03116494774784262, -19.203173892259716, -12.622920914358676, -4.054241624261789, -7.313087573681294, -27.150304060058165, -15.225916005932373, -2.63706817726015, 0.0, 0.0, 0.0, -3.311598213049119, -11.268748815025178, -17.910924920619557, 15.871962380146446, -6.611944873940087, -4.007803455460713, -1.337098967695117, 24.527974896741018, -11.262857443208873, 0.6767064327006466, -4.020409202069097, 3.293200030074118, 11.838407918248308, -7.982134010035314, 3.9982967026390197, -17.21202659595004, 2.622882446151576, 7.330844546550923, -4.030113860373456, -4.682566329472438, 14.579732161234034, -3.328698125073802, -19.164025515963534, -2.63706817726015, 0.0, 0.0, 0.0, 0.0, -5.970977201769425, -15.897220943151275, -5.3469578696307485, 24.519581674138212, 15.24090650000251, -6.576947382603726, -1.2514435012072176, 6.605624337322236, 0.0019907387321043135, 8.646266730910614, -0.031356260927909, -14.577333563605638, 0.640085400489271, -4.634622731103215, -3.989943166110627, 19.87041020088352, -1.345034711785475, 11.917584454059618, 5.9284047397053445, 15.928295611923762, 5.9895834059021285, -12.586995587912387, -12.567210846094213, 3.2996769807686537, -0.666000666000666, -0.666000666000666, 0.0, 0.0, -4.638309869102092, -11.913097812648688, -2.6633610253933506, 7.320608055952709, 1.999016779166796, 23.21647510060643, -2.5564652113983253, 2.6781365928285963, 15.237024227196375, -1.3210314539429668, 12.62792821639449, -13.901266804285104, -0.626026995864993, 7.302967352825847, -7.330307117441157, 3.304531745779353, -7.349540263053805, 4.6404539555002255, 10.590290543026327, 15.263300989083408, -1.3248447549115814, -15.87423754370431, -3.9939535192998354, -6.599579829672007, -0.666000666000666, -0.666000666000666, 0.0, 0.0, 0.0, -4.620051574857567, -8.611963746472611, 9.291808362372091, 12.015220613167969, 19.24221399451412, 7.299930065149043, 3.337072530319009, -11.892981309696811, 2.6271912092017855, 7.283538963302023, 6.034826036856636, 11.323028989866472, -3.2898485753523996, -1.3302863873239397, -7.934762896264417, -3.330000289110174, 2.666251532599504, 0.6698074365427041, -15.890596095233317, 18.50469940428513, -11.275850899666072, -8.612530111409747, -9.239900721080959, 1.331336660677978, 0.0, 0.0, 0.0, 0.0, -1.296687545725848, -14.569098483424849, -13.188444433214602, -9.879106175171977, 7.27554866934217, -10.618276297872505, 11.2581571004409, -1.3131770773497378, 4.018194141680964, 7.330344156026653, -1.329542377348258, 15.896602018260143, -11.197359979677351, -7.9624473860760085, 16.569729594528617, 0.6267958413117806, -1.9959206277682737, 3.947893566430193, 4.65074842354562, 10.575083594789614, -7.951170136959699, -22.4770470535326, -6.5969550794247, 1.331336660677978, 0.0, 0.0, 0.0, 0.0, 1.3371612965775919, 6.592247422425323, 6.57581508232657, 9.899962460242982, -17.191875361831606, 6.635863394229264, 17.89557402908281, -7.262056546474231, 3.3252675726595697, -3.3243021628450435, -1.2287378425801312, -7.937572782766343, -5.374348973664394, 4.590351269161834, 4.663352740994892, -2.599074019318591, -14.575689466495156, -0.7040676064484063, -13.888769172798309, -0.03172450428759466, -13.262191599866792, -28.429038966739387, -0.0013306719893545482, 1.98558687805718, 0.0, 0.0, 0.0, 0.0, -1.3405796314274228, 3.9702644196010635, -15.836509142415476, -0.6546586978856691, 4.576557060516591, -19.811131698419228, 5.3032956686714545, -3.252150994916756, 2.0072581068690676, -0.709042705230935, -16.590824367090512, -10.002258664069252, -1.2913577805231564, 6.6415891690091735, -11.96526743993888, 8.6049590767649, 3.96248812075915, -23.18121935284448, 16.481781272589686, -23.872548938275447, -27.117921144264514, -11.923601531417557, 0.6646699940113114, -0.6541678632880843, 0.0, 0.0, 0.0, 0.0, -2.656713961471736, -14.5304614879059, 16.53283773980634, -5.304176534152547, 4.619692466735005, 6.665271020510741, -3.9019899915500362, 10.669556238863027, 23.863298018488827, -19.207117586341226, 9.244264435574664, -3.38734306313979, 7.313484231950939, -23.8111304582084, 16.554524896427527, -15.887390893465817, -1.9736569013012764, 1.9165244355469468, 1.2700965571559828, -23.857636177480767, -25.169335891136722, -13.936050634188096, -3.980933350840731, -3.292555749888506, 0.0, 0.0, 0.0, -2.6580536182129806, -4.6402197757376635, -21.143058254480383, -4.643630705058612, 4.613225751380615, -4.627045089159147, 14.552381064716517, -8.621133718586904, 3.9254834640064145, -6.602755322426357, 1.302016320404202, -9.25654987571951, 13.254892870534935, -9.933484097913482, 13.94807770865058, -15.22445429082373, 8.594825702703933, 5.967828507007692, -8.641684707058184, -16.613181893115964, -4.006593485005617, -7.320830994966174, -6.633878592817899, -3.980933350840731, -3.292555749888506, 0.0, 0.0, 0.0, -2.6580536182129806, -5.965602132408464, -11.240964687202538, 3.930988771128688, -2.6601040464042267, 4.63817552266749, 3.980804501049051, -30.47297251800068, 13.2344959470623, 15.83284245947782, -17.87147827648019, -12.519840813505542, -19.265223493824077, -5.9917421504174975, -5.982441778707173, 1.9572793742408718, -13.264856836168171, 2.0266123849613766, 1.3244429386775485, -11.270286896947596, -9.255173319192126, -1.344713967403174, 11.903609465986392, -1.3209028459273797, 0.0, 0.0, 0.0, 0.0, 0.0, 0.663452333947006, -12.566366688480514, -29.12435155113222, 16.499464559413006, -5.9212657921056255, -11.227042049855054, 3.9172600361004424, -17.268701303839972, -25.176228699767055, -9.284725222647253, 7.263262159056046, -0.6636146570944267, -23.89525007107902, -8.6099832455782, 6.5828425336975025, -19.84403044929231, -13.215440152147554, 17.86220730988557, -1.3701482496207742, -3.9534946889330174, -0.0067471462081578615, 16.542023267411018, 0.0, 0.0, 0.0, 0.0, 0.0, 0.0, -4.628420198643159, -2.6506924181343834, -15.219896755906898, 2.6564432759709558, 11.855876196757993, -9.968960776287538, -9.961875553607207, 11.840079574292563, -3.3616832570165798, -4.673675523302932, -9.292604754888362, 3.359361801587628, 2.6757549490690318, -9.96446909649437, -26.54920156912845, -8.608142468520192, 0.6511181431176899, -2.6613546725394985, -15.872318728471043, -0.0020173526956692722, -1.3307481382066904, 13.900378187302536, -3.3083117467751513, 0.0, 0.0, 0.0, 0.0, 0.0, -1.3254020012779721, -4.62843984325033, -19.15693202527722, 13.236817462332084, -3.986781973516228, -6.6429008018552524, -14.540893352610777, -0.036083806872366564, 7.88059473612189, 9.910369869630856, -8.608685589324065, 5.264069887754563, -6.5832566995818125, -16.60845187529076, -7.334487612768834, 14.551296088973729, -4.6407663308410365, -12.615639812924051, -5.943476490347949, -17.170098049951303, -11.243029173625757, 0.6686573713427001, -3.3083117467751513, 0.0, 0.0, 0.0, 0.0, 0.0, -1.3254020012779721, 4.6283849991974755, -0.6608038973141622, -30.416461467444673, 14.543315772180755, 14.548730298842102, -4.028449116415872, -5.316755632546177, -22.59528889114959, 8.575931039420261, -6.7038325866456265, -11.997633784052923, 11.182501203752341, -0.10036715972247756, 6.527228563869076, 9.237354224653838, -13.269834321110473, -0.7418441925584113, 5.341077390232646, 4.6351089545819075, 10.581097907264272, 5.953974978980962, 0.0, 0.0, 0.0, 0.0, 0.0, 0.0, -1.330008643397817, 6.605321407007854, 1.332552259294804, -3.313087800276297, -8.63161645543602, -2.656081325561283, 6.558436848813786, -4.669811478265385, -24.44250499241726, -6.615710197101822, -13.294806354924042, -13.290153993340414, -0.7222406745102646, -9.331533202342424, -23.154829840159298, -13.252371559589207, 12.527110942512504, -8.629565194920335, 0.6969795566123996, 35.72271294303161, 18.516497895894968, -0.6489093115779773, 0.0, 0.0, 0.0, 0.0, 0.0, 0.0, -1.330008643397817, -1.316196093347398, -7.253097788516111, 13.204899257521877, -27.14477472418622, 9.951281768181413, -15.87742407457753, 13.240516651692413, 2.6601210463402403, 10.587674094842633, 0.6745095728760812, -7.334262167345747, -1.360180132143582, -3.9699670264638156, 7.337606878961742, 10.65770206203661, 9.90101235962231, -5.31246612979787, 12.572644039532825, 38.355122258938856, 11.22802560335451, 5.9611337994450935, 0.0, 0.0, 0.0, 0.0, 0.0, 0.0, 1.3320026613439788, 2.6443500614010063, 4.620619983700407, 0.6324275076253575, -0.702151759082498, 5.2733893640605904, 4.585154399239127, 7.893863422390029, 3.243282685493993, 3.993401778647266, 20.504821263162487, 9.942711468113217, 1.3600235750015406, 8.592196354816089, 5.955287701445261, -1.9546252240577173, -16.528201634950438, -4.649830109916779, -3.962386977306034, 1.9770022538430498, 9.899326497098308, 0.0, 0.0, 0.0, 0.0, 0.0, 0.0, 0.0, 0.0, 0.0, -11.220821224799906, -11.887487891466574, -0.6666666666666666, -0.6666666666666666, -2.6337712126173183, -6.587096566675943, -9.906516608316013, -6.605391449365424, -5.953191488357936, -6.611257489716096, -0.01175140667237895, -1.3437698541414378, -9.923577237026999, 0.6764888607423458, 2.643060998008308, -0.007124044261056617, -11.896591260603952, -11.896591260603952, 0.0, 0.0, 0.0, 0.0, 0.0], "label": "9"}
