{"weights": [0.0, 0.0, 0.0, 0.0, 0.0, 0.0, 0.0, 0.0, 0.0, 0.0, 0.0, 0.0, 0.0, 0.0, 0.0, 0.0, 0.0, 0.0, 0.0, 0.0, 0.0, 0.0, 0.0, 0.0, 0.0, 0.0, 0.0, 0.0, 0.0, 0.0, 0.0, 0.0, 0.0, 0.0, 0.0, 0.0, 0.0, 0.0, 0.0, 0.0, 0.0, -7.9602305298602705, -7.9602305298602705, -11.96023052986027, -4.0, 0.0, 0.0, 0.0, 0.0, 0.0, 0.0, 0.0, 0.0, 0.0, 0.0, 0.0, 0.0, 0.0, 0.0, 0.0, 0.0, 0.0, 0.0, 0.0, 0.0, 0.0, 0.0, 0.0, -3.996003996003996, -15.956234525864266, -19.901007701406673, -23.901007701406673, -19.92527708048337, -19.92527708048337, -15.925277080483367, -19.92527708048337, -31.9125084581861, -31.9125084581861, -19.928468569859074, 0.0, 0.0, 0.0, 0.0, 0.0, 0.0, 0.0, 0.0, 0.0, 0.0, 0.0, 0.0, -7.984039888327027, 0.0, -25.830072586067743, -21.857877948530504, -37.8221163560416, -57.628841906516904, -53.61346371918484, 9.987316844097013, -9.933548701903597, -67.45893977804259, -15.952874656045447, -7.964588181478967, -103.56042553498263, -83.64758059746278, -63.81363193760868, -35.84954018889474, -8.0, -4.0, 0.0, 0.0, 0.0, 0.0, 0.0, 0.0, 0.0, -11.996003996003996, -11.996003996003996, -11.984039888327027, -15.90151437487312, -9.957078446942132, -53.58997463592764, -49.63747258658776, -5.929742103910038, -81.49036126519964, -25.731210879898363, -57.561456951640096, 61.620070441268545, -26.105187120727862, -4.12692558190779, 37.63639045064575, -53.49368486562138, 2.1016308827226773, 9.967439119083746, -7.917009000769953, 3.814872554280607, -8.06241306507014, -35.703235758352484, 0.0, 0.0, 0.0, 0.0, 0.0, 0.0, -11.996003996003996, -11.996003996003996, -24.007849246793782, -27.89353034293699, -16.130460643793405, -75.53421311270691, 3.9123372154692726, -43.67343597301588, -35.74741549117292, 87.46858743264809, 36.03424055607026, 19.94092925423447, -2.0187374934650446, 37.77814064024432, -3.9085616215724306, -11.818305150581526, 27.742920170236694, 4.165317339680731, -17.892646528547697, -18.018633844485393, -55.76558567767069, -39.70323575835249, 0.0, 0.0, 0.0, 0.0, 0.0, 0.0, 3.9681116094028277, -4.031888390597173, -27.999865214857653, -35.944761163398574, -53.684369619184054, -9.874190153195624, 25.82584847494013, -18.023345463734607, -55.87216954459473, -15.878056190548136, -83.4656296485917, 17.900950233391153, 22.152851771055193, 25.802526336503313, -89.61162643369015, 7.961578207054294, -67.55235084359661, 14.047326611740555, 73.48656667659114, -65.76902059261774, -87.62370296314194, -87.44224926952464, 0.0, 0.0, 0.0, 0.0, 0.0, 0.0, -27.873990241528748, -24.007849246793782, -32.00784924679378, -49.960234054294396, 21.79773898081443, 17.846822975454693, 41.5859098562609, -36.195383940357395, 7.704153756143255, 59.46701246663097, 63.67967533737467, 19.896106753964375, 14.176720041752173, 26.113728991788328, 25.919200008752874, 47.8050318174811, -50.0442872307715, -10.073792632729752, 13.850112753297797, -39.609246867962185, -87.46633047820977, -59.61611256724185, 0.0, 0.0, 0.0, 0.0, 0.0, 0.0, -39.747902019083696, -39.881761024348734, -39.9483216186386, -75.5934612390267, -37.97968844514499, -109.57160371462622, 23.597809766048496, 27.525950911038215, 23.679868531439535, -7.810752088424565, 35.81693135484836, 19.880992482417156, 39.88051419356617, 59.69835606619655, 18.13064531197114, 25.964046257231352, 25.549230326263945, -15.951858418416109, 12.035606852082456, -67.76231800561236, -8.05058395760815, -59.592938999557596, -11.948494701990677, -11.948494701990677, 0.0, 0.0, 0.0, 0.0, -35.86991577355895, -43.84278014057414, -47.79533913967466, -15.870434024384323, 17.511874541585883, -10.259133288873183, -11.680505912733505, -55.63941531689293, 0.14106310920696252, -51.77116453811384, -45.998553423367035, 0.008452171972360922, 21.91388779472069, -45.616868942527546, 42.110267705317646, 6.233038829776349, -13.964806988636923, -107.07542258689386, -7.779070531074405, -15.818715461693735, -0.0984373326430692, -59.47891905229705, -11.948494701990677, -11.948494701990677, 0.0, 0.0, 0.0, -8.0, -39.79918885803832, -0.0020027661802641816, -67.45951018880575, 35.506189422324994, 7.637365988143724, -32.1027062517875, -27.994710268850007, -3.9061215103793403, -4.191866497661217, 11.869399339561692, 38.0017550977459, -85.57669073941072, 7.964673883348387, 43.7070955437823, 39.793889525806996, -6.065461665903688, 6.244792536761094, 83.58087613119899, 24.113012644227304, -3.9685037373565537, 15.810286771980635, -27.747474338767365, 0.0, 0.0, 0.0, 0.0, 0.0, -8.0, -51.75138799786883, 11.904494953148355, -15.802172929485021, 47.652138489581134, 15.467426684737067, 27.88123766666432, 31.723084706716442, 59.521544958781135, -43.71894466003209, 27.926652389140116, 9.829500590514893, -41.88387479756412, -5.996231646583824, 79.33703343199655, 19.97896728025281, -6.1064645017185635, 81.71526543260346, 57.60831574648897, 47.99416739192142, 87.5202596905995, 7.999317268441936, 11.948044702206989, 4.0, 0.0, 0.0, 0.0, 0.0, -11.980099502487562, -59.703831064543195, 35.970812327206396, -0.08217137179031653, 31.742949598808604, -11.905724556518717, -47.679578428727766, -87.28156618611597, 19.861886845429296, -33.82753682471401, -59.58608341645912, -55.80269386117018, -26.252902100576954, -69.90023740783059, -37.90460849389441, -11.970316710751263, 37.81022311196368, 65.74353435778899, -81.59902381657048, 55.81414498198358, -7.833899700867684, 0.02755106666120799, 11.885425885448237, 4.0, 0.0, 0.0, 0.0, 7.936632914980395, -39.79434849057621, -11.972005478529535, 31.814640566026956, 75.4832058365552, -35.68842511141771, 31.899860728929216, 43.993222430903145, 4.077618286775384, -39.506881336354716, -25.55195796440728, -89.36881382961596, -79.84937709323019, -127.82780552836898, -24.495999458962896, -17.971945351131033, -37.892917144416735, -63.75104583870537, -14.058246652063993, 9.744100614795357, 12.147100521159935, 43.82292732768647, -35.584429235907606, 11.885425885448237, 4.0, 0.0, 0.0, 0.0, 0.0, -47.77446358969376, -11.956048695049237, 91.47455865166062, 71.43961143094806, 28.11347550541033, 43.91236236239821, -31.95166760316108, 27.794470768900165, 19.931839095790487, 23.656400472661804, 37.42961857334955, -161.1978969556667, -80.07505076669824, -63.97213548794472, -8.158226105504784, -35.82512303455821, -71.67871761634574, -7.959453371877037, -26.02644724550368, 27.88206036792044, 0.09622161404432905, -31.587933129967293, 11.873461777771269, 0.0, 0.0, 0.0, 0.0, 0.0, -11.952863287780346, 11.873427900045229, 39.97187768030875, 35.811070720034664, 139.28483660213607, -41.673977685591694, 113.14296805990558, 37.67537576857821, -18.16178552920024, 37.758218857425724, 5.8008848789057135, -238.82517920623874, -101.72722781570943, -77.7043511648989, -31.889526087612627, -35.79183597079392, 1.9211990595312356, 19.803506209103354, 3.8377655035845635, 55.668970701266346, -19.76982417267883, 55.78770496586367, -0.07093533163578103, 0.0, 0.0, 0.0, 0.0, 0.0, -11.991546781718387, -47.679808141106996, 16.024243502820433, 43.834171905023425, 51.74164365026057, 55.81111212758455, 47.889775154579496, -15.979607223323253, 15.755683855171267, 65.46565613375678, -201.2315737472776, -197.10291468890242, -85.81071438205477, -8.048872085301904, 6.058511739684325, -27.735520317309323, -53.67967408091612, 3.8978968696874956, -47.53400722139759, 12.042588789968303, -3.7944612021391517, 35.67272134928098, -0.07093533163578103, 0.0, 0.0, 0.0, 0.0, 0.0, -39.81338387916342, -15.842091005361784, -15.91519145739817, 51.885133867319915, 16.19838600732212, -23.8163910425714, 95.63983576083608, 57.790844648615575, 87.55330674183026, 5.92859149771007, -141.51240707908792, -50.33433866701244, -34.322509358898266, -45.75138099951532, -51.739565671270604, 29.895376311756284, -9.99336413592232, 21.94111873450948, -69.49399335442199, 11.999748011262518, -35.80573031673769, 35.597562736382415, -55.687289597170256, 0.0, 0.0, 0.0, 0.0, -4.0, -35.90858329480145, -91.49732123815191, -4.215278670227225, 43.723979679414505, 47.91669855944805, 4.240522963556033, 33.88644230160473, 34.14210159341449, -15.884431783215, -31.838714339069544, -80.12091907198727, -133.5912359718407, 7.8797681542410585, -16.082329062435402, 16.05821741134375, 57.61182678147475, -61.57312131989446, 27.806116193267545, 13.897131574631803, 4.114240736904359, -67.65570319414194, -20.13296655896554, -8.058691262947066, 0.0, 0.0, 0.0, 0.0, -4.0, -71.62733938060144, -55.81289202666731, -8.132714314559017, 93.5248119115228, 55.82541933126808, -43.67928720838889, 3.949520089842144, 153.13784277736212, 21.839171382613877, 1.9918667182004821, -10.232120235518362, -81.55792293165503, -13.82244992473693, -119.07896247884183, -65.66762538371607, 9.767304449707229, 13.919703773763363, -53.71512735563767, -25.9083458418147, 7.653104340740942, -47.83310916302281, -39.83698156589165, -8.058691262947066, 0.0, 0.0, 0.0, 0.0, -4.0, -35.8690106723833, -31.88146918793471, 15.614707061978663, 23.734675477689205, -3.6383494036534394, 16.0253646325627, 31.790833986561104, 101.62372249530331, 26.087577516908205, 49.96752758940439, -19.873099509258513, -6.19692337736504, -10.0400466438936, -33.733342762324284, -49.77624692106347, -49.75547794951825, -45.77821849067702, -89.56409707551143, 39.59671611430014, -23.988183316644772, -47.825529993717, -47.809301556829354, -3.944585138024346, 4.0, 0.0, 0.0, 0.0, 0.0, -15.936499678134712, -16.035562837752423, -27.931526570574356, -43.709886354557675, 4.0396487961044025, -6.141866554161553, -49.758014482501146, -9.830274788307285, 45.730902473978894, 18.019040626560603, -65.71046369262449, -49.65250555382817, -25.89838548185939, -21.874252475065145, -127.04389333262357, -10.098592499349191, -10.015673280714285, -43.87675606954647, -28.015527927140294, -4.10680748004443, -47.81388751812331, -23.920319309397957, 4.0, 4.0, 0.0, 0.0, 0.0, 0.0, 3.932621875079887, 39.725608017981614, 67.57231620509033, -19.75135122532257, -29.55360866344485, 41.75063661981366, 83.34402407753234, -21.978262408320074, 57.34567686314714, -45.40688884390427, 69.58884180103843, 22.037372830607904, -7.8430735628954436, 24.014655807468937, -33.93619555802917, 21.541597203560865, -47.829526482504434, 27.837270029450956, 7.913267284304011, -11.98820593109497, -43.727446227426206, -39.77817229301501, 4.0, 4.0, 0.0, 0.0, 0.0, 0.0, 0.0, -25.842206288216175, 41.57590893974594, 9.837650149063947, -41.70835042700388, 45.78873985972242, 25.986408059038933, 73.67890208356795, 39.94003767939954, 63.81392803041296, 77.74676293580207, 13.983896549416158, 18.034920074462242, -26.042196567336223, -12.224552621991787, -35.9429315794882, 8.035296411250844, -0.03930160891586798, 7.885596281816479, -4.008074762001768, -39.731442231422214, -39.77817229301501, 0.0, 0.0, 0.0, 0.0, 0.0, 0.0, 0.0, 1.9959250652221439, -10.00007893078185, -2.087333227854552, -29.944466050509956, -45.759415774126026, -57.69589521183113, 17.8413013416912, -27.68885872854962, -23.826534183934132, -67.60927471190412, -27.8903018355881, -0.12570677447425727, -47.627873089760406, -103.4372520824821, 0.007817826369666214, -27.813995414382475, -35.76269352303878, -15.873625375167189, -0.019868830906794255, -7.925417075564279, 0.0, 0.0, 0.0, 0.0, 0.0, 0.0, 0.0, 0.0, 0.0, -11.996003996003996, -11.996003996003996, -15.976103498491558, -47.71894537377852, -47.66752651579887, -23.78652446316213, -27.86535803251798, -8.074857655912673, -95.49776387368262, -43.786765985231, -23.89776802571669, -75.52581633448243, -47.82932689443149, -31.82975144071335, -31.742997314919194, -35.74282469213199, -15.853756544260394, -7.948494701990677, -7.948494701990677, 0.0, 0.0, 0.0, 0.0, 0.0, 0.0, 0.0, 0.0, 0.0, -11.996003996003996, -11.996003996003996, -15.976103498491558, -15.881382241598912, -19.873398209662785, -35.66046566775975, -51.69172610540944, -59.67581363583712, -43.7545774669526, -43.7545774669526, -23.94424677450003, -23.94824277849603, -27.940258746559902, -15.940683292841758, -11.853929167047603, -15.853756544260394, -7.948494701990677, -7.948494701990677, -7.948494701990677, 0.0, 0.0, 0.0, 0.0, 0.0, 0.0, 0.0, 0.0, 0.0, 0.0, 0.0, 0.0, 0.0, 0.0, 0.0, -4.0, -11.996003996003996, -11.996003996003996, -7.996003996003996, -4.0, -8.0, -11.992015968063871, -7.992015968063872, 0.0, 0.0, -7.948494701990677, -7.948494701990677, 0.0, 0.0, 0.0, 0.0, 0.0], "label": "0"}
{"weights": [0.0, 0.0, 0.0, 0.0, 0.0, 0.0, 0.0, 0.0, 0.0, 0.0, 0.0, 0.0, 0.0, 0.0, 0.0, 0.0, 0.0, 0.0, 0.0, 0.0, 0.0, 0.0, 0.0, 0.0, 0.0, 0.0, 0.0, 0.0, 0.0, 0.0, 0.0, 0.0, 0.0, 0.0, 0.0, 0.0, -4.0, -4.0, -31.845592563756213, -27.845592563756217, -7.972194637537239, -7.972194637537239, -31.813628416960746, -59.643455295013446, -59.643455295013446, -31.739418627086348, -31.739418627086348, -7.9055165780518415, -3.9408866995073892, -3.9408866995073892, -3.9408866995073892, 0.0, 0.0, 0.0, 0.0, 0.0, 0.0, 0.0, 0.0, 0.0, 0.0, 0.0, 0.0, -4.0, -7.9880358923230315, -7.9880358923230315, -75.54073464683532, -71.54073464683532, -43.71521322639431, -91.30857637002913, -79.35602424423672, -31.967545485268655, -39.90777752696264, -43.915745630643606, -95.33569586790453, -39.80658630703933, -31.853638898947967, -11.869599010620945, -7.893455869467863, 0.0, 0.0, 0.0, 0.0, 0.0, 0.0, 0.0, 0.0, 0.0, 0.0, 0.0, 0.0, -15.900899346424278, -7.9880358923230315, -75.46631541819096, -103.31190798194719, -119.32301315223862, -87.67477003526602, -95.5641510255033, -127.39815263490736, -99.74878708972122, -87.77320011592766, -103.52825638981093, -55.81811971502085, -55.65993977731378, 0.10202422977978287, -11.700056769756904, 16.070620457396863, -7.885705846459983, 0.0, 0.0, 0.0, 0.0, 0.0, 0.0, 0.0, 0.0, 31.79820562430497, 19.897204522417503, -19.80190044831174, -7.932083554048706, -35.69206412593908, 16.003054766095726, -35.60983577272455, -55.601831395929814, -51.81847789012098, -60.049143214914814, -32.019720050985754, 63.48474202938453, -47.58270502203656, -39.76311327964304, -37.641837457100664, -37.562376226214404, 109.05579260365354, 25.842638576150247, 55.51047856920947, -23.82207928126938, -11.972115470551435, -7.980099502487562, 0.0, 0.0, 0.0, 0.0, 0.0, 0.0, 31.79820562430497, 23.897204522417503, 19.99975245673236, -15.821776810444648, 83.31228131777567, 51.51296885051091, -3.9736553166955035, -35.87436154126783, -15.951771513902006, 55.556965033392366, -11.958344717822428, 43.720105779086964, 69.63593880129336, -61.54117438334831, 75.11158559475959, -8.10609883421564, 0.08317174931002569, -47.50976101669349, 75.81685729440044, -15.743886843619599, -45.74690427459283, -35.82975006449578, -3.9800995024875623, 0.0, 0.0, 0.0, -3.996003996003996, 3.9800995024875623, 51.63673477538856, 71.60094503072497, -35.506560785009185, -15.665099425466074, 6.058211774513773, -25.84641756920092, -49.59019538856855, -41.70799344234845, 0.12550722888326593, -39.95072213483577, -153.33791748062222, -2.275807041456777, -49.65389620152957, -79.54126138971561, 73.80061195209659, -51.38839345697716, 59.67515933299883, 39.891310326763595, 55.98328935481447, 43.97107727628151, 49.77012528800641, 23.818090157555133, -75.22983731721799, -3.9800995024875623, 0.0, 0.0, 0.0, 11.885633286762388, 19.77602068524061, 27.763829968919495, 13.889288419415042, -71.47854666771623, 41.8768262905062, 25.630544837953977, -2.181597394011055, -87.48591344795923, -55.87369492872036, -35.99549390136968, -123.5421896176226, 11.853187254895932, -107.37780931707566, -41.869724410483556, -9.89305097324193, -59.41478920176971, 39.80270094638118, 63.664004467843135, 75.51061100437794, -29.72775596367641, 13.976236158650693, 15.853284682925775, 23.94420803188151, -3.9800995024875623, 0.0, 0.0, -3.988035892323031, -27.778698298761714, 15.717088822746852, 3.8149914780815743, 23.802643259955058, -11.98385282059104, -65.74993350679118, -6.168708877700866, 19.686184446412973, 33.5795912479805, -107.16608076423321, 9.557434402518243, -135.77245032788937, 3.683634383574825, -121.59108571072562, -42.169342832307464, -8.08278034335785, -32.06172677521839, -21.747456642220424, 33.56656526924741, -45.50427581067078, -21.868997828200133, -27.909247399248862, 19.495103174400015, 31.723438936344724, -43.613310101039396, 0.0, 0.0, -31.857093877429143, -91.3869493802282, -15.928446395766798, 11.806554450973966, 23.703135369922517, 7.685612387831403, -41.92810565353559, -35.963819412625554, 35.45789287263875, -73.52883277462738, 101.11168822687195, -97.56085769424615, -43.96746537857969, 51.616179548951784, -4.209120426672851, -19.642652997882525, -95.21581355030611, 103.01209982395676, 21.963855803025435, 25.871227337826415, -77.39965914732022, 23.746925103234172, 11.755324923720455, -8.106119986914948, 7.901336330940077, -4.0, 0.0, 0.0, -43.60940802019955, -83.41840802925411, -55.67186554314182, -138.83859579061976, -16.02018984409421, 11.578262450436327, -18.011974468410802, -109.30395837224985, -24.114366990867072, -57.69185524465607, 97.15895236067827, 15.61233444735631, -155.07877038900537, 25.71329209087199, -21.87379559790379, -9.739891330957253, -8.216418306543545, -65.62481948792608, 15.724231047232582, 1.898420525418655, 35.61993638548658, 7.735967364737083, -27.990202320702572, 55.39255411819967, -19.857196809227794, 0.0, 0.0, 0.0, -43.60940802019955, -27.758851976241438, -15.925446654049264, -39.6839365134277, -47.690729223444656, 85.19413398742182, -21.652600420778928, 166.84563491800427, -35.7310006083134, -73.55606263078725, 16.043594930786988, -73.66644536859998, -129.51272412541414, 37.39646074424141, 37.75120885443707, 18.08285682217384, -15.889348567717612, 27.644945564746926, -43.737854858077114, -9.897869866957443, 19.78295456285745, -67.73381446409313, 47.25109672640576, -47.58927519268269, 0.0, 0.0, 0.0, 0.0, -19.673486711592954, 3.996332053665057, 3.9949686964042463, 47.69921038800043, -146.84570464443195, -25.630079440218907, 9.893622541726401, 4.304202444704587, 55.65279312167116, 20.00195482428602, 99.5899141696664, 23.6964780946798, 11.546887425151258, -77.56728544720669, 125.3436076242645, -31.75746894482568, 9.724281951445327, -23.97833906926586, 15.764596771716157, -43.72798313674615, 11.9173581071076, -63.88302656585687, -43.860990121418624, -67.5146637562289, -47.60500683083582, 0.0, 0.0, 0.0, -3.933136676499508, -35.49458506793468, 23.958100031153986, 51.6796427159806, 139.17006081149174, 41.48097397989355, 41.48443229420741, 36.191713195198396, 194.93868077413836, 16.234345277829622, 75.80550018800186, -4.1240661181109575, -11.7447610986822, -45.68377890956613, 85.4780486995064, -3.551133810196875, 99.63165744133785, 43.349756553711764, 41.691107892911425, 28.013255770708277, -23.972227609626916, -39.479559168044744, -75.5916027384582, -23.925388563546196, -47.60500683083582, 0.0, 0.0, 0.0, -3.933136676499508, -11.767062437068349, 43.72940835909441, 23.863112990233446, 115.28995745989775, 49.692789452220794, -49.80032487450812, 11.93659102243863, 75.71594611105908, 30.077897308633577, 10.128980558477313, -1.639971439782597, -113.36780891569157, 27.524245164410658, 37.885387230766774, 57.55779023417807, -1.7559816863796076, 89.51790966467402, 18.070572675534656, -3.980490959231018, 47.537098308477404, -63.298428216652844, -43.75778937235837, -43.75866420944741, -27.841487644620873, 0.0, 0.0, 0.0, 0.0, 8.01146424504667, -47.53125929745151, -43.447635958883744, 35.91895958135127, 116.72659617037701, -13.448626498894797, -11.807698445752791, -63.42238294445669, 65.96736540414258, 44.200014517447464, -87.52530177569898, -13.91916012120134, 79.44584137974529, -49.43442142749322, 49.99151740641669, -1.9060745421016723, 8.106182703516684, -11.861779450066475, -122.97277747287983, 83.50820815602938, -55.27010680409511, -146.69624160677444, -47.67191105623573, -7.9528891625904645, 0.0, 0.0, 0.0, 0.0, -12.023698557976456, -79.47026358912781, 27.899912354046077, -87.27942004251183, -9.499132558166856, 83.89908416195968, 67.56499653905232, -8.141339713282584, -21.755204745332943, -1.8907176947971722, 97.32174365713627, 8.264860603633288, -5.827161823268622, 113.32093723142052, 20.325333162654392, 16.07931209858185, -11.995386112946967, 77.53999074136031, 59.33329594309474, -4.003807024850666, 79.46570240869741, 119.13380487132595, -83.3833115655139, -7.9528891625904645, 0.0, 0.0, 0.0, 0.0, -19.91257972171443, -127.16579526889088, 43.71826616709829, 35.47906776300837, 39.88947631101611, 63.762550503499604, -59.400496251083226, 1.750896828710692, -93.4133428362483, 49.526178293902426, 71.40700750670771, -25.907625062824515, 15.929936901589986, 81.52690789496067, 61.667673757498115, 51.45503174502045, 27.475148884111263, -79.45055324902093, -43.80627279771754, -79.55726110798999, 122.70045693494131, 19.754718607147296, -43.74277038373222, -0.07894448490241501, 0.0, 0.0, 0.0, -27.869057985106114, -47.78163770682054, -111.08711462554854, 31.854027264078933, -75.69500738711584, 27.59217460677838, 12.022444787970066, -41.30707419974028, 27.628232377380684, -35.48749037218966, 37.633467990288764, 41.56330927586797, 8.082777789976024, 105.41592740893921, -69.50949640935488, -20.24164185170758, -91.91474770233698, -32.11319454220302, -6.076663750887993, 87.21254470239111, -79.56517370536285, -87.69818592433901, -158.96757741569292, -39.69975450180908, -0.07894448490241501, 0.0, 0.0, 0.0, -31.869057985106114, -39.861073953169985, -126.96889571309312, 8.16172692371568, 3.8538804328048677, -202.81312183065612, -71.76545908524812, -30.066324681992402, -129.16211992884794, -83.33280796370957, 61.36465848626019, 107.43216258513901, 77.24256712097535, 9.901929047599314, -63.35252880231662, 31.73543666654366, 31.443834703420418, 51.43626361048314, 5.719352013882095, -87.4200055707096, -51.75503957879314, -95.46251831102113, -59.59257538186411, -31.699754501809085, -4.0, 0.0, 0.0, 0.0, -4.0, -8.0, 11.774871847418305, -3.8898392617604562, 47.406781401093404, -119.45771587009779, -26.14985460137511, -25.89523254158827, -28.189372698776506, -6.366328028820441, -107.36831027689009, 2.0982625660352427, -49.43250937646516, 49.950921403541095, 18.109226886020885, -51.45654881756519, -119.04485711067116, -65.70517044186985, 31.73856182551795, -31.827529136671618, 7.857176022545215, -39.8852402308045, -27.833707579562397, 0.0, 0.0, 0.0, 0.0, 0.0, -4.0, -8.0, -23.96417903347611, -51.711536736362135, -71.78657229614039, 7.585484277786592, -20.09835433426432, -47.7211615315253, -66.10413806448483, -55.959474610366165, -73.63832446805566, -109.43122354463056, -13.826952451159727, -99.73860108979856, 37.485936015219494, -17.775244143384707, -85.29712805144315, 29.82723780552919, 67.49371373442551, -51.57075460037176, 67.41426627602534, 11.900852523790821, -19.916677738901928, 0.0, 0.0, 0.0, 0.0, 0.0, 0.0, -7.94857316596447, -19.912752199440583, -35.80997597702175, -162.87414056663727, -16.24024365348886, -95.35237368434441, -17.820014275625518, -10.110726211703152, 7.731276429553508, -35.979339257270006, 33.92258730642958, 3.9606924197062217, -95.73766841116208, 10.136973217427371, 45.7545853650874, -21.75833817573431, 27.851292684008623, -24.002082494296737, -51.5266420389521, 43.77418615446421, 23.821838725785774, -3.9485582723464994, 0.0, 0.0, 0.0, 0.0, 0.0, 0.0, -7.94857316596447, -21.912752199440583, -33.80997597702175, -22.03868921877641, -33.96693245528049, 63.65498376624061, 89.29177668796345, -79.65562050568991, 1.6787905824338738, -162.97493383609748, 5.999720987306962, -21.983310383266748, -4.036543939811374, -13.885074654166036, 129.08225506221206, -12.014885382586748, 0.34422323849357817, 31.833957632195112, 51.77773887185332, 8.03479121512662, -7.929536484507013, 11.95234107407778, 0.0, 0.0, 0.0, 0.0, 0.0, 0.0, -7.94857316596447, -9.94857316596447, -29.754750412999776, 73.19506260730024, -65.48559708525721, 57.67222915398653, -41.62108904049062, -45.903557509171264, 57.52114272074334, -14.024066449156685, -1.7797468326964125, 31.820952432467404, -55.938871670375484, -10.086532653235253, 21.54300261316501, -63.84351975604363, -35.66262162212449, -27.876457524740903, -31.92042853457424, -55.530400351074995, -7.945299322170424, 3.964321110009911, 0.0, 0.0, 0.0, 0.0, 0.0, 0.0, 0.0, 0.0, -15.830034105882232, -63.41138202783691, -99.07147750839437, -138.78356869327126, -65.7977498822872, -73.80950455428537, -121.52811207154704, -91.32495180915595, -121.1062079509074, -47.88847419478031, -28.17341681581524, -109.4573964298857, -52.030335846742844, -48.01056889482567, 15.656640923955974, -71.62819683407339, -63.58527584419555, -83.38367131783048, 39.74220055896471, 35.76238831039545, 0.0, 0.0, 0.0, 0.0, 0.0, 0.0, 0.0, 0.0, 0.0, -15.889184835536188, -47.63612236208806, 7.7363519469511965, -18.117798199538747, -53.74333498202613, -57.73480818643224, -39.82161964954583, -87.3984114041581, -115.43345212826144, -99.49297650985072, -139.11742568071475, -95.38657029976429, -47.82534850480404, -15.912800544553253, -31.77821472227991, -51.667819359041424, -51.667819359041424, 0.0, 0.0, 0.0, 0.0, 0.0, 0.0, 0.0, 0.0, 0.0, 0.0, -15.889184835536188, -43.70298568558855, -27.813800850052363, -27.813800850052363, 0.0, 0.0, -7.916890279970385, -15.893033421123468, -15.893033421123468, -23.940258746559905, -7.874084400342166, -15.870088396346162, -11.980067741023916, -3.9840637450199203, -7.9483377786903215, -7.9483377786903215, -19.873398209662785, -19.873398209662785, 0.0, 0.0, 0.0, 0.0, 0.0], "label": "4"}
{"weights": [0.0, 0.0, 0.0, 0.0, 0.0, 0.0, 0.0, 0.0, 0.0, 0.0, 0.0, 0.0, 0.0, 0.0, 0.0, 0.0, 0.0, 0.0, 0.0, 0.0, 0.0, 0.0, 0.0, 0.0, 0.0, 0.0, 0.0, 0.0, 0.0, 0.0, 0.0, 0.0, 0.0, 0.0, 0.0, 0.0, 0.0, 0.0, 0.0, 0.0, 0.0, 0.0, 0.0, 0.0, 0.0, 0.0, 0.0, 0.0, 0.0, 0.0, 0.0, 0.0, 0.0, 0.0, 0.0, 0.0, 0.0, 0.0, 0.0, 0.0, 0.0, 0.0, 0.0, 0.0, 0.0, -3.9486673247778876, -3.9486673247778876, 0.0, 0.0, 0.0, 0.0, 0.0, -4.0, -4.0, -4.0, 0.0, 0.0, 0.0, 0.0, 0.0, 0.0, 0.0, 0.0, 0.0, 0.0, 0.0, 0.0, 0.0, 0.0, 0.0, 0.0, 0.0, -3.9486673247778876, -3.9486673247778876, -3.9486673247778876, -11.826638517913565, -19.81865448597744, -23.802718230997357, -15.905352797563163, -11.913336829499292, -7.929273084479371, -4.0, -4.0, 0.0, -4.0, -4.0, -4.0, 0.0, 0.0, 0.0, 0.0, 0.0, 0.0, 0.0, 0.0, 0.0, 0.0, 0.0, 0.0, -23.80214920371975, -3.9486673247778876, -35.55843605175796, -51.526105340153954, 11.853645313376894, -4.0904457568530885, -16.023313895115724, -12.137470437649139, -47.63261708480716, -99.09953044733079, -35.7473645379338, -15.980067741023916, -23.849879130299183, -35.821978767642136, -23.873434947383696, -19.88141102712054, -3.933136676499508, 0.0, 0.0, 0.0, 0.0, 0.0, 0.0, 0.0, 0.0, 0.0, -27.82596954384979, -59.620134715633405, -71.6043019134105, -11.838399890263126, 43.78587521466726, 87.2646820336591, -81.43125432031526, -25.807230121576413, -101.23500022146723, 33.37309102552399, -10.158266768767177, 47.34003546504376, -91.5491056070526, -183.0583079443265, -133.3631394741861, -61.64384843136394, -57.67928918913962, -49.64405758395314, -25.786948665042747, -3.9682539682539684, 0.0, 0.0, 0.0, 0.0, 0.0, 0.0, -11.912988434787799, -7.940865638510557, -3.861113033789996, 11.952587510808161, 87.42279853636204, 47.820670161655514, 27.8685074706954, 43.609381135509906, -35.92861004033767, 51.56300867994557, 27.99400624876992, -51.332353153231274, -12.075505671732373, -0.38162517752804437, 39.45185938218986, 27.525555267003426, -79.39257361708579, 45.711081048099274, -29.77858940354385, 49.55037244047005, -37.95193125032594, -43.73915198998634, 0.0, 0.0, 0.0, 0.0, 0.0, -11.912988434787799, 39.70775635318912, 2.1496414849314593, -49.706549659068905, 105.28855079529113, -17.64578535640325, -9.795312010086821, 0.3867567204380329, -25.90546062388946, 129.16368084561591, -51.482498324603505, 93.10961199446552, -69.59966710753459, -49.69064538590723, 13.752129866203113, 33.68488877002004, 55.56191787184435, 4.137454375314289, -75.42249098765456, 3.7204157947307284, -28.054972060788685, -40.10216064755855, -71.62833936344289, -95.24181304110834, -39.69957371626671, 0.0, 0.0, 0.0, -11.912988434787799, 43.70376034919312, -53.33638101082205, 33.33794720185268, 107.130296558299, 7.901820161776809, 48.0431418991076, 77.74475489946485, -33.79237488876351, -29.97879816292814, -57.478865341435274, -15.775755260820318, 23.79005320596232, 67.28983315892988, 12.04741318466844, -9.921972286846792, 61.443485594699204, 10.063090571170598, 2.228361244264603, 81.71836775070271, -45.215546260970505, -37.95916912667678, -23.80256862459547, -99.19829177503514, -39.69957371626671, 0.0, 0.0, 31.735237570904438, 7.992015968063872, 0.15369579573682124, 15.80272840739595, 27.700370398374574, 2.0003283459468433, 2.153943166081107, -11.712663353642252, 47.590026949235494, 41.39448860654473, 73.70628768233148, 57.6140315054421, 11.84414521052754, -17.631409382751603, 77.92453528340508, -3.5590775013791047, 37.90790050955028, -1.9087749855154197, -39.45636274643968, 73.65267443268243, 49.824525392992015, 73.6936003952244, 41.81384215416008, 0.011855574505129862, -71.45881507711532, -39.69957371626671, 0.0, 0.0, 0.0, 7.992015968063872, 107.35537657182877, 150.9395886638935, 67.43787481150943, 19.967200317730033, 85.53200060204023, -57.25017405300164, 13.76051282751417, 25.83133407613608, -43.73417949881132, 27.599567959791877, 45.507166767632455, 48.0729907095707, 36.003585969682284, -51.60407885276273, 77.89886983886034, 38.126117057446464, -47.84499391544755, -5.479694100987335, -61.332761549178564, -53.49927611694393, 95.41796772471932, 55.632540970932936, -3.9564787339268053, 0.0, 0.0, 0.0, 0.0, 15.976055856390898, 91.48957140068053, 75.73261182541135, -47.790872118458694, -21.98725743533101, 69.38781433553521, 17.638573018080052, -42.01191967514795, 45.411965258284276, -6.3338160832433354, 29.85745925117023, 69.85084648342661, 0.052956924328163346, 136.9230274408793, 89.60502933538694, 41.83121149348962, 121.65461417175001, -9.924751668253744, -21.86538796667722, -22.085423503050464, -25.81065277812494, 23.865184331265326, -0.004433498749986775, 0.0, 0.0, 0.0, 0.0, 0.0, 11.96018302948011, 87.44619012968823, 27.93576616700689, -115.27185042834506, -25.957202635208276, -14.0399397273097, 33.710409079667585, -61.74918352926995, 15.936206916716891, 7.7634098198079124, -85.15601765462378, -2.193361702257161, -55.943531497968, -25.966669794196207, 41.59796958616013, 22.23987566977776, 60.18018449615071, 21.714185021039086, 9.83106766022286, 57.369270637465405, 23.959150434673116, -15.94044067818341, -43.798043671762755, 0.0, 0.0, 0.0, 0.0, 0.0, 3.9761431411530817, 83.43018378141127, 27.928592087484283, -7.8659980972118655, -93.40738659252332, -61.860717467636626, -53.26296867202847, -18.200454196617674, -57.971796835199, -121.28345954833804, -71.90813423268064, -147.49704620001535, -67.92707538709448, -115.1587115669654, 107.46093395788704, -53.660025164907886, -19.651102016349288, 2.0729431683043043, 25.799635125530834, 47.75062196745028, 43.67950262950459, -75.66992517045631, -51.84531452524538, 35.77401831298766, 0.0, 0.0, 0.0, 0.0, 3.9761431411530817, 47.70708636339697, 31.861617248995085, 27.908560999934604, 57.53323371421175, -33.95289636340039, -1.9406806433862815, -45.71156061012622, -23.886281404914502, -83.48620340344166, -8.230132142530522, -38.166192569145636, -10.401961732139135, -55.8961605021587, 79.31223577337025, -143.08919639089356, -22.169268578565795, -12.059842389676945, -41.40448585829854, 39.82994907396891, -47.742024706693186, -27.918640132277353, -51.773677954967894, 43.78582294247585, 0.0, 0.0, 0.0, 0.0, 0.0, 31.778406820893707, 39.708226443594775, -3.987639697490626, -21.888387417929952, 53.69076422027385, -9.75250173522933, -2.0827448001213877, 19.85725695232968, -48.05393770336601, -79.66434073425815, -143.27042199534407, -43.60283013091732, -34.085460187336935, -31.67996912275878, 89.65555923808661, 17.904524412055284, 31.89276913113289, 4.507960843855682, 59.785033707885106, 11.855095308953238, 43.76722877599596, -7.775181169308311, 31.865289976019557, -3.9603960396039604, 0.0, 0.0, 0.0, -7.916921293031856, 59.55757960267253, 19.933176253619948, 35.59815946212122, 59.4235106415597, -25.82895857768935, 37.802162182980155, -61.566646763569764, -81.73166000444479, 5.425120738757571, -41.89331387751288, -13.801584635238644, -45.550161898776516, -172.8409401287118, -29.672260598601152, 22.389110369609096, 77.66657023856499, 135.57972905345804, -35.65617827672228, 43.935812792873456, -3.6889346344090743, 31.963123015907765, -51.32903269886813, -27.625073442603274, -23.700122998075965, 0.0, 0.0, 0.0, -7.916921293031856, 8.039477617762437, 35.84539348817879, -43.77022495031152, 27.95381891795627, 59.69453942621995, 59.69788936217705, -75.43959666727042, -107.41508065876528, 51.69717392222235, 27.877635520981862, 41.42582965000986, 33.78345802603786, 63.280568713358655, 16.17887091120309, 21.869206735873874, -15.868835845865352, -73.28854823712214, -21.736564301825144, -16.109817101674263, -67.44300449489532, 19.692552058112348, 4.090704114594371, -35.56598911697093, -19.739726958472005, 0.0, 0.0, 0.0, 0.07509467503201606, 0.15383564631710644, 23.99942938173872, -43.64511153921185, -55.62614302690242, -79.40032132921887, -63.74669149918078, -83.683637338038, -87.33973018178895, -107.02526464512721, 23.955317711106563, -26.22050223134869, -4.145926209472305, -59.66396402946573, -49.69222957501937, -81.67897122107745, 43.25528079667608, 61.37860452062848, 7.502693498562285, -8.204826119433914, -31.93639816309422, 15.885379742537314, 27.76321986039107, -27.649006776124594, 0.0, 0.0, 0.0, 0.0, 0.07509467503201606, -11.802563264477186, -31.75862530154418, -71.47473364823995, -115.30140783504561, -147.23198751200093, -40.155954446602074, 27.357291636002735, -43.675496183463885, 15.944010172923413, 75.51314425719161, -27.787590170877984, -79.47823765463194, 33.804404298238126, 25.553417177707665, -29.971682778990388, -20.13422277956997, -49.80634378276396, -99.41089171082479, -11.925515733313834, -47.66086877573926, -35.739007872194435, 35.56236059115743, 0.0, 0.0, 0.0, 0.0, 0.0, 0.0, -19.79457923254106, -43.6210502511242, -63.581171072927766, -67.74233033231158, -59.86796379142888, -8.203848041964136, 23.61814588656758, -45.75521695300778, 12.12290505473533, 16.114683547105038, -11.86206381365319, -61.813675639093525, 14.226839468920577, -33.60704511393221, -109.09979912088384, -22.035476939842244, -63.50644742378848, -19.912819440526835, 35.73877612770615, -79.44708729906381, -111.08331974911631, -31.801883544740527, 0.0, 0.0, 0.0, 0.0, 0.0, 0.0, -11.877657939509202, -27.791094979141352, -43.7234520291545, -12.141188220502148, 35.18087502565757, 13.661209434320398, 49.384357759481425, -124.96680304082308, 55.7264493442809, -15.909338072476974, 20.02950048071099, -5.93976651866953, -69.4501841304184, -113.11159794465893, 9.733209727187152, -24.026701701959727, -95.58423026774382, -51.67215934420804, -35.814523269178345, -63.663939438946215, -39.83736530300759, -23.86926166966064, 0.0, 0.0, 0.0, 0.0, 0.0, 0.0, -15.803075015073482, -31.771194481628914, -31.732087770584897, -103.19381169861255, -21.900520215052776, 29.62114662953582, -10.145811078157493, 53.376634875268714, 15.885456560556065, 23.78169874303376, -13.921479554687412, -37.762797023388295, 35.797759338761004, 47.287072163594374, -7.845954610795833, -109.47330724116154, -129.00510333809535, 69.31650395659638, 23.711544814726487, -67.62815018626783, -35.86089303201946, -3.9603960396039604, 0.0, 0.0, 0.0, 0.0, 0.0, 0.0, -3.9254170755642788, -21.86578651436968, -33.716038429619445, 13.841795002389475, -37.683985425570874, -41.507618408648504, -57.32980444910477, -140.92832616662454, -63.5400040443722, 39.75962821341305, -45.96338900594652, 9.890066469380109, -23.616072641955103, 79.25501215658156, -55.553848951284756, -53.87298050126527, -141.13795363339645, -27.822109369675076, -63.69536503836613, -67.61215249503863, -35.86089303201946, -3.9603960396039604, 0.0, 0.0, 0.0, 0.0, 0.0, 0.0, -7.968253968253968, -5.944933625743483, 41.81333190303295, 81.62321200311146, 33.76284143621967, 105.49281157284913, 1.8433803907789361, -97.28067905719854, 29.648740634730945, -53.720493357173304, -131.32205818639758, 74.94771109388644, -9.443725994473052, -4.006950292927135, 87.28460023830392, -35.95115346323104, -162.94045108339697, -59.659502549729446, -16.133715247920982, -59.62019200284476, -27.80216198563945, -3.9603960396039604, 0.0, 0.0, 0.0, 0.0, 0.0, 0.0, 0.0, -3.9800995024875623, 67.63207624018447, 55.97837197544597, 75.4668446460031, 43.766494090694486, -23.5609143001476, 91.34455399555193, 75.56452315508545, 13.987757762601259, 41.85299321209963, 53.755548556763436, 16.21206426024563, -9.52702142755453, 33.93708895305263, 45.56035628841031, -75.40409791358815, 23.872225343641883, 11.798364720229056, -31.731556000135562, -19.82218341316863, -3.9603960396039604, 0.0, 0.0, 0.0, 0.0, 0.0, 0.0, 0.0, -11.861880552045717, 47.54987407876788, 43.87527847468217, -27.601821237862623, -23.82193790644528, 39.554221141091396, 24.006232807481204, 39.7422063609271, -29.672666575512775, -9.987240588970248, 47.1993877860696, -67.40807888855777, -33.67609506464935, 61.80963456460553, 117.20948115297492, 95.43765023531735, 83.31985366058493, 27.707737307195984, 23.794688099169534, -15.86178737356467, 0.0, 0.0, 0.0, 0.0, 0.0, 0.0, 0.0, 0.0, 0.0, 3.996003996003996, 27.80239834616015, 23.806394350156154, 23.806394350156154, 0.0, 11.97614314115308, 23.763735968767993, 15.787592827614912, 39.71200215474733, 43.71200215474733, -15.84996871543446, -15.84996871543446, 4.0, 0.0, 0.0, 0.0, 43.63261861388728, 43.63261861388728, 0.0, 0.0, 0.0, 0.0, 0.0], "label": "7"}
{"weights": [0.0, 0.0, 0.0, 0.0, 0.0, 0.0, 0.0, 0.0, 0.0, 0.0, 0.0, 0.0, 0.0, 0.0, 0.0, 0.0, 0.0, 0.0, 0.0, 0.0, 0.0, 0.0, 0.0, 0.0, 0.0, 0.0, 0.0, 0.0, 0.0, 0.0, 0.0, 0.0, 0.0, 0.0, 0.0, 0.0, 0.0, 0.0, -3.933136676499508, -3.933136676499508, 0.0, 0.0, 0.0, 0.0, 0.0, 0.0, 0.0, -3.9721946375372394, -3.9721946375372394, -3.9721946375372394, 0.0, 0.0, 0.0, 0.0, 0.0, 0.0, 0.0, 0.0, 0.0, 0.0, 0.0, 0.0, 0.0, 0.0, 0.0, -7.90156021671736, -11.834696893216869, -3.933136676499508, -51.45928574598117, -75.26953333154947, -75.26953333154947, -99.240690822924, -75.45044326021458, -51.59677459152816, -63.58446515179501, -27.83002892886297, -39.7863028611848, -27.892631817366556, -19.940337677341756, 0.0, 0.0, 0.0, 0.0, 0.0, 0.0, 0.0, 0.0, 0.0, 0.0, 0.0, 0.0, 0.0, -11.90156021671736, -35.735616110381635, -43.66875278688113, 4.02278822499318, 55.50241168152251, 63.52525880518743, 23.68369820811566, 3.810917448137591, -55.76592953406721, -99.40174939223796, -39.90905103065389, -20.090469456993926, -63.533711621225116, -63.39932121445093, -35.589337655330255, -7.755903829971798, 31.810241558075, 0.0, 0.0, 0.0, 0.0, 0.0, 0.0, 0.0, 0.0, -8.0, -8.0, -31.928507297640504, -31.790885321423126, 7.9168047466643126, -67.60482845787926, 11.607015755429739, -19.951159072116393, -32.00460023241846, -81.39734780839859, -73.33480147639956, -21.794589118298784, 57.3507606965789, -65.85163399388931, -17.81955401261019, 91.74913773079781, -59.239313920871204, 36.0805566207514, -23.577852096296553, 114.99638782218385, 79.24973781473041, 0.0, 0.0, 0.0, 0.0, 0.0, -39.69972882738248, -43.699728827382486, -47.69972882738248, -115.40577275688291, -63.50654629815505, -3.853920459396898, -7.787814658904108, -19.66487360034988, -2.2582027424910027, 43.34949952485359, -87.32888957765202, 87.57088407207418, -35.85175264641794, 1.9963134190238216, 33.87149073217703, 41.53015869289897, 65.5818219967588, 14.016306367875721, 79.65604264849321, 119.39441693724102, 101.6102449203738, -71.4653946385514, 35.57819617416013, -35.69929964437619, 0.0, 0.0, 0.0, 0.0, -39.69972882738248, -47.68776471970551, -23.9252788103491, -71.68753534124134, -28.290579069496662, 29.967186638486783, -1.6463333640335858, -5.95542267171473, 83.28887649971283, -33.75161551928196, -23.746850799583196, 23.17569495069813, -49.88015604010566, -37.707044604318334, -109.00877346340265, -17.821486329459233, 41.62182622870657, 33.753023406847085, 39.624552458229644, -99.59505928426964, 99.85014045695335, 60.01185126230708, 4.224614449245961, -47.63163955403804, -4.0, 0.0, 0.0, 0.0, -39.69972882738248, -143.10560697255494, -83.51016967737243, -139.16577481465265, -9.966516356687574, 17.627113560001128, -21.6717863587642, -18.110975344074745, 21.962751570012156, -39.73457077031614, 51.263412611192095, -85.2566977382907, -11.70926952835092, 95.45605233798501, -107.33335200528136, -59.67192999637244, -47.80545172976047, 39.55515942187653, 85.23870951865672, -37.615838273211494, 40.113383199902714, 101.66369048846732, 184.90925355920282, -93.07532964800437, -4.0, 0.0, 0.0, 0.0, -99.2881300024218, -107.40587814517244, 55.28541315985777, -111.4518251858573, 7.403197891477433, -9.773491786837443, 65.78573720239487, -5.881401886605787, 37.88229264083545, 59.30190790448512, 57.86429134992004, -83.37665142156601, -8.285700902365484, 47.793545372783306, 7.325758095715654, 144.93906530699076, 11.64699446162567, 43.9840166836552, 1.950462423163967, 45.928849922263915, 105.53686652179583, 42.665788395637655, 256.60045497845647, -1.8345682735599453, -19.862066224089645, 0.0, 0.0, 0.0, -63.57690437120402, -115.40940430107692, 75.11526791309022, -47.46664935757169, -31.419205931155286, 33.9763734150139, 15.960756461955285, 16.152576688299664, -101.28151641422949, 14.116601010256556, 19.85663977976536, -23.947435591538653, -71.82196853162786, -176.99526321930182, -129.3708625412964, -27.854763342960027, 79.24948156477086, 9.869443083098549, 67.38933086135873, -77.48697675827994, 117.3273471442276, 165.26840151845707, 344.0343655558237, 75.41516823921016, 0.0, 0.0, 0.0, 0.0, -8.0, -39.801356670727536, -11.96473729572715, 4.365069976888412, 67.69160558307173, 125.26766663466996, -5.857226986819911, 107.52630658415461, 115.17867919560966, 47.99959974566543, 29.67091646616696, 61.36783262560703, 85.18080685375187, -101.70434365524189, -69.41785840982351, -99.35678567079444, -208.9017570337656, -113.30261626916123, -58.15696997676882, -99.40492759539552, 13.664256319258566, 139.066290369884, 242.46963394533918, 95.20593281627042, 0.0, 0.0, 0.0, 0.0, -4.0, -8.01128164787999, -24.046388755217137, 159.15334655123738, -113.00108838547439, 33.84954043707367, 0.38435181186054823, 77.65465338450248, 29.651308652272657, 51.60864198924607, -0.03956342260919232, 37.71315597768237, -29.58749428142853, 47.76384272232255, -61.578284567744994, -0.1601295820542834, -125.48870335930046, -175.32760650571944, -194.8743300276088, -343.7240999065777, -115.82827354375178, -75.79716014250748, 27.877141480209676, 79.24973781473041, 0.0, 0.0, 0.0, 0.0, 0.0, -8.01128164787999, -194.5208756157937, 73.61334621225848, -21.638991547830496, 45.92925377610883, -2.1522507327563343, 35.8668392300014, 22.141328708002852, 97.74337979829502, 21.753867448949094, 19.77932158419501, -49.69855508578802, 15.281550197902884, 1.6247464673705796, -69.82866208769522, 29.596225958298344, -22.15782543960707, 76.91844346457792, -200.99196756379777, -97.87601345164907, -190.95485180886806, 8.019655467779444, 0.0, 0.0, 0.0, 0.0, -3.996003996003996, 0.0, 9.987816576910305, -1.886221525407235, 29.90050015055039, 105.02576686360162, -87.38554535140555, 2.040011789877906, 15.869054099775298, 50.0655400744605, 6.142809112768411, -65.24036079270213, 91.43972670578574, -49.927208594570075, -70.12681341432192, -73.7602493839393, -81.68879345750184, -71.58119852790621, 43.939531637766564, 61.29308759183562, -121.50639993310693, -217.0213894298534, -139.32284179586955, 0.0, 0.0, 0.0, 0.0, 0.0, 0.0, 0.0, 19.888977460662293, -17.882084851850735, -18.11286448090973, 65.71770497543736, 46.04326524203332, 57.96733427718137, 49.93193145135304, -53.493880509236, -1.8692425516033655, 15.72500465085508, -15.996313493090458, -31.94672853502281, 90.95329266132103, 15.40074216286823, 107.2458848822292, -61.50261511407077, 75.55268043943694, -81.55634909277371, -18.170731697615057, -73.80970739941384, -28.168961309870276, 0.0, 0.0, 0.0, 0.0, 0.0, 0.0, 11.96026993631784, -53.41962216743244, -37.78351066101878, -57.75013745874206, -77.93594102176242, -49.68755787351397, 73.74125387268295, 84.01077261707262, 17.761513845574463, 95.46704765108618, -123.59051154771637, 63.78263396190189, -53.82481427934213, -85.41481968316033, -16.433972655931946, -117.66304486928617, 49.6441352919129, -47.564856274206555, -17.95654183783563, -41.857145962750906, -93.42342067404118, 3.810807544525078, 31.80625249512278, 0.0, 0.0, 0.0, 0.0, 0.0, 11.96026993631784, 57.620735217876486, -117.2695777354535, -97.80957205656908, -75.74725717370005, -147.19732371448302, -25.909311018013305, 37.471524237201706, 49.71023592057129, -2.1697461622648557, -29.916742296753267, 33.505765133394355, -42.2101965276646, -54.05435723049329, -18.10536346995109, -18.14550616945119, -61.681543208813515, -83.73997407828973, 85.22104040683618, -37.83820749410407, 5.909694524688024, 59.49388146393046, 27.81024849911878, 0.0, 0.0, 0.0, 0.0, 0.0, -15.73961751850153, -69.30081662594242, -61.835969342023596, 140.92425083150135, 49.62804580754192, -81.77921283947346, -189.29105565229733, -51.93169505645412, -137.17241596408542, -39.83075069708994, -83.47811013695946, -144.98968895552744, -15.986863208893212, -9.860107549298668, -14.047337960064734, -53.76253175885022, -63.4561140994176, 47.582930853257395, 101.65020021484045, 41.61289930920359, 136.96050778057042, 31.94307110501124, 4.074441501059597, 0.0, 0.0, 0.0, 0.0, -23.73949141521541, -31.69988745481937, -33.747179110569746, 101.00522738556582, 61.71040602783449, 13.822575383713282, -123.55680999338954, -47.58751666460822, -67.61398379260217, -26.39667372274458, -168.8323283837936, -7.989824075912709, -35.91089962093238, -41.50803981280076, 55.44099106151943, 67.72563561252804, 32.18524318084979, -12.38890940571001, 65.28896235995927, -13.805937578936604, -17.616833237043473, -11.676257666957401, 16.057230377504503, 11.987529849737662, 0.0, 0.0, 0.0, 0.0, 47.57720388516394, 95.12705424507502, -65.29469022663827, -85.38986621355869, 50.03018405952416, 40.09533478026001, 43.778094486679706, 79.50259175996007, -0.22929959706852987, 65.25461781544652, 71.74538042334355, 31.600376281504804, 49.66372991825484, 13.90623644093656, -139.03609290447827, 85.40719385091552, 93.49562977031084, -0.19586019167488367, -61.490670785024655, 30.16000069375895, 45.59757377431387, 39.91281871127122, 35.9234585585195, 11.995699003402349, -3.9840637450199203, 0.0, 0.0, 0.0, 47.57720388516394, 43.63659760396161, -69.22363121155426, -33.883844274314804, 0.41437809700283257, 159.2485111218537, -3.7356943952851207, 33.43718239558163, 59.807598434314144, -55.2022695650081, 4.2302149251548125, 13.67947276014548, -121.17870450584857, -45.38093526732359, -48.160624687494625, -152.93062914455058, -19.850260919265125, -1.7745440579695329, -25.939827990132002, -89.70853632832036, 3.7755786346038507, 0.3468449067214605, 99.4333725766649, -35.6405481420682, -3.9840637450199203, 0.0, 0.0, 0.0, -31.67253392956647, -35.652744171164834, 109.02672225453945, 25.645034171506833, -143.06207648090566, 127.08971428283155, -67.19434393730252, -35.69481865357129, -47.44418590110028, 55.43525229328839, 41.98415517517067, -25.709473298588286, -21.697815520227312, 7.897117364739047, -31.78032983823914, -71.26331405572012, 29.753468628960608, -17.893010985639226, 129.10143707627714, -4.101216493862265, 115.04032800611508, 47.84205154280452, 91.50029885956768, -39.550149787560606, -3.9840637450199203, 0.0, 0.0, 0.0, 0.0, -19.90476971580112, 35.51045817770139, -69.66715019640176, 35.59633570948769, -8.022644809067039, 4.107776071964125, 55.63698892785262, 135.05935919906352, 21.980778176427986, -16.50288241630573, -55.41039981010973, 79.48260432949384, 77.21682966663008, 31.927494428516287, -11.94459276237054, -1.9006908903356585, 111.07278127986714, -43.51938088271222, -43.6360157052219, 83.3567138659597, 71.53387896663688, -7.80684325836666, -23.75115308301153, 0.0, 0.0, 0.0, 0.0, 0.0, -15.904769715801118, -21.849283637784037, -77.24871171342771, 117.21967026807803, 7.872884775582514, 3.5683829174369146, -16.121424668650643, -41.52639195993824, 37.9432382333613, 65.51413194106827, 13.732498076892838, 14.27604091014592, -11.42932199475759, 12.020348102096492, 47.558809022774334, 17.83694552644631, -27.291891479589772, 23.959808969528336, 51.55060239248648, 59.72280091479557, 7.972162687487789, 15.944309824644868, 0.0, 0.0, 0.0, 0.0, 0.0, 0.0, 0.0, -6.0389396915615, -33.75841506463665, -67.34076058592021, -75.6120018924901, 53.360193303131084, -11.656299884858694, 119.00925284673471, -5.554550002577998, 97.5839444138646, -57.54964538878028, 21.964747432341944, -39.74205937912543, -26.17526233996839, -2.050324403482646, 55.746601332712835, 59.52425939424917, 19.928252013506267, -43.457982631234145, 31.904896894094602, 7.972162687487789, 0.0, 0.0, 0.0, 0.0, 0.0, 0.0, 0.0, 0.0, 0.0, 17.759601509664417, 1.728216974055404, -10.148748853235968, 19.625818487284604, 7.9765346137285755, 0.0763186745668607, 11.905550739120486, -15.636871034609566, 39.628284180458486, 95.37793396313944, 63.43137500513624, 39.56977738809387, 11.928097143417215, -8.051501898880755, -27.900984057719402, -67.57244819151278, -67.57244819151278, -11.972147137157076, -15.829971617015014, -15.829971617015014, 0.0, 0.0, 0.0, 0.0, 0.0, 0.0, 0.0, -2.0, -2.0, -2.0, 0.0, -67.37948540362031, -67.37948540362031, -3.937007874015748, -31.676671188194874, -27.676671188194874, -55.41218859003286, -55.4082164903479, -19.815191367755652, -31.84573003815422, -8.03175851436427, 15.770786740404866, -11.972147137157076, -67.57244819151278, -67.57244819151278, -55.60030105435569, 0.0, 0.0, 0.0, 0.0, 0.0, 0.0, 0.0, 0.0, 0.0, 0.0, 0.0, 0.0, 0.0, 0.0, 0.0, 0.0, 0.0, 0.0, 0.0, 0.0, 0.0, 0.0, 0.0, 0.0, 0.0, 0.0, -55.60030105435569, -55.60030105435569, 0.0, 0.0, 0.0, 0.0, 0.0], "label": "5"}
{"weights": [0.0, 0.0, 0.0, 0.0, 0.0, 0.0, 0.0, 0.0, 0.0, 0.0, 0.0, 0.0, 0.0, 0.0, 0.0, 0.0, 0.0, 0.0, 0.0, 0.0, 0.0, 0.0, 0.0, 0.0, 0.0, 0.0, 0.0, 0.0, 0.0, 0.0, 0.0, 0.0, 0.0, 0.0, 0.0, 0.0, -7.972147137157078, -7.972147137157078, -11.972147137157076, -7.9880358923230315, -3.988035892323031, -3.988035892323031, -15.818296523601182, 3.9286495904497905, 19.74694611405097, -0.0751971791180357, -11.928836920562327, 0.0, 0.0, 0.0, 0.0, 0.0, 0.0, 0.0, 0.0, 0.0, 0.0, 0.0, 0.0, 0.0, 0.0, 0.0, -4.0, -11.972147137157076, -7.972147137157078, 19.841838687030872, 3.9836582441925863, -47.73837690316913, 11.799492084505601, -11.885704641847276, -29.928361625425953, -85.44744878358975, -97.50968771538787, -18.201163664032336, -28.074608772176425, -23.960450372325376, -15.850259286474323, -11.850259286474323, 0.0, 0.0, 0.0, 0.0, 0.0, 0.0, 0.0, 0.0, 0.0, 0.0, 0.0, -23.810543856703607, -23.810543856703607, -3.905352398358435, 67.56923349589515, 71.68733588941754, 75.61284327813367, -15.675224720318287, -3.699720845623963, 28.05524269972699, -33.908378659260286, 9.33409445824028, -101.48968971632866, -44.065857674088356, -40.207971361017776, -12.421164466915826, -11.979825139622463, -27.585036027153617, -39.50344044745973, -23.818051846871686, -7.980051860386903, 0.0, 0.0, 0.0, 0.0, 0.0, 0.0, 0.0, -27.766976489606954, 43.671126905977765, 103.31533148667816, 15.881356088178425, 31.76675155702558, 83.2704290401925, -67.54155200997916, -99.6291534857713, 91.61983599654432, -37.72248333544131, 89.17154606189963, -73.39953149191047, 59.56392205841284, -37.83774882078856, -61.734027349998705, -101.35328437592823, -61.995368804041654, -41.825252828443936, -33.81723314425815, -63.388643762183484, -19.802827328886906, -11.822775468500005, 0.0, 0.0, 0.0, 0.0, 0.0, 0.0, 11.842306971912926, 91.26830226146416, -19.794266237899024, 8.064067333355649, 47.62507114063671, -35.829974882475945, 23.895449774129776, -45.45547594182848, -20.143632347524772, 155.0437405753048, 131.39022797987627, 52.101762265185585, -65.48833967505175, 27.996897019209094, 63.45555973391841, 20.11549648525756, -103.32793020623953, 47.5129057667257, -51.678591656586214, -73.54456365139389, -35.63292343463819, -11.822775468500005, 0.0, 0.0, 0.0, 0.0, 0.0, 23.79044982885116, -7.924773672356224, -23.743214646544796, -67.45202165697181, 11.756502093592218, -49.907799532978615, -61.424772746211524, 1.6567455365303783, 39.56640933251848, -18.046755125150185, -51.34960952816664, -35.62136646204147, 21.661694610951994, 37.95572547391467, 97.09040459245485, -95.10303553614571, 8.115255334085287, 11.837406339314821, -12.305824998777027, -19.751948058319204, -16.085303823030994, -20.058107862520412, -11.93651574754715, 0.0, 0.0, 0.0, 0.0, 35.774489717178184, 19.790449828851163, 51.72257817777576, 12.0231282465509, 43.48026486017597, 41.58225188134876, 13.909511428621983, 45.603708889187985, 1.647176978342551, 109.35311710078344, 107.17114351030442, -24.002002636684285, -75.76951330894126, 37.867034906860084, -101.56773398766839, 104.9691936642113, -93.36022837136876, -49.55079333183411, -47.52888571862151, -71.33615190050014, -11.905567133785397, -69.65955342310524, -95.34767657657522, -47.64020995102381, 0.0, 0.0, 0.0, 0.0, 35.774489717178184, -8.098217558146343, 11.869631196088058, -59.57267845597739, -230.4851892045222, 43.87338207002363, 69.23519128927487, -2.0271179551043392, 25.91433782812537, -118.91982931170172, -57.48266853902082, 81.31561568966593, -9.757344757151198, -18.157064695637274, -80.04427058339152, -15.653074623658824, -49.70994411759176, 55.802198611972806, -25.92907921079043, 13.9911116287909, 5.854052521178951, -25.92092219330842, -158.62953480190438, -103.15019850881282, 0.0, 0.0, 0.0, -15.901388555030806, -35.75904317020446, -31.82574763352975, -31.589517447142157, 158.79415488788797, -47.699572950067235, 75.339765179614, -57.90705098512443, -2.0585162096283387, 65.58383049403118, -61.57276393580944, -41.672250014017656, 2.3703284178052666, 17.8998304143633, -10.251871270101766, -20.357671021580774, 139.16976230999558, 5.664850430782249, 67.65780260540376, -5.890656665554844, 13.789595862149046, -29.598524738764926, -61.56602333740846, -4.032181851780291, -95.28458140088954, 0.0, 0.0, 0.0, -11.901388555030806, -35.75904317020446, -55.61619746238092, -91.13547146704802, 51.45062047690528, -4.4968458538631575, -71.82604748168659, 43.52912356256737, -79.38887324035915, 23.645223790437516, 95.36649083783372, 91.40655691917101, -87.14690070195897, -36.20475002994052, -61.3285275613864, -14.011221468628548, -93.27008661033932, -14.143981058079252, -45.91544370662998, 85.3582466566276, 9.566362003514918, -41.82137803148496, -51.3183758238596, -15.905804958696091, 15.93213566588878, -3.996003996003996, 0.0, 0.0, 0.0, -19.78684678254166, -71.34441560562485, 119.03542568902293, 31.564348881865055, -222.3893250267164, -36.21710298200822, -135.51691876532863, -139.51041005144268, -60.08893021343578, -83.63731295948666, -56.10360586771099, -121.67471161842661, -79.61152935655782, 9.826190659200272, -34.03106512114601, 89.44138471532037, -67.67587667552735, -37.742862746960306, -1.7881091383396148, -45.88042731559964, -33.80180319780071, -27.74826650606479, 79.37874618569803, 130.97994641063093, -3.996003996003996, 0.0, 0.0, -19.78684678254166, -19.78684678254166, 15.846005501947328, -19.983819996797752, -115.462601979013, -135.50630984962416, -143.501214847644, -103.6530549957813, -39.98420471721062, -35.93000960786648, -121.56083383241636, -87.57371907848506, -36.12060036839543, 1.5968624830725426, -42.1309333668842, -61.612595327444375, 19.581182063305214, 0.020170171201319143, -21.84148105411808, -45.83642298302656, 96.88690659837366, -71.4303477890702, -51.6530927012043, 15.848933929589137, 87.288881318031, 51.522373771353294, 0.0, 0.0, -19.78684678254166, -23.78684678254166, -59.50241892492805, -75.58480326974012, -8.434010704224104, -147.69709303051184, -63.739725932011986, -4.3362900833795, -93.71840684271906, -43.9222264982025, -23.921178237962085, 73.22605169187193, -155.1654889181508, -46.2712519184049, 53.43484946910228, -212.86405146570465, 8.388310442749983, -39.640753226553116, 9.916469448762566, 33.44690933368117, -19.755785372706676, 27.636998835132538, -43.998154680700104, -27.81113755356745, -7.885360636189458, 51.522373771353294, 0.0, 0.0, -19.78684678254166, -19.78684678254166, -11.90536150548187, 75.20946108960216, -91.57761374561318, 3.337231754909288, -71.25890444990651, -50.15616444297729, 9.744795767257543, -139.49057199316238, 23.855747053505958, 55.81394756504729, -79.31198560609937, -41.61649574726174, -27.932244457530366, -43.59209134735724, 12.1451026113935, 49.64369805466641, 41.7819546588577, -131.27575357172157, -190.81026512327043, -107.55581008668815, -51.738775565386824, 23.45194979347043, 4.023815202198133, 67.38801279110079, 0.0, 0.0, 0.0, -19.78684678254166, 15.846005501947328, 59.41471281796926, 150.9037568476487, -13.973532943047786, 57.545049837808804, 69.85301633883726, 14.104666691506086, 135.06095676572502, 87.54380022460906, -63.77309676268671, 75.47115792376749, 59.746410363964486, -67.96995155256285, -19.850655168910855, 4.269526164342847, -33.65636212525066, -95.1514548936387, 63.9319810588543, 31.26505313520639, 31.53767481720112, -43.95512183471523, -27.80223052777844, 83.60344021784294, 71.5294829390125, 0.0, 0.0, 0.0, -31.7512900158137, 43.560833237243635, 15.943604263989233, 12.109430369748374, -13.739417707076896, 117.15026431374123, 42.08933645212905, -65.47936792709409, -15.869455590360367, -8.189279890736522, 25.81093512052503, -17.719210432753176, 10.00268871818363, 41.22097564716687, 19.975051916282943, -61.317065281325135, -61.36540161165902, -7.9456554160336355, -29.827401279939398, -106.83490408107163, -35.88121072802687, -91.22526814599617, -23.712181767868422, 67.78005974431784, 71.5294829390125, 0.0, 0.0, 0.0, -31.7512900158137, -19.763923177621404, 79.21077096552357, 18.117503533847398, -6.09355032790316, -13.585698756585849, -41.483152113990286, -6.165628679734877, 26.153237192553256, 21.721019222694633, 113.33478492263532, 41.81161128631466, -49.47889067868711, 49.66838654190209, 59.773886504258684, -45.490127718607404, -9.759275654371766, 57.59296512917416, 23.389818783113885, 113.27640944323255, 150.83824031010386, 43.43316111080728, 51.71514292461091, -7.6261008902418395, 27.79079688537499, 0.0, 0.0, 0.0, -7.893594194489282, -79.34473761784179, 2.13348617713393, 45.77161828575873, -25.651991455921845, -21.648837089532268, 89.55642447288821, -23.73587836127091, 109.64963301939011, 4.374795088184684, 14.043227984207483, 2.0647240717609936, -71.60816699486136, 89.13663280316005, -11.538605210177899, 71.68261434238983, -3.863715402783404, -23.9286544795013, -9.980347621923759, -108.99478487489398, 111.62782046894603, 43.85386510176268, -7.810020011998398, 67.50976395230519, 27.79079688537499, -15.830212981485147, 0.0, 0.0, 0.06678305378850657, -91.31687324603134, 41.90356990518626, 29.946141036293003, 184.79363248973638, 73.73361612365471, 119.06881326797766, -67.54045893974795, 43.63406058447023, 53.597106159645925, 35.92751511066899, 35.656265805554746, 131.34264809461732, 37.87036132138392, 51.364727342027074, 35.54364801501034, -19.99513722974043, -93.47875731175725, 43.6590352707551, 75.70639550864854, -35.36932334363986, -59.649659548095144, 11.768295604397991, 51.56531225548873, 3.9800995024875623, -15.830212981485147, 0.0, 0.0, -3.92922094221549, -99.20951020857896, -5.971841722566281, 14.165010998308556, 49.88132386275465, -132.8471334917766, 85.94956229204081, -6.050506416978039, -27.57690863709969, 87.46723789219425, 27.814505022542228, -31.362814129026464, -69.410703966272, -41.78519364674507, -7.821746433834313, -16.06027433469681, -101.34302962117289, 103.54127764633479, 19.893011685419413, 83.34426814196891, -7.743472192938342, 171.04276990654367, 71.56207713970943, -11.861543478980565, 3.9800995024875623, 0.0, 0.0, 0.0, 11.888983089927716, -35.64111703645605, 45.53917315322139, -1.6415790245905102, -6.160054023881302, -6.200755614303266, -12.129388685853133, 95.20219692272973, 59.634829341403076, 16.2834211684812, -69.67592645661259, 17.51321588155583, -14.484412318203596, -163.3310544009525, -31.72984233611518, 87.00090791969701, -15.558130094211784, -27.585609203735785, 3.8010457386753345, 91.66527074433606, 123.15424920518434, 20.30765554131067, -15.759395925420275, 47.66013797874944, 3.9800995024875623, 0.0, 0.0, 0.0, 0.0, -55.6756928414093, -42.08496724806042, -33.75072105564439, 1.9760791231521342, 64.04635978787844, -31.766488390071533, 7.905018283622362, 55.71427758075639, -3.8883027103681815, 51.55744421440164, 87.42635982929139, -79.62238487166415, 4.235070220999568, -27.42551172024952, -79.00353315882786, 155.48354030214227, 27.913634834358817, 51.60722637004087, 19.984973434134883, 32.10923613866869, 12.169680426986218, 0.1579275506415163, 39.68003847626188, 7.992015968063872, 0.0, 0.0, 0.0, 0.0, -39.6956094759375, 35.679691212728535, -35.59072704834918, 51.62754195645108, -11.71175258056941, -103.53078474684762, -49.6613393189229, -97.28823687701937, -4.0801980883777205, -59.66217618935585, -136.96249427265025, -83.68845685910513, 47.30251571582138, -135.0879646535713, -28.168170719986666, 39.55151593999761, -59.461498700224396, -31.7188642709398, -3.7717267863171395, 20.22451888584434, 20.070909152534348, -47.58093446344766, 7.992015968063872, 7.992015968063872, 0.0, 0.0, 0.0, 0.0, -27.637269132922807, -5.8193658521103595, -13.658433027379946, -13.878165735592049, 61.54093618774072, -49.6689721423493, -41.66161198082896, -53.881964220009515, -105.52818990435297, -33.86822292933315, 17.786796285408347, 15.944439870592682, 23.594438441739506, 63.399507312964836, -91.15479820487919, 43.90831103914329, 119.09452437166618, 71.45466941187532, 75.51300378811796, 43.82896930141791, -3.803069859006957, -7.980051860386903, 0.0, 0.0, 0.0, 0.0, 0.0, 0.0, 0.0, 0.0, -71.3955609298431, -95.2218063296954, -99.29980015050043, -107.28758541650136, -95.56038910375489, -107.54096264184884, -87.58866878526783, -43.81802710117977, -55.52622007518844, -79.25371692322358, -111.166083164279, -103.1984073827485, -19.94866956801809, 19.806246217286596, -27.904619750874424, -27.904619750874424, -31.83785887259377, -11.980051860386903, -7.980051860386903, -7.980051860386903, 0.0, 0.0, 0.0, 0.0, 0.0, 0.0, 0.0, 0.0, 0.0, -11.858110005041699, -19.778909848978415, -19.778909848978415, -7.920799843936717, 0.0, 0.0, -4.0, -4.0, -4.0, -27.924346276987592, -27.924346276987592, -3.9254170755642788, -3.9254170755642788, 0.0, -3.9408866995073892, -3.9408866995073892, 0.0, 0.0, 0.0, 0.0, 0.0, 0.0, 0.0, 0.0, 0.0, 0.0, 0.0, 0.0, 0.0, 0.0, 0.0, 0.0, 0.0, 0.0, 0.0, 0.0, 0.0, 0.0, 0.0, 0.0, 0.0, 0.0, 0.0, 0.0, 0.0, 0.0, 0.0, 0.0, 0.0, 0.0], "label": "2"}
{"weights": [0.0, 0.0, 0.0, 0.0, 0.0, 0.0, 0.0, 0.0, 0.0, 0.0, 0.0, 0.0, 0.0, 0.0, 0.0, 0.0, 0.0, 0.0, 0.0, 0.0, 0.0, 0.0, 0.0, 0.0, 0.0, 0.0, 0.0, 0.0, 0.0, 0.0, 0.0, 0.0, 0.0, 0.0, 0.0, 0.0, 0.0, 0.0, 0.0, 0.0, 0.0, 0.0, 0.0, -3.9800995024875623, -3.9800995024875623, -3.9800995024875623, 0.0, 0.0, 0.0, 0.0, 0.0, 0.0, 0.0, 0.0, 0.0, 0.0, 0.0, 0.0, 0.0, 0.0, 0.0, 0.0, 0.0, 0.0, 0.0, 0.0, 0.0, -15.873305167921647, -15.873305167921647, -19.821972492699533, -27.82197249269953, -31.80207199518709, -19.94042460850147, -33.78652482719928, -21.846100218697806, -2.0, 0.0, 0.0, 0.0, 0.0, 0.0, 0.0, 0.0, 0.0, 0.0, 0.0, 0.0, 0.0, 0.0, 0.0, 0.0, -7.952412007667832, -7.952412007667832, -15.853663917137045, -35.668179772930316, -35.69970638397429, -31.754933208431886, 4.141266350430019, 0.07800995486757856, 35.95861372560294, -37.63265238117753, -37.74270203448811, -61.58454650535078, -2.0271915554339675, -4.050639897447677, 43.69165248886559, 0.0, 0.0, 0.0, 0.0, 0.0, 0.0, 0.0, 0.0, 0.0, 0.0, 7.952412007667832, -3.9254170755642788, -19.822500404013997, 7.9796864265018295, -3.933222143851168, -15.917152169752391, 19.93607275132109, 55.73836525662147, -11.972149188916525, -55.73850153282389, -35.82561767903533, -10.010701487578476, 25.912172397586794, -49.75613890175378, -33.86618020837223, -3.8425909875596815, -7.861863296788533, -3.9488524942168564, 0.07904341057805597, 3.9682539682539684, 3.9682539682539684, 0.0, 0.0, 0.0, 0.0, 0.0, 0.0, 0.0, -3.9254170755642788, -15.810975095853554, 35.78593800807411, 23.817802613263517, -71.2977154801074, -11.969181043904992, -91.52084385965158, -51.491192206974404, -55.613474570196765, -15.543368418550788, -5.917287337930124, 1.8979985202901535, 39.77434332342581, -33.70818402938918, -21.699771700062854, 119.46474994215829, -35.26249344890193, 19.975415034412134, -55.70664061058606, 5.850210726647638, -4.042790279468011, -4.0, 0.0, 0.0, 0.0, 0.0, 0.0, 0.0, -3.9254170755642788, -27.76723347841071, -23.818740388169683, -35.78687578298027, -45.62173092580512, -25.898220670304855, 33.639279186399676, -25.75629859871338, -29.88121421323927, -12.309875593049924, -23.705242300378117, -31.634365754811345, -65.80630633453703, -22.070653188128997, -25.79107391825334, 55.691031527402664, -43.60504916733567, 39.84454565531488, -37.920875264740964, -49.90735566035398, -23.990993415302516, -43.723031829152454, 0.0, 0.0, 0.0, 0.0, 0.0, 0.0, 0.0, -79.50536783585879, -59.73060689089064, -30.02705337455788, -69.49032477315994, -69.64080176566434, 1.9156280001088302, -57.96768908188157, -87.6312384091728, -44.06447027556629, -19.913173659860224, -17.842745128467975, -85.52064152471736, 1.8151263602188745, 17.991559985449566, -43.68536098387474, -11.969013702752104, 8.092882446043372, -29.843659081089655, 15.845438102239584, -71.48231191560104, -15.811076950614076, -7.866303775071668, 0.0, 0.0, 0.0, 0.0, 0.0, 0.0, -71.56054046706812, -12.109834587075682, -23.893018945287242, 33.577480786590655, -10.008217671693174, -30.04343189242191, 53.754598034702575, 16.01505281450116, -28.00649995266793, 43.722731270226404, 37.48626970350905, -2.172692842883583, -89.28604665419802, 41.92682711913818, -21.807288622516307, -45.63748352617638, -21.831230402583206, 19.778150668033994, -19.811076950614076, -11.811076950614074, -11.811076950614074, -7.866303775071668, 0.0, 0.0, -4.0, 0.0, 0.0, -3.9800995024875623, -59.671088918778906, -16.054131746692228, -67.60363817066172, 33.61712391631088, -14.004827193537956, -49.64062773550149, 14.240366447029533, -95.29220094694398, 15.688183234982432, 8.246477707018549, -19.718881441331575, -6.023490665420298, 15.947139614404438, 5.9245287089244245, -105.42955976430325, -25.967968872493326, -15.945258037677085, -51.641041121342504, -11.944773175542407, -8.0, -8.0, 0.0, 0.0, 0.0, 0.0, 0.0, 0.0, -3.9800995024875623, -35.706943095213624, -11.979223155131663, -11.872943242069226, -3.7993851899180413, 35.805089221437285, -55.747414760961455, 16.136452087800812, 31.400872364672463, 0.06669142023771979, 55.769849085937075, 35.92928908476855, 45.57059840106791, 25.74312013994568, 5.711696002543933, -33.99402601432946, -45.87281700971363, -4.075136414813334, -19.889554024285275, -19.889554024285275, -8.0, 51.61576243641015, -4.0, 0.0, 0.0, 0.0, 0.0, -31.786446815381385, -35.766546317868944, -59.541072197321114, 7.916967583349894, 19.96799483179619, -23.625800773683853, -55.55845511621762, -4.197804099897589, 7.826063441196326, -63.62001470915272, 0.2276186756882712, 31.920958109023825, 33.92953468922694, 61.45633793438232, -25.884665750327592, 9.660587402561514, -14.207517737087759, -79.47457691100449, -19.803274796304244, -15.889554024285276, -15.889554024285276, -11.925277080483367, 47.61975844040616, 0.0, 0.0, 0.0, 0.0, 0.0, 0.0, -31.786446815381385, -55.596299021778705, 87.46530029489051, 27.853263407143587, -27.704264023807593, -7.9932161345613695, -97.62017652745227, -34.16919676172471, -7.871174866458234, 57.67926147198932, 77.549319833348, 69.78517978698166, -33.800760490862224, 1.8395106946275783, 85.28414133953332, 39.49014241048303, -75.55784640659844, -47.68793063303948, -7.925277080483367, -7.925277080483367, -7.925277080483367, -7.925277080483367, 0.0, 0.0, 0.0, 0.0, 0.0, 0.0, 0.0, 27.888690681275225, 87.39837699120471, 43.61607633319863, 16.00243750266067, 27.816135728386797, -73.69621937243585, -69.68331031054312, -35.632360243421566, 91.54551612818696, 24.08767897612237, 51.80563486113834, 99.40323260374868, 1.9376851111561617, 4.014220972157675, -95.4273112521463, -43.79039257681808, -59.636351561478406, -11.925277080483367, -7.925277080483367, -7.925277080483367, -7.925277080483367, 0.0, 0.0, 0.0, 0.0, 0.0, 0.0, 0.0, 31.880706649339096, 11.98742484300152, -71.5212873514887, -63.57023545246472, -55.62152964484972, -22.299457573858092, -18.14606534958233, 37.89614613000614, 2.0841118349191206, -1.7395219245043467, 14.082681234766614, -13.986214322341237, -7.751980447019002, -4.126968883120754, -57.592738163979895, 7.9049900391585535, 11.837495284453656, -7.929273084479371, -3.9292730844793713, -3.9292730844793713, 51.59675131366522, 51.59675131366522, 0.0, 0.0, 0.0, 0.0, 0.0, 0.0, -15.83773673584589, -27.794010668167726, -51.55335067845723, 3.9322161556453343, -51.67235842383981, -101.70962029302224, 49.290181689992835, -11.579727790476134, 23.80714603490932, 33.979852786748985, 18.067882512937423, 51.5703795495815, -35.795636044747894, 3.9002101847105477, -79.43866101958784, -41.718710136940416, 11.814513753232507, -11.972115470551435, -3.9800995024875623, 0.0, 0.0, 0.0, 0.0, 0.0, 0.0, 0.0, 0.0, 0.0, 0.0, -31.655816763187133, -31.762891052143633, -4.067239446820357, 27.61627644907257, -26.113437138055794, -0.12267152402277226, 11.91686445988799, 31.909808769275667, 24.122972021151828, 25.96506554395635, -23.981534122274965, 51.473475771512916, -55.825129996858486, -4.040139533608141, -85.46139118735658, -59.600073798766175, -11.972115470551435, -3.992015968063872, -3.992015968063872, 0.0, 0.0, 0.0, 0.0, 0.0, 0.0, 0.0, 0.0, -11.822076031337248, -27.762853202883644, -55.572689576072506, 63.56097701264178, -53.86008035712265, -19.818963553176232, -95.39888562414167, -79.68383686066105, 15.977497450062014, 51.644847038862366, -63.58396284791379, -55.73927420850452, -73.44768708065328, -35.93560326597812, 35.72298727535198, -43.73915280110722, -55.694650138898076, -31.900670759411543, -27.900670759411543, -15.984031936127742, -4.0, -3.988035892323031, 0.0, 0.0, 0.0, 0.0, -11.873858222503717, -11.873858222503717, -55.72244654553864, 15.868845488506578, -51.64496913180292, -16.176980611077582, -67.64035388782746, -15.99955826272691, -43.8050883396352, 0.03962225650036899, 53.81021260636177, 73.56531832941697, -9.936981503789937, -49.99852572621006, 13.778729726840584, -63.59299128637757, 27.833382930905138, 41.81248162530036, -47.628319927381234, -55.73070523506272, -47.78593205952031, -7.992654736736524, -11.909372586966933, -3.988035892323031, 51.60837135400566, 0.0, 0.0, -3.9761431411530817, -15.8500013636568, -19.830100866144363, -71.58040027452591, -115.30825187374599, -139.32647903164354, -89.53239373359192, 11.982746446162036, 27.68311161396226, -43.581348098883446, 43.86816469470104, 39.73537673490266, -27.938942847359115, 23.746672200347785, -31.836940489440412, -71.59603447238052, 75.47746621602093, 59.6789738315715, 49.50235623701319, 15.81450273975565, -19.94467572982991, -16.011672106935976, 19.833771828017973, 35.801243790738525, 0.0, 51.60837135400566, 0.0, 0.0, -3.9761431411530817, 35.77424180235, 31.79414229986243, -11.932300249672192, -8.09106056461848, 53.49894164453425, -37.76697020001003, -23.902344151038463, 53.520640018944555, 1.9368326726451084, -3.9443694056119423, -27.88141630312942, 20.03479369869108, 16.00767206260222, 99.26533181227305, -67.72199553185408, 27.70822934419228, -21.778616448954402, -31.833940430457147, 23.93225736835314, -19.850314785423592, -23.814696485377937, 7.944351946334397, 111.15325202472437, 0.0, 0.0, 0.0, 0.0, 0.0, 39.750384943503086, 31.79414229986243, -19.880873415636664, 121.19316041962178, 25.774572061700162, -11.747653575053608, 43.753464666804454, -33.948285236841684, -29.956125434375387, -33.97988474101676, -23.759797712774617, -55.644561784356355, -27.976426607796675, 35.73019225104584, 21.755214651781802, -67.43938710605799, -35.80649029549992, 23.781905163357024, 39.77322515720963, 3.960028017587712, -31.778657128129808, 67.56418318854355, 59.505627773003184, 0.0, 0.0, 0.0, 0.0, 0.0, 39.750384943503086, 39.750384943503086, -5.913237083329175, 53.61409993488226, 67.46770278284852, -67.3672996654551, -29.71196236622724, -61.672852487356664, -13.753235336409475, 29.910926768245357, -37.61327532163515, 57.53171570667588, -43.95157151249565, -39.80616929512645, -7.9678454997067165, 15.932948600856424, -43.82916752115957, 7.955849941628675, 55.5483316535612, 19.84109323035893, 31.75046581732586, 59.505627773003184, 67.45803978067102, 0.0, 0.0, 0.0, 0.0, 0.0, 0.0, -57.57306554514191, -15.892823995457459, -11.97896775948076, -16.06630988955295, -31.707595836248387, -9.9694378532587, 1.9039626514453456, -18.08971819199372, -18.21194796927493, -28.066068747678344, 47.489579980368624, 11.826997392086511, 15.7755876298861, 51.97024643524531, 63.74163159001275, 19.842039635243676, 8.066347354583225, -35.64493848195271, -27.755161955677316, -27.755161955677316, 0.0, 0.0, 0.0, 0.0, 0.0, 0.0, 0.0, 0.0, -45.69920732263818, -11.983223737211706, 11.948921371366264, -31.781343426562074, -23.943471861895716, -65.59921859976582, -5.9527601765750235, -20.0200412954163, -87.51255963203712, 23.723133747553018, -35.697129498013574, -11.739896939686478, -23.63396806284305, -23.590853722505475, 23.93647375682235, -3.928462634525956, -11.869535700860933, -55.54556509575117, -3.9408866995073892, -3.9408866995073892, -3.9408866995073892, 0.0, 0.0, 0.0, 0.0, 0.0, 0.0, 0.0, -3.996003996003996, -7.984039888327027, -11.968103633346947, -11.972099637342952, -23.95599188385364, -55.60038078107194, -95.4814230141219, -59.801662888529876, -79.74197642723414, -91.37948389476722, -119.16221829959346, -91.41488298388495, -67.57674190453378, -23.924598200482233, -11.904832204668335, -7.94835347074153, -3.9682539682539684, 0.0, 0.0, 0.0, 0.0, 0.0, 0.0, 0.0, 0.0, 0.0, 0.0, -3.996003996003996, -3.996003996003996, -7.980067741023916, -7.98406374501992, -15.928648883044266, -31.75879066301198, -27.758790663011983, -27.81417371609546, -27.908958523962156, -43.85737452763398, -23.9009851736323, -35.77838762068684, -23.810071119502574, -15.87740244705454, -7.980099502487562, -7.980099502487562, -7.94835347074153, -3.9682539682539684, 0.0, 0.0, 0.0, 0.0, 0.0, 0.0, 0.0, 0.0, 0.0, 0.0, 0.0, 0.0, 0.0, 0.0, 0.0, 0.0, 0.0, 0.0, 0.0, -3.996003996003996, -3.996003996003996, -3.996003996003996, 0.0, 0.0, 0.0, -3.9800995024875623, -3.9800995024875623, 0.0, 0.0, 0.0, 0.0, 0.0, 0.0, 0.0, 0.0], "label": "1"}
{"weights": [0.0, 0.0, 0.0, 0.0, 0.0, 0.0, 0.0, 0.0, 0.0, 0.0, 0.0, 0.0, 0.0, 0.0, 0.0, 0.0, 0.0, 0.0, 0.0, 0.0, 0.0, 0.0, 0.0, 0.0, 0.0, 0.0, 0.0, 0.0, 0.0, 0.0, 0.0, 0.0, 0.0, 0.0, 0.0, 0.0, 0.0, 0.0, 0.0, 0.0, 0.0, 0.0, 0.0, 0.0, 0.0, 0.0, 0.0, 0.0, 0.0, 0.0, 0.0, 0.0, 0.0, 0.0, 0.0, 0.0, 0.0, 0.0, 0.0, 0.0, 0.0, 0.0, 0.0, 0.0, 0.0, 0.0, 0.0, 0.0, -3.9800995024875623, -7.976103498491558, -15.944357466745526, -15.952293856580996, -27.76274976370998, -31.76274976370998, -27.86536822012149, -19.90497218051753, -7.980099502487562, 0.0, 0.0, 0.0, 0.0, 0.0, 0.0, 0.0, 0.0, 0.0, 0.0, 0.0, 0.0, 0.0, 0.0, 0.0, 0.0, 0.0, 0.0, -11.920595044579084, -71.29660995510434, -83.26086791936231, -35.91641731914042, -51.68390473691122, -43.68004281225721, -55.655741908295376, -35.76660471485985, -35.75454645394621, -7.9483377786903215, -7.9483377786903215, 0.0, 0.0, 0.0, 0.0, 0.0, 0.0, 0.0, 0.0, 0.0, 0.0, 0.0, 0.0, 0.0, -19.920626569464233, -19.920626569464233, -63.3884907682381, 19.978516131135006, 43.72661694553835, -7.791558596401125, -101.0614699163932, -77.60189265769169, -70.00530971263225, -76.03741328227363, -147.2082274154288, -139.26801982402165, -154.924838225265, -103.16266896174051, -63.39159585487987, -55.44325807618954, -51.45919433116962, 0.0, 0.0, 0.0, 0.0, 0.0, 0.0, 0.0, 0.0, -4.0, 0.0, -31.829579242530013, -67.47835857467898, -103.37030583082532, -95.45797947827421, -119.20605576039905, 67.36457773469691, 51.499181283804376, -129.14878791514954, -54.26989884278141, -73.63997023892532, -155.13106015777035, -18.26536615804535, -109.6438949427002, -101.43926779906901, 5.849318409245224, -188.69205609653812, -109.14280272003641, -33.837727662156965, -15.956478733926804, -7.956478733926805, 0.0, 0.0, 0.0, 0.0, 0.0, -4.0, -8.0, -115.12740022574283, -91.59257123683606, -123.47006430079227, -10.153989979538945, -2.392856797700423, 77.13626404713501, 45.83312650523946, -7.839359794144898, 166.96477391606481, -19.74363317189362, 20.322271930163172, 58.0241357157804, 93.91161485033076, 0.04431273708337091, 23.872121192717113, 2.1237663922157335, -117.55619282621805, -256.60364403423705, -97.50619218935591, -91.48226571454218, -87.39161785520184, -8.0, -4.0, 0.0, -7.928673371464045, 0.0, -15.956400035607956, -67.62806631287053, -59.892464809258854, -135.42628899493766, 69.0087525660881, -42.01980598960737, -16.391624558495103, 10.279727861583272, -101.51675756371363, 4.171721985824878, 37.571881786929566, 189.3541662253541, 201.24411541583905, 109.69798830965378, -25.210696536575313, -27.98810408511403, -45.69222426312833, 73.29532301081917, 5.997534253743319, -85.69137321712617, 7.65155730430891, -111.51315318160327, -123.24860090422786, -55.74654458656261, -4.0, 0.0, 0.0, 0.0, -15.956400035607956, -47.876563579652256, -83.72277223668725, -31.86995827639173, -32.16567450169277, -99.44664970446102, 27.648474519110273, -67.69529404454357, 0.34321346408148035, 63.53931235132564, 85.67227305053824, 81.7350507735797, -33.70253183891816, -5.83764221734235, 101.61139889462677, -45.714672045361795, -69.4945336179666, 21.578118245556446, -10.054577292448368, -37.87739421581061, -76.04335321384784, -167.03263950660684, -103.34768027457773, -51.74654458656261, 0.0, 0.0, 0.0, -23.79052874588275, -23.88523695617028, -39.96870346223352, -47.57355259562941, -19.841688038931018, -33.964689536254134, -6.061337087133727, -14.392902524799208, 16.19321018992246, 15.94951384465616, -23.464647950154063, -76.01741001891389, 49.56559048597185, -83.52865965172384, -23.914748992623696, -63.88891028556525, -32.07965959627171, -31.98857407279576, -117.49670918548095, -53.91878120181243, -38.07857826743632, -20.33707037410499, -170.79275547244157, -91.39134319650395, -15.88941988168358, 0.0, 0.0, 0.0, -15.87322661188933, -75.44272668808264, -127.26460751415219, 83.61781278451761, -53.73094474166872, -35.68965289228581, -10.066215816810946, 155.01102589751267, -63.66660080910429, -0.09398674681165975, -41.510148120074746, 25.619448388797316, 29.733997683319846, -46.158818455000734, 39.43524487728874, -89.31278659966102, 12.035058221114717, 71.86546002290338, -22.106203617115145, -37.761747925832424, 77.60015660203538, -4.1943098024992205, -126.879076965584, -19.853740991693492, 0.0, 0.0, 0.0, 0.0, -35.7544205347846, -107.18587967801483, -24.06957849934431, 139.23180257073233, 119.14825528577607, -41.7465006691715, 0.20954709590669474, -3.8553711557138612, -6.069245783389804, 77.21595205138013, 5.749584402246843, -87.64271627010955, 3.970492520059876, -4.170130466690346, -16.129176931420385, 101.53548361354392, -14.032701219100698, 57.61743180775569, 29.743394421433, 58.172000827826736, 0.2951217048420105, -40.0422139252214, -75.53276466772445, 11.826406557721626, -3.988035892323031, -3.988035892323031, 0.0, 0.0, -31.770356789764676, -79.33558403231007, -4.101551925562856, 28.0151636482993, 33.79940869496099, 160.86702250008457, -19.413540514923014, 49.88000481998532, 126.89942991413504, 3.9366391493512918, 77.57647199073408, -83.40325854353893, 17.704629478160328, 24.093391239634723, -47.76906501751633, 17.882302126141127, -41.875181929623764, 23.819507116586966, 57.65328129039317, 87.29837377464055, 7.7520999697698985, -79.50934590863207, -23.99058891428253, -39.73822744817788, -3.988035892323031, -3.988035892323031, 0.0, 0.0, 0.0, -35.61338160820572, -35.91542504010985, 53.76321464213054, 73.9825959966486, 97.42513232999158, 59.52576331212411, 8.025094971863012, -69.21913404188915, -4.098970681392534, 24.350043391520522, 50.0696653409434, 77.52182401399209, -15.865642932106091, -16.003367391829688, -37.876385280718274, -37.8952381979613, 33.7674054502165, 25.804577790621043, -101.36894782721413, 114.95591867488157, -51.81320914668632, -63.607950395531155, -59.54900529238812, 11.870144550515256, 0.0, 0.0, 0.0, 0.0, -27.6496358169006, -83.54953070532035, -45.50905447036717, -57.28220974863698, 37.6841357009983, -87.2931824099395, 73.61652226546695, 9.712380618998644, 35.68343652631715, 43.812288277771664, -3.855135216605275, 95.48098669159226, -33.789946421742094, -65.84463717584325, 115.18571794739736, -15.720209317098305, -31.74361446354794, 33.440257179262645, 41.54965364299063, 51.45385586120375, -47.88419921904215, -146.85812289191813, -43.648123041811075, 11.870144550515256, 0.0, 0.0, 0.0, 0.0, -15.885882292475102, 51.3643092306312, 59.02991773243285, 49.78418513873635, -113.00364069913945, 41.56589476069826, 59.809109295267675, -41.30490575192848, 20.03110221059837, -21.984781196496037, 18.001290654207416, -69.49128532790498, -43.68435883896089, 31.718029985727473, 18.231884496268833, -5.700841591243653, -75.64670811308932, -4.201589399046772, -67.5964031874761, 23.45895388922077, -87.52503658979748, -170.71948767380798, 11.870144550515256, 15.842408866176697, 0.0, 0.0, 0.0, 0.0, -15.862254886388204, 27.80209496369902, -79.49386657264138, -9.77589122682939, 33.53005561614206, -77.67613160214441, 77.33642889346721, 4.06737512509625, 4.202085049580732, 5.8853644678651955, -95.76451036674888, -65.89007771835887, -13.72966276400427, 18.012023465663624, -67.64896516098126, 41.46418145274404, 37.722578347850735, -129.26448522000337, 98.9450766723367, -135.34317924834195, -150.9246729053984, -51.78580549331058, 3.8781285824513843, 7.929257851007867, 0.0, 0.0, 0.0, 0.0, -11.767633252342417, -87.16730459330721, 102.92185823222125, -30.01879362799696, 6.091861308823359, 29.80606255277282, -11.938362027295017, 69.80373336140785, 137.16525960345632, -113.25504205349685, 61.60203126787851, -28.122207035046014, 53.710757089220515, -115.4844794934565, 65.78293174223045, -97.15109576335006, -9.963302546165558, 3.6448442886361097, -19.99971740448112, -139.24128780175454, -159.0363629816873, -83.59261829334368, -19.892726441138343, -11.928922591830421, 0.0, 0.0, 0.0, -7.972099637342952, -15.885446764584394, -118.95283215960397, -23.84131192577512, 23.649175247789874, -45.354554495492046, 65.98103929832229, -23.923516294926348, 35.1844549459156, -23.722708039485614, -6.020499108431963, -59.63150388397297, 85.51634530758574, -51.71069133362106, 81.76802005922592, -95.05481195000121, 53.52672082812289, 26.033656334038824, -53.664717779546116, -83.74239161994679, -27.9611112029292, -55.853734487346706, -47.67600491932702, -19.892726441138343, -11.928922591830421, 0.0, 0.0, 0.0, -7.972099637342952, -23.814120136048434, -71.48227210815219, 31.45255145251176, -12.057917821680352, 0.21984513393866756, 47.89855749876791, -180.72497355269442, 51.73359314396347, 100.89501246197482, -77.486484973566, -55.26328407120047, -109.62585553898951, -41.77583905419934, -6.113392514746555, 17.655009856977273, -65.86035719628714, 4.003333079840111, 5.786968113176311, -63.892363787931096, -51.7188577610397, -8.189332950770822, 55.46308735005563, -3.964321110009911, 0.0, 0.0, 0.0, 0.0, 0.0, 7.936537141617121, -79.39560893765147, -166.74305895550742, 110.77594649194714, -19.716186414953505, -83.12918270802905, -8.37949575216485, -99.40513988454339, -117.63212945473269, -36.07389532759741, 35.722669951421395, 7.731905411716796, -133.43715948299362, -47.585206456548754, 37.648049971790094, -113.33241029693299, -77.2567439653362, 123.07112216959092, -12.263572800713991, 0.15671321589665688, 7.999614786682021, 91.35181778719799, 0.0, 0.0, 0.0, 0.0, 0.0, 0.0, -27.83408957506312, -31.826145862653632, -71.56488746038245, 19.67970469127841, 63.32391940799226, -61.58981462824891, -55.896648108775544, 53.27658108181064, -29.899261243377534, -32.02650789095598, -59.4334600333554, 23.75083061423869, 14.045576145731129, -89.47904163564776, -175.1933427977754, -51.804956913562386, -11.667504532704005, -35.84563354686939, -95.25334186125284, 8.022843023996007, -11.921011782782212, 75.51365188793966, -23.786550754288154, 0.0, 0.0, 0.0, 0.0, 0.0, -11.913336829499292, -39.74742640456241, -111.19800995744488, 79.35537299223091, -22.011838909769693, -47.503415205613884, -87.04824658729491, -17.78392750755094, 49.40213347972502, 61.26231263452106, -59.56880549375329, 29.57292915014771, -51.240815304874204, -109.13537131657233, -36.144433625086094, 101.07654714520241, -7.916087408507054, -83.44993505195572, -55.47936938276337, -106.95807699954781, -67.41895907954806, 0.13870913474363178, -23.786550754288154, 0.0, 0.0, 0.0, 0.0, 0.0, -7.913336829499292, 29.58956941335781, -25.89765481749509, -168.49258815913308, 87.16146424267072, 91.0544086187056, -25.988185448788627, -41.61920071660485, -119.76368199732444, 23.83270690478675, -32.08769236541032, -91.53711315565825, 83.00090963696813, -28.089213012111852, 49.02094740505646, 89.30379380144642, -87.63466183331265, -24.12109758599554, 35.962752640490116, 35.8134821378716, 75.26219847170206, 35.70031627066518, 0.0, 0.0, 0.0, 0.0, 0.0, 0.0, -11.964115605406823, 33.632770375479716, 5.936636520104025, -15.834563015475126, -39.80975683315866, -27.974618013133174, 45.39748091165504, -25.88376132172703, -101.60620005164037, -63.25564046836963, -85.55348774620153, -77.73409248492004, -2.0931671086706007, -69.7632887420114, -144.96888291444407, -67.7270290775195, 94.89165313049746, -63.49016139174804, -7.704449430425764, 202.4346078675143, 122.850843354721, 4.035607956400035, 0.0, 0.0, 0.0, 0.0, 0.0, 0.0, -11.964115605406823, 3.940747704578453, -23.715992566055018, 85.20228210670759, -140.97126236973688, 33.893182034077384, -83.44984175749539, 73.58420594032047, 10.252757763844524, 71.5069112463589, 11.983846369594541, -46.036764633492275, -16.007298143127738, -65.27385985779853, 73.60146838859711, 63.7591443867722, 59.39635162964052, -31.720242329619904, 83.36319812384683, 230.10712584688406, 71.40775792491813, 47.62096025023929, 0.0, 0.0, 0.0, 0.0, 0.0, 0.0, 15.904863309985275, 27.770482711673434, 31.683819541172724, 13.622021018582807, -33.88045329703505, 45.59736049901534, 15.711573140306935, 35.41522120911496, 11.684188623519372, 39.70283580306182, 87.54452433594571, 75.53886283276691, -7.8575038222822196, 55.56945469597736, 47.52249846431781, -23.742791616080844, -107.04026770218704, -31.656802021219743, -23.68092557032029, 12.026930305923543, 55.51050201944491, 0.0, 0.0, 0.0, 0.0, 0.0, 0.0, 0.0, 0.0, 0.0, -55.46676060230265, -59.46676060230265, -8.0, -8.0, -23.747187312679397, -39.62843686987565, -47.6005365072186, -47.458879999335814, -27.65257938616381, -19.813736265495027, 3.901354099388734, -11.99577607848661, -59.53798487138902, 11.983527859278613, 19.87719890309686, -3.9447731755424065, -67.39188330214338, -67.39188330214338, 0.0, 0.0, 0.0, 0.0, 0.0], "label": "9"}
{"weights": [0.0, 0.0, 0.0, 0.0, 0.0, 0.0, 0.0, 0.0, 0.0, 0.0, 0.0, 0.0, 0.0, 0.0, 0.0, 0.0, 0.0, 0.0, 0.0, 0.0, 0.0, 0.0, 0.0, 0.0, 0.0, 0.0, 0.0, 0.0, 0.0, 0.0, 0.0, 0.0, 0.0, 0.0, 0.0, 0.0, 0.0, 0.0, 0.0, 0.0, 0.0, 0.0, 0.0, 0.0, 0.0, 0.0, 0.0, 0.0, 0.0, 0.0, 0.0, 0.0, 0.0, 0.0, 0.0, 0.0, 0.0, 0.0, 0.0, 0.0, 0.0, 0.0, 0.0, -3.9800995024875623, -3.9800995024875623, -3.9800995024875623, -3.9800995024875623, -3.9800995024875623, -3.9800995024875623, 0.0, 0.0, -7.874084400342166, -11.874084400342166, -19.795000717037656, -11.920916316695488, 0.0, 0.0, 0.0, 0.0, 0.0, 0.0, 0.0, 0.0, 0.0, 0.0, 0.0, 0.0, 0.0, 0.0, -7.956478733926805, -7.956478733926805, -27.73148645875127, -67.38334299159935, -23.74266528653237, -23.74722039978153, -19.97295688202069, 19.60024302097394, 11.687183748867959, -43.83468281789956, -59.417772408236544, -7.90945769123854, 63.55766484762031, 27.85001640580066, 39.9119028818957, 31.96311025133549, 39.714972617946856, -3.996003996003996, 0.0, 0.0, 0.0, 0.0, 0.0, 0.0, 0.0, 0.0, 0.0, -35.7198072902549, 31.656702744615792, 11.901850692888136, 63.59394077050403, 31.92512655479212, -63.74042840297951, 11.705517004689323, -55.836210888881745, -7.829985889290666, -8.034472023361054, -63.56395186342174, 0.07760383206785715, 37.6054876061557, -27.82486408938236, -31.85472051466643, 23.544649114540068, -135.25664013342293, -79.61678942785021, -7.988845476001364, -71.63191727728783, -7.996003996003996, 0.0, 0.0, 0.0, 0.0, 0.0, 0.0, 59.58401640466411, 39.71490327045686, 4.039292375565464, 15.993004062961454, 2.072375370818535, -17.876783639412185, 73.37843431113586, 22.12044567449406, -59.709783147474724, 69.7018847454329, -132.87086071218664, -25.921201419267128, 71.29678942959735, -125.23590041112443, -4.106888491495894, -9.818657655967709, -113.48213535076783, -89.52580697469544, -121.83846394319718, -50.007296993302795, -65.86055046981751, -23.861577015483117, -4.0, 0.0, 0.0, 0.0, 0.0, 0.0, 91.34260526316295, 43.74298419692645, 35.975820607751594, 105.46620168689758, -21.8483125895748, 122.58431074571217, -75.5747049772308, 93.48888439510299, 59.56292625907356, 87.34898274776842, 69.36149783295058, 45.59096735503657, 23.677110410162147, 67.37776239807737, -9.848735829623642, -101.66252485121508, -26.057912963168537, 37.65560741269059, -38.13575559807632, 9.711647580001394, -141.44878916694543, -91.55288956913836, -51.63605654120104, 0.0, 0.0, 0.0, 0.0, -11.988035892323031, 79.44940183071405, 107.31550839177397, -67.55583041468941, 61.55081045689968, -31.686808761017833, 51.46172938969747, 13.825730685048207, -63.64709850118303, -104.81007725649005, 63.572104959624276, -77.3924974539243, -5.648999799041698, 4.1277491178734005, -91.58991256874916, 53.89654524252925, 73.98025084308776, -9.48821320229855, -77.35728161286052, -22.003030927936525, -6.140996072005717, -4.264277594675943, -123.3904796383015, -67.59231492375821, 0.0, 0.0, 0.0, -7.877940409257259, -51.55767981851235, 59.7072660070916, 147.04614984428807, 31.801828614331267, 43.77806552780941, -127.18105300833638, -93.68321451653301, -27.865605973538997, 98.9133236305976, 17.71827988220513, -121.4574890064786, -87.18936176364124, -0.1414883861996623, -43.855789254550174, 51.74797381218565, 8.246910687065029, -87.2663084197948, 16.0178161272432, 57.51070683929113, -8.06241023533672, -8.196248071950926, -35.78393830606453, -198.80527145045275, -51.78985536061657, 0.0, 0.0, 0.0, -7.877940409257259, -35.6325112456938, 27.763777389096404, 0.11046841682227626, -82.99003090079735, 190.7786511075195, 7.989846885929304, 45.52207483314963, 15.962290672765956, -73.56184240573266, 11.66666074248149, 1.7113346600312962, 43.76445612685234, -8.017387706781047, 21.904963383944445, -33.50300596102351, 27.858605296045297, 4.380973724739772, -63.482661170233065, 65.76070257945757, -31.958357111355863, -23.936445124959807, -95.47804617807577, -166.86514779318045, -43.77432662392603, 0.0, 0.0, 0.0, 0.0, -23.758566840432547, -11.912019987161294, -19.91715870921894, -7.933502245096062, 43.487869480279905, -27.810633472621298, -16.305356865449447, -105.96257281178498, -107.83600868709097, -93.65202927319477, -75.81874703661757, -77.03369785131405, 55.38398027927952, -31.905269661875547, 99.51664003155263, -47.165426341030425, 63.375284724935206, 23.89385684803104, 81.90323453903126, -7.629542555096738, 43.85722173839142, 39.23071936485551, -71.4505561635755, -67.45863926745196, 0.0, 0.0, 0.0, 0.0, -35.69170351693205, -43.718638122180835, -35.93580253618929, -75.6554343494384, -119.12622853640863, 7.603067120244489, 27.55068081817317, -55.78227368956782, -54.183878332681736, -28.152467049680578, -4.203800762290456, 14.109811586454658, 67.34615448704527, -19.62298382848764, 85.60246390084411, -30.120248902909847, -43.61893286268495, 55.65856295269531, -10.076821529854499, -39.640795891887755, -24.22797132695279, -59.942837594532605, -39.68354715060052, -59.46662329938808, 0.0, 0.0, 0.0, -4.0, -39.663898154469294, -39.663898154469294, -63.37230403042675, -95.24251566348265, -55.84213520530619, 7.686290957075954, -20.048440445678636, -115.36333429039271, -147.11849111106605, 97.04994843239815, 25.94148553217279, -0.3534221075790578, 33.86748703145527, -61.39873003752158, 59.729983362537894, -16.099943726130792, 115.15420129104794, -85.69049760708204, -31.622669559285686, -103.92604430914272, -91.529096879831, -51.876375677681814, -11.853805664698836, 0.0, 0.0, 0.0, 0.0, -4.0, -7.972194637537239, 11.862462613018106, -55.51382018579414, -87.46297280853022, 39.34434265970915, -8.193953062715075, -36.06566420266806, 6.148091496016921, 98.84409153342091, 10.369788419104978, 2.2164789218733443, 77.33270620260149, 97.31324875789463, 13.994821720296486, -101.13495385347323, 103.6161631346273, -44.00350978771628, -2.1633454103985716, 31.605230382433735, -95.66369957072904, -83.83969675915225, -35.80544445671034, -23.766558706635738, 0.0, 0.0, 0.0, 0.0, -4.0, -7.972194637537239, -4.0, -19.81842023804946, 11.617512906012067, -32.05182574576281, -59.904973469070384, 11.80699061584712, 123.284539439801, -73.73890180239938, -55.667056426903606, -11.76929034276164, -38.084516874687075, 77.08965796833036, -61.640848816390324, -49.864965653839604, 77.18829327890771, -45.396991285248355, -23.889571662451086, 5.733487342914987, 11.955546328084672, -63.85668786425027, -35.64067189576911, 51.483179108094674, 0.0, 0.0, 0.0, 0.0, 0.0, -4.0, -59.466933816516516, -35.74759894763933, -55.86473371723988, -234.75255460668598, -84.08188741162597, 39.34409537371617, -15.853587524177062, -97.37022605036645, 109.0688493392558, 61.58213370788631, -10.118187702189843, 63.49336703045807, -41.69511619694931, 1.982370163913414, -105.6150554127268, -47.88192421134761, -29.986348897367666, -133.25468572291842, 67.88617262124984, 43.59978813600536, 47.73876570051564, 47.49496326495658, 0.0, 51.58499121509755, 0.0, 0.0, 0.0, 15.93635774275819, -47.51048032869994, -11.834882473722162, 43.35256578619197, 27.67591244417818, -99.73705917600674, -27.968005552733935, -13.898963425356555, 17.372672594314498, -53.927469404164874, -0.0035229954041122724, -109.314202638011, -29.9443068327361, -29.674549702880146, -29.764022359618064, -51.99732301303223, -21.542307128939708, 117.02639689966598, 104.8578697158356, 20.223881007566902, 115.24071960616412, -43.53504079825098, -31.92331960820381, -71.48116067414654, 0.0, 0.0, 0.0, 0.0, 15.93635774275819, 24.066493297188625, 158.86185660973462, -43.448488000619385, -67.59666833915335, -47.569837823647745, -47.819361829961586, 51.481905582965354, -157.24477284113127, 7.544924635227912, -79.53917395412212, -85.40941625007255, -153.41366325063802, 17.902713618155893, 55.61436182388439, -39.70774123771041, 145.51176419892104, 55.95593971419358, -14.005963404343387, -55.437124620742416, 91.62015300360062, -103.29976116655554, -83.60268796782357, -83.4533078113036, -4.0, 0.0, 0.0, 0.0, -4.007920603866839, 95.4031187513539, 87.73019888136638, -11.940484264055566, 11.638880422050992, 59.647527719910784, 11.911865848495122, -54.20759043767688, -6.27257794838328, -47.90192166545492, -129.07339654282342, -18.329983328121124, -163.01916014445243, 47.30731340116842, 25.386009817795305, 25.96224052408514, 53.908088793163394, -51.67875997145511, 41.420719584295824, 37.904504365739506, 75.45058941149617, -71.73372527657216, -83.64254187088424, -55.678901543898114, -4.0, 0.0, 0.0, 0.0, -83.2616464465374, 15.862122218371432, 111.45123851406163, -11.711296429895139, -0.2159334237559154, 105.15941290336852, 14.073027989805144, -65.9797286336078, -111.37156766403545, -63.76783706993432, -0.2630336037029979, -63.464555774902806, -103.5873793542387, 6.0497090487759495, -21.64149813330157, -109.24597546019741, -87.26917536271009, 39.64496822883278, -9.640274126098767, -47.58471786750794, -55.7649908821055, 51.34894718790154, -115.34644827940151, -47.738500438487065, 0.0, 0.0, 0.0, 0.0, -71.36820594621709, 51.70780095936352, 63.870134273876694, 262.07294622736663, 79.60145697682933, 29.705429174764465, -33.43217370664798, 23.91810295881361, -17.802644910926325, 37.750781265638274, -39.42790104184487, 59.645546531500614, 23.89964128140082, 8.011493376566783, -2.101747422024543, 59.69179626120962, 103.2922017885462, 25.661174892498558, 61.72776587130823, 67.50338699686202, -20.247394256483478, -47.9557614017384, -83.48226427456422, -7.937007874015748, 0.0, 0.0, 0.0, 0.0, 19.861599609537247, 107.2616147809456, 8.095883643150998, -95.17719008051282, 135.06129371638823, -49.93434813258085, 47.98654074009147, -73.72890308826487, 43.47155824327422, -29.476722287508736, 23.64534244599189, -71.38445446313042, 45.99786464943907, 87.30457274701888, -67.49267201357154, 30.082219495672593, -9.872077836269174, -37.52258274132439, 49.931710293715255, 170.73891120770452, -63.51769848845135, 114.7003095808396, -123.09556308034328, -3.937007874015748, -15.877151682295281, 0.0, 0.0, 0.0, 11.893440500320294, 15.983987373461591, 51.97660516047169, -39.68401700349989, 39.93125353733972, -106.75452888287491, 119.20367089211977, 43.73393901702261, -87.33694028855571, -13.760806008150404, 14.29036968423998, -57.27550300201923, -71.48046724085621, -10.46532299155869, 17.652750288783736, 65.43478695660963, -65.82699928963501, 59.468606337936116, -130.8838971880227, 111.27302385552278, -19.99014350440771, -43.86095490634042, -51.58928980517251, -3.937007874015748, 0.0, 0.0, 0.0, 0.0, 0.0, 91.28472269450903, 188.83757133514868, 81.71411266849302, 10.144956902650353, 9.811116302087978, -55.625446756199274, 43.94108736084811, 29.640427190655434, 77.67099957819596, -21.586614753027984, 77.55303071857422, -13.86172838841389, -45.34846254649701, 14.152919115930157, 37.69625535558065, -115.14829577413187, 107.4090890314021, 115.22458787267014, -123.08524345602316, -119.27627094445006, -55.694735657469536, 0.0, -3.937007874015748, 0.0, 0.0, 0.0, 0.0, 0.0, 95.30448869032288, 97.50906993745262, 93.41167245894988, 97.32405952258715, 180.9005530911674, 77.6879627255825, -19.875645054964735, 21.597642448016746, -79.56409439806959, 35.94292114188293, 25.896748388492398, 5.8896276464088375, 57.494337212429116, -35.71672420964642, -139.0778928417901, 59.29202013689529, -55.802173479131554, -115.26082616611322, -95.40676933604459, 11.794596325061963, 11.861879590945062, -51.59695260496365, 0.0, 0.0, 0.0, 0.0, 0.0, 0.0, 0.0, 59.46320837431413, -23.75478340867023, 19.933295341407632, 71.55444926004213, 47.85344025361366, 57.71116680126249, -85.3138976251057, -41.81041248018607, 7.9957660938590385, 59.56522520093529, 12.030426790744883, -43.755331036987975, -99.44961417574346, -127.04665053849784, 51.32576829165733, -4.189118878371112, 35.562006872711606, -3.9251153209105123, 63.45883219590871, 0.0, 0.0, 0.0, 0.0, 0.0, 0.0, 0.0, 0.0, 0.0, -23.84548373604645, -23.84548373604645, -59.61980325194359, -47.6360911974106, -27.78638581025086, -19.794674349084723, 63.39141807159488, -35.80618596706569, -95.44601984051079, -83.54064314343779, -87.54846091221174, -63.71502499904822, -11.921493363834681, 4.035115969396975, 0.03511596939697714, 43.6204957470475, 55.498436156304756, 59.45883219590872, 0.0, 0.0, 0.0, 0.0, 0.0, 0.0, 0.0, 0.0, 0.0, 0.0, 0.0, 0.0, 0.0, -11.861771681513462, -11.861771681513462, 0.0, 0.0, 0.0, 0.0, -19.83415089385856, -23.81821463887848, -31.759101338385868, -11.92495044452731, -7.877940409257259, -11.87794040925726, -11.87794040925726, 0.0, 0.0, 0.0, 0.0, 0.0, 0.0, 0.0, 0.0], "label": "3"}
